260 100
0 0.616184 0.048416 -0.075219 0.167831 -0.392208 0.357776 -0.085960 0.309140 -0.059735 0.477732 -0.735958 0.018544 0.426411 0.488791 0.188856 0.378158 0.460488 -0.304153 -0.275100 -0.090881 0.171600 -0.011593 0.749606 -0.305767 0.112456 0.036498 -0.328069 -0.230935 -0.018187 0.030310 -0.093737 -0.228969 0.262562 -0.123049 0.036540 0.264039 -0.153227 0.133396 -0.020200 0.020922 -0.132024 0.467727 0.126960 -0.342414 0.237197 0.070840 0.361282 -0.297798 0.240796 0.063027 -0.178831 0.050521 -0.570436 0.442501 0.271275 -0.326860 0.111458 -0.071924 -0.399069 0.328032 0.017778 -0.098668 0.532331 -0.231068 0.131608 0.122384 0.436772 0.177847 0.652250 -0.202982 -0.053511 0.601460 -0.541981 0.131473 -0.132884 0.173116 0.072712 -0.004100 -0.329603 0.109341 0.351316 -0.027393 0.156463 0.239868 0.600064 -0.188023 0.172953 0.128226 -0.491872 0.095127 0.107622 0.261538 -0.223861 0.033856 0.066502 -0.025907 -0.446365 -0.092963 -0.250534 -0.014604 
1 0.776633 0.041994 0.001368 0.235101 -0.654145 0.185138 -0.287881 0.793074 0.359651 0.340222 -0.018105 0.102423 0.408149 0.111193 0.255453 0.147467 0.410454 -0.269556 0.116671 0.049627 0.174543 -0.017092 1.121169 -0.142013 0.077387 0.087941 0.044439 -0.179885 -0.066863 0.482887 0.101409 -0.260990 0.330274 -0.194542 -0.056977 0.397003 0.019391 0.155927 0.096516 0.464544 -0.295001 0.649937 0.376342 -0.518091 0.446193 -0.466040 -0.750768 -0.267469 0.264339 0.073593 -0.449651 -0.297622 -0.651848 0.609048 -0.020340 -0.032651 0.141161 0.105783 -0.488924 0.028889 0.015498 -0.257840 -0.092492 -0.222245 0.462750 -0.075940 -0.150603 0.258917 0.288911 -0.123657 -0.257473 0.481320 0.035990 0.129193 -0.050795 0.182448 -0.141297 0.074623 -0.000157 -0.074019 0.287996 -0.282234 0.165960 -0.013567 0.184006 0.077114 0.086177 -0.127179 -0.537265 -0.355753 -0.320924 0.212175 -0.488786 0.068277 0.071571 0.262409 -0.606385 -0.013292 -0.384113 0.075524 
2 0.757743 0.049058 0.066518 0.277516 -0.633391 0.201755 -0.301795 0.805160 0.392241 0.371287 0.005127 0.107895 0.426328 0.065369 0.268668 0.153685 0.429279 -0.292260 0.107077 0.037378 0.165694 0.005010 1.174293 -0.147356 0.078909 0.101831 0.024684 -0.202759 -0.068093 0.529665 0.079661 -0.285081 0.340305 -0.186571 -0.059321 0.423715 0.012096 0.141430 0.113637 0.479441 -0.317185 0.671232 0.379198 -0.580637 0.467548 -0.482554 -0.776602 -0.292522 0.266060 0.085522 -0.462528 -0.302757 -0.693998 0.623504 -0.044042 -0.030548 0.120600 0.099586 -0.509932 0.031888 0.031061 -0.261236 -0.096248 -0.238520 0.477875 -0.082256 -0.165587 0.271301 0.301489 -0.106742 -0.254627 0.515181 0.071140 0.129755 -0.060480 0.184363 -0.131728 0.088021 0.012720 -0.103608 0.319659 -0.311180 0.157794 -0.009739 0.187463 0.103923 0.102396 -0.121609 -0.544379 -0.371150 -0.346407 0.210545 -0.509823 0.072125 0.080411 0.281573 -0.620332 -0.030021 -0.397432 0.083072 
3 0.836644 0.013802 -0.008023 0.220100 -0.648400 0.100230 -0.297272 0.853606 0.374293 0.331228 0.016573 0.095632 0.404531 0.104160 0.252115 0.149286 0.342000 -0.228832 0.131044 0.111483 0.163062 0.006246 1.081439 -0.086477 0.080694 0.086360 0.057608 -0.197506 -0.075991 0.525568 0.105605 -0.251180 0.323018 -0.169628 -0.033561 0.372756 0.020007 0.142571 0.127677 0.474779 -0.289896 0.620211 0.373537 -0.513174 0.473209 -0.502672 -0.856734 -0.256886 0.234574 0.072093 -0.451080 -0.308606 -0.637940 0.554183 -0.059182 -0.014444 0.123971 0.104564 -0.466309 -0.009913 0.055268 -0.234329 -0.142522 -0.194157 0.461338 -0.118820 -0.243969 0.285906 0.212976 -0.102952 -0.237164 0.430348 0.132983 0.124906 -0.026120 0.167973 -0.146189 0.079793 0.036856 -0.106162 0.292242 -0.325761 0.131156 -0.014258 0.140240 0.119637 0.092585 -0.140041 -0.475530 -0.351494 -0.367136 0.190312 -0.502502 0.067026 0.081469 0.256740 -0.574984 -0.003792 -0.367340 0.091288 
4 0.863273 0.005876 -0.024332 0.200184 -0.669934 0.149036 -0.302141 0.884015 0.387825 0.351376 0.128840 0.104785 0.449906 0.073276 0.259350 0.112394 0.338004 -0.192356 0.190602 0.136211 0.224480 -0.062782 1.130669 -0.083500 0.028930 0.084091 0.099546 -0.211371 -0.101805 0.562768 0.104420 -0.177098 0.328266 -0.165989 -0.125325 0.362012 0.074321 0.116621 0.169586 0.510979 -0.383098 0.647205 0.456226 -0.671455 0.524431 -0.578814 -0.953658 -0.265871 0.208219 0.059864 -0.501669 -0.384677 -0.617504 0.545413 -0.139962 -0.018256 0.026076 0.109956 -0.489322 -0.012799 -0.009369 -0.231508 -0.198994 -0.267363 0.546095 -0.133387 -0.330977 0.320808 0.229328 0.033849 -0.238930 0.446221 0.211594 0.200613 0.045593 0.194372 -0.112978 0.063821 0.096679 -0.097767 0.372830 -0.311357 0.087049 -0.033058 0.108659 0.174181 0.102985 -0.143328 -0.411807 -0.364966 -0.340848 0.174728 -0.451747 -0.003613 -0.032003 0.350911 -0.626899 -0.073216 -0.426140 0.067995 
5 1.013326 0.061670 -0.032774 0.277905 -0.882925 0.364571 -0.378946 1.067011 0.499024 0.477034 0.174798 0.157547 0.642315 0.151169 0.362412 0.146083 0.504762 -0.263537 0.250079 0.104953 0.296506 -0.117900 1.483689 -0.156116 0.047546 0.069135 0.110393 -0.248167 -0.126048 0.692522 0.095805 -0.266373 0.433101 -0.206685 -0.199904 0.484061 0.138036 0.171433 0.209961 0.656954 -0.502408 0.850807 0.617680 -0.933271 0.620845 -0.737426 -1.150541 -0.370838 0.244352 0.086544 -0.627768 -0.567474 -0.788987 0.752670 -0.109782 -0.024637 0.016185 0.140790 -0.683335 0.070919 -0.119652 -0.327119 -0.181552 -0.427999 0.767702 -0.119024 -0.314499 0.422489 0.357671 0.053435 -0.309982 0.639226 0.128256 0.289864 0.046944 0.252190 -0.160046 0.059325 0.093856 -0.054363 0.493214 -0.338956 0.157053 -0.046162 0.138658 0.187222 0.056563 -0.135945 -0.580479 -0.506546 -0.376043 0.279721 -0.569473 -0.029387 -0.079941 0.474694 -0.840705 -0.136848 -0.578175 0.038973 
6 1.111970 0.021696 -0.061903 0.224249 -0.940035 0.250615 -0.415382 1.195844 0.539173 0.453870 0.334516 0.134991 0.675385 0.088677 0.339884 0.094323 0.427959 -0.204277 0.326828 0.208766 0.369950 -0.140087 1.483784 -0.097242 -0.026991 0.092976 0.204044 -0.294007 -0.132695 0.772593 0.151698 -0.106727 0.448876 -0.183940 -0.273384 0.432327 0.160898 0.133672 0.240581 0.701335 -0.571891 0.826282 0.650626 -1.086557 0.692029 -0.832433 -1.311036 -0.382845 0.188972 0.086252 -0.634858 -0.539887 -0.743673 0.689836 -0.224510 -0.024190 -0.067210 0.144027 -0.659882 0.002828 -0.100465 -0.268752 -0.310937 -0.423801 0.816311 -0.164371 -0.512897 0.446907 0.323095 0.187714 -0.312451 0.608453 0.335235 0.340279 0.156032 0.271660 -0.142035 0.030143 0.168356 -0.067153 0.518081 -0.386153 0.071997 -0.075971 0.080520 0.248571 0.095371 -0.192166 -0.432586 -0.519044 -0.416365 0.221720 -0.535020 -0.070363 -0.131391 0.540220 -0.840248 -0.168176 -0.627609 0.023124 
7 1.168243 0.059423 -0.071251 0.294847 -1.022732 0.497337 -0.418328 1.270422 0.605417 0.559751 0.385666 0.197026 0.784582 0.193415 0.445053 0.140972 0.523296 -0.198261 0.342603 0.159792 0.407897 -0.216562 1.711415 -0.123845 0.028077 -0.005779 0.170252 -0.316666 -0.173975 0.840517 0.103237 -0.246149 0.498040 -0.212593 -0.349272 0.542662 0.226238 0.241044 0.326094 0.794898 -0.629121 0.958361 0.810583 -1.242012 0.723361 -0.963352 -1.473662 -0.447493 0.210310 0.114452 -0.723033 -0.804812 -0.859192 0.837725 -0.188038 -0.016782 -0.108918 0.189529 -0.834612 0.055654 -0.260880 -0.367531 -0.289212 -0.589936 1.030429 -0.145913 -0.419490 0.575323 0.368997 0.262321 -0.370907 0.691380 0.189755 0.464242 0.177649 0.307186 -0.119338 -0.013826 0.206312 -0.028317 0.661377 -0.346292 0.135233 -0.066100 0.059967 0.314184 0.002367 -0.120205 -0.582302 -0.625214 -0.384459 0.303369 -0.609714 -0.108633 -0.247954 0.645668 -1.054784 -0.241383 -0.695358 0.023009 
8 1.216987 0.050728 -0.174856 0.205928 -1.147250 0.524993 -0.462298 1.304488 0.538365 0.556042 0.465781 0.191797 0.856102 0.192890 0.423755 0.067892 0.502799 -0.137867 0.473295 0.246361 0.524705 -0.342883 1.740033 -0.119370 -0.060875 0.044892 0.256189 -0.313335 -0.161515 0.873501 0.159424 -0.028040 0.505818 -0.182218 -0.442966 0.493889 0.287598 0.187349 0.355663 0.829821 -0.766744 0.970157 0.901685 -1.446772 0.794743 -1.044532 -1.580662 -0.438606 0.155874 0.075305 -0.800249 -0.820640 -0.799022 0.767750 -0.308520 -0.040663 -0.260672 0.165121 -0.812817 0.066775 -0.321636 -0.345496 -0.367822 -0.632455 1.103578 -0.162455 -0.617173 0.627078 0.409673 0.391347 -0.341929 0.744525 0.374837 0.526724 0.286360 0.361084 -0.080094 -0.023552 0.233182 0.005382 0.784089 -0.326988 0.039780 -0.086540 0.034835 0.362571 0.098160 -0.132384 -0.433726 -0.609049 -0.355237 0.262151 -0.537748 -0.195657 -0.395777 0.751035 -1.082345 -0.310859 -0.779008 -0.020657 
9 1.204722 0.065612 -0.276377 0.143931 -1.241131 0.640469 -0.492238 1.290040 0.464660 0.578986 0.469440 0.190886 0.915298 0.272099 0.419405 0.032915 0.516461 -0.079682 0.524314 0.245518 0.622977 -0.447731 1.754101 -0.154472 -0.093000 0.006970 0.287133 -0.308539 -0.166000 0.891799 0.181000 0.038875 0.505844 -0.135476 -0.490903 0.479656 0.347457 0.149414 0.385546 0.887306 -0.890376 0.988757 0.991945 -1.576101 0.813276 -1.106067 -1.653973 -0.459844 0.106270 0.042135 -0.856149 -0.913171 -0.776914 0.730717 -0.327358 -0.066418 -0.330057 0.124738 -0.796659 0.087486 -0.434524 -0.364792 -0.365912 -0.715108 1.199818 -0.167356 -0.696674 0.714735 0.448241 0.472064 -0.267575 0.798558 0.408513 0.590644 0.360665 0.408685 -0.043658 -0.044537 0.225384 0.046371 0.908859 -0.259801 -0.021721 -0.067295 0.004874 0.388462 0.118922 -0.094093 -0.337622 -0.581242 -0.304787 0.306063 -0.492277 -0.254526 -0.527247 0.837428 -1.108689 -0.383221 -0.860312 -0.062511 
10 1.185514 0.074538 -0.193133 0.231578 -1.226440 0.743935 -0.505966 1.307531 0.568699 0.624403 0.444300 0.225988 0.948875 0.261155 0.443967 0.071794 0.591513 -0.174612 0.511647 0.195320 0.577706 -0.453160 1.916910 -0.195589 -0.056405 0.014461 0.224051 -0.311724 -0.156132 0.912691 0.139705 -0.053240 0.568738 -0.200477 -0.494929 0.577095 0.339342 0.258531 0.372195 0.927112 -0.855977 1.060277 0.998687 -1.591194 0.791042 -1.101480 -1.668974 -0.479834 0.143719 0.103569 -0.852645 -0.940871 -0.878323 0.841971 -0.267786 -0.020911 -0.312697 0.170306 -0.880269 0.107926 -0.443701 -0.392711 -0.376521 -0.769846 1.290458 -0.098857 -0.589383 0.710602 0.505123 0.448508 -0.354649 0.868271 0.294437 0.586023 0.276819 0.417711 -0.027668 -0.042910 0.260436 -0.012816 0.960461 -0.290100 0.054131 -0.038504 0.052037 0.405646 0.096582 -0.111821 -0.536865 -0.620055 -0.300660 0.343928 -0.594054 -0.228880 -0.523483 0.882067 -1.290789 -0.357744 -0.905413 -0.020166 
11 1.210258 0.034967 -0.210688 0.166248 -1.147027 0.567722 -0.464268 1.318208 0.554826 0.515733 0.613916 0.220919 0.837971 0.160826 0.446017 0.006944 0.405674 -0.045459 0.577650 0.342307 0.562233 -0.410201 1.768795 -0.045964 -0.094436 0.004658 0.301102 -0.350147 -0.172126 0.937666 0.188523 0.068980 0.480932 -0.157197 -0.545172 0.512709 0.336226 0.279246 0.461319 0.903023 -0.811294 0.961062 0.988312 -1.606626 0.827189 -1.178684 -1.806883 -0.447048 0.080514 0.109645 -0.789611 -0.897454 -0.729174 0.693480 -0.408553 0.012329 -0.349672 0.223007 -0.825426 -0.024136 -0.374419 -0.305820 -0.537258 -0.696679 1.263732 -0.153290 -0.725282 0.700106 0.377717 0.566703 -0.386792 0.671474 0.459590 0.609926 0.380231 0.439505 0.038694 -0.094622 0.348950 -0.054149 0.960707 -0.323503 0.003914 -0.033362 0.003216 0.494358 0.136299 -0.149659 -0.407637 -0.569542 -0.278785 0.180498 -0.518596 -0.250949 -0.576170 0.908435 -1.249420 -0.346379 -0.854018 0.015155 
12 1.155410 0.039009 -0.128502 0.224941 -1.032835 0.625461 -0.422070 1.247151 0.610228 0.545127 0.594820 0.235875 0.825646 0.168197 0.481571 0.058691 0.420445 -0.054462 0.512406 0.290759 0.510874 -0.362797 1.782651 -0.032639 -0.047741 -0.035469 0.247932 -0.371574 -0.196434 0.930935 0.143326 -0.042647 0.485939 -0.189526 -0.505761 0.540522 0.321354 0.332243 0.486779 0.907024 -0.752551 0.978594 0.981581 -1.553145 0.806191 -1.167974 -1.772619 -0.468105 0.091441 0.145026 -0.750588 -0.928055 -0.765368 0.734187 -0.371918 0.013023 -0.298128 0.250809 -0.864601 -0.034887 -0.356299 -0.319596 -0.495580 -0.696793 1.271871 -0.161407 -0.629401 0.709513 0.368057 0.533864 -0.419103 0.654142 0.363252 0.614333 0.345885 0.436560 0.053546 -0.112130 0.356932 -0.073936 0.949645 -0.321703 0.052698 -0.012505 0.025713 0.508287 0.109253 -0.119702 -0.508658 -0.573334 -0.263667 0.180711 -0.558100 -0.218289 -0.563897 0.876215 -1.312570 -0.326359 -0.810644 0.062757 
13 1.122870 0.053615 -0.184226 0.169488 -1.142400 0.593260 -0.471395 1.320662 0.575099 0.478079 0.751389 0.261320 0.824419 0.138357 0.476565 -0.014470 0.331376 0.013846 0.647005 0.410349 0.586047 -0.457243 1.818627 0.045354 -0.094442 -0.005703 0.290724 -0.407836 -0.166243 0.995160 0.185535 0.138720 0.464559 -0.165729 -0.645043 0.578263 0.346512 0.379153 0.559818 0.956906 -0.793235 0.981827 1.045398 -1.720814 0.838604 -1.265302 -1.932939 -0.464952 0.035609 0.161936 -0.738738 -0.928286 -0.712365 0.680563 -0.491635 0.052392 -0.418179 0.287769 -0.866259 -0.105985 -0.370087 -0.275154 -0.657149 -0.722705 1.375387 -0.151921 -0.768496 0.748161 0.354128 0.681561 -0.481060 0.620901 0.498730 0.670336 0.422224 0.474587 0.131181 -0.144897 0.455828 -0.128346 1.051163 -0.358155 0.006154 -0.025334 -0.043752 0.616976 0.171604 -0.139704 -0.464613 -0.602207 -0.268600 0.114215 -0.556865 -0.246109 -0.667273 0.979324 -1.396745 -0.352327 -0.854034 0.079279 
14 1.186872 0.002325 -0.087700 0.258109 -0.950655 0.530217 -0.372671 1.283821 0.684567 0.484874 0.727509 0.248242 0.746402 0.098510 0.511560 0.058050 0.278365 0.027995 0.523261 0.396255 0.491058 -0.304138 1.750381 0.104771 -0.020874 -0.077519 0.260141 -0.434745 -0.209533 0.985964 0.147622 -0.023848 0.441418 -0.198719 -0.537914 0.566875 0.301689 0.464697 0.599951 0.923397 -0.654222 0.945209 0.984232 -1.586687 0.813367 -1.261591 -1.943078 -0.469953 0.058101 0.212311 -0.673045 -0.922862 -0.707264 0.682152 -0.460291 0.069495 -0.319187 0.356021 -0.894627 -0.167804 -0.290001 -0.270788 -0.658104 -0.652397 1.321083 -0.177265 -0.674011 0.720196 0.255975 0.609683 -0.553050 0.499010 0.421009 0.652911 0.384418 0.451584 0.141122 -0.185456 0.465339 -0.159446 0.982978 -0.390846 0.080100 -0.004726 -0.024062 0.626578 0.127185 -0.121355 -0.580550 -0.610851 -0.283739 0.062064 -0.623665 -0.181695 -0.585634 0.909225 -1.418882 -0.283036 -0.759295 0.143764 
15 1.109847 0.000090 -0.036299 0.239362 -0.940188 0.401594 -0.430124 1.351254 0.756979 0.416999 0.879609 0.255541 0.749639 -0.004096 0.477827 0.017325 0.203527 0.002995 0.580452 0.470391 0.463723 -0.298245 1.789122 0.165185 -0.081709 -0.014340 0.290681 -0.483859 -0.173608 1.037319 0.150599 0.092022 0.475119 -0.222058 -0.621691 0.614080 0.286135 0.510946 0.619698 0.937802 -0.611412 0.912878 0.950490 -1.660718 0.817618 -1.287930 -1.998804 -0.474907 0.039736 0.260145 -0.610918 -0.848549 -0.696789 0.671448 -0.532704 0.130398 -0.349783 0.404347 -0.910060 -0.223251 -0.202045 -0.200695 -0.778482 -0.635271 1.345847 -0.162907 -0.731910 0.677621 0.245338 0.704943 -0.636249 0.455860 0.501327 0.653100 0.397936 0.459493 0.183304 -0.216322 0.565810 -0.237963 0.965280 -0.461652 0.069376 -0.001196 -0.035013 0.678142 0.149879 -0.195064 -0.578047 -0.607798 -0.287845 -0.019227 -0.611883 -0.170540 -0.580671 0.959174 -1.479688 -0.287079 -0.782697 0.175581 
16 1.090676 -0.024142 0.060236 0.276384 -0.849230 0.358498 -0.389529 1.346491 0.785515 0.401316 0.943611 0.272885 0.695237 -0.071864 0.509504 0.032624 0.126714 0.050166 0.586373 0.515448 0.451590 -0.263831 1.790459 0.248164 -0.058739 -0.016290 0.296054 -0.523234 -0.188626 1.076435 0.164909 0.108240 0.443093 -0.219142 -0.675878 0.631494 0.255878 0.577601 0.673508 0.911930 -0.543465 0.889635 0.950993 -1.719123 0.845481 -1.326823 -2.056592 -0.467472 0.054693 0.291365 -0.577803 -0.837088 -0.673084 0.649661 -0.602916 0.167687 -0.365070 0.449323 -0.922652 -0.299633 -0.149205 -0.152859 -0.877287 -0.604411 1.362289 -0.193986 -0.774708 0.686147 0.174004 0.738591 -0.686448 0.363564 0.553911 0.669868 0.425847 0.455154 0.228270 -0.241398 0.630769 -0.303563 0.970708 -0.501704 0.064759 -0.011205 -0.046293 0.760088 0.171958 -0.227206 -0.599322 -0.611140 -0.289638 -0.090603 -0.632375 -0.161921 -0.596567 0.986565 -1.531608 -0.252337 -0.746779 0.216118 
17 1.104267 -0.035423 0.128273 0.367410 -0.714124 0.373392 -0.326895 1.327142 0.906052 0.408407 0.910731 0.292422 0.637633 -0.013950 0.576765 0.109785 0.108839 0.038460 0.493280 0.492458 0.351515 -0.169071 1.797944 0.285694 0.014912 -0.116784 0.223883 -0.558754 -0.231488 1.046714 0.087427 -0.119984 0.417768 -0.289470 -0.574952 0.685076 0.217716 0.735660 0.743535 0.920214 -0.411721 0.918019 0.937145 -1.560791 0.810145 -1.308953 -2.041427 -0.469342 0.080065 0.364881 -0.503800 -0.894302 -0.710684 0.730445 -0.535556 0.188123 -0.238378 0.552370 -0.995396 -0.344557 -0.163883 -0.200272 -0.860796 -0.632458 1.384702 -0.161360 -0.536956 0.652514 0.154988 0.682926 -0.801208 0.294136 0.306314 0.678429 0.341823 0.487071 0.267710 -0.294038 0.635883 -0.324907 0.946435 -0.474251 0.178318 0.044448 -0.036781 0.780385 0.051687 -0.182072 -0.828253 -0.648344 -0.295578 -0.097360 -0.702877 -0.068233 -0.512952 0.952254 -1.637921 -0.219424 -0.678225 0.299125 
18 1.055857 -0.033291 0.274726 0.403795 -0.628407 0.200648 -0.345920 1.399807 1.044111 0.346802 1.089106 0.292001 0.629113 -0.180592 0.570548 0.093181 0.045857 -0.006812 0.487984 0.552969 0.319043 -0.089821 1.816672 0.356045 -0.039801 -0.044153 0.261325 -0.662789 -0.192672 1.126999 0.083529 -0.036530 0.403858 -0.254264 -0.670986 0.738885 0.169514 0.727048 0.776523 0.925597 -0.333600 0.884356 0.848226 -1.688599 0.827316 -1.331765 -2.049609 -0.506290 0.075080 0.413690 -0.395688 -0.765510 -0.717682 0.741260 -0.638901 0.235181 -0.264226 0.597309 -1.029810 -0.414080 -0.008885 -0.116457 -0.954767 -0.564628 1.352739 -0.159555 -0.573228 0.589286 0.127534 0.740551 -0.913316 0.242578 0.418762 0.658413 0.333540 0.497040 0.267196 -0.292867 0.704852 -0.409645 0.856386 -0.574783 0.190084 -0.018552 -0.033248 0.822123 0.112617 -0.256082 -0.851096 -0.701489 -0.382113 -0.197011 -0.730708 0.001204 -0.405791 0.949893 -1.633680 -0.209227 -0.633898 0.332357 
19 1.039614 -0.027770 0.321226 0.433979 -0.606950 0.141727 -0.328389 1.437892 1.094984 0.337544 1.115356 0.298542 0.602224 -0.200765 0.580618 0.118711 0.028241 -0.010513 0.464924 0.553763 0.284634 -0.024603 1.808857 0.381659 -0.019463 -0.064896 0.256307 -0.672807 -0.191852 1.121366 0.075643 -0.067796 0.409074 -0.295811 -0.654489 0.744657 0.159195 0.746456 0.777197 0.912196 -0.262319 0.881304 0.831921 -1.632804 0.821762 -1.324204 -2.021744 -0.506520 0.095965 0.426084 -0.364165 -0.763232 -0.715595 0.767670 -0.637006 0.237553 -0.256387 0.629776 -1.045773 -0.421644 0.024545 -0.114000 -0.942690 -0.535381 1.311426 -0.160825 -0.512477 0.556265 0.093604 0.709846 -0.968536 0.200717 0.371013 0.654769 0.325751 0.471421 0.246030 -0.307759 0.709229 -0.403448 0.778196 -0.595034 0.226432 -0.055110 -0.041811 0.818902 0.057798 -0.262367 -0.901977 -0.744192 -0.410502 -0.213108 -0.732660 0.019744 -0.358355 0.914126 -1.639674 -0.178044 -0.590596 0.350449 
20 1.035967 -0.015078 0.398903 0.496498 -0.599948 0.119915 -0.371004 1.430793 1.078374 0.348342 1.009083 0.309456 0.562240 -0.202618 0.604348 0.176397 0.065651 -0.074113 0.398014 0.514396 0.273514 0.048334 1.870130 0.359813 0.015628 -0.062804 0.183453 -0.733175 -0.170644 1.136181 0.025263 -0.164750 0.372831 -0.226814 -0.611625 0.829848 0.099614 0.723580 0.768739 0.894587 -0.254878 0.900655 0.757763 -1.597949 0.819178 -1.275325 -1.944641 -0.559361 0.097939 0.439595 -0.325379 -0.725418 -0.791970 0.823662 -0.578012 0.204349 -0.131327 0.636759 -1.050796 -0.450236 0.069761 -0.123513 -0.903710 -0.535063 1.265837 -0.191237 -0.434052 0.539201 0.104339 0.612676 -0.943512 0.237002 0.282352 0.595259 0.218001 0.457160 0.257505 -0.294683 0.672709 -0.451569 0.772688 -0.614421 0.249791 0.000895 0.004108 0.812020 0.046966 -0.236762 -0.974108 -0.725837 -0.447777 -0.188163 -0.781385 0.094741 -0.240480 0.878882 -1.598479 -0.166201 -0.559538 0.368734 
21 0.982780 -0.016521 0.559672 0.590543 -0.518304 -0.003919 -0.380044 1.496610 1.235055 0.330735 1.077660 0.321275 0.550908 -0.318513 0.598459 0.190228 0.075473 -0.185082 0.388896 0.507642 0.178472 0.114151 1.949910 0.381112 0.016995 0.020991 0.174626 -0.769554 -0.140649 1.169626 0.026725 -0.182538 0.429562 -0.319702 -0.602321 0.912466 0.025873 0.805508 0.720901 0.902735 -0.128686 0.922196 0.676071 -1.572258 0.823173 -1.239895 -1.919417 -0.558792 0.179123 0.506331 -0.253964 -0.592781 -0.857667 0.909237 -0.575968 0.277601 -0.106740 0.695661 -1.100914 -0.487653 0.207457 -0.075564 -0.992576 -0.487930 1.236629 -0.109750 -0.338388 0.426018 0.117319 0.571844 -1.089259 0.222639 0.238498 0.549826 0.152400 0.445264 0.255928 -0.305211 0.729734 -0.548038 0.683111 -0.715658 0.314657 -0.019106 0.058429 0.819070 0.070440 -0.329541 -1.153263 -0.772345 -0.477581 -0.243749 -0.853658 0.197871 -0.133256 0.875996 -1.724352 -0.105502 -0.565448 0.423792 
22 0.981955 -0.020283 0.526409 0.569240 -0.479460 0.025170 -0.335322 1.421322 1.208317 0.329331 1.009531 0.292524 0.509204 -0.281383 0.608524 0.201976 0.080218 -0.160131 0.328914 0.482541 0.145295 0.160601 1.871141 0.367692 0.050713 -0.029865 0.153933 -0.744321 -0.152859 1.112908 0.015066 -0.223361 0.420526 -0.300475 -0.588560 0.869489 0.026565 0.797224 0.709822 0.892165 -0.113821 0.872091 0.643288 -1.521284 0.807777 -1.217084 -1.856257 -0.573908 0.168114 0.491977 -0.238474 -0.586621 -0.807919 0.866097 -0.537318 0.217640 -0.042440 0.671991 -1.090359 -0.476404 0.212006 -0.086707 -0.899427 -0.443281 1.194714 -0.157334 -0.325009 0.467273 0.096865 0.554955 -1.015289 0.177736 0.215492 0.558147 0.178861 0.453161 0.228608 -0.307927 0.679140 -0.482727 0.647662 -0.683276 0.320462 -0.000343 0.051560 0.768732 0.031883 -0.279306 -1.067072 -0.727123 -0.483298 -0.204207 -0.821373 0.163888 -0.130450 0.806674 -1.632914 -0.100089 -0.529400 0.413136 
23 0.969902 -0.043700 0.678534 0.621951 -0.429663 -0.130452 -0.356453 1.521093 1.280629 0.335414 1.059437 0.281253 0.511878 -0.375687 0.593292 0.225041 0.060059 -0.221383 0.307711 0.514335 0.164496 0.266726 1.896388 0.404794 0.038762 0.007137 0.205284 -0.833645 -0.143507 1.162921 0.021271 -0.233862 0.417055 -0.314436 -0.592000 0.908593 -0.049073 0.800338 0.713567 0.820635 -0.042201 0.856670 0.568992 -1.546569 0.851882 -1.202258 -1.814102 -0.595211 0.228400 0.490494 -0.221625 -0.536693 -0.879069 0.939269 -0.548634 0.245934 -0.001247 0.710527 -1.110245 -0.516549 0.312595 -0.043374 -0.966241 -0.427605 1.136870 -0.153251 -0.301933 0.358589 0.085672 0.514144 -1.095507 0.158147 0.191884 0.516536 0.122934 0.435559 0.237348 -0.306695 0.671393 -0.558698 0.572875 -0.766374 0.343469 -0.038269 0.131926 0.766333 0.038529 -0.378729 -1.152288 -0.761477 -0.519984 -0.279329 -0.837783 0.260000 0.034717 0.794743 -1.617276 -0.101659 -0.491274 0.403449 
24 1.005590 -0.063337 0.724160 0.645320 -0.381483 -0.226305 -0.358583 1.548262 1.351525 0.300948 1.075307 0.279535 0.486692 -0.459724 0.574330 0.232753 0.026138 -0.260089 0.255486 0.513557 0.066558 0.324404 1.879361 0.432945 0.049732 0.049694 0.161468 -0.832170 -0.105310 1.167201 0.008687 -0.201870 0.449465 -0.329056 -0.577051 0.926297 -0.069728 0.819680 0.659146 0.847352 0.018550 0.807416 0.473373 -1.479142 0.795039 -1.172003 -1.793392 -0.595751 0.203603 0.529905 -0.117698 -0.416529 -0.866225 0.924287 -0.543814 0.280972 0.046920 0.719115 -1.100002 -0.558004 0.420644 0.009362 -1.001389 -0.357779 1.093490 -0.126709 -0.291984 0.322955 0.071904 0.534064 -1.148871 0.118151 0.203585 0.492515 0.096631 0.419949 0.266639 -0.332417 0.721460 -0.602764 0.518390 -0.819832 0.363317 -0.013682 0.136423 0.764101 0.061311 -0.413973 -1.175374 -0.747124 -0.549696 -0.300402 -0.862307 0.276896 0.073033 0.781482 -1.622810 -0.043409 -0.490143 0.446020 
25 1.061464 -0.098107 0.768658 0.673910 -0.292920 -0.258124 -0.308933 1.503809 1.328425 0.345015 0.998310 0.256125 0.502721 -0.446306 0.570603 0.295101 0.040583 -0.281309 0.192897 0.458867 0.002498 0.353595 1.822044 0.431207 0.095039 0.063552 0.127942 -0.781615 -0.149006 1.123410 -0.012359 -0.280253 0.487770 -0.405318 -0.533147 0.893803 -0.102820 0.837155 0.599314 0.752604 0.092304 0.808898 0.448040 -1.354384 0.783305 -1.130039 -1.741866 -0.555859 0.272238 0.540767 -0.150418 -0.408778 -0.893530 0.940163 -0.478725 0.291487 0.069618 0.703175 -1.110919 -0.503719 0.467458 0.030949 -0.968223 -0.324659 1.054763 -0.120218 -0.245960 0.286507 0.058348 0.498222 -1.141999 0.094316 0.137780 0.462751 0.070924 0.328362 0.223038 -0.300156 0.728604 -0.621521 0.411029 -0.893606 0.391481 -0.015632 0.164139 0.725649 -0.007902 -0.443652 -1.217334 -0.722834 -0.493345 -0.284915 -0.903052 0.245677 0.110063 0.715206 -1.615844 0.026409 -0.471116 0.440444 
26 1.035746 -0.071823 0.796207 0.686306 -0.322312 -0.332324 -0.331258 1.567454 1.377527 0.312524 1.002069 0.264335 0.475266 -0.486424 0.567456 0.290648 0.024151 -0.317659 0.191793 0.511651 -0.028661 0.415171 1.865871 0.437654 0.070794 0.096600 0.136092 -0.848128 -0.116402 1.149503 -0.011429 -0.270591 0.492783 -0.380699 -0.513148 0.915621 -0.126589 0.828234 0.594828 0.805957 0.094031 0.797615 0.391872 -1.368553 0.770426 -1.110415 -1.711920 -0.584034 0.252567 0.553242 -0.090838 -0.324084 -0.897108 0.965138 -0.473958 0.279913 0.122229 0.712730 -1.105258 -0.538543 0.520716 0.034870 -0.978993 -0.286827 1.022777 -0.090645 -0.211497 0.239068 0.078734 0.460040 -1.168395 0.100908 0.143972 0.432312 0.041801 0.357397 0.207226 -0.303293 0.700014 -0.623042 0.395291 -0.897213 0.397874 -0.003026 0.195708 0.699059 0.013659 -0.467282 -1.241387 -0.730786 -0.534544 -0.297061 -0.885916 0.306937 0.187055 0.704574 -1.595049 0.021988 -0.469907 0.448962 
27 1.022039 -0.115918 0.778404 0.650679 -0.226378 -0.365310 -0.257784 1.466181 1.320143 0.266754 0.957947 0.256977 0.363702 -0.527384 0.532460 0.290836 -0.001863 -0.322224 0.177801 0.472756 -0.083636 0.448426 1.753368 0.467333 0.115160 0.090226 0.118928 -0.739447 -0.134080 1.068264 -0.005352 -0.325964 0.489128 -0.430225 -0.426249 0.858976 -0.165134 0.922701 0.542331 0.744478 0.183798 0.704797 0.305416 -1.155586 0.684126 -1.032032 -1.691120 -0.502442 0.236005 0.583065 -0.025694 -0.255444 -0.805403 0.880161 -0.412585 0.329528 0.215498 0.722823 -1.034989 -0.592337 0.575229 0.098512 -1.029428 -0.215743 0.981166 -0.073628 -0.199565 0.178442 0.006325 0.433647 -1.168427 -0.022277 0.101143 0.376280 -0.003325 0.312561 0.259539 -0.325954 0.749362 -0.682754 0.377774 -0.915110 0.415863 0.077780 0.214228 0.680755 -0.011737 -0.501667 -1.256205 -0.623185 -0.440960 -0.321750 -0.888358 0.287464 0.186367 0.677894 -1.551177 0.100039 -0.432025 0.472879 
28 1.038965 -0.126654 0.815419 0.685746 -0.168502 -0.397475 -0.264069 1.438656 1.331082 0.294612 0.901493 0.229666 0.394383 -0.515855 0.496209 0.298806 0.007901 -0.355744 0.123216 0.441445 -0.118404 0.468238 1.719452 0.415577 0.098164 0.099056 0.104419 -0.750551 -0.126916 1.041328 -0.029282 -0.300785 0.509799 -0.419260 -0.391732 0.854625 -0.196498 0.875703 0.510261 0.693960 0.185723 0.690197 0.273616 -1.189321 0.665772 -0.984104 -1.569179 -0.523498 0.254345 0.579334 -0.037137 -0.200939 -0.852897 0.883220 -0.398086 0.311350 0.188245 0.694668 -1.014396 -0.544462 0.577597 0.095805 -0.981333 -0.236401 0.944298 -0.042036 -0.177980 0.164277 0.053355 0.428891 -1.125748 0.030546 0.078207 0.348096 -0.028999 0.284972 0.266322 -0.310712 0.717712 -0.683325 0.369835 -0.917949 0.381606 0.089993 0.239375 0.664276 0.005810 -0.506517 -1.233545 -0.606593 -0.446619 -0.304709 -0.896023 0.297592 0.219834 0.671054 -1.540438 0.102478 -0.451032 0.460668 
29 1.047886 -0.123319 0.827161 0.671969 -0.203050 -0.393789 -0.250814 1.461688 1.306102 0.316871 0.847420 0.229990 0.372229 -0.495408 0.525800 0.338524 0.030019 -0.355222 0.041919 0.434131 -0.102275 0.528225 1.710552 0.409270 0.161076 0.093478 0.078379 -0.794023 -0.126069 1.066316 0.005456 -0.346509 0.517805 -0.404341 -0.400110 0.873185 -0.193629 0.862723 0.475057 0.691930 0.207320 0.691333 0.264653 -1.141357 0.679954 -1.001116 -1.567939 -0.545672 0.296915 0.546595 -0.055768 -0.214322 -0.874352 0.901624 -0.360057 0.291620 0.242656 0.652762 -1.013865 -0.528103 0.603269 0.090395 -0.905976 -0.199479 0.891512 -0.067718 -0.150301 0.171880 0.042782 0.356225 -1.112222 0.018276 0.062143 0.351549 -0.010423 0.300540 0.239591 -0.323086 0.638587 -0.638174 0.314688 -0.923002 0.420247 0.072033 0.311354 0.598557 0.012941 -0.495041 -1.213518 -0.569014 -0.406194 -0.298142 -0.879066 0.302993 0.224118 0.605707 -1.476884 0.108659 -0.419192 0.454168 
30 1.079423 -0.157264 0.872295 0.710314 -0.100930 -0.489548 -0.250833 1.476855 1.387515 0.289403 0.865287 0.218617 0.370782 -0.534449 0.528988 0.351923 -0.008027 -0.373666 0.023465 0.454045 -0.189134 0.573248 1.669364 0.432516 0.120571 0.093073 0.071193 -0.819754 -0.113031 1.050053 -0.041385 -0.361586 0.503484 -0.411612 -0.388659 0.867604 -0.193059 0.825712 0.492160 0.731820 0.242947 0.658481 0.193277 -1.146153 0.688165 -0.983778 -1.541888 -0.556660 0.263093 0.575226 0.014649 -0.185190 -0.846250 0.921668 -0.369852 0.298661 0.297337 0.708091 -1.027294 -0.576166 0.650615 0.119135 -0.953347 -0.183566 0.881586 -0.066687 -0.112680 0.104008 0.047995 0.407960 -1.163727 -0.028605 0.037896 0.343945 -0.036582 0.329425 0.261634 -0.346663 0.685530 -0.673748 0.294212 -0.921083 0.431874 0.069285 0.298101 0.611055 -0.015592 -0.529196 -1.232226 -0.581408 -0.444146 -0.322923 -0.863963 0.335834 0.285946 0.614348 -1.490201 0.079630 -0.403417 0.471170 
31 1.141876 -0.161471 0.795897 0.661229 -0.118499 -0.411364 -0.196230 1.414407 1.300206 0.338700 0.797380 0.208354 0.395421 -0.504185 0.489008 0.349777 0.025931 -0.373174 0.007053 0.422679 -0.166748 0.552486 1.631580 0.388755 0.147039 0.074060 0.109980 -0.703391 -0.188432 1.002705 -0.033591 -0.421765 0.552785 -0.462582 -0.277852 0.768616 -0.209819 0.870390 0.436941 0.647205 0.233719 0.639534 0.212178 -1.044150 0.647916 -0.957525 -1.571661 -0.492421 0.268774 0.572035 -0.050103 -0.171581 -0.823073 0.859459 -0.296780 0.307210 0.261416 0.654662 -0.990673 -0.499932 0.628479 0.125154 -0.915940 -0.175050 0.876478 -0.041037 -0.138057 0.106798 0.039453 0.407113 -1.113839 -0.020780 -0.007076 0.325909 -0.041156 0.228857 0.265767 -0.341543 0.701845 -0.658009 0.312191 -0.982673 0.412032 0.139082 0.314656 0.560910 -0.051048 -0.559254 -1.207651 -0.535073 -0.381615 -0.277329 -0.881188 0.252440 0.250752 0.599071 -1.470580 0.151346 -0.449637 0.442606 
32 1.099314 -0.170139 0.758756 0.664768 -0.089771 -0.416934 -0.197812 1.364133 1.255795 0.338947 0.728728 0.199131 0.385589 -0.463579 0.474337 0.346211 0.006783 -0.328884 0.003966 0.370816 -0.209718 0.483921 1.549890 0.395808 0.182473 0.075405 0.034867 -0.631574 -0.158426 0.972288 -0.071361 -0.410112 0.553944 -0.459536 -0.244026 0.767826 -0.186891 0.847561 0.410367 0.657674 0.229226 0.607933 0.196360 -0.948023 0.572403 -0.912129 -1.516255 -0.464871 0.233575 0.557446 -0.023646 -0.187624 -0.793731 0.803039 -0.259891 0.322766 0.275054 0.610426 -0.941707 -0.501210 0.613566 0.116159 -0.881076 -0.145078 0.872802 -0.038048 -0.136692 0.157225 0.000384 0.392214 -1.050471 -0.040907 0.015595 0.311026 -0.035377 0.203180 0.243328 -0.315252 0.684357 -0.636692 0.295474 -0.924688 0.390326 0.127076 0.268588 0.562366 -0.046936 -0.482138 -1.160692 -0.483406 -0.329828 -0.255593 -0.891661 0.233339 0.186463 0.562397 -1.443835 0.192771 -0.422617 0.464418 
33 1.086671 -0.181938 0.819009 0.658038 -0.087711 -0.480825 -0.207140 1.404055 1.277642 0.321814 0.745535 0.186931 0.355130 -0.569679 0.425603 0.339212 0.012210 -0.390172 0.002574 0.384342 -0.223499 0.561208 1.549660 0.399831 0.148939 0.105676 0.065617 -0.708691 -0.136529 0.994261 -0.046559 -0.373756 0.534735 -0.400639 -0.247685 0.788681 -0.237560 0.827741 0.403975 0.639731 0.217459 0.574173 0.131545 -0.950094 0.610795 -0.897613 -1.505531 -0.491542 0.236796 0.532663 -0.017820 -0.129429 -0.797032 0.794020 -0.283529 0.312849 0.310600 0.620422 -0.914596 -0.529053 0.683299 0.142195 -0.907249 -0.123618 0.803719 -0.032755 -0.154712 0.109025 0.027155 0.370588 -1.050445 -0.031212 0.010267 0.284651 -0.059052 0.226933 0.294266 -0.333989 0.659001 -0.682228 0.306678 -0.971998 0.399853 0.154444 0.333417 0.540281 0.009770 -0.515981 -1.138631 -0.455503 -0.353781 -0.301259 -0.848711 0.281217 0.253483 0.565449 -1.407942 0.169654 -0.420088 0.451517 
34 1.110019 -0.204312 0.791180 0.666187 0.010762 -0.451462 -0.132566 1.271688 1.236779 0.322860 0.677160 0.187093 0.327601 -0.483272 0.444234 0.365514 0.000555 -0.344550 -0.029750 0.379707 -0.249265 0.550342 1.460167 0.391505 0.170374 0.106318 0.035228 -0.634992 -0.173724 0.917885 -0.030351 -0.400825 0.522439 -0.445815 -0.203897 0.708609 -0.228122 0.840460 0.383997 0.595326 0.277197 0.561815 0.140059 -0.924326 0.574610 -0.846500 -1.415160 -0.445240 0.237026 0.562748 0.014814 -0.044323 -0.753729 0.731427 -0.282191 0.280694 0.271956 0.600887 -0.901119 -0.504994 0.683068 0.159171 -0.848271 -0.083739 0.776361 -0.038218 -0.139754 0.120985 0.032360 0.393010 -1.018436 -0.072595 0.021281 0.283057 -0.041432 0.206436 0.279038 -0.324373 0.668725 -0.651318 0.281099 -0.947548 0.376523 0.179992 0.299106 0.528103 -0.007168 -0.493703 -1.108001 -0.434499 -0.343904 -0.279819 -0.864539 0.259465 0.245131 0.508345 -1.344456 0.209792 -0.391949 0.467695 
35 1.009863 -0.181599 0.835256 0.639699 -0.033336 -0.513292 -0.183618 1.259639 1.197525 0.279044 0.656031 0.148883 0.308244 -0.555951 0.379358 0.319482 0.010395 -0.413138 -0.030683 0.373702 -0.225621 0.566032 1.444445 0.342243 0.141557 0.158187 0.070237 -0.618344 -0.130048 0.908237 -0.018796 -0.328639 0.545236 -0.401323 -0.221462 0.725380 -0.266777 0.804222 0.327406 0.568386 0.256080 0.517701 0.074352 -0.918919 0.560529 -0.789400 -1.312737 -0.450504 0.255207 0.541811 0.028794 0.044623 -0.742250 0.717704 -0.276583 0.290038 0.244294 0.582014 -0.864758 -0.472082 0.711390 0.196301 -0.870511 -0.062738 0.736547 0.022998 -0.152104 0.065803 0.029905 0.359226 -0.998752 -0.048325 0.025541 0.238287 -0.056573 0.180738 0.263779 -0.292131 0.654814 -0.675401 0.260387 -0.986800 0.360901 0.187718 0.347594 0.478208 0.027516 -0.544702 -1.091465 -0.382528 -0.325327 -0.303193 -0.854221 0.257363 0.293048 0.500442 -1.326171 0.234665 -0.418223 0.453526 
36 1.109992 -0.251111 0.777271 0.631417 0.021413 -0.502907 -0.124593 1.231487 1.151114 0.308414 0.599044 0.158677 0.332793 -0.505883 0.408431 0.353610 0.000228 -0.340456 -0.084892 0.299096 -0.288574 0.510011 1.345098 0.384775 0.205938 0.137071 -0.000963 -0.568675 -0.132871 0.866109 -0.010719 -0.364749 0.518532 -0.424612 -0.219494 0.677435 -0.202004 0.743246 0.292091 0.569376 0.279314 0.498843 0.084161 -0.830755 0.545670 -0.801988 -1.367114 -0.416160 0.288882 0.517164 -0.017468 -0.049759 -0.727852 0.683338 -0.241109 0.281821 0.310369 0.540115 -0.831511 -0.496948 0.733951 0.169392 -0.797120 0.002089 0.702510 -0.037706 -0.152574 0.130774 0.010770 0.380320 -0.971641 -0.113488 0.070493 0.255026 -0.028952 0.175039 0.291143 -0.308609 0.631637 -0.644940 0.245762 -0.947666 0.375601 0.173290 0.369118 0.493048 0.075112 -0.476278 -1.064611 -0.354353 -0.279201 -0.307601 -0.811906 0.225303 0.207123 0.460612 -1.294996 0.260725 -0.338875 0.470277 
37 1.086945 -0.200551 0.777416 0.642059 -0.045385 -0.512545 -0.160566 1.264251 1.179073 0.284399 0.605569 0.167124 0.260897 -0.536892 0.404885 0.357539 -0.017399 -0.380107 -0.069915 0.351300 -0.262709 0.581967 1.411765 0.380466 0.207987 0.128748 0.017349 -0.625489 -0.131857 0.879620 -0.020299 -0.374509 0.525101 -0.429860 -0.180252 0.707386 -0.267815 0.822937 0.301191 0.571465 0.270980 0.504251 0.062888 -0.828364 0.538288 -0.795134 -1.335873 -0.444027 0.256603 0.529016 0.032202 0.025766 -0.738326 0.706527 -0.233783 0.276415 0.316860 0.557948 -0.834907 -0.514280 0.737829 0.182320 -0.821506 -0.015562 0.695761 -0.017863 -0.129254 0.111292 0.026714 0.314142 -0.989721 -0.079696 0.035856 0.238309 -0.036337 0.207173 0.251055 -0.305660 0.604748 -0.637983 0.237534 -0.947768 0.364874 0.190956 0.349763 0.483733 0.062923 -0.499515 -1.102226 -0.392078 -0.342861 -0.292095 -0.858815 0.281143 0.301428 0.450215 -1.303739 0.249429 -0.367801 0.463594 
38 1.102235 -0.206608 0.704820 0.610073 -0.058233 -0.510418 -0.123147 1.228128 1.110476 0.251009 0.565826 0.162951 0.222530 -0.529673 0.393855 0.323524 -0.017491 -0.371943 -0.075486 0.329057 -0.295489 0.535994 1.366649 0.374310 0.231888 0.168205 -0.014573 -0.572477 -0.084276 0.841267 0.038489 -0.288193 0.533265 -0.446356 -0.187781 0.699155 -0.240232 0.801089 0.209201 0.592327 0.269512 0.476560 0.037419 -0.711011 0.459451 -0.760862 -1.338527 -0.412373 0.253602 0.529495 0.064390 0.073964 -0.668901 0.660399 -0.177575 0.286636 0.353764 0.502159 -0.783291 -0.517887 0.757060 0.219570 -0.802724 0.033247 0.692011 -0.001529 -0.139081 0.117770 -0.000724 0.333914 -0.923647 -0.104474 0.044182 0.209272 -0.045664 0.132328 0.291693 -0.337762 0.622913 -0.614308 0.246920 -0.967651 0.366103 0.233285 0.343542 0.464305 0.064981 -0.461218 -1.065279 -0.325371 -0.259946 -0.252611 -0.860454 0.230327 0.228139 0.442087 -1.274572 0.308732 -0.369334 0.442896 
39 1.080382 -0.214310 0.771541 0.604486 -0.031007 -0.565983 -0.132631 1.244913 1.146676 0.288518 0.511784 0.140751 0.272993 -0.530864 0.354296 0.376120 0.018346 -0.416100 -0.143025 0.299449 -0.337256 0.620924 1.331766 0.369931 0.221069 0.163698 -0.027041 -0.607520 -0.119309 0.832638 -0.010470 -0.321961 0.575790 -0.442592 -0.150869 0.679960 -0.300604 0.826214 0.214393 0.490060 0.359358 0.458859 0.017910 -0.716987 0.502506 -0.738590 -1.262822 -0.406848 0.303301 0.508004 0.024630 0.053181 -0.734523 0.707742 -0.179349 0.313503 0.375168 0.534648 -0.800542 -0.492153 0.784302 0.206400 -0.806960 0.022218 0.628914 0.035911 -0.103815 0.017403 0.002062 0.257501 -0.979635 -0.104076 0.020823 0.186088 -0.084138 0.137558 0.263029 -0.301550 0.609684 -0.666277 0.190635 -1.024773 0.399266 0.202431 0.438060 0.423783 0.062047 -0.565396 -1.134784 -0.317886 -0.266086 -0.306258 -0.860293 0.247449 0.269663 0.440797 -1.323673 0.309082 -0.399622 0.467024 
40 1.050333 -0.211819 0.778975 0.630811 0.010874 -0.524916 -0.103215 1.202027 1.135320 0.248211 0.546577 0.165179 0.213839 -0.568071 0.396218 0.341377 -0.013621 -0.398325 -0.094532 0.298237 -0.377089 0.529963 1.387812 0.364618 0.218827 0.213570 -0.065858 -0.554206 -0.096153 0.796041 0.004488 -0.303177 0.573889 -0.491598 -0.259850 0.721788 -0.253422 0.840585 0.181844 0.543501 0.340173 0.496565 0.034153 -0.758466 0.459537 -0.700288 -1.250217 -0.365838 0.287136 0.554146 0.068407 0.110084 -0.698068 0.698454 -0.205189 0.316965 0.333744 0.534409 -0.797759 -0.526143 0.786113 0.225634 -0.835630 0.038874 0.676246 0.050326 -0.087570 0.056622 0.028899 0.317722 -0.983433 -0.081786 0.036281 0.190189 -0.080874 0.134120 0.280596 -0.301423 0.658824 -0.668012 0.204580 -0.985016 0.368727 0.228728 0.332109 0.484546 0.062572 -0.522353 -1.129341 -0.365837 -0.273686 -0.268522 -0.881037 0.257407 0.257621 0.458985 -1.327398 0.328970 -0.380302 0.477972 
41 0.948070 -0.162208 0.733742 0.602091 -0.068706 -0.448398 -0.108759 1.136395 1.042949 0.242022 0.524459 0.169407 0.204277 -0.479240 0.376040 0.338750 -0.016728 -0.366806 -0.055392 0.297162 -0.282036 0.476207 1.380671 0.375836 0.262157 0.183857 -0.088898 -0.556810 -0.052804 0.786457 0.045801 -0.242502 0.561605 -0.506150 -0.228337 0.730019 -0.309272 0.824467 0.144143 0.561529 0.329768 0.504731 0.028274 -0.677814 0.448747 -0.666174 -1.176442 -0.395818 0.335647 0.517749 0.106735 0.192473 -0.693501 0.680308 -0.161804 0.243220 0.320764 0.495182 -0.777015 -0.545495 0.831733 0.236741 -0.764355 0.091975 0.616279 0.010698 -0.067606 0.127345 -0.014873 0.221837 -0.945479 -0.101404 0.033128 0.196484 -0.041573 0.085112 0.235494 -0.322925 0.574993 -0.582585 0.140932 -0.922912 0.369699 0.192202 0.312251 0.453041 0.066941 -0.408128 -1.115768 -0.378584 -0.261251 -0.246157 -0.859955 0.306504 0.285248 0.363796 -1.270952 0.346188 -0.307091 0.455202 
42 1.084476 -0.237797 0.714044 0.589194 -0.004485 -0.487433 -0.050565 1.128875 1.000980 0.271081 0.486583 0.126261 0.271050 -0.453585 0.317552 0.383769 -0.052013 -0.389252 -0.117595 0.339934 -0.257366 0.523436 1.291914 0.375960 0.248577 0.162689 -0.042142 -0.472596 -0.091390 0.753050 0.003762 -0.252555 0.531682 -0.499531 -0.089487 0.615626 -0.300016 0.817554 0.209069 0.482009 0.291173 0.457928 0.030656 -0.606742 0.398873 -0.649764 -1.166171 -0.342855 0.254686 0.514735 0.075359 0.166702 -0.670862 0.609757 -0.163449 0.271091 0.300531 0.490228 -0.726231 -0.518147 0.779583 0.216842 -0.785292 0.084843 0.601533 -0.014224 -0.171228 0.123596 -0.040825 0.264708 -0.887241 -0.103845 0.049863 0.189099 -0.044352 0.046283 0.295229 -0.292847 0.587107 -0.613834 0.229636 -0.960551 0.341768 0.232402 0.268733 0.446155 0.054949 -0.409344 -1.023979 -0.359331 -0.289940 -0.218150 -0.899395 0.262466 0.294682 0.348996 -1.169261 0.369022 -0.293393 0.427652 
43 0.993869 -0.199643 0.751233 0.596772 0.037296 -0.493979 -0.059747 1.103127 1.023436 0.274716 0.474673 0.157273 0.222124 -0.478919 0.381429 0.366381 -0.024858 -0.367876 -0.160811 0.260911 -0.362426 0.508969 1.270037 0.348330 0.280991 0.206654 -0.110312 -0.504802 -0.065535 0.731679 0.036834 -0.271623 0.553648 -0.510360 -0.212123 0.688967 -0.287076 0.838429 0.096257 0.478346 0.389696 0.472075 0.002386 -0.619058 0.446855 -0.628766 -1.107060 -0.356611 0.382771 0.506044 0.063546 0.150296 -0.689784 0.702391 -0.154340 0.296752 0.328990 0.475251 -0.776191 -0.472422 0.801692 0.238739 -0.746521 0.079875 0.620218 0.026380 -0.060081 0.077733 -0.010564 0.265010 -0.917264 -0.116167 0.001040 0.177954 -0.068314 0.045656 0.235233 -0.300096 0.606243 -0.599836 0.106664 -0.939894 0.366853 0.186396 0.321173 0.407643 0.008549 -0.482391 -1.102055 -0.325987 -0.225946 -0.231148 -0.836995 0.229208 0.242706 0.367795 -1.266587 0.362889 -0.319749 0.447336 
44 1.009719 -0.207582 0.695919 0.543124 -0.013671 -0.548557 -0.021558 1.116505 0.979064 0.231811 0.443002 0.131008 0.176262 -0.536388 0.288078 0.359578 -0.077758 -0.399730 -0.121651 0.323324 -0.330895 0.578290 1.244760 0.389363 0.280054 0.210095 -0.044069 -0.513843 -0.058091 0.744064 0.058601 -0.191073 0.581397 -0.537942 -0.111972 0.635330 -0.348034 0.898634 0.137270 0.431222 0.423156 0.379113 -0.049791 -0.555169 0.369088 -0.618741 -1.152593 -0.317266 0.369935 0.513684 0.069630 0.222952 -0.648627 0.614892 -0.154396 0.337505 0.346754 0.486100 -0.688290 -0.529202 0.897034 0.302099 -0.798588 0.165319 0.529819 0.083722 -0.108331 0.011972 -0.050544 0.176018 -0.938032 -0.162302 0.081023 0.117860 -0.065949 0.053380 0.252062 -0.298703 0.558429 -0.642145 0.121643 -1.000547 0.361481 0.201061 0.401530 0.416456 0.155502 -0.505143 -1.063367 -0.281131 -0.220808 -0.293998 -0.852183 0.280699 0.278410 0.348348 -1.269789 0.380370 -0.327234 0.449698 
45 0.957823 -0.174425 0.693385 0.565677 -0.060718 -0.404436 -0.122054 1.042555 0.934471 0.257193 0.402275 0.182122 0.212829 -0.478259 0.353717 0.306332 0.098932 -0.437818 -0.048576 0.215055 -0.350200 0.419645 1.355875 0.284873 0.286667 0.252224 -0.123303 -0.390850 -0.065671 0.718051 0.045301 -0.364732 0.595961 -0.549520 -0.152205 0.706267 -0.278539 0.770653 0.076473 0.471040 0.322773 0.515818 0.011559 -0.497937 0.393121 -0.563273 -1.060204 -0.301905 0.389224 0.498411 -0.003437 0.119876 -0.740380 0.700230 -0.089174 0.330000 0.305041 0.444802 -0.763804 -0.361839 0.771182 0.180793 -0.685161 0.080219 0.606432 0.146207 0.022928 0.033456 0.072084 0.143390 -0.933842 -0.011804 -0.000050 0.111213 -0.164217 0.074813 0.181922 -0.185243 0.547239 -0.648094 0.147700 -0.939953 0.426827 0.181133 0.421733 0.369594 0.101345 -0.509053 -1.190986 -0.300168 -0.185057 -0.209029 -0.844181 0.203346 0.199435 0.379406 -1.288592 0.372522 -0.366508 0.457144 
46 0.950615 -0.212464 0.751587 0.564778 -0.058875 -0.512788 -0.109175 1.096046 0.900736 0.245379 0.373870 0.173546 0.117977 -0.531182 0.369368 0.327342 0.052338 -0.400860 -0.144135 0.178725 -0.386307 0.522922 1.234233 0.314518 0.349856 0.235190 -0.138006 -0.468427 -0.006626 0.715399 0.079954 -0.267759 0.572070 -0.466582 -0.179247 0.730856 -0.283771 0.723034 0.063558 0.460694 0.382813 0.452262 -0.056610 -0.527002 0.386290 -0.572359 -0.991655 -0.365656 0.423776 0.474041 0.039981 0.131901 -0.741598 0.694389 -0.083802 0.308065 0.372646 0.425393 -0.745689 -0.409730 0.826366 0.219909 -0.641217 0.113654 0.532542 0.092427 0.035463 0.040646 0.023667 0.120954 -0.876209 -0.079225 -0.013224 0.093656 -0.159132 0.073036 0.191442 -0.233935 0.477072 -0.622727 0.054281 -0.922406 0.402452 0.173566 0.426592 0.337399 0.067261 -0.488214 -1.096031 -0.276106 -0.220684 -0.206500 -0.825575 0.283726 0.291231 0.318165 -1.194038 0.366561 -0.293776 0.449270 
47 1.031655 -0.265852 0.656931 0.503917 0.060685 -0.658823 -0.051514 1.117416 0.924198 0.206807 0.400338 0.114922 0.114037 -0.546001 0.295276 0.313167 -0.071338 -0.317128 -0.130275 0.275377 -0.427321 0.548385 1.077757 0.404885 0.287096 0.223043 -0.067849 -0.478666 -0.078763 0.696207 0.053803 -0.271499 0.547880 -0.477315 -0.122578 0.592557 -0.286891 0.826585 0.148811 0.381470 0.446175 0.333520 -0.080956 -0.452804 0.373602 -0.606400 -1.152833 -0.280965 0.324716 0.479061 0.057117 0.155962 -0.609062 0.548154 -0.115943 0.344062 0.329117 0.452227 -0.674237 -0.448829 0.845287 0.261920 -0.738051 0.160485 0.500522 0.105393 -0.060284 -0.004751 -0.037760 0.212925 -0.903729 -0.196081 0.083012 0.104856 -0.102902 0.056048 0.250827 -0.243647 0.544089 -0.656016 0.103913 -0.951484 0.375456 0.212408 0.429215 0.380568 0.147104 -0.520309 -0.992442 -0.196597 -0.191118 -0.295604 -0.800680 0.221679 0.249472 0.308362 -1.123625 0.402135 -0.286065 0.477484 
48 0.907445 -0.165641 0.671993 0.534834 -0.074077 -0.443907 -0.096907 1.055754 0.923863 0.263542 0.336748 0.135034 0.228525 -0.474954 0.266375 0.373285 0.071058 -0.440710 -0.086556 0.194324 -0.331717 0.490208 1.275145 0.313493 0.313613 0.231462 -0.094914 -0.398047 -0.065862 0.670784 0.021472 -0.341451 0.596059 -0.556982 -0.089121 0.648425 -0.324010 0.823457 0.058424 0.364710 0.412041 0.451679 -0.033180 -0.442264 0.331681 -0.509440 -0.979609 -0.285202 0.425705 0.468405 -0.004131 0.158252 -0.729326 0.697179 -0.057248 0.348806 0.312155 0.436354 -0.701807 -0.367774 0.793004 0.190551 -0.682615 0.109679 0.499151 0.159163 0.060033 -0.013863 0.026856 0.034485 -0.913468 -0.033251 -0.027949 0.070196 -0.180127 0.000230 0.163227 -0.180243 0.490941 -0.631423 0.065200 -0.936879 0.404240 0.177076 0.406764 0.331049 0.110612 -0.489861 -1.150532 -0.319938 -0.236768 -0.189176 -0.866255 0.269046 0.290241 0.292442 -1.227525 0.418512 -0.320213 0.434934 
49 0.883745 -0.176111 0.675084 0.537713 -0.043030 -0.467804 -0.091311 1.024115 0.906064 0.220357 0.376799 0.167331 0.219691 -0.467105 0.265463 0.359786 0.000770 -0.448230 -0.040918 0.264585 -0.385569 0.415449 1.310639 0.334769 0.295000 0.299533 -0.138750 -0.406099 -0.014910 0.658193 0.077760 -0.206369 0.609028 -0.548278 -0.120938 0.689111 -0.357625 0.848517 0.000329 0.461607 0.374605 0.441504 -0.084867 -0.432613 0.333521 -0.484583 -0.979406 -0.276772 0.404073 0.508833 0.078907 0.316680 -0.692337 0.649078 -0.069067 0.348560 0.367306 0.443928 -0.668989 -0.459148 0.862060 0.223604 -0.778156 0.158755 0.514829 0.173044 -0.007382 -0.035013 0.056625 0.053057 -0.930011 -0.052853 0.001519 0.049932 -0.186536 0.023710 0.236352 -0.198668 0.529797 -0.694212 0.120940 -0.963213 0.408942 0.232089 0.431180 0.361353 0.158420 -0.528257 -1.208804 -0.274804 -0.192413 -0.210386 -0.912407 0.274131 0.260115 0.332080 -1.308392 0.499366 -0.351983 0.503879 
50 0.823720 -0.164936 0.659004 0.485894 -0.072740 -0.540389 -0.108545 1.043170 0.870155 0.162022 0.354248 0.148293 0.073509 -0.529231 0.260242 0.285625 -0.008416 -0.407858 -0.036026 0.267907 -0.352062 0.465290 1.209095 0.350691 0.273198 0.263233 -0.088833 -0.389797 -0.032468 0.666204 0.098259 -0.253163 0.548196 -0.525718 -0.148525 0.674795 -0.347500 0.832178 0.041866 0.396913 0.435605 0.399296 -0.064959 -0.364283 0.324334 -0.492540 -1.014240 -0.221370 0.416659 0.493200 0.069168 0.257798 -0.641543 0.577021 -0.106711 0.394417 0.306296 0.447626 -0.651690 -0.431560 0.845574 0.243647 -0.758436 0.170273 0.509209 0.230931 0.034560 -0.031425 -0.004975 0.063350 -0.932847 -0.130835 0.067296 0.046568 -0.152437 0.053715 0.231568 -0.198037 0.542874 -0.699289 0.079416 -0.927315 0.379540 0.203076 0.396339 0.363916 0.166113 -0.548229 -1.116891 -0.228554 -0.191318 -0.269498 -0.821760 0.250255 0.227353 0.312038 -1.213037 0.441225 -0.311924 0.493803 
51 0.955878 -0.212096 0.594884 0.462137 -0.089508 -0.557773 -0.081889 1.067863 0.794373 0.187064 0.291602 0.130817 0.076476 -0.536981 0.246727 0.324899 -0.040055 -0.406822 -0.082971 0.264130 -0.337985 0.461585 1.202772 0.383920 0.330475 0.272817 -0.145913 -0.374475 0.017659 0.606460 0.033491 -0.176452 0.592651 -0.573304 -0.106491 0.670239 -0.354408 0.853334 0.018557 0.426869 0.409371 0.382478 -0.136807 -0.361123 0.273830 -0.467388 -0.962546 -0.275740 0.371045 0.519643 0.131272 0.294651 -0.666830 0.597691 -0.034267 0.364278 0.421876 0.434276 -0.639552 -0.475299 0.893726 0.239861 -0.779310 0.188858 0.488604 0.176585 0.023147 -0.036939 -0.038619 0.041594 -0.919826 -0.141142 0.038037 0.008773 -0.213899 -0.030675 0.269578 -0.213578 0.564502 -0.714236 0.047318 -0.944067 0.396562 0.198154 0.372591 0.352261 0.083268 -0.533011 -1.136979 -0.249736 -0.203568 -0.192961 -0.898629 0.259114 0.284505 0.281994 -1.187608 0.497413 -0.274660 0.493197 
52 0.743275 -0.116333 0.673256 0.500513 -0.159505 -0.430691 -0.164397 1.042333 0.950907 0.198729 0.313939 0.159275 0.132153 -0.480337 0.302545 0.311005 0.123145 -0.508967 -0.161582 0.106243 -0.392362 0.440536 1.335462 0.264030 0.379680 0.288269 -0.191767 -0.361265 0.073945 0.660080 0.073750 -0.293916 0.617009 -0.566807 -0.174885 0.790954 -0.322289 0.801318 -0.013379 0.457240 0.442056 0.483553 -0.086680 -0.353954 0.303490 -0.476923 -0.911820 -0.330210 0.505658 0.469886 0.092526 0.207498 -0.750368 0.726328 -0.012106 0.347548 0.355536 0.413241 -0.762772 -0.344236 0.898186 0.181809 -0.528184 0.169469 0.498719 0.256136 0.239590 0.063693 0.062523 -0.042958 -0.949095 -0.000567 -0.021709 0.049470 -0.228066 0.029166 0.060020 -0.170558 0.409393 -0.578582 -0.089287 -0.883994 0.524140 0.100103 0.438563 0.278764 0.111768 -0.430944 -1.288242 -0.346974 -0.207674 -0.154295 -0.886621 0.284709 0.240423 0.210431 -1.263189 0.469552 -0.257042 0.490532 
53 0.872492 -0.125745 0.608839 0.515857 -0.160219 -0.421479 -0.067422 1.004236 0.852248 0.186459 0.298381 0.155071 0.102956 -0.452289 0.299365 0.311507 0.054274 -0.419307 -0.123211 0.204048 -0.358763 0.467598 1.259069 0.308497 0.366499 0.274494 -0.136587 -0.403350 0.011744 0.623083 0.126659 -0.213071 0.573182 -0.552959 -0.097776 0.650781 -0.326427 0.844622 -0.035116 0.418372 0.405271 0.435795 -0.058432 -0.335099 0.277973 -0.494399 -0.933333 -0.280288 0.484903 0.438181 0.041184 0.269279 -0.664832 0.654514 -0.022931 0.309011 0.333315 0.370125 -0.669759 -0.383041 0.877016 0.195043 -0.621476 0.229959 0.456976 0.149907 0.024919 0.075866 0.032062 -0.005172 -0.877764 -0.038021 0.034903 0.038832 -0.144713 -0.011273 0.112817 -0.201322 0.434712 -0.544301 0.053258 -0.902623 0.452804 0.164686 0.419167 0.281760 0.168447 -0.427467 -1.145820 -0.260783 -0.171435 -0.178563 -0.877802 0.243503 0.208769 0.221824 -1.195498 0.470048 -0.296050 0.443840 
54 0.748010 -0.147946 0.602781 0.442234 -0.126622 -0.530964 -0.117181 1.026917 0.854854 0.151318 0.262491 0.140789 0.064799 -0.540947 0.221692 0.270471 0.045000 -0.465537 -0.078469 0.239024 -0.358502 0.446919 1.214892 0.343786 0.321600 0.318679 -0.079690 -0.328593 -0.001774 0.627706 0.100929 -0.296049 0.587292 -0.535286 -0.062131 0.674513 -0.357870 0.887459 0.055771 0.341901 0.479187 0.389491 -0.105286 -0.213244 0.266670 -0.456734 -0.932869 -0.263324 0.436374 0.429603 0.042098 0.271257 -0.632710 0.601015 -0.043112 0.391018 0.308712 0.404092 -0.616810 -0.334250 0.845649 0.171911 -0.638639 0.189242 0.388916 0.284098 0.110624 -0.060574 0.007420 -0.132927 -0.934967 -0.058341 0.064592 -0.015191 -0.218753 0.056669 0.146769 -0.133699 0.405860 -0.661653 0.034669 -0.898606 0.470828 0.142881 0.491165 0.275867 0.244453 -0.523203 -1.192074 -0.246522 -0.213630 -0.255236 -0.871837 0.279725 0.248758 0.213032 -1.230645 0.479398 -0.289898 0.500383 
55 0.848902 -0.179829 0.625050 0.470062 -0.129127 -0.518321 -0.110166 1.028141 0.776279 0.186775 0.218689 0.142722 0.044182 -0.490287 0.258800 0.287604 0.038133 -0.434648 -0.093805 0.158343 -0.407337 0.447244 1.193411 0.299914 0.388707 0.289417 -0.127440 -0.275923 0.012018 0.627601 0.117436 -0.242623 0.589854 -0.559483 -0.110565 0.687777 -0.321701 0.839136 0.013021 0.414274 0.447450 0.431391 -0.082852 -0.252627 0.314864 -0.466433 -0.973497 -0.244250 0.481281 0.455241 0.012724 0.236170 -0.698299 0.641241 -0.071398 0.374029 0.345203 0.408844 -0.655863 -0.389198 0.849862 0.179099 -0.666362 0.174067 0.453094 0.223867 0.076236 -0.026948 0.048890 -0.055975 -0.906084 -0.053515 0.050444 -0.000133 -0.208204 0.024890 0.152898 -0.141993 0.431194 -0.646534 0.033990 -0.892342 0.404756 0.169713 0.460115 0.300690 0.178255 -0.497822 -1.157357 -0.231114 -0.187350 -0.198396 -0.848978 0.268715 0.233947 0.269874 -1.226844 0.468711 -0.300842 0.478381 
56 0.847387 -0.136098 0.519620 0.467373 -0.181185 -0.398249 -0.125699 0.950142 0.813345 0.195515 0.134189 0.133026 0.140494 -0.398337 0.225166 0.318102 0.165298 -0.556986 -0.118824 0.156978 -0.429513 0.413794 1.305735 0.214215 0.395689 0.348039 -0.186020 -0.207060 0.049206 0.562330 0.064958 -0.305134 0.655046 -0.598047 -0.041095 0.727217 -0.334596 0.841762 -0.073612 0.408776 0.420415 0.478659 -0.123208 -0.145498 0.212125 -0.356699 -0.809760 -0.230486 0.500874 0.457402 0.030028 0.307558 -0.729256 0.678159 0.052798 0.369391 0.350420 0.371180 -0.661832 -0.267707 0.822763 0.114789 -0.568227 0.165955 0.407748 0.318086 0.182400 -0.072224 0.129079 -0.192091 -0.895418 0.087502 -0.034751 -0.056110 -0.325182 0.021363 0.117951 -0.074473 0.366785 -0.640639 0.063127 -0.894868 0.507984 0.166046 0.491641 0.210985 0.220075 -0.503080 -1.276108 -0.268351 -0.231853 -0.119191 -0.945553 0.315962 0.319948 0.213331 -1.181875 0.502148 -0.323262 0.483861 
57 0.684434 -0.096364 0.597719 0.455379 -0.244760 -0.434808 -0.202751 0.984310 0.800949 0.199543 0.033637 0.169985 0.069845 -0.422786 0.208222 0.316109 0.181721 -0.549838 -0.096404 0.067992 -0.437519 0.440525 1.260655 0.212796 0.351172 0.312186 -0.188553 -0.344041 0.040640 0.613158 0.095315 -0.333928 0.629513 -0.549102 -0.018800 0.758697 -0.384858 0.794659 -0.073495 0.321697 0.457893 0.468641 -0.091536 -0.177284 0.270230 -0.344974 -0.725980 -0.255190 0.561670 0.406240 -0.041405 0.234742 -0.772237 0.700948 0.056603 0.368421 0.435001 0.337414 -0.602554 -0.304082 0.852416 0.146540 -0.511974 0.180575 0.381916 0.328309 0.234727 -0.067710 0.131831 -0.271919 -0.886223 0.057247 -0.065106 -0.071884 -0.311392 0.080068 0.069657 -0.072651 0.299391 -0.647463 0.004870 -0.857048 0.450190 0.192210 0.547254 0.208242 0.222775 -0.544800 -1.270205 -0.250574 -0.234361 -0.155392 -0.839562 0.348489 0.297753 0.231295 -1.213087 0.483220 -0.319037 0.498148 
58 0.672809 -0.059492 0.584716 0.501490 -0.216470 -0.401973 -0.180886 1.007600 0.746445 0.230918 0.056171 0.188227 0.085233 -0.356219 0.227185 0.310907 0.209104 -0.537970 -0.068034 0.035666 -0.417049 0.334192 1.270072 0.201088 0.393384 0.341362 -0.216205 -0.257988 0.080561 0.558126 0.065014 -0.371424 0.545882 -0.542575 -0.041847 0.823024 -0.405366 0.820724 -0.018825 0.303187 0.498833 0.518984 -0.102182 -0.143103 0.278598 -0.313415 -0.691508 -0.253050 0.579962 0.387236 -0.075324 0.164445 -0.828868 0.735365 0.054604 0.377334 0.404360 0.343161 -0.613272 -0.254137 0.791201 0.055684 -0.474338 0.140410 0.365208 0.279640 0.276288 -0.027788 0.126381 -0.281532 -0.848505 0.096017 -0.139346 -0.079493 -0.356068 0.041429 0.082806 -0.048650 0.289829 -0.627064 -0.054668 -0.819864 0.470943 0.122489 0.464206 0.240259 0.207345 -0.411290 -1.307149 -0.288084 -0.293767 -0.132616 -0.904353 0.409151 0.319947 0.185587 -1.218050 0.484227 -0.268257 0.514569 
59 0.788291 -0.109111 0.579148 0.453251 -0.265331 -0.413787 -0.145564 1.032696 0.761077 0.266186 0.065644 0.117135 0.101476 -0.472059 0.201168 0.312544 0.187606 -0.540520 -0.125578 0.111051 -0.383314 0.424537 1.282253 0.250676 0.434114 0.351935 -0.152516 -0.224489 0.008626 0.603981 0.128739 -0.357679 0.642919 -0.559212 0.030425 0.701950 -0.387136 0.820632 -0.064392 0.327164 0.481082 0.495989 -0.111847 -0.150504 0.254911 -0.330953 -0.761568 -0.230095 0.556571 0.409911 -0.060329 0.289713 -0.792074 0.695109 0.073169 0.353750 0.350489 0.291294 -0.614155 -0.248473 0.873129 0.155958 -0.486398 0.205840 0.318128 0.369157 0.243744 -0.078330 0.157941 -0.241566 -0.887607 0.111050 -0.033703 -0.052322 -0.285666 -0.007873 0.110416 -0.085563 0.304594 -0.608439 0.031914 -0.921729 0.456987 0.199571 0.550413 0.206030 0.286709 -0.482911 -1.254677 -0.287213 -0.232863 -0.124971 -0.966954 0.320356 0.331555 0.165071 -1.246694 0.564538 -0.334074 0.489350 
60 0.739687 -0.056630 0.541038 0.508515 -0.198000 -0.346158 -0.143276 0.895507 0.778391 0.205408 0.043755 0.140780 0.163948 -0.287710 0.229061 0.338143 0.165638 -0.527341 -0.120135 0.157215 -0.409987 0.388657 1.252894 0.178946 0.311466 0.327482 -0.167265 -0.280003 0.029816 0.531971 0.092341 -0.283593 0.550008 -0.508636 0.036344 0.697125 -0.415034 0.824429 -0.030152 0.356611 0.442021 0.510990 -0.069895 -0.142365 0.262762 -0.323214 -0.750150 -0.228519 0.528916 0.408686 -0.059557 0.313554 -0.748402 0.639038 0.049996 0.318580 0.403227 0.341735 -0.589279 -0.288786 0.798304 0.072332 -0.474282 0.205575 0.369701 0.286128 0.187368 -0.014960 0.112819 -0.268912 -0.852189 0.088099 -0.051945 -0.070649 -0.302722 0.006715 0.038224 -0.038648 0.333983 -0.601847 0.006994 -0.871794 0.481550 0.169064 0.417367 0.196560 0.204688 -0.462642 -1.282380 -0.318713 -0.279344 -0.115588 -0.951422 0.305566 0.302635 0.139918 -1.153668 0.536401 -0.297474 0.491608 
61 0.707860 -0.097268 0.551946 0.465026 -0.232126 -0.520836 -0.234601 0.973104 0.754459 0.174200 -0.073174 0.126493 0.055301 -0.380967 0.190776 0.308922 0.213605 -0.617923 -0.064813 0.065131 -0.477654 0.397089 1.268276 0.151719 0.357042 0.438147 -0.221503 -0.223478 0.065151 0.519196 0.109556 -0.376393 0.630831 -0.569333 -0.010495 0.793495 -0.426072 0.776762 -0.131587 0.341332 0.420381 0.491828 -0.172944 -0.036989 0.239192 -0.236258 -0.641410 -0.217062 0.554650 0.421030 -0.015011 0.354000 -0.804463 0.663690 0.088393 0.365100 0.418310 0.298687 -0.578614 -0.239270 0.909681 0.140136 -0.484175 0.240302 0.325922 0.387653 0.265212 -0.090757 0.198608 -0.279780 -0.848480 0.122748 -0.071833 -0.141604 -0.380520 0.058016 0.114222 -0.043472 0.305167 -0.699747 0.018591 -0.878118 0.481756 0.227041 0.572821 0.166739 0.323378 -0.510656 -1.321974 -0.196959 -0.268805 -0.165742 -0.933384 0.385314 0.388215 0.162208 -1.189386 0.550165 -0.339653 0.545661 
62 0.756598 -0.090584 0.471573 0.420257 -0.281896 -0.440547 -0.194756 0.953701 0.701515 0.247587 -0.205302 0.101988 0.022064 -0.364529 0.176182 0.286966 0.276532 -0.571648 -0.204536 -0.009370 -0.445681 0.437709 1.175135 0.093274 0.407752 0.361817 -0.171617 -0.220898 0.081028 0.563258 0.167252 -0.362781 0.605398 -0.493131 0.048497 0.743351 -0.419139 0.779250 -0.123161 0.336290 0.461150 0.459257 -0.187474 -0.040759 0.260739 -0.291762 -0.620961 -0.296361 0.611006 0.333006 -0.091237 0.334694 -0.792292 0.672117 0.137361 0.298584 0.478394 0.257751 -0.566983 -0.222037 0.851268 0.077218 -0.378835 0.225595 0.268334 0.325058 0.254449 -0.048985 0.174604 -0.434570 -0.786304 0.146997 -0.068491 -0.134961 -0.330780 0.074962 0.059664 -0.030612 0.165892 -0.589503 0.019311 -0.835589 0.492727 0.191402 0.613302 0.084216 0.338174 -0.467211 -1.229053 -0.173200 -0.272179 -0.088067 -0.917507 0.350160 0.326166 0.104644 -1.137068 0.547993 -0.317398 0.514158 
63 0.716125 -0.041812 0.518627 0.523656 -0.321818 -0.415045 -0.190701 0.912266 0.636833 0.192620 -0.176950 0.098478 0.039366 -0.292783 0.219926 0.343073 0.220859 -0.519148 -0.166539 0.029974 -0.418918 0.452732 1.135659 0.120407 0.399651 0.318428 -0.256688 -0.294028 0.098915 0.478444 0.127757 -0.299507 0.465531 -0.395717 0.034327 0.723049 -0.404975 0.715483 -0.080415 0.336625 0.384263 0.473906 -0.148961 -0.049069 0.209973 -0.236213 -0.561292 -0.250366 0.546885 0.361787 -0.034348 0.389566 -0.760301 0.619186 0.082195 0.260331 0.403499 0.263014 -0.543324 -0.222465 0.820097 0.072651 -0.281701 0.297233 0.212650 0.259930 0.230235 0.025247 0.162779 -0.362310 -0.704022 0.132011 -0.038219 -0.131556 -0.329361 0.060118 0.080045 0.005126 0.175357 -0.560022 0.074263 -0.790846 0.447363 0.243580 0.488092 0.137656 0.382041 -0.326210 -1.202885 -0.209350 -0.354416 -0.088449 -0.953928 0.386278 0.415011 0.028396 -0.939623 0.560612 -0.203837 0.506783 
64 0.674406 -0.029387 0.447008 0.450303 -0.285964 -0.541102 -0.264049 0.915142 0.704808 0.151585 -0.273662 0.066404 0.013672 -0.251331 0.146805 0.340584 0.229824 -0.613610 -0.215613 0.118930 -0.457323 0.572600 1.072058 0.049092 0.263242 0.359260 -0.159663 -0.306487 0.000251 0.443136 0.116417 -0.466333 0.399757 -0.364259 0.223773 0.634132 -0.480939 0.702475 0.021289 0.228462 0.434560 0.464097 -0.183842 0.159552 0.285548 -0.142494 -0.441143 -0.217602 0.497852 0.362944 -0.049481 0.494731 -0.726161 0.486539 0.001740 0.189996 0.394295 0.283613 -0.473572 -0.147036 0.806810 -0.004497 -0.196247 0.301360 0.089418 0.295996 0.249238 -0.061117 0.247333 -0.466709 -0.667794 0.179474 -0.020522 -0.212575 -0.361980 0.160973 0.032262 0.065188 0.106245 -0.572252 0.064165 -0.795085 0.418115 0.292315 0.629693 0.045379 0.467415 -0.386304 -1.132538 -0.070896 -0.374043 -0.199658 -0.865780 0.387270 0.474903 -0.035389 -0.871123 0.511207 -0.243214 0.540841 
65 0.961637 -0.153987 0.508281 0.580050 -0.104967 -0.530208 -0.211931 0.728959 0.579606 0.218997 -0.426362 -0.010433 0.066018 -0.092332 0.183428 0.418193 0.252450 -0.524556 -0.452736 -0.030199 -0.348363 0.635847 0.834204 -0.030704 0.317839 0.166474 -0.182191 -0.299129 0.115068 0.402711 0.091390 -0.311076 0.266969 -0.252819 0.326594 0.568129 -0.383180 0.393511 0.026376 0.355893 0.244630 0.438437 -0.197962 0.133504 0.309327 -0.147468 -0.395309 -0.268539 0.465290 0.257694 -0.059835 0.437082 -0.746728 0.461720 0.038996 -0.001770 0.429519 0.227329 -0.438913 -0.191660 0.797716 -0.006416 -0.015635 0.338620 -0.006004 0.169253 0.240520 0.085740 0.247269 -0.423929 -0.472105 0.155837 -0.016609 -0.221814 -0.340312 0.133443 0.025517 0.084214 -0.137132 -0.430134 0.025351 -0.563789 0.364383 0.188802 0.633099 0.022748 0.505325 -0.153472 -0.973188 -0.065967 -0.390360 -0.116445 -0.779330 0.473771 0.560121 -0.163006 -0.599799 0.451459 -0.036124 0.450904 
66 0.931229 -0.210255 0.434299 0.543703 -0.055738 -0.824513 -0.233911 0.796454 0.451942 0.142725 -0.554234 -0.120578 0.041613 0.027731 0.144882 0.394050 0.176863 -0.485539 -0.352402 -0.074498 -0.352698 0.556440 0.513007 -0.117024 0.216919 0.146336 -0.202397 -0.235499 0.130423 0.268200 -0.010050 -0.317461 0.232044 -0.070548 0.402589 0.450752 -0.358154 0.225557 0.044993 0.392283 0.198674 0.306627 -0.345247 0.208591 0.278366 -0.037654 -0.224008 -0.253739 0.288437 0.213525 0.038798 0.539108 -0.592229 0.302320 -0.021767 -0.129324 0.422875 0.177879 -0.353094 -0.199653 0.722196 -0.003996 0.007462 0.326345 -0.108365 0.000981 0.118393 0.089095 0.200966 -0.415912 -0.204231 0.146029 0.005143 -0.212847 -0.291847 0.143175 0.154209 0.118065 -0.222772 -0.391683 0.088775 -0.552352 0.267534 0.274033 0.644625 -0.005922 0.524939 -0.075243 -0.677380 0.141161 -0.289956 -0.087701 -0.673402 0.401441 0.459118 -0.130469 -0.497696 0.412226 -0.062507 0.397799 
67 1.035714 -0.266707 0.354029 0.524926 0.011988 -0.578127 -0.230251 0.523708 0.402621 0.158493 -0.643144 -0.089601 0.051346 0.155468 0.168950 0.478828 0.103353 -0.405097 -0.443082 0.024318 -0.204529 0.449878 0.603159 -0.080841 0.210966 0.124067 -0.349930 -0.393118 0.154711 0.296738 0.022857 -0.192958 0.086435 0.025256 0.406810 0.441498 -0.414106 0.150750 -0.032759 0.488490 0.013573 0.357183 -0.283716 0.058299 0.294889 -0.002551 -0.077874 -0.329545 0.218181 0.223601 0.174865 0.805728 -0.583441 0.297941 -0.005890 -0.209161 0.398638 0.153797 -0.292163 -0.333005 0.745106 0.038609 0.005609 0.368838 -0.100685 -0.054343 0.051190 0.206701 0.271650 -0.385918 -0.211732 0.190225 0.046673 -0.146025 -0.187583 0.228603 0.199425 0.048449 -0.220045 -0.299835 0.295476 -0.340153 0.110751 0.364741 0.453646 0.065894 0.586374 0.063516 -0.668759 0.058066 -0.320354 -0.084404 -0.645898 0.507849 0.575763 -0.196867 -0.293712 0.323621 0.051912 0.397118 
68 1.102117 -0.226316 0.200960 0.452239 -0.114720 -0.483166 -0.140964 0.521514 0.182712 0.141467 -0.570755 -0.131392 -0.003784 0.138828 0.156246 0.371936 0.086533 -0.324153 -0.392385 0.028809 -0.097841 0.479432 0.451489 -0.105318 0.158857 0.035858 -0.335974 -0.448671 0.120514 0.127950 0.064905 -0.091581 0.002079 0.062740 0.328277 0.346157 -0.383118 0.093199 -0.000172 0.368077 -0.053926 0.312770 -0.250051 -0.111288 0.344093 0.017216 -0.023008 -0.307351 0.190342 0.155366 0.091887 0.723362 -0.493297 0.174302 -0.025126 -0.390950 0.349393 0.092989 -0.242701 -0.243157 0.590235 0.068584 0.130003 0.281963 -0.096809 -0.052174 0.080522 0.264035 0.361033 -0.241808 -0.050936 0.191784 -0.124738 -0.065077 -0.107963 0.233025 0.411606 -0.068331 -0.261433 -0.201822 0.413873 -0.334944 0.063760 0.476362 0.421893 0.002912 0.451740 0.130670 -0.469108 0.120874 -0.277367 -0.019962 -0.567078 0.401836 0.503350 -0.155017 -0.039481 0.262387 0.057391 0.239578 
69 0.955243 -0.231662 0.155466 0.345605 -0.074296 -0.393323 -0.091091 0.483094 0.190175 0.203343 -0.607876 -0.117721 0.041482 0.190287 0.150320 0.377535 0.023526 -0.198122 -0.466568 0.060284 0.021409 0.422088 0.385349 -0.086956 0.107117 0.001289 -0.280555 -0.514291 0.079629 0.165962 0.049375 0.031154 -0.004651 0.130383 0.232060 0.267562 -0.352172 0.122409 0.072660 0.252559 -0.090082 0.206683 -0.176344 -0.321972 0.325392 -0.041236 0.014445 -0.324803 0.107963 0.081267 0.043712 0.574780 -0.407275 0.138102 0.006919 -0.375476 0.342777 0.054334 -0.190998 -0.265996 0.479984 0.075269 0.102633 0.206701 -0.078583 -0.192842 -0.063530 0.253867 0.363859 -0.153494 0.036397 0.178507 -0.098701 -0.023771 -0.040084 0.278062 0.352044 -0.096500 -0.273243 -0.135313 0.428496 -0.222154 -0.018746 0.435027 0.475739 0.021035 0.418073 0.131959 -0.316108 0.218718 -0.107281 -0.051158 -0.388698 0.341334 0.386187 -0.074226 -0.126835 0.146094 -0.043557 0.202507 
70 0.933342 -0.207629 0.028852 0.227779 -0.103411 -0.344455 -0.073381 0.332008 -0.040398 0.232450 -0.678791 -0.122196 0.154289 0.261677 0.116857 0.367623 0.054469 -0.152885 -0.476910 0.019906 0.052297 0.371117 0.294120 -0.136897 0.079376 0.013909 -0.254209 -0.507538 0.090613 0.163485 0.038377 0.075356 -0.036148 0.287936 0.204863 0.214797 -0.272393 0.013998 0.020465 0.169549 -0.131255 0.120774 -0.180541 -0.432617 0.225543 -0.034006 0.145132 -0.344604 0.070177 0.053068 0.046160 0.498578 -0.329072 0.068773 0.043827 -0.370883 0.286851 -0.023648 -0.107799 -0.178297 0.395272 0.149717 0.162484 0.172730 -0.081497 -0.139239 -0.110663 0.211147 0.350092 -0.034243 0.089200 0.178339 -0.115053 -0.006973 -0.015531 0.271822 0.344646 -0.099672 -0.282669 -0.096339 0.426514 -0.177632 -0.033743 0.371059 0.493788 -0.021230 0.429011 0.093247 -0.178478 0.247472 -0.046127 -0.060328 -0.246453 0.277828 0.305797 -0.030080 0.010275 0.057658 -0.051072 0.101078 
71 0.759060 -0.165400 -0.079607 0.129115 -0.110316 -0.304972 -0.076222 0.314768 -0.055543 0.201045 -0.602691 -0.104091 0.145068 0.328605 0.072076 0.297516 0.024418 -0.103794 -0.386073 0.062313 0.045792 0.251765 0.179336 -0.104743 0.006765 0.024255 -0.215554 -0.506877 0.100656 0.081445 0.011788 0.162169 -0.075093 0.300933 0.096238 0.183675 -0.267715 -0.009176 0.077161 0.031461 -0.099890 0.052259 -0.170972 -0.501659 0.215662 -0.008846 0.232690 -0.320569 -0.011194 0.013651 0.025797 0.369336 -0.262395 0.006196 0.027165 -0.348890 0.213094 -0.059515 -0.037950 -0.092198 0.255407 0.102483 0.202371 0.060866 -0.075112 -0.132320 -0.057600 0.181538 0.338084 0.051718 0.162037 0.203609 -0.166182 0.006346 -0.016434 0.235225 0.359089 -0.137926 -0.230137 -0.051941 0.458579 -0.120938 -0.067448 0.402469 0.457946 -0.028387 0.395595 0.162628 -0.060282 0.342921 0.032601 -0.072310 -0.137862 0.209034 0.205323 -0.014550 0.002378 -0.053922 -0.118977 0.061731 
72 0.739705 -0.176327 -0.115159 0.074325 -0.100343 -0.303884 -0.092791 0.248535 -0.099851 0.134690 -0.471679 -0.098654 0.175008 0.286168 0.024781 0.242712 0.019287 -0.080498 -0.289955 0.029414 0.067939 0.179226 0.112186 -0.109890 -0.060286 0.059866 -0.174318 -0.447669 0.114173 0.046956 0.002755 0.198204 -0.107714 0.333089 0.055730 0.148373 -0.215776 -0.048222 0.076729 -0.021730 -0.106819 0.012724 -0.151459 -0.517939 0.183962 0.032050 0.288616 -0.262497 -0.038292 -0.017071 0.025871 0.330370 -0.202099 -0.047107 0.022500 -0.320471 0.090799 -0.096953 -0.005065 -0.028106 0.216506 0.170997 0.226368 0.022641 -0.059332 -0.056724 -0.042555 0.160466 0.370483 0.189589 0.186239 0.220692 -0.148993 0.036352 0.013286 0.215539 0.349163 -0.124789 -0.189860 -0.048641 0.463341 -0.124264 -0.118293 0.379864 0.474033 -0.007939 0.427995 0.153428 0.028296 0.375321 0.115015 -0.104697 -0.044750 0.144562 0.106702 0.042407 0.008050 -0.100042 -0.155653 0.017663 
73 0.566512 -0.113654 -0.160702 0.015177 -0.148323 -0.283774 -0.104160 0.269425 -0.092804 0.125075 -0.394999 -0.083741 0.208464 0.340999 0.019397 0.231184 0.007572 -0.048973 -0.216777 0.045011 0.041155 0.077978 0.077595 -0.083647 -0.088084 0.123775 -0.195312 -0.452210 0.139599 0.010164 -0.027199 0.282796 -0.058730 0.331910 -0.056833 0.162884 -0.216601 -0.058232 0.049458 -0.052940 -0.078987 -0.005499 -0.166544 -0.536295 0.151476 0.049740 0.348338 -0.268734 -0.051866 -0.011867 0.061096 0.318066 -0.178845 -0.051646 0.043936 -0.286515 0.054701 -0.102037 -0.012877 0.000913 0.202969 0.168304 0.217933 0.015994 -0.033455 -0.026719 -0.016606 0.174649 0.333974 0.239329 0.180138 0.208219 -0.114589 0.034126 0.015726 0.140217 0.323677 -0.141377 -0.140073 -0.018525 0.418442 -0.161102 -0.118321 0.340719 0.418793 0.002057 0.401017 0.171648 0.061816 0.329974 0.131704 -0.089346 -0.039314 0.096795 0.028839 0.017211 -0.028557 -0.089438 -0.157282 0.013365 
74 0.469090 -0.083259 -0.184006 -0.023141 -0.188121 -0.264826 -0.126083 0.270637 -0.129413 0.096002 -0.351548 -0.054476 0.164532 0.320815 0.018262 0.171780 0.009597 -0.024211 -0.164236 0.072359 0.047729 -0.002589 0.083793 -0.077560 -0.102115 0.158177 -0.197519 -0.417714 0.124605 0.010177 0.003134 0.335331 -0.042700 0.317030 -0.091688 0.137829 -0.218638 -0.014794 0.017756 -0.070651 -0.066353 -0.002499 -0.116011 -0.542551 0.137130 0.056716 0.386219 -0.249523 -0.042211 0.012364 0.076236 0.323025 -0.122285 -0.089690 0.032622 -0.261819 -0.091808 -0.123448 -0.029287 0.035408 0.179656 0.196984 0.204627 0.006168 -0.004318 0.025061 0.005258 0.174810 0.345938 0.268194 0.161171 0.193839 -0.145067 0.101824 0.092786 0.120153 0.293920 -0.158778 -0.107736 0.025159 0.360797 -0.129533 -0.131772 0.303776 0.350948 0.016254 0.356675 0.156914 0.095973 0.321093 0.219046 -0.093657 0.009982 0.037901 -0.051997 0.037941 -0.091269 -0.070722 -0.190463 0.003445 
75 0.334252 -0.028309 -0.199750 -0.064199 -0.271557 -0.246803 -0.155697 0.279615 -0.138377 0.085248 -0.298618 -0.064344 0.236444 0.350075 -0.015127 0.148898 -0.015984 -0.016575 -0.116264 0.097619 0.036667 -0.046055 0.064678 -0.058997 -0.111245 0.169553 -0.161434 -0.370318 0.121751 -0.000954 -0.007632 0.355469 0.039482 0.271233 -0.202551 0.142696 -0.177708 0.050718 0.004107 -0.115624 -0.011446 -0.047982 -0.127244 -0.581802 0.055416 0.049116 0.417515 -0.257100 -0.055995 0.043204 0.110029 0.310721 -0.084517 -0.110854 0.041553 -0.220160 -0.147960 -0.130913 -0.048841 0.088058 0.168624 0.230609 0.224938 -0.007571 0.036278 0.071101 0.019962 0.193214 0.303208 0.315457 0.140403 0.186694 -0.087392 0.095652 0.090849 0.077884 0.273122 -0.153787 -0.054778 0.024706 0.321012 -0.162582 -0.108325 0.261682 0.294093 -0.000548 0.288882 0.114546 0.109895 0.283625 0.185347 -0.057558 -0.005764 -0.037699 -0.118448 0.041543 -0.096066 -0.051022 -0.200575 -0.014958 
76 0.263639 -0.007673 -0.155863 -0.065165 -0.290263 -0.237593 -0.190605 0.312328 -0.109948 0.103841 -0.222879 -0.073188 0.256639 0.276347 -0.041551 0.103367 -0.025449 -0.011793 -0.077520 0.120769 0.048071 -0.080422 0.069344 -0.043123 -0.136756 0.157311 -0.101211 -0.295427 0.086428 0.001680 -0.016014 0.414806 0.057613 0.213336 -0.240177 0.081097 -0.173919 0.095205 0.011939 -0.181549 0.014388 -0.067965 -0.091253 -0.593683 0.040292 0.052695 0.407693 -0.202490 -0.031339 0.053821 0.083959 0.254622 -0.066328 -0.121980 0.008531 -0.182935 -0.233644 -0.126668 -0.056686 0.117260 0.134917 0.221858 0.186268 -0.031622 0.041440 0.104083 0.022003 0.173795 0.303771 0.371386 0.101262 0.164276 -0.133126 0.155750 0.146570 0.048323 0.274309 -0.167055 -0.030461 0.032833 0.293261 -0.163670 -0.115988 0.252346 0.283606 0.015968 0.258350 0.102396 0.109706 0.274356 0.264720 -0.106667 0.038410 -0.082154 -0.166431 0.057490 -0.158294 -0.043439 -0.207537 -0.025356 
77 0.206339 0.008340 -0.165974 -0.086744 -0.313624 -0.179473 -0.177062 0.292238 -0.071871 0.072317 -0.152639 -0.080977 0.293747 0.268246 -0.054324 0.091433 -0.043882 -0.007492 -0.033912 0.132791 0.059803 -0.073534 0.064619 -0.021972 -0.128881 0.122292 -0.063976 -0.236531 0.064706 -0.010911 -0.026368 0.391565 0.078764 0.156560 -0.271121 0.055487 -0.134889 0.169342 0.026202 -0.234436 0.054774 -0.094836 -0.058396 -0.611376 -0.021922 0.037649 0.406700 -0.180325 -0.063154 0.089497 0.112528 0.245481 -0.011815 -0.136579 0.008541 -0.151732 -0.342891 -0.104533 -0.099776 0.166714 0.088722 0.240519 0.180450 -0.056301 0.089521 0.156629 0.057732 0.160435 0.271354 0.433512 0.029819 0.145209 -0.129186 0.181847 0.157663 0.012977 0.267653 -0.172705 0.034670 0.044098 0.259092 -0.185076 -0.095554 0.215989 0.240854 0.021283 0.209249 0.090180 0.102449 0.227031 0.279592 -0.110350 0.040851 -0.137263 -0.213924 0.082365 -0.224560 -0.030724 -0.215657 -0.045712 
78 0.237745 0.005638 -0.137186 -0.059838 -0.281235 -0.163060 -0.164771 0.275590 -0.046804 0.070940 -0.062856 -0.077867 0.333028 0.211661 -0.059916 0.083878 -0.042100 -0.004104 -0.024823 0.108729 0.035623 -0.070035 0.042233 -0.009657 -0.108681 0.079185 -0.041448 -0.134368 0.039250 -0.037011 -0.065796 0.366410 0.100001 0.106228 -0.300766 0.017745 -0.090761 0.224697 0.044268 -0.281694 0.096888 -0.112926 -0.045994 -0.612474 -0.076841 0.041398 0.406805 -0.136553 -0.070095 0.129723 0.139956 0.193879 0.020324 -0.129806 -0.004451 -0.092455 -0.404969 -0.077312 -0.127134 0.220163 0.036328 0.233592 0.181146 -0.079966 0.118087 0.201583 0.113397 0.128337 0.238256 0.489145 -0.020768 0.111926 -0.167985 0.206599 0.160312 -0.030836 0.250085 -0.162396 0.084608 0.041038 0.203892 -0.177938 -0.047483 0.182195 0.195462 0.021936 0.140236 0.083730 0.083909 0.216453 0.331116 -0.113320 0.044533 -0.190247 -0.242704 0.086453 -0.253390 -0.011542 -0.199541 -0.056704 
79 0.278673 -0.012209 -0.097840 -0.031889 -0.202892 -0.134345 -0.081923 0.249921 -0.028955 0.087845 0.021213 -0.090040 0.387540 0.186412 -0.052065 0.081781 -0.070008 0.020502 -0.034639 0.081127 -0.015802 -0.110196 -0.002043 0.001534 -0.114524 0.089690 -0.038019 -0.043587 0.009441 -0.072167 -0.078069 0.326272 0.118854 0.057812 -0.351509 -0.004528 -0.029267 0.228236 0.014504 -0.257759 0.134601 -0.121610 -0.038613 -0.562213 -0.144573 0.058868 0.411132 -0.075945 -0.054309 0.176235 0.165816 0.181031 0.058109 -0.118180 0.002438 -0.046175 -0.475713 -0.044436 -0.176671 0.254320 0.017137 0.253759 0.163846 -0.057442 0.134003 0.251384 0.143748 0.094029 0.203714 0.544651 -0.109642 0.056206 -0.184954 0.220314 0.168685 -0.086594 0.282781 -0.178417 0.168612 0.037260 0.156470 -0.215559 -0.016056 0.132322 0.151643 0.038373 0.075896 0.059759 -0.006542 0.138149 0.345900 -0.129056 0.019246 -0.237415 -0.297327 0.089125 -0.287553 0.033533 -0.155192 -0.045131 
80 0.370228 -0.067237 -0.097328 -0.010069 -0.109297 -0.095933 -0.007717 0.171946 -0.031149 0.062317 0.074352 -0.076352 0.408225 0.201876 -0.020871 0.124147 -0.112074 0.066299 -0.029548 0.032536 -0.085686 -0.131462 -0.067424 0.051367 -0.043893 0.078499 -0.095749 0.037255 0.034201 -0.141766 -0.085151 0.328065 0.120389 -0.044579 -0.380349 -0.019794 0.030958 0.243042 -0.032739 -0.277020 0.214794 -0.129967 -0.032342 -0.472928 -0.193883 0.080285 0.383750 -0.001316 -0.025526 0.207175 0.196860 0.162485 0.102855 -0.097001 -0.000543 0.028174 -0.487361 -0.016061 -0.207353 0.258913 0.028473 0.268173 0.165719 -0.023721 0.160777 0.292516 0.235360 0.076510 0.169124 0.615465 -0.171998 -0.006591 -0.178339 0.208678 0.141662 -0.172334 0.265581 -0.169737 0.247212 0.030524 0.058918 -0.224016 0.022003 0.082880 0.095120 0.059998 0.023698 0.081627 -0.026859 0.121645 0.424715 -0.107439 0.009253 -0.299371 -0.367827 0.062196 -0.335536 0.099094 -0.094863 -0.031435 
81 0.427109 -0.129190 -0.073293 -0.006691 0.006020 -0.130972 0.091602 0.178874 -0.055119 0.097099 0.117158 -0.078672 0.395320 0.209130 -0.008066 0.136097 -0.141325 0.111181 -0.041873 0.029310 -0.158608 -0.238932 -0.136271 0.108376 0.029533 0.149285 -0.144787 0.162992 -0.006871 -0.217818 -0.049780 0.322591 0.197144 -0.192031 -0.402392 -0.070578 0.025487 0.285625 -0.147862 -0.292307 0.297877 -0.115956 -0.021982 -0.334741 -0.222283 0.129183 0.384994 0.102790 0.090861 0.229849 0.171139 0.173760 0.108703 -0.060576 0.006726 0.113195 -0.570777 -0.004148 -0.246550 0.271212 0.071386 0.292086 0.093522 0.020777 0.168447 0.325255 0.219694 0.047843 0.108422 0.567133 -0.225423 -0.059006 -0.163429 0.217439 0.172418 -0.305044 0.229934 -0.178816 0.313561 0.037855 -0.029980 -0.301315 0.022068 0.039137 0.038109 0.077081 -0.046939 0.034655 -0.101324 0.055510 0.455209 -0.069463 -0.069714 -0.337776 -0.406618 0.022261 -0.394878 0.201971 -0.098652 -0.018431 
82 0.504665 -0.179862 -0.068151 -0.026417 0.078944 -0.160582 0.121427 0.199124 -0.047008 0.110154 0.144003 -0.062769 0.359470 0.135531 -0.006154 0.139441 -0.158954 0.118924 -0.006205 0.015956 -0.225566 -0.252738 -0.137438 0.161834 0.071873 0.203033 -0.162236 0.226331 -0.019478 -0.222583 -0.013083 0.347046 0.258228 -0.346568 -0.405183 -0.095650 0.034271 0.314315 -0.201351 -0.350223 0.414644 -0.090682 -0.014486 -0.265287 -0.213368 0.144047 0.325375 0.190242 0.202197 0.264073 0.112171 0.124596 0.062005 -0.010144 0.010238 0.226963 -0.570006 0.007965 -0.272407 0.296969 0.142585 0.291746 0.024040 0.060912 0.188076 0.382500 0.280452 -0.000732 0.027082 0.557061 -0.273550 -0.148548 -0.160846 0.198225 0.140096 -0.443046 0.150068 -0.119453 0.395359 -0.018669 -0.183521 -0.369014 0.066529 -0.035562 -0.005056 0.088910 -0.127446 -0.046728 -0.159094 0.015867 0.480799 -0.061974 -0.090159 -0.396731 -0.442998 -0.003496 -0.457652 0.313482 -0.067145 0.015775 
83 0.607899 -0.205758 -0.043597 -0.001534 0.098690 -0.204812 0.145236 0.232793 -0.114180 0.122006 0.184206 -0.024812 0.294264 0.128930 0.021746 0.081479 -0.159928 0.151798 0.014759 0.000972 -0.333666 -0.305306 -0.164938 0.160772 0.138938 0.253951 -0.189874 0.321827 -0.032779 -0.256588 0.048665 0.364944 0.327504 -0.426826 -0.482034 -0.086480 0.005756 0.402825 -0.272030 -0.379711 0.486802 -0.066003 0.015720 -0.068176 -0.205390 0.126988 0.218380 0.277152 0.340207 0.251547 0.021029 0.039380 0.080992 -0.013802 0.003663 0.304268 -0.600865 -0.021517 -0.280272 0.315314 0.167375 0.292420 -0.000648 0.100465 0.192442 0.451444 0.300121 -0.044923 -0.012743 0.507520 -0.351539 -0.219139 -0.117031 0.186109 0.157028 -0.480102 0.065466 -0.100513 0.419123 -0.030105 -0.323640 -0.404971 0.105518 -0.089747 -0.028777 0.091428 -0.197940 -0.154800 -0.192547 0.012067 0.548050 -0.063085 -0.074920 -0.464385 -0.521160 0.022617 -0.524947 0.380123 -0.100074 0.032420 
84 0.649278 -0.263293 -0.096682 -0.163629 0.076805 -0.195151 0.220170 0.249838 -0.086463 0.116441 0.228047 0.037314 0.295134 0.038395 0.039442 0.115528 -0.168533 0.162002 0.021413 -0.008137 -0.371549 -0.334007 -0.078150 0.289381 0.213703 0.336910 -0.170974 0.403717 -0.064685 -0.182829 0.153240 0.263418 0.423537 -0.598599 -0.592445 -0.061017 0.076617 0.412708 -0.329688 -0.462647 0.597772 -0.071415 0.081495 -0.089671 -0.189563 0.076933 0.129003 0.327178 0.474306 0.263320 -0.036167 -0.082648 0.057943 0.077388 0.038234 0.472369 -0.569305 -0.015821 -0.292410 0.349176 0.209859 0.304542 -0.109860 0.094657 0.245951 0.475603 0.280695 -0.137775 -0.043598 0.499901 -0.447306 -0.268680 -0.022823 0.169064 0.121279 -0.436125 -0.037785 -0.067810 0.471351 -0.100630 -0.400940 -0.440113 0.163885 -0.148905 0.031356 0.085842 -0.215453 -0.328798 -0.262654 -0.040803 0.540025 -0.079171 -0.025685 -0.511533 -0.568109 0.080764 -0.640998 0.409141 -0.103092 0.079378 
85 0.778030 -0.297310 -0.074891 -0.179798 0.008589 -0.219284 0.251956 0.300504 -0.081111 0.113949 0.232629 0.050158 0.326495 -0.019378 0.038334 0.096347 -0.147704 0.180341 0.065953 0.016222 -0.382134 -0.265215 -0.002548 0.353000 0.280553 0.296794 -0.130514 0.408708 -0.063191 -0.074518 0.198658 0.140982 0.466717 -0.646249 -0.638581 0.001582 0.105524 0.435995 -0.341839 -0.517186 0.645260 -0.060418 0.160180 -0.033267 -0.192635 -0.006363 -0.012526 0.363990 0.558226 0.188727 -0.130544 -0.294458 0.042946 0.125478 0.050989 0.567598 -0.511420 -0.029078 -0.289749 0.360213 0.249615 0.383338 -0.091058 0.082347 0.273407 0.518195 0.285582 -0.190353 -0.153467 0.494363 -0.548308 -0.323231 0.106581 0.170609 0.116885 -0.442223 -0.131584 -0.059847 0.557043 -0.159055 -0.507903 -0.523668 0.222374 -0.233752 0.094650 0.066380 -0.237125 -0.438875 -0.255072 -0.077546 0.524040 -0.056490 -0.006132 -0.594073 -0.615230 0.097025 -0.745201 0.415612 -0.145575 0.080778 
86 0.739052 -0.246505 -0.137047 -0.192429 0.022829 -0.229288 0.269987 0.385009 -0.124190 0.150042 0.279488 0.070769 0.319876 -0.003329 0.041791 0.070345 -0.193947 0.204899 0.112501 0.005490 -0.422880 -0.304862 -0.053150 0.353063 0.295175 0.370191 -0.074036 0.410128 -0.127261 -0.115198 0.230181 0.140805 0.515849 -0.697611 -0.625218 -0.009289 0.048264 0.530794 -0.356047 -0.543346 0.690856 -0.009828 0.150877 0.031832 -0.173539 -0.057924 -0.168522 0.383927 0.673880 0.204926 -0.251221 -0.331479 -0.011318 0.177896 0.024005 0.602733 -0.497297 -0.008302 -0.266279 0.356005 0.218507 0.327680 -0.210971 0.082398 0.263550 0.553665 0.275582 -0.252941 -0.218373 0.306870 -0.566292 -0.358080 0.061562 0.111739 0.070382 -0.489941 -0.143549 -0.044145 0.514105 -0.193043 -0.521169 -0.521860 0.230974 -0.263801 0.134951 0.096692 -0.177619 -0.510994 -0.396955 -0.072237 0.484698 -0.145491 -0.064476 -0.514719 -0.624232 0.154648 -0.816248 0.422698 -0.173401 0.119843 
87 0.828859 -0.285977 -0.132038 -0.178199 0.024778 -0.270194 0.278559 0.459052 -0.079551 0.178125 0.176609 0.062787 0.256603 -0.034908 0.026714 0.089501 -0.149660 0.163004 0.148221 0.042098 -0.350004 -0.251241 -0.016092 0.371419 0.298267 0.366109 -0.033605 0.402196 -0.149263 -0.135504 0.191072 0.072603 0.561514 -0.725123 -0.482370 -0.022888 -0.014200 0.614977 -0.263254 -0.620575 0.726527 -0.008254 0.148141 0.145083 -0.145975 -0.064307 -0.221711 0.398020 0.680413 0.204603 -0.324491 -0.417727 -0.050199 0.172972 0.063113 0.681134 -0.394315 0.030768 -0.277489 0.412994 0.194322 0.289339 -0.159684 0.046067 0.234797 0.541178 0.273219 -0.307047 -0.234258 0.173042 -0.605174 -0.352819 0.095293 0.049003 -0.005013 -0.461384 -0.150582 -0.004597 0.510245 -0.270929 -0.505393 -0.602618 0.267581 -0.269965 0.230615 0.052941 -0.157847 -0.602919 -0.410768 -0.019839 0.447209 -0.143851 -0.135375 -0.527570 -0.562870 0.092641 -0.820913 0.418090 -0.206005 0.152154 
88 0.822892 -0.306068 -0.102565 -0.197101 0.063450 -0.326316 0.255236 0.410479 -0.154250 0.163476 0.147271 0.065810 0.188729 -0.015083 0.002101 0.082988 -0.182809 0.162439 0.134121 0.048926 -0.381811 -0.253747 0.010761 0.358161 0.306463 0.423156 -0.043179 0.405530 -0.139846 -0.145836 0.290483 0.081976 0.445679 -0.748544 -0.487790 0.042562 -0.107433 0.637965 -0.247606 -0.628617 0.766273 0.034754 0.134353 0.260752 -0.008833 -0.043211 -0.281312 0.434079 0.748763 0.189007 -0.372829 -0.330804 -0.093891 0.160861 -0.006314 0.680206 -0.431864 0.050217 -0.253074 0.348193 0.251903 0.217638 -0.229350 0.105310 0.218489 0.591196 0.344785 -0.274400 -0.220407 0.088690 -0.605358 -0.359183 0.129260 -0.004126 -0.030893 -0.449379 -0.221601 0.093490 0.483292 -0.335526 -0.517894 -0.571688 0.200335 -0.239666 0.224373 0.127106 -0.119133 -0.568679 -0.470672 -0.003582 0.431941 -0.178293 -0.142659 -0.488186 -0.549655 0.109669 -0.816794 0.457942 -0.167665 0.187146 
89 0.874572 -0.258825 -0.202087 -0.217038 -0.120364 -0.338815 0.215580 0.501968 -0.228780 0.210867 0.029503 0.071244 0.055665 -0.066193 -0.018474 0.019706 -0.157930 0.147906 0.139290 0.086444 -0.466158 -0.206144 -0.029828 0.325771 0.383221 0.375103 -0.063812 0.436093 -0.166334 -0.109536 0.197136 -0.048103 0.537095 -0.715490 -0.285885 0.042968 -0.106744 0.646553 -0.216499 -0.618658 0.731352 0.016133 0.153119 0.349173 -0.030429 -0.040934 -0.282611 0.383520 0.733428 0.146121 -0.451503 -0.336546 -0.121729 0.180729 0.040672 0.696624 -0.457598 0.064624 -0.244662 0.411744 0.162189 0.107307 -0.288062 0.019116 0.210045 0.613454 0.323202 -0.357567 -0.217249 -0.024225 -0.632352 -0.263852 0.117748 -0.053944 -0.099847 -0.418806 -0.187404 0.104207 0.448236 -0.367797 -0.417909 -0.570780 0.210009 -0.263223 0.206718 0.111291 -0.138174 -0.643759 -0.557184 -0.054896 0.391664 -0.205919 -0.179769 -0.437657 -0.553167 0.149980 -0.935978 0.474983 -0.205534 0.209993 
90 0.828452 -0.318411 -0.193590 -0.233873 -0.003700 -0.371601 0.197492 0.465053 -0.224524 0.156110 0.023185 0.019001 0.111057 -0.108288 -0.034835 0.072781 -0.189937 0.114561 0.178415 0.081967 -0.306345 -0.278905 0.002984 0.399398 0.287289 0.388642 -0.040888 0.388859 -0.130119 -0.154789 0.180856 0.021221 0.469078 -0.730838 -0.302980 0.018695 -0.085221 0.686444 -0.138681 -0.657967 0.764736 0.073437 0.111774 0.459858 -0.102424 -0.000462 -0.336214 0.479444 0.684880 0.230759 -0.413960 -0.372788 -0.121348 0.170300 0.007035 0.746189 -0.378285 0.110612 -0.229712 0.373597 0.237753 0.169206 -0.308496 0.087151 0.139196 0.603886 0.333555 -0.380293 -0.270772 -0.065978 -0.575842 -0.315964 0.173170 -0.091697 -0.123240 -0.483696 -0.101105 0.210317 0.407662 -0.452404 -0.377407 -0.564486 0.227011 -0.291726 0.322949 0.172096 0.072868 -0.565306 -0.570140 -0.004041 0.338673 -0.262893 -0.189185 -0.368413 -0.486040 0.074232 -0.849688 0.395274 -0.136088 0.221331 
91 0.810861 -0.321690 -0.139517 -0.191977 -0.114213 -0.467800 0.104639 0.555363 -0.148929 0.127031 -0.016851 0.041847 -0.013125 -0.119034 -0.046961 0.063785 -0.228955 0.078893 0.162169 0.122621 -0.396015 -0.123594 -0.062418 0.374870 0.262156 0.337299 0.046249 0.352968 -0.178310 -0.071731 0.221560 -0.016085 0.398275 -0.636531 -0.243510 0.059306 -0.114641 0.720015 -0.015628 -0.655562 0.775704 0.030977 0.169394 0.461488 -0.050076 0.015773 -0.235994 0.506653 0.693592 0.186518 -0.478707 -0.404330 -0.186903 0.230981 -0.087903 0.795048 -0.427427 0.156449 -0.241612 0.332453 0.208659 0.087858 -0.277425 0.106801 0.101816 0.528108 0.268970 -0.369263 -0.295426 -0.139175 -0.568782 -0.377727 0.123445 -0.143981 -0.176375 -0.423202 -0.079498 0.257698 0.352698 -0.492884 -0.344567 -0.620752 0.194661 -0.190419 0.271105 0.170829 0.004801 -0.582762 -0.517533 0.024816 0.335122 -0.286424 -0.230669 -0.335403 -0.411421 0.097458 -0.791331 0.541769 -0.073172 0.267846 
92 0.796230 -0.255547 -0.233249 -0.208852 -0.087651 -0.291124 0.105622 0.549235 -0.138483 0.187050 0.012957 0.056170 0.002303 -0.196765 -0.076767 -0.000533 -0.146105 0.095414 0.212243 0.050735 -0.283935 -0.229771 0.034976 0.370822 0.275158 0.364170 0.058270 0.432958 -0.165745 -0.108289 0.161587 -0.006414 0.353849 -0.634188 -0.240591 0.051623 -0.127661 0.710483 -0.038478 -0.725726 0.721900 0.064697 0.140510 0.407414 -0.040658 0.031692 -0.228181 0.470641 0.682581 0.133633 -0.509970 -0.406986 -0.258177 0.183849 -0.006682 0.741911 -0.332961 0.092332 -0.155620 0.338874 0.118375 0.005372 -0.266526 0.052097 0.085333 0.591722 0.313269 -0.337843 -0.274400 -0.216937 -0.562752 -0.289735 0.052151 -0.137879 -0.230498 -0.386830 -0.056102 0.246692 0.334215 -0.508934 -0.351399 -0.512705 0.221656 -0.217764 0.275617 0.102616 0.074748 -0.599650 -0.696119 -0.040217 0.183227 -0.293132 -0.296410 -0.242270 -0.359601 0.076487 -0.808265 0.548542 -0.076670 0.319446 
93 0.807492 -0.325859 -0.184037 -0.243505 -0.039183 -0.351717 0.072312 0.479012 -0.191440 0.192222 -0.054562 0.069474 0.022191 -0.077489 -0.120732 0.053865 -0.140168 0.043838 0.240657 0.162533 -0.281550 -0.174614 -0.002580 0.383246 0.222415 0.370251 0.004105 0.340020 -0.197437 -0.160569 0.220833 -0.007472 0.358806 -0.712861 -0.125941 0.013415 -0.262967 0.755027 0.026817 -0.794135 0.736806 0.061121 0.197016 0.493345 0.015325 0.060617 -0.242788 0.574921 0.731130 0.114804 -0.573109 -0.488909 -0.254190 0.140203 -0.000459 0.796744 -0.330512 0.150727 -0.175529 0.318456 0.201799 -0.034558 -0.257795 0.092522 0.093410 0.627335 0.335019 -0.339299 -0.249167 -0.282655 -0.636590 -0.349198 0.126312 -0.154514 -0.213836 -0.311693 -0.105402 0.267793 0.311907 -0.574512 -0.267956 -0.569944 0.260892 -0.170245 0.305824 0.159240 0.012311 -0.661171 -0.617990 -0.046877 0.241611 -0.264179 -0.241284 -0.338654 -0.343166 0.024638 -0.700192 0.501899 -0.067350 0.307190 
94 0.750016 -0.319568 -0.195644 -0.216194 -0.055433 -0.327450 0.001062 0.523353 -0.111796 0.183855 -0.086515 0.072733 0.002983 -0.129902 -0.117411 0.076633 -0.168163 0.112411 0.193859 0.209430 -0.214776 -0.320795 -0.037342 0.434472 0.278253 0.394186 0.035689 0.449026 -0.131969 -0.136076 0.229502 -0.070870 0.253944 -0.602441 -0.153267 0.013047 -0.197817 0.701467 -0.020408 -0.779868 0.684520 0.016998 0.104068 0.647347 -0.014237 0.088691 -0.278092 0.496408 0.611517 0.084843 -0.426650 -0.274903 -0.182379 0.103489 0.047040 0.729168 -0.402094 0.090252 -0.105472 0.358856 0.176532 -0.004937 -0.301795 0.038250 0.043560 0.640840 0.284287 -0.411907 -0.190586 -0.347072 -0.579476 -0.225675 0.199353 -0.169489 -0.246091 -0.364745 -0.002833 0.289653 0.304288 -0.587010 -0.139662 -0.459968 0.230099 -0.211703 0.287600 0.177989 0.189447 -0.647454 -0.747752 -0.101218 0.231900 -0.230294 -0.363694 -0.238729 -0.357203 0.016920 -0.788748 0.512738 -0.065788 0.367029 
95 0.747134 -0.285259 -0.243385 -0.251775 -0.072001 -0.388539 0.086434 0.510556 -0.202086 0.096669 -0.178966 -0.023934 0.068847 -0.113359 -0.120769 0.073374 -0.165276 0.109172 0.267901 0.214590 -0.204885 -0.200302 -0.079596 0.423686 0.167036 0.304632 0.006377 0.409748 -0.124402 -0.123862 0.134968 -0.052607 0.226141 -0.610379 -0.137250 0.043596 -0.117088 0.710761 0.055502 -0.747594 0.703937 0.000329 0.102863 0.425471 -0.093251 0.104927 -0.189639 0.547999 0.619538 0.145893 -0.445726 -0.352078 -0.207533 0.109993 -0.008992 0.764080 -0.235553 0.149406 -0.101682 0.262171 0.235328 0.023749 -0.264399 0.144424 0.013157 0.647752 0.307324 -0.362519 -0.281829 -0.335758 -0.608892 -0.357887 0.270432 -0.252099 -0.307114 -0.326499 0.026058 0.343716 0.305410 -0.639512 -0.222228 -0.466941 0.250080 -0.172252 0.254678 0.064026 0.121567 -0.604346 -0.663185 0.012544 0.115298 -0.276567 -0.331712 -0.202314 -0.263710 -0.000019 -0.615970 0.542872 0.029680 0.349082 
96 0.766800 -0.255067 -0.197723 -0.133619 -0.103303 -0.332773 0.089139 0.446968 -0.110653 0.135993 -0.093847 0.148417 0.010935 -0.107350 -0.101604 0.078903 -0.151962 -0.014127 0.220820 0.275474 -0.302720 -0.200227 0.112681 0.367144 0.168518 0.360516 0.047012 0.395103 -0.148749 -0.072304 0.198262 -0.071295 0.268807 -0.573369 0.088934 0.029638 -0.218992 0.776229 0.090323 -0.696410 0.768199 0.043872 0.139418 0.530999 -0.140893 0.089936 -0.237059 0.537217 0.620833 0.180681 -0.448852 -0.270937 -0.207051 0.086866 0.030683 0.797474 -0.282239 0.171923 -0.112233 0.343611 0.186039 -0.008170 -0.197233 0.118453 0.025855 0.611310 0.299303 -0.406083 -0.209020 -0.391020 -0.598105 -0.214796 0.209780 -0.297296 -0.324586 -0.331472 -0.060284 0.297005 0.277689 -0.576392 -0.172301 -0.428671 0.277070 -0.144299 0.342120 0.075455 0.305369 -0.509149 -0.673590 -0.101606 0.119374 -0.286694 -0.251140 -0.092068 -0.184602 0.006527 -0.624909 0.406042 -0.014620 0.298941 
97 0.744523 -0.133410 -0.307145 -0.134843 -0.046270 -0.189543 0.181333 0.391630 -0.201547 0.174971 -0.195205 0.077703 0.112478 0.099401 -0.099935 0.106774 -0.149197 0.050863 0.235231 0.223750 -0.253840 -0.188067 0.109733 0.325159 0.187683 0.321418 0.047965 0.349065 -0.176712 -0.140933 0.083394 -0.128066 0.257988 -0.639120 0.095827 -0.020494 -0.257286 0.762479 0.113067 -0.652373 0.668260 0.095120 0.109328 0.488733 -0.053639 0.071400 -0.185289 0.479236 0.621268 0.160669 -0.484820 -0.286424 -0.253291 0.168683 0.037884 0.734820 -0.307070 0.157243 -0.132322 0.355013 0.155216 -0.028138 -0.220816 0.073286 0.048714 0.680600 0.416929 -0.409133 -0.211770 -0.499726 -0.578075 -0.173964 0.137582 -0.283299 -0.334374 -0.320847 -0.267872 0.391633 0.234522 -0.518096 -0.245308 -0.445608 0.228932 -0.135390 0.262003 0.042687 0.118399 -0.577206 -0.723591 -0.025260 0.021416 -0.187529 -0.357910 -0.111966 -0.168442 0.011533 -0.706529 0.414100 -0.128679 0.321748 
98 0.697690 -0.185172 -0.257654 -0.092134 -0.046612 -0.336511 0.022359 0.478256 -0.027080 0.137365 -0.195059 0.012974 0.090572 0.024010 -0.152925 0.025624 -0.158900 0.030694 0.271135 0.295020 -0.205232 -0.209027 0.045364 0.291936 0.154229 0.320527 0.065208 0.383795 -0.137545 -0.150880 0.119452 -0.002058 0.219926 -0.559387 0.080429 0.006906 -0.246738 0.788943 0.125223 -0.654065 0.664732 0.064943 0.118467 0.532202 -0.070700 0.120839 -0.144073 0.463069 0.557877 0.142283 -0.411490 -0.236256 -0.209742 0.078329 -0.016984 0.705720 -0.323223 0.167538 -0.103271 0.300138 0.133034 -0.083496 -0.244420 0.093842 -0.013643 0.598603 0.282057 -0.367851 -0.247924 -0.537820 -0.630811 -0.201750 0.108583 -0.226176 -0.293560 -0.318531 -0.117239 0.328182 0.267236 -0.556771 -0.258021 -0.464166 0.255545 -0.211814 0.152125 0.056925 0.058366 -0.560385 -0.779864 -0.134303 0.018933 -0.242895 -0.451002 -0.092127 -0.180826 -0.064011 -0.588363 0.523771 0.019682 0.348865 
99 0.817440 -0.309721 -0.311567 -0.196403 0.023033 -0.434350 0.103254 0.483265 -0.109553 0.121617 -0.090601 0.037089 -0.020095 0.047428 -0.096071 0.008856 -0.149494 0.110701 0.311810 0.281696 -0.311902 -0.216694 -0.106037 0.278336 0.134085 0.308502 0.067101 0.307422 -0.183436 -0.191434 0.105247 -0.176538 0.216689 -0.516023 0.107024 -0.011183 -0.254800 0.693317 0.043541 -0.721197 0.795960 0.027148 0.088390 0.685582 -0.026126 0.139672 -0.160970 0.531986 0.585456 0.095492 -0.431313 -0.195647 -0.167305 0.101560 -0.129289 0.660570 -0.322890 0.192874 -0.073945 0.329749 0.092164 -0.115851 -0.248994 0.022808 -0.075435 0.521952 0.219545 -0.427151 -0.243751 -0.455889 -0.571086 -0.174021 0.083545 -0.233665 -0.294400 -0.315107 -0.016809 0.300496 0.270529 -0.574644 -0.165997 -0.516692 0.246014 -0.155241 0.220846 0.081391 0.158603 -0.567287 -0.631751 -0.141332 -0.096638 -0.196134 -0.374266 -0.073652 -0.077642 -0.073963 -0.720952 0.445224 -0.098752 0.376354 
100 0.785211 -0.239208 -0.275374 -0.142227 -0.007862 -0.397535 0.035501 0.403691 -0.054123 0.155729 -0.152655 0.034679 0.050797 0.014776 -0.183937 0.081071 -0.294782 0.123472 0.245564 0.377436 -0.285796 -0.195282 -0.056143 0.361280 0.116066 0.305353 0.078544 0.351712 -0.227290 -0.252665 0.137677 -0.109539 0.162809 -0.592308 0.123957 -0.115033 -0.298835 0.708007 0.058108 -0.728125 0.727073 0.044052 0.136421 0.637767 0.028327 0.159470 -0.114296 0.547714 0.534419 0.126074 -0.438502 -0.175445 -0.097276 0.049104 -0.042837 0.669918 -0.213040 0.192486 -0.019533 0.264283 0.146850 -0.090892 -0.322053 0.075044 -0.146676 0.507496 0.276236 -0.551803 -0.180686 -0.564421 -0.566019 -0.198867 0.123546 -0.277892 -0.231942 -0.236679 -0.121599 0.342232 0.290491 -0.578824 -0.167139 -0.439379 0.177863 -0.076317 0.229423 0.165956 0.204772 -0.591526 -0.708537 -0.121870 -0.043909 -0.214784 -0.356155 -0.111995 -0.068887 -0.113836 -0.688540 0.471317 -0.088373 0.409336 
101 0.823701 -0.296937 -0.362790 -0.217865 -0.012661 -0.389730 0.132433 0.350746 -0.107334 0.050345 -0.187628 0.023281 0.007793 0.043390 -0.123972 0.031273 -0.245387 0.117949 0.322388 0.430516 -0.273443 -0.240663 -0.096434 0.349606 0.109318 0.373494 0.077321 0.407384 -0.175026 -0.204762 0.218318 -0.100520 0.109350 -0.572521 0.172377 -0.141527 -0.169725 0.648929 0.142981 -0.631654 0.627422 0.071015 0.134898 0.621024 -0.077574 0.168768 -0.101076 0.543001 0.520458 0.101910 -0.412590 -0.223272 -0.127277 0.127577 -0.088192 0.650321 -0.160779 0.186192 -0.001494 0.219411 0.149680 -0.088499 -0.215857 0.181587 -0.118715 0.557218 0.211496 -0.438353 -0.132138 -0.507176 -0.646768 -0.199916 0.170505 -0.288171 -0.315993 -0.220256 -0.087868 0.321007 0.242383 -0.570438 -0.141121 -0.419137 0.270585 -0.069437 0.220075 0.066901 0.196507 -0.583681 -0.704303 -0.126014 0.026654 -0.240064 -0.316291 -0.073507 -0.134460 -0.044782 -0.616543 0.476477 0.003769 0.376915 
102 0.775514 -0.183774 -0.379918 -0.092839 0.002303 -0.407069 0.131819 0.386798 -0.124345 0.085903 -0.261531 0.046037 -0.035724 0.075624 -0.118670 0.011544 -0.277344 0.138007 0.406926 0.404072 -0.295654 -0.316501 -0.089098 0.341908 0.140641 0.327439 0.036461 0.394227 -0.165272 -0.212601 0.083770 -0.078509 0.193274 -0.525137 0.214988 -0.067387 -0.266515 0.864652 0.099756 -0.527806 0.592554 -0.016443 0.003294 0.582796 -0.087448 0.106072 -0.205310 0.470843 0.478131 0.157731 -0.385599 -0.038628 -0.137547 0.107068 -0.075941 0.608525 -0.219254 0.214836 -0.036275 0.216106 0.143279 -0.083985 -0.259828 0.143608 -0.069117 0.482136 0.168365 -0.414688 -0.097264 -0.580300 -0.687654 -0.159721 0.139941 -0.315570 -0.325804 -0.154882 -0.013580 0.308682 0.186460 -0.556160 -0.180938 -0.339876 0.238391 -0.126766 0.127240 0.001158 0.114283 -0.608532 -0.726917 -0.072771 -0.061821 -0.202911 -0.389925 0.018049 -0.063651 -0.013273 -0.573555 0.452917 -0.053572 0.362894 
103 0.887175 -0.180836 -0.421870 -0.155511 -0.068358 -0.288600 0.220301 0.326370 -0.213207 0.084183 -0.253138 0.087680 -0.010420 0.062681 -0.086336 0.016135 -0.215648 0.076771 0.368994 0.385202 -0.326747 -0.239022 0.015252 0.241635 0.074686 0.354837 0.124581 0.449987 -0.210370 -0.209111 0.147880 -0.167163 0.117474 -0.517065 0.159093 -0.098959 -0.255137 0.799199 0.147704 -0.606361 0.733899 0.034836 0.053770 0.522139 -0.144575 0.152185 -0.151112 0.527478 0.558522 0.199357 -0.341678 0.049171 -0.126265 0.159925 -0.019830 0.648569 -0.135559 0.320621 -0.028048 0.176305 0.122401 -0.107544 -0.313202 0.165872 -0.131242 0.504616 0.215016 -0.542382 -0.153488 -0.639841 -0.668422 -0.105601 0.079576 -0.401546 -0.371577 -0.248961 -0.115042 0.334551 0.212445 -0.544042 -0.123315 -0.359913 0.270293 -0.070569 0.195871 0.049447 0.248680 -0.498939 -0.766493 -0.090252 -0.075818 -0.232758 -0.360991 0.051806 0.090880 -0.051388 -0.620982 0.389104 -0.083334 0.311056 
104 0.763522 -0.157489 -0.392107 -0.160415 -0.219066 -0.344307 0.090993 0.378510 -0.211321 0.057213 -0.308770 0.062975 0.004119 0.135378 -0.113160 -0.023017 -0.260383 0.076253 0.280099 0.447076 -0.255289 -0.166857 -0.095069 0.227461 0.175692 0.282094 0.083771 0.495951 -0.169370 -0.263385 0.152679 -0.150930 0.194086 -0.551436 0.177393 -0.093198 -0.242980 0.751048 0.092423 -0.534570 0.624265 0.001925 0.029636 0.613896 -0.056973 0.162361 -0.040694 0.454626 0.550508 0.153327 -0.289339 0.097726 -0.029283 0.092271 -0.065975 0.611460 -0.203837 0.284451 -0.032137 0.186320 0.094865 -0.163413 -0.272448 0.144317 -0.074899 0.548078 0.250851 -0.508298 -0.098574 -0.715897 -0.760292 -0.175833 0.134212 -0.402208 -0.399254 -0.108231 -0.066196 0.322382 0.198429 -0.569685 -0.207988 -0.324176 0.298938 -0.149089 0.097429 0.003180 0.060560 -0.667866 -0.775359 -0.086412 -0.121292 -0.160608 -0.421506 -0.055212 -0.132234 0.010936 -0.555805 0.508969 -0.028981 0.397967 
