259 100
0 -0.060646 0.244296 -0.588209 0.079922 0.710903 -0.083711 0.666809 -0.964726 -0.448431 -0.063400 0.262713 0.194403 -0.275609 -0.147464 -0.142533 0.042921 0.087175 -0.247729 -0.293804 0.139475 0.294925 -0.224826 0.252127 0.002666 0.504659 -0.193757 0.000176 -0.300100 -0.207495 -0.137021 -0.089675 -0.277571 0.059105 -0.078059 0.002454 -0.117819 -0.279749 -0.122328 -0.009812 0.432620 -0.096682 0.247096 -0.244691 0.187870 -0.099836 -0.531511 0.230833 -0.182548 0.079113 0.020961 0.670423 0.173947 0.210404 -0.170138 0.146541 0.382042 0.017935 0.263109 0.321197 0.047703 -0.101236 0.076711 0.323766 0.118506 -0.251233 0.135028 0.027226 0.270896 -0.107099 -0.352813 -0.103550 0.086718 -0.078235 0.066530 -0.219949 0.002118 0.301977 -0.121213 0.082259 0.063305 -0.150590 0.234268 0.553750 -0.393565 0.100650 -0.507127 -0.001720 -0.428133 0.155254 0.292209 -0.182572 -0.103948 0.352933 -0.094976 0.353169 -0.277406 0.245994 -0.192004 0.185193 -0.012242 
1 -0.301011 -0.100330 0.176383 -0.425517 -0.268053 0.207043 0.048702 -0.606727 -0.451588 0.446460 -0.218599 -0.077040 0.196408 -0.036269 -0.315292 0.072740 -0.035421 -0.269368 0.492093 -0.172889 0.216592 -0.453537 0.478672 -0.155265 0.444194 -0.080756 -0.131797 0.065477 -0.249299 -0.215479 0.153504 -0.371172 -0.226886 0.143299 -0.183317 0.071796 0.161383 -0.110828 0.263966 0.470543 0.151333 -0.182892 -0.460120 0.356918 -0.248648 -0.501395 0.402121 -0.262419 0.116950 0.001134 0.688924 0.282840 0.589662 0.108358 -0.050318 0.031792 -0.417911 0.280807 0.362939 0.397593 -0.421417 0.052349 0.361992 -0.214974 0.458943 0.396348 0.285530 0.040661 -0.426467 -0.216131 -0.011919 -0.282663 -0.508265 0.344705 0.241851 -0.300092 0.567436 0.089899 0.265652 -0.104384 -0.096882 0.460670 0.121829 -0.229475 -0.023315 -0.103654 0.130106 -0.034078 0.014781 0.486322 -0.140782 -0.047910 0.443048 -0.227649 0.322405 -0.369270 -0.010284 -0.251630 0.155983 -0.257896 
2 -0.290802 -0.203790 0.272781 -0.390447 -0.297251 0.226694 0.010586 -0.608680 -0.433841 0.481117 -0.262513 -0.148958 0.220340 0.025599 -0.307776 0.088903 0.007314 -0.268027 0.549690 -0.225413 0.169790 -0.435438 0.505476 -0.176017 0.396214 -0.123605 -0.142649 0.102309 -0.245748 -0.183762 0.178933 -0.341075 -0.235097 0.178664 -0.206365 0.097911 0.190365 -0.116291 0.267285 0.433033 0.161489 -0.219025 -0.467399 0.344844 -0.251343 -0.461810 0.379791 -0.232435 0.100634 0.009835 0.633967 0.295312 0.581074 0.105217 -0.035755 0.021115 -0.439360 0.288116 0.371385 0.407442 -0.408849 0.052811 0.350622 -0.247287 0.496242 0.408191 0.285918 0.030694 -0.435587 -0.208881 -0.015023 -0.294697 -0.500838 0.332568 0.269963 -0.278843 0.546881 0.085925 0.262220 -0.122395 -0.077637 0.432037 0.103514 -0.201970 -0.035309 -0.070391 0.137488 -0.017246 0.008999 0.449563 -0.141026 -0.031702 0.411565 -0.203412 0.331039 -0.355656 0.017241 -0.222567 0.134709 -0.263299 
3 -0.290274 -0.189875 0.274173 -0.385181 -0.322001 0.215246 0.008637 -0.589813 -0.408848 0.480281 -0.275660 -0.137376 0.259045 0.011347 -0.282395 0.104255 -0.012550 -0.258320 0.537255 -0.229915 0.164828 -0.432330 0.506261 -0.161983 0.401258 -0.121906 -0.131855 0.080689 -0.239240 -0.170480 0.169890 -0.349800 -0.242565 0.173641 -0.198715 0.098497 0.168416 -0.112066 0.254660 0.426056 0.163162 -0.187277 -0.446716 0.359641 -0.239141 -0.503538 0.383101 -0.257856 0.063405 -0.004656 0.616697 0.278277 0.586999 0.118336 -0.022906 0.045464 -0.445381 0.295710 0.396728 0.448024 -0.416865 0.064463 0.323383 -0.255867 0.497504 0.404420 0.302008 0.059317 -0.426815 -0.184112 -0.010245 -0.316243 -0.537218 0.338140 0.285045 -0.288665 0.551324 0.101779 0.228516 -0.126066 -0.104777 0.414955 0.091194 -0.222447 0.000287 -0.082079 0.118282 -0.011559 0.011678 0.479225 -0.138048 -0.098378 0.443842 -0.214553 0.315231 -0.363300 0.003326 -0.233690 0.134582 -0.243340 
4 -0.297464 -0.240245 0.280330 -0.300090 -0.338263 0.198602 -0.041769 -0.474403 -0.315634 0.464422 -0.285985 -0.211962 0.266535 0.051015 -0.251721 0.062123 0.009980 -0.287355 0.570938 -0.285368 0.096029 -0.412274 0.494302 -0.149720 0.339908 -0.114993 -0.154980 0.159697 -0.193505 -0.076441 0.187737 -0.292940 -0.256407 0.167470 -0.215617 0.169494 0.235218 -0.131067 0.268231 0.357762 0.161337 -0.253266 -0.466983 0.383467 -0.280394 -0.478199 0.344986 -0.252615 0.056781 0.014217 0.522317 0.267944 0.598114 0.169885 -0.039846 -0.014659 -0.443008 0.307022 0.364752 0.471421 -0.415152 0.054003 0.266718 -0.315379 0.655401 0.460720 0.324518 0.067092 -0.511977 -0.206832 -0.036929 -0.369230 -0.567783 0.355588 0.370027 -0.271923 0.596916 0.163045 0.251909 -0.126296 -0.088929 0.443710 -0.011799 -0.156219 -0.034381 0.071636 0.080347 0.070925 0.045781 0.419812 -0.185493 -0.103856 0.441185 -0.252652 0.305621 -0.354326 0.034414 -0.170328 0.175892 -0.306027 
5 -0.368386 -0.308283 0.501024 -0.534306 -0.551881 0.320730 -0.088434 -0.685995 -0.488082 0.656439 -0.395864 -0.179681 0.360162 0.043963 -0.379178 0.137179 -0.004397 -0.295541 0.658243 -0.287174 0.174664 -0.524025 0.623829 -0.219236 0.453923 -0.207346 -0.165548 0.135819 -0.256267 -0.152372 0.218027 -0.456142 -0.285877 0.222987 -0.232998 0.138062 0.187179 -0.134030 0.304248 0.470303 0.217985 -0.172409 -0.591042 0.406287 -0.231305 -0.686818 0.439741 -0.326076 0.042800 -0.072461 0.652561 0.347131 0.689097 0.139347 0.040985 0.127887 -0.569927 0.407425 0.568208 0.627634 -0.491534 0.090155 0.407480 -0.416547 0.634366 0.479755 0.450031 0.120031 -0.536095 -0.168162 0.019521 -0.404289 -0.680366 0.407105 0.389890 -0.377449 0.628277 0.088695 0.267666 -0.214417 -0.117195 0.483447 0.066445 -0.167187 0.021172 -0.094826 0.124634 0.047606 -0.055344 0.682402 -0.118810 -0.215104 0.539446 -0.229710 0.460608 -0.393407 0.008824 -0.252874 0.164127 -0.345529 
6 -0.375622 -0.414273 0.629192 -0.434911 -0.662635 0.336748 -0.178638 -0.553414 -0.358289 0.630249 -0.427900 -0.310879 0.416248 0.125639 -0.332384 0.149267 0.055507 -0.334565 0.675081 -0.379573 0.097686 -0.524710 0.635744 -0.209338 0.406041 -0.217679 -0.169768 0.159161 -0.231301 -0.045848 0.223032 -0.396149 -0.309652 0.210768 -0.244509 0.228734 0.197276 -0.166700 0.275211 0.367070 0.226825 -0.179646 -0.628688 0.421234 -0.247859 -0.727982 0.423439 -0.365987 -0.019113 -0.069497 0.565666 0.340605 0.679496 0.217022 0.077336 0.119049 -0.584884 0.469965 0.640985 0.740049 -0.463601 0.090648 0.356262 -0.547667 0.798924 0.548093 0.536723 0.189821 -0.585177 -0.153191 0.004052 -0.504294 -0.755098 0.433833 0.488433 -0.355089 0.683093 0.147556 0.239165 -0.247471 -0.116594 0.454480 -0.022330 -0.067532 0.030354 0.006751 0.056522 0.144023 -0.043326 0.702099 -0.141527 -0.303974 0.558709 -0.232698 0.463545 -0.379194 0.080337 -0.201197 0.177933 -0.392964 
7 -0.401708 -0.390668 0.746038 -0.704837 -0.854334 0.418499 -0.203044 -0.742272 -0.505611 0.733443 -0.464962 -0.225315 0.487380 0.107914 -0.427912 0.241543 0.009841 -0.302418 0.701637 -0.343432 0.181592 -0.633135 0.743310 -0.251678 0.563191 -0.282695 -0.155768 0.072178 -0.311552 -0.155949 0.208230 -0.526767 -0.291644 0.223691 -0.225964 0.158646 0.090002 -0.179603 0.300734 0.486177 0.247326 -0.049146 -0.729989 0.421637 -0.205802 -0.925305 0.530541 -0.432951 -0.029765 -0.132330 0.703462 0.408106 0.727074 0.175802 0.169130 0.305157 -0.654595 0.519647 0.817553 0.884781 -0.513613 0.122731 0.497335 -0.583616 0.682157 0.505352 0.622642 0.242256 -0.512381 -0.108369 0.072797 -0.491099 -0.864156 0.457414 0.443800 -0.451272 0.672722 0.055239 0.206597 -0.319720 -0.165965 0.471352 0.097522 -0.073366 0.117200 -0.234048 0.094116 0.071536 -0.121185 0.960435 -0.065915 -0.446104 0.678227 -0.229191 0.606387 -0.412832 0.088651 -0.304913 0.199628 -0.407123 
8 -0.515680 -0.587491 1.074758 -0.446421 -1.058464 0.445999 -0.407914 -0.542777 -0.248993 0.691692 -0.529899 -0.529350 0.661881 0.240390 -0.270240 0.330013 0.040817 -0.344957 0.821584 -0.584900 0.013590 -0.539518 0.783019 -0.148519 0.489224 -0.337854 -0.204274 0.080867 -0.322389 0.077042 0.204900 -0.414043 -0.350440 0.158403 -0.260461 0.335453 0.134676 -0.305272 0.195138 0.340986 0.217231 -0.049875 -0.729726 0.600691 -0.408879 -1.055248 0.432197 -0.451173 -0.071791 -0.012519 0.555200 0.367565 0.800255 0.282917 0.219114 0.333268 -0.639683 0.691994 0.935230 1.046925 -0.482457 0.155804 0.325229 -0.758868 1.000408 0.703249 0.776056 0.459063 -0.621349 -0.195233 -0.017954 -0.691611 -1.019900 0.482524 0.583338 -0.352702 0.801837 0.167298 0.139434 -0.322359 -0.221448 0.488993 0.066820 -0.057485 0.186974 -0.058095 -0.034285 0.218900 -0.030332 0.926280 -0.217920 -0.636741 0.746509 -0.359718 0.614745 -0.467407 0.259102 -0.186066 0.272803 -0.438813 
9 -0.561162 -0.539856 1.109686 -0.532736 -1.152967 0.439377 -0.421775 -0.556591 -0.255819 0.672243 -0.516038 -0.464691 0.712535 0.171628 -0.282130 0.359285 -0.006157 -0.293694 0.774532 -0.508491 0.055322 -0.600358 0.780831 -0.177864 0.548759 -0.331862 -0.201800 0.008336 -0.352582 0.017783 0.177336 -0.515919 -0.343957 0.122295 -0.198484 0.306446 0.063791 -0.275192 0.214415 0.374008 0.231939 0.083437 -0.729496 0.630896 -0.395036 -1.210443 0.463686 -0.535726 -0.054966 -0.051738 0.596862 0.371376 0.807415 0.306390 0.248907 0.407738 -0.627339 0.735693 1.031132 1.180878 -0.493419 0.169165 0.325055 -0.820901 1.017055 0.707063 0.853670 0.548949 -0.587106 -0.153364 0.011176 -0.716059 -1.103134 0.488460 0.557192 -0.413455 0.869368 0.159189 0.128651 -0.339733 -0.262889 0.503084 0.056487 -0.047643 0.231822 -0.139608 -0.038567 0.216554 -0.052934 1.086798 -0.183404 -0.771444 0.826442 -0.404651 0.657948 -0.460960 0.242162 -0.225142 0.284859 -0.458749 
10 -0.557200 -0.521618 1.129048 -0.639101 -1.177080 0.501645 -0.402263 -0.696062 -0.357972 0.753248 -0.545002 -0.431038 0.721226 0.202576 -0.356519 0.402300 0.002474 -0.316275 0.810890 -0.532643 0.107317 -0.638051 0.865953 -0.171651 0.629629 -0.377585 -0.194162 -0.003047 -0.397740 -0.025628 0.195103 -0.559653 -0.344981 0.169581 -0.240592 0.292404 0.031299 -0.311454 0.199137 0.451365 0.235019 0.068533 -0.800551 0.627262 -0.366865 -1.237116 0.524335 -0.554847 -0.063788 -0.039154 0.743301 0.424486 0.850593 0.258925 0.278056 0.470499 -0.699613 0.763122 1.095174 1.168643 -0.526104 0.187948 0.406101 -0.795444 0.924651 0.717615 0.835395 0.545079 -0.582756 -0.178472 0.016059 -0.698148 -1.109023 0.509801 0.540307 -0.414154 0.871717 0.106630 0.140461 -0.374635 -0.260267 0.507625 0.168264 -0.071491 0.263135 -0.263011 -0.021447 0.161826 -0.068005 1.169601 -0.180029 -0.760247 0.848735 -0.334401 0.720725 -0.508238 0.272216 -0.285533 0.277729 -0.444523 
11 -0.498007 -0.640854 1.208612 -0.490567 -1.174841 0.485757 -0.459279 -0.528453 -0.197180 0.699160 -0.565629 -0.601283 0.740211 0.266234 -0.275161 0.390469 0.082656 -0.362864 0.871343 -0.664557 0.012503 -0.600117 0.832879 -0.155014 0.521265 -0.388298 -0.188668 0.053788 -0.355010 0.103266 0.209677 -0.413960 -0.400015 0.152438 -0.275964 0.405545 0.105756 -0.330646 0.224523 0.315567 0.225365 0.013751 -0.793386 0.660672 -0.438225 -1.256101 0.459030 -0.562019 -0.078352 -0.051489 0.580945 0.393478 0.853397 0.356641 0.286987 0.409153 -0.647972 0.839119 1.125791 1.227795 -0.493477 0.164824 0.361924 -0.900522 1.146680 0.777543 0.896900 0.578450 -0.669207 -0.192481 -0.026598 -0.784456 -1.154010 0.526083 0.648774 -0.365849 0.904585 0.184376 0.137253 -0.348510 -0.278719 0.464659 0.056886 0.002575 0.199882 -0.048262 -0.097586 0.243860 -0.031236 1.071307 -0.245974 -0.802843 0.841589 -0.402995 0.724637 -0.471634 0.355835 -0.165058 0.304215 -0.497154 
12 -0.471644 -0.518662 1.101777 -0.693335 -1.170976 0.487671 -0.430215 -0.640983 -0.334540 0.732449 -0.525545 -0.492656 0.695652 0.254459 -0.327867 0.394492 0.036814 -0.337269 0.861276 -0.595705 0.071972 -0.607399 0.862257 -0.159933 0.589722 -0.362910 -0.176105 0.010272 -0.380785 -0.006299 0.198943 -0.429103 -0.356274 0.147039 -0.257248 0.309417 0.083231 -0.311765 0.224984 0.407254 0.226773 0.015196 -0.773235 0.587033 -0.386357 -1.183346 0.485499 -0.485534 -0.044088 -0.048505 0.662391 0.425141 0.842917 0.266597 0.285023 0.451656 -0.653539 0.728265 1.065630 1.105159 -0.526062 0.162665 0.485146 -0.775172 0.943442 0.652766 0.852459 0.440189 -0.582892 -0.203760 0.006723 -0.677091 -1.091276 0.508884 0.550538 -0.403205 0.783430 0.090681 0.135775 -0.347829 -0.277245 0.518390 0.143464 -0.032447 0.180625 -0.187680 -0.009104 0.168752 -0.078916 1.101457 -0.168203 -0.718181 0.805579 -0.390634 0.731951 -0.486265 0.314181 -0.214896 0.297955 -0.462023 
13 -0.525484 -0.693646 1.347212 -0.518506 -1.254605 0.518784 -0.509016 -0.600062 -0.242438 0.779554 -0.645747 -0.623408 0.791233 0.256129 -0.304525 0.433270 0.105551 -0.408845 0.951066 -0.682455 0.018082 -0.627292 0.905519 -0.188941 0.535732 -0.440052 -0.222208 0.053982 -0.366689 0.119222 0.238793 -0.494744 -0.464301 0.133568 -0.314003 0.408992 0.113056 -0.358192 0.253467 0.363421 0.217709 0.015291 -0.826247 0.749386 -0.487674 -1.340087 0.466513 -0.566535 -0.057040 -0.061832 0.655157 0.440039 0.917288 0.341394 0.309726 0.465264 -0.695552 0.897591 1.199454 1.291831 -0.526055 0.183289 0.391956 -0.920123 1.200101 0.840890 0.988364 0.625845 -0.726983 -0.221076 -0.029562 -0.840414 -1.223811 0.555403 0.667048 -0.345002 0.960257 0.169936 0.154645 -0.378351 -0.299189 0.483298 0.093493 -0.046676 0.215757 -0.048255 -0.099078 0.262493 -0.067551 1.178604 -0.276798 -0.832808 0.907930 -0.458552 0.799820 -0.526517 0.357575 -0.153479 0.317193 -0.522461 
14 -0.454433 -0.726505 1.229330 -0.580471 -1.162434 0.546942 -0.444304 -0.674047 -0.278207 0.803685 -0.614181 -0.712469 0.730977 0.378455 -0.342028 0.393310 0.134387 -0.444084 1.053150 -0.791240 0.007990 -0.614854 0.974605 -0.123385 0.549013 -0.410417 -0.197590 0.087949 -0.389863 0.096633 0.244223 -0.332556 -0.404672 0.215909 -0.347622 0.428088 0.169153 -0.369155 0.203657 0.355321 0.201904 -0.127599 -0.817627 0.604549 -0.444540 -1.117406 0.462330 -0.469185 -0.079559 0.007223 0.632686 0.449217 0.879062 0.315640 0.284040 0.389506 -0.695181 0.788696 1.103687 1.106883 -0.502019 0.159531 0.450576 -0.849892 1.083372 0.750198 0.859065 0.461611 -0.670000 -0.265658 -0.045087 -0.757418 -1.109078 0.539824 0.652809 -0.324760 0.814024 0.124424 0.145142 -0.350508 -0.251483 0.500678 0.139390 -0.004652 0.159140 -0.086134 -0.052451 0.191562 -0.034813 0.993062 -0.239433 -0.681206 0.777599 -0.381847 0.730394 -0.492258 0.418325 -0.134730 0.295638 -0.491333 
15 -0.445411 -0.791649 1.339565 -0.450057 -1.108920 0.572196 -0.481480 -0.597409 -0.231797 0.807843 -0.664821 -0.694693 0.697647 0.354352 -0.346537 0.369933 0.220262 -0.497165 1.001284 -0.778983 0.003772 -0.586370 0.906335 -0.154729 0.444392 -0.463025 -0.195414 0.160385 -0.303627 0.192340 0.284199 -0.357855 -0.473257 0.235763 -0.397296 0.481307 0.206449 -0.352673 0.266761 0.294551 0.224637 -0.169178 -0.853014 0.640937 -0.431461 -1.146404 0.438452 -0.504838 -0.102435 -0.061166 0.608295 0.484443 0.898067 0.339689 0.292456 0.363627 -0.742626 0.870695 1.162284 1.179145 -0.501948 0.151445 0.428963 -0.947965 1.242260 0.840390 0.964417 0.536471 -0.823315 -0.246623 -0.050641 -0.836501 -1.152680 0.576165 0.737823 -0.292632 0.887934 0.155203 0.201413 -0.381702 -0.230612 0.439141 0.042094 0.044919 0.122948 0.075827 -0.111211 0.290290 -0.067604 1.047153 -0.303495 -0.676909 0.806130 -0.342333 0.806363 -0.465128 0.407944 -0.085120 0.287307 -0.560147 
16 -0.370948 -0.839185 1.338912 -0.538878 -1.175120 0.554956 -0.485160 -0.608275 -0.248708 0.861221 -0.703550 -0.810259 0.734408 0.435074 -0.331348 0.374239 0.244778 -0.551193 1.123239 -0.888684 -0.043806 -0.616854 0.969821 -0.160834 0.467389 -0.470405 -0.215060 0.181152 -0.330128 0.220278 0.282860 -0.262874 -0.492678 0.225724 -0.427899 0.528931 0.256085 -0.415354 0.284301 0.301263 0.198325 -0.219592 -0.877785 0.686605 -0.518996 -1.158876 0.420993 -0.462821 -0.089393 -0.017360 0.584822 0.494714 0.950436 0.352164 0.301662 0.366935 -0.735643 0.885901 1.174342 1.181839 -0.535923 0.151406 0.505439 -0.920484 1.280645 0.844606 0.977068 0.472989 -0.798166 -0.298743 -0.068355 -0.833629 -1.194534 0.579344 0.753911 -0.297656 0.841833 0.142260 0.173919 -0.365745 -0.267239 0.487577 0.079461 0.042072 0.094584 0.090356 -0.099993 0.274931 -0.062688 1.004339 -0.307943 -0.668302 0.797169 -0.401948 0.812886 -0.496297 0.485206 -0.047630 0.323404 -0.565221 
17 -0.300521 -0.790237 1.156421 -0.723751 -1.116287 0.572277 -0.404716 -0.683811 -0.404876 0.918302 -0.653190 -0.702322 0.617563 0.479879 -0.430250 0.277875 0.247166 -0.531673 1.071554 -0.813917 0.018703 -0.640176 0.975418 -0.160314 0.500231 -0.409677 -0.187186 0.188965 -0.314152 0.097760 0.260554 -0.228928 -0.351483 0.267628 -0.379772 0.411848 0.213771 -0.347144 0.259747 0.288548 0.235681 -0.248211 -0.870592 0.429595 -0.345553 -0.925411 0.439977 -0.341759 -0.108644 -0.047822 0.497413 0.502848 0.800648 0.253351 0.316066 0.372067 -0.779413 0.661123 1.109582 1.014169 -0.516733 0.142719 0.624861 -0.861788 0.990250 0.608783 0.882864 0.262275 -0.662309 -0.200732 0.032076 -0.679820 -1.039017 0.534333 0.670729 -0.386113 0.584310 0.018018 0.154407 -0.392929 -0.179570 0.509563 0.095791 0.159102 0.070672 -0.066905 0.018564 0.213892 -0.184266 0.994028 -0.117744 -0.552971 0.638083 -0.255713 0.777108 -0.386303 0.398262 -0.103219 0.266465 -0.555963 
18 -0.287694 -0.882990 1.280072 -0.646110 -1.137478 0.611156 -0.426699 -0.688397 -0.344747 0.945397 -0.711725 -0.832686 0.652045 0.524430 -0.402453 0.294001 0.314336 -0.642892 1.119761 -0.935480 -0.043175 -0.641755 1.022662 -0.168430 0.479779 -0.474858 -0.194192 0.251664 -0.275978 0.228565 0.276546 -0.169920 -0.414658 0.280516 -0.444499 0.503596 0.269668 -0.437402 0.261505 0.289201 0.209317 -0.338845 -0.944814 0.528983 -0.430120 -0.958725 0.448124 -0.349430 -0.157164 -0.009444 0.503804 0.526052 0.873804 0.285344 0.340588 0.359301 -0.817985 0.738129 1.131991 1.087452 -0.536912 0.153948 0.604988 -0.908582 1.119877 0.729931 0.912793 0.327729 -0.728296 -0.256730 -0.012433 -0.765581 -1.109398 0.551676 0.748572 -0.330339 0.630424 0.072021 0.123477 -0.405624 -0.189621 0.464466 0.109975 0.158711 0.084640 0.006360 -0.050504 0.255549 -0.131735 0.919497 -0.213080 -0.537525 0.670442 -0.252480 0.765100 -0.439200 0.490091 -0.069503 0.279204 -0.522492 
19 -0.212338 -0.898443 1.233005 -0.646075 -1.050046 0.590189 -0.379047 -0.738619 -0.413252 0.989196 -0.740758 -0.848808 0.629236 0.526748 -0.426637 0.289125 0.341174 -0.674565 1.224874 -0.963268 -0.046269 -0.620278 1.036003 -0.195044 0.424240 -0.456621 -0.189482 0.301671 -0.260754 0.203829 0.311749 -0.120866 -0.462523 0.321107 -0.507019 0.509434 0.366915 -0.391811 0.314099 0.312520 0.219371 -0.431668 -0.933969 0.501934 -0.404391 -0.881263 0.423460 -0.296555 -0.099540 -0.036368 0.501336 0.542544 0.880261 0.263750 0.296896 0.311281 -0.765789 0.706606 1.025116 0.952389 -0.555938 0.111074 0.702103 -0.847965 1.108700 0.683560 0.878358 0.202039 -0.757729 -0.272372 -0.020026 -0.702411 -1.046166 0.558142 0.746549 -0.333307 0.590880 0.042741 0.196584 -0.373974 -0.201505 0.489444 0.057748 0.196987 -0.047964 0.124038 -0.033478 0.259419 -0.147127 0.880052 -0.197721 -0.467871 0.622633 -0.271389 0.801150 -0.403815 0.484945 -0.000275 0.291869 -0.579876 
20 -0.190763 -0.844893 1.177978 -0.705983 -1.063589 0.626101 -0.415923 -0.634203 -0.394021 0.947360 -0.661572 -0.712096 0.516566 0.565169 -0.480812 0.224638 0.364170 -0.568465 1.029071 -0.834394 -0.024337 -0.589984 1.015281 -0.141776 0.415835 -0.469748 -0.166417 0.304018 -0.201572 0.207177 0.309295 -0.144023 -0.309403 0.323475 -0.478588 0.441968 0.231313 -0.371325 0.182112 0.219008 0.190466 -0.383389 -0.920772 0.303697 -0.229980 -0.781945 0.408070 -0.257764 -0.160556 -0.083900 0.420791 0.525717 0.725293 0.170876 0.407332 0.410222 -0.809367 0.607840 1.080902 0.918267 -0.453587 0.144372 0.658677 -0.901371 0.865177 0.558727 0.830521 0.210569 -0.660293 -0.181138 0.033451 -0.654602 -0.923903 0.525234 0.723795 -0.297264 0.397338 -0.075749 0.133594 -0.483394 -0.078726 0.383818 0.111088 0.304892 0.045135 -0.063532 0.009437 0.249453 -0.215248 0.915830 -0.060664 -0.436813 0.506789 -0.113971 0.777743 -0.310077 0.485031 0.004507 0.226601 -0.568683 
21 -0.171349 -0.864789 1.073911 -0.799884 -1.045701 0.663517 -0.381486 -0.685801 -0.450308 0.981342 -0.643992 -0.741944 0.471784 0.651149 -0.495080 0.182090 0.396328 -0.622140 1.067273 -0.891819 -0.008637 -0.630605 1.031207 -0.138557 0.453760 -0.418422 -0.161277 0.298809 -0.218731 0.175033 0.286473 -0.037197 -0.239413 0.355649 -0.456378 0.429110 0.249996 -0.374348 0.203084 0.200465 0.222791 -0.434607 -0.978804 0.226522 -0.244159 -0.693200 0.446091 -0.190970 -0.154797 -0.038998 0.367544 0.534074 0.714455 0.175126 0.385664 0.367527 -0.841291 0.547429 1.097249 0.874489 -0.465964 0.126963 0.737958 -0.889138 0.824220 0.472024 0.800748 0.088352 -0.620932 -0.157584 0.056908 -0.589909 -0.891568 0.506552 0.708685 -0.362890 0.289788 -0.102195 0.130073 -0.461810 -0.056437 0.434722 0.105452 0.379529 0.003443 -0.093550 0.068230 0.200370 -0.243065 0.848592 0.020058 -0.391468 0.433305 -0.087850 0.736854 -0.272679 0.482113 -0.010761 0.243662 -0.576369 
22 -0.089817 -0.714122 0.980550 -0.877287 -0.953570 0.602927 -0.375214 -0.610958 -0.480102 0.928606 -0.579155 -0.633162 0.368331 0.603125 -0.447540 0.161821 0.346475 -0.580034 0.994287 -0.798648 0.032405 -0.533355 0.895533 -0.096418 0.417181 -0.345188 -0.120423 0.313962 -0.116032 0.146149 0.253908 0.051665 -0.205969 0.249779 -0.445760 0.367256 0.230079 -0.338920 0.281177 0.181546 0.178355 -0.440695 -0.934149 0.171024 -0.179815 -0.653547 0.388067 -0.127856 -0.145378 -0.124561 0.284299 0.537072 0.636478 0.121353 0.374245 0.333218 -0.745371 0.420007 0.954827 0.731576 -0.484645 0.084024 0.883676 -0.756238 0.691763 0.321929 0.758659 -0.086073 -0.571317 -0.144151 0.106557 -0.460247 -0.816495 0.487933 0.665993 -0.397293 0.133310 -0.165954 0.147198 -0.417376 -0.048924 0.424563 0.057346 0.430931 -0.117307 -0.035507 0.099820 0.183320 -0.283085 0.733576 0.070744 -0.235020 0.337930 -0.052099 0.697586 -0.230185 0.402493 0.009236 0.222534 -0.556908 
23 -0.086069 -0.843279 0.947237 -0.772793 -0.867336 0.644961 -0.346974 -0.642677 -0.461945 0.975224 -0.626026 -0.767492 0.342813 0.666453 -0.483258 0.119234 0.413582 -0.667119 1.128541 -0.925245 -0.003129 -0.556654 0.977574 -0.090981 0.396225 -0.337672 -0.147187 0.368466 -0.135495 0.179415 0.304314 0.103698 -0.230316 0.335455 -0.495650 0.408371 0.327314 -0.342620 0.255347 0.160763 0.177219 -0.574564 -0.918943 0.174798 -0.235817 -0.522931 0.384878 -0.081538 -0.105965 -0.037205 0.304062 0.502582 0.666602 0.143694 0.311541 0.233326 -0.774262 0.435661 0.911382 0.647701 -0.473539 0.077509 0.844029 -0.738854 0.755672 0.374087 0.704313 -0.130346 -0.638390 -0.190675 0.064675 -0.478651 -0.771272 0.520257 0.693604 -0.362364 0.156435 -0.115605 0.189904 -0.387489 -0.027857 0.451419 0.065350 0.384575 -0.158779 0.041616 0.116415 0.175598 -0.238716 0.646985 0.030487 -0.152424 0.280057 -0.065462 0.617941 -0.232704 0.398412 0.009322 0.208845 -0.560709 
24 -0.058040 -0.795361 0.866186 -0.789979 -0.747752 0.626397 -0.261285 -0.665075 -0.481593 0.958231 -0.593628 -0.718679 0.301471 0.656372 -0.483758 0.080145 0.403770 -0.662017 1.075271 -0.891375 0.002432 -0.544964 0.921543 -0.075203 0.373222 -0.336129 -0.128073 0.410127 -0.101410 0.192516 0.301789 0.130492 -0.194049 0.351276 -0.493442 0.415886 0.325889 -0.355231 0.255213 0.160369 0.175541 -0.635550 -0.928063 0.115161 -0.203779 -0.424558 0.377675 -0.039526 -0.111017 -0.016924 0.304854 0.525915 0.657737 0.115085 0.324275 0.215608 -0.774108 0.376932 0.861101 0.572493 -0.465665 0.073550 0.871456 -0.716650 0.719031 0.337547 0.678948 -0.176769 -0.627892 -0.203292 0.054782 -0.445476 -0.714230 0.477619 0.677527 -0.350985 0.096969 -0.144428 0.192948 -0.396357 0.007424 0.461737 0.075276 0.411977 -0.155401 0.028539 0.127499 0.182544 -0.231582 0.590205 0.032981 -0.105991 0.248772 -0.023388 0.623137 -0.230087 0.436186 0.048807 0.217834 -0.558182 
25 0.108713 -0.745554 0.693732 -0.894270 -0.686370 0.560720 -0.213840 -0.627414 -0.525111 0.942405 -0.581543 -0.697575 0.231815 0.679572 -0.499677 0.014338 0.480670 -0.705548 1.038908 -0.870636 0.002041 -0.597973 0.869714 -0.136899 0.339870 -0.302547 -0.129907 0.424518 -0.078346 0.170456 0.271557 0.210990 -0.158719 0.348265 -0.453519 0.390384 0.351438 -0.312982 0.327826 0.130995 0.187554 -0.678255 -0.900219 0.014279 -0.162846 -0.330903 0.356960 0.013924 -0.131862 -0.071223 0.199079 0.547927 0.576504 0.112467 0.302686 0.166080 -0.760412 0.294048 0.844610 0.514472 -0.451604 0.039653 0.960149 -0.681996 0.665266 0.216786 0.669329 -0.292591 -0.585089 -0.176096 0.098971 -0.376353 -0.679338 0.460185 0.655396 -0.387404 -0.018283 -0.189646 0.204624 -0.364388 0.015048 0.451654 0.014115 0.515417 -0.246714 0.085997 0.142456 0.157778 -0.288521 0.529946 0.085122 -0.045210 0.160305 0.021945 0.629789 -0.154592 0.411284 0.063424 0.210707 -0.572964 
26 0.044104 -0.814958 0.713827 -0.859830 -0.596871 0.612027 -0.147520 -0.791463 -0.601942 0.957210 -0.551634 -0.744886 0.198620 0.686516 -0.531238 -0.001619 0.449150 -0.734830 1.101047 -0.911176 0.033699 -0.612929 0.938307 -0.121767 0.441052 -0.293445 -0.125368 0.399058 -0.144462 0.113141 0.275217 0.212188 -0.183891 0.332801 -0.491162 0.394195 0.367131 -0.361375 0.329692 0.198636 0.188365 -0.710863 -0.969080 0.048728 -0.194275 -0.323406 0.434513 -0.000660 -0.130416 -0.037385 0.317170 0.561047 0.629159 0.120884 0.269241 0.127445 -0.807494 0.287434 0.850152 0.516011 -0.494455 0.050849 0.967556 -0.671882 0.669801 0.281516 0.625036 -0.311658 -0.612289 -0.211633 0.098171 -0.398128 -0.697550 0.489976 0.659627 -0.398034 0.030396 -0.172392 0.197830 -0.364306 0.024847 0.488926 0.086057 0.450200 -0.230703 0.030508 0.169671 0.114844 -0.256082 0.490995 0.059281 0.055224 0.178677 0.042737 0.610637 -0.210247 0.398585 -0.001437 0.188674 -0.539038 
27 0.028337 -0.857031 0.561786 -0.812249 -0.532958 0.621110 -0.140236 -0.729158 -0.555241 0.940616 -0.510576 -0.669481 0.129984 0.710327 -0.511383 -0.087144 0.452943 -0.686976 0.996522 -0.815679 -0.017469 -0.528841 0.902178 -0.116625 0.366127 -0.251182 -0.113014 0.467082 -0.087101 0.151486 0.243381 0.221102 -0.062737 0.312372 -0.459913 0.353149 0.317388 -0.354197 0.277896 0.130876 0.121983 -0.672920 -0.947956 0.012051 -0.168825 -0.178372 0.406600 0.078798 -0.117066 -0.003275 0.211764 0.514242 0.558382 0.060442 0.263870 0.100903 -0.778353 0.230951 0.789114 0.462167 -0.446601 0.054200 0.921112 -0.675876 0.584557 0.232871 0.524557 -0.319472 -0.588914 -0.185639 0.096363 -0.340206 -0.551652 0.449294 0.622202 -0.375502 -0.049491 -0.220304 0.211797 -0.345198 0.128920 0.456699 0.079807 0.483200 -0.260005 0.049029 0.192816 0.076890 -0.258164 0.342271 0.097766 0.164058 0.082118 0.055233 0.540638 -0.152933 0.357181 0.050973 0.201497 -0.561918 
28 0.085306 -0.770927 0.548028 -0.778434 -0.461717 0.535057 -0.079311 -0.683626 -0.583606 0.976571 -0.564295 -0.590212 0.131635 0.622708 -0.557385 -0.109262 0.475298 -0.713528 0.933613 -0.769311 0.046725 -0.585258 0.790813 -0.160322 0.288462 -0.317170 -0.135617 0.517718 -0.001788 0.193025 0.306246 0.127122 -0.095948 0.394048 -0.449097 0.381957 0.351089 -0.275854 0.333756 0.132535 0.183259 -0.745168 -0.886792 -0.033859 -0.098497 -0.204706 0.332134 0.022477 -0.129576 -0.057064 0.218339 0.543481 0.525070 0.053489 0.256376 0.085063 -0.760124 0.253765 0.752056 0.393825 -0.419854 0.042707 0.893998 -0.635238 0.610820 0.234742 0.589834 -0.254822 -0.671520 -0.185434 0.090769 -0.348626 -0.555922 0.434984 0.625775 -0.373320 -0.018403 -0.194298 0.251846 -0.342036 0.093365 0.452761 0.008562 0.503713 -0.268154 0.098857 0.159676 0.116866 -0.244044 0.383362 0.074139 0.109409 0.069788 0.159447 0.536801 -0.095345 0.345196 0.041170 0.181150 -0.534393 
29 0.102907 -0.712376 0.454864 -0.815899 -0.336867 0.538653 -0.034892 -0.716456 -0.566930 0.889986 -0.495828 -0.558797 0.026148 0.595383 -0.546908 -0.130698 0.487837 -0.707373 0.885144 -0.712717 0.078593 -0.592747 0.751373 -0.142763 0.323586 -0.259305 -0.119003 0.485589 -0.033694 0.136961 0.274421 0.156926 -0.105021 0.323749 -0.441485 0.356177 0.346757 -0.274147 0.391623 0.143294 0.151015 -0.736033 -0.857365 -0.003005 -0.129575 -0.137514 0.365889 0.012750 -0.089746 -0.052211 0.287971 0.524843 0.521650 0.060047 0.198545 0.025663 -0.712815 0.237795 0.726696 0.362096 -0.437237 0.018737 0.861214 -0.560992 0.599576 0.249439 0.495155 -0.329940 -0.652117 -0.215552 0.071274 -0.322242 -0.507305 0.446571 0.603825 -0.340970 0.037423 -0.171953 0.297997 -0.294204 0.116891 0.450339 0.020096 0.429200 -0.307300 0.124875 0.192719 0.055282 -0.207081 0.283916 0.043292 0.244744 0.037236 0.143613 0.515261 -0.099751 0.292102 0.030923 0.164805 -0.529160 
30 0.136270 -0.678426 0.389714 -0.785763 -0.347615 0.497105 -0.046745 -0.674019 -0.597297 0.892610 -0.494365 -0.572908 0.038610 0.606459 -0.506424 -0.162694 0.475775 -0.723520 0.946841 -0.744490 0.035842 -0.566382 0.779731 -0.153384 0.279960 -0.256439 -0.139365 0.547369 0.010024 0.181194 0.279907 0.195041 -0.063001 0.327504 -0.429438 0.355615 0.365489 -0.294974 0.368031 0.128935 0.139933 -0.760767 -0.865328 -0.010576 -0.148987 -0.087650 0.318865 0.084872 -0.098387 -0.015188 0.206404 0.518491 0.534273 0.042254 0.208135 0.025552 -0.689294 0.217332 0.678222 0.334090 -0.443364 0.024973 0.911759 -0.547381 0.594726 0.210845 0.536877 -0.352290 -0.635211 -0.218386 0.075472 -0.302957 -0.527438 0.412268 0.578648 -0.352151 -0.056039 -0.204138 0.264829 -0.290339 0.107253 0.470040 0.015410 0.456702 -0.290314 0.141559 0.187174 0.091941 -0.246811 0.281001 0.055117 0.220209 0.045215 0.087390 0.513459 -0.135628 0.327020 0.060097 0.196104 -0.520823 
31 0.110182 -0.704611 0.313254 -0.634043 -0.270434 0.488455 0.030207 -0.689464 -0.607522 0.894609 -0.480696 -0.600753 0.018480 0.620009 -0.521701 -0.183402 0.460472 -0.739023 0.934970 -0.791590 0.018817 -0.561852 0.767362 -0.128107 0.328771 -0.235211 -0.154688 0.502424 -0.038378 0.131892 0.285765 0.204709 -0.085426 0.414227 -0.468197 0.344866 0.438655 -0.302606 0.300500 0.176809 0.164999 -0.819362 -0.855900 0.005280 -0.198716 -0.085058 0.344106 0.113637 -0.059219 0.054770 0.276348 0.506721 0.556885 0.027686 0.155536 -0.036442 -0.764006 0.199765 0.619310 0.284862 -0.466914 0.035704 0.896148 -0.510173 0.572560 0.258938 0.460181 -0.408508 -0.613414 -0.233862 0.077418 -0.280016 -0.495961 0.429830 0.590808 -0.376113 -0.029625 -0.169030 0.268106 -0.289560 0.120708 0.516571 0.058258 0.383236 -0.298940 0.105473 0.224229 0.066910 -0.199319 0.247882 0.059874 0.257856 0.021566 0.094231 0.409356 -0.158791 0.306911 0.008383 0.175197 -0.498341 
32 0.111789 -0.648174 0.312618 -0.710322 -0.163367 0.478852 0.088329 -0.775490 -0.661829 0.899501 -0.459671 -0.574597 -0.020556 0.550433 -0.548331 -0.174851 0.486268 -0.754025 0.896232 -0.699433 0.058082 -0.561020 0.739505 -0.176335 0.313267 -0.247106 -0.133476 0.536482 0.023096 0.126575 0.293463 0.190149 -0.082164 0.375844 -0.472746 0.320165 0.427134 -0.282351 0.353169 0.196888 0.183086 -0.888301 -0.863754 -0.072754 -0.130850 0.042840 0.347686 0.142389 -0.101544 -0.002117 0.269248 0.565429 0.541437 0.006440 0.180346 -0.021250 -0.789792 0.103345 0.572730 0.258434 -0.477536 0.035287 0.857047 -0.491150 0.547370 0.242883 0.439574 -0.416126 -0.617182 -0.232142 0.084812 -0.308763 -0.489984 0.418358 0.586790 -0.329544 -0.053811 -0.176143 0.248005 -0.328708 0.135545 0.476937 0.040341 0.410294 -0.271327 0.108929 0.235894 0.104720 -0.236850 0.234165 0.052359 0.338354 0.030465 0.136924 0.461335 -0.177451 0.299146 0.027160 0.163046 -0.500179 
33 0.140979 -0.713860 0.220029 -0.714914 -0.117188 0.461254 0.108880 -0.759754 -0.643399 0.854944 -0.408253 -0.563231 -0.045229 0.569328 -0.514005 -0.239355 0.459148 -0.765808 0.883693 -0.715878 0.069067 -0.571938 0.706947 -0.145792 0.306451 -0.201301 -0.131295 0.552966 -0.023759 0.083083 0.246096 0.209857 -0.019129 0.332916 -0.405393 0.327748 0.370224 -0.298254 0.373737 0.163909 0.146477 -0.821030 -0.809955 -0.014305 -0.183094 0.084100 0.321262 0.150393 -0.093484 0.057470 0.243020 0.507171 0.506016 0.003103 0.124031 -0.071641 -0.711650 0.129981 0.583896 0.215434 -0.431409 0.032924 0.852981 -0.421694 0.523700 0.211040 0.411891 -0.409502 -0.634403 -0.265604 0.078432 -0.238963 -0.419529 0.380425 0.513842 -0.337755 -0.038799 -0.209228 0.274928 -0.226798 0.145155 0.528383 0.091413 0.358011 -0.293027 0.090574 0.235370 0.002446 -0.192820 0.099430 0.016533 0.391341 -0.029873 0.155801 0.414451 -0.122877 0.269655 0.006371 0.178921 -0.463006 
34 0.186196 -0.584399 0.125826 -0.591382 -0.025881 0.369796 0.149533 -0.682191 -0.605672 0.791332 -0.400479 -0.529406 -0.040772 0.559113 -0.481803 -0.234474 0.491231 -0.757389 0.806193 -0.694049 0.032274 -0.531282 0.638159 -0.154586 0.234848 -0.245185 -0.153569 0.541395 -0.001429 0.158544 0.285211 0.185255 -0.053207 0.420364 -0.416976 0.336553 0.441921 -0.265987 0.331092 0.135146 0.196655 -0.883843 -0.762231 -0.070389 -0.151820 0.094562 0.266992 0.156403 -0.097155 0.067281 0.231236 0.497657 0.515114 -0.005534 0.105309 -0.110337 -0.727364 0.152896 0.539772 0.173023 -0.426063 0.027214 0.817083 -0.426754 0.548655 0.217079 0.445651 -0.399183 -0.641203 -0.252563 0.069374 -0.259676 -0.439212 0.379787 0.542184 -0.326530 -0.063915 -0.183936 0.292494 -0.268015 0.120592 0.537576 0.038562 0.369640 -0.292698 0.166132 0.222973 0.084871 -0.216774 0.208950 0.000860 0.277199 -0.031685 0.150120 0.427051 -0.137412 0.308574 0.040751 0.163954 -0.480022 
35 0.076606 -0.635849 0.185918 -0.591311 -0.041179 0.397842 0.159550 -0.699937 -0.583107 0.796846 -0.350186 -0.526787 -0.111872 0.541845 -0.484657 -0.256485 0.480942 -0.703939 0.836762 -0.645927 0.026425 -0.489471 0.722821 -0.130171 0.281108 -0.189821 -0.128768 0.522577 0.021178 0.156014 0.268216 0.222111 -0.053673 0.328582 -0.465491 0.297280 0.431064 -0.288799 0.292604 0.166937 0.118163 -0.848302 -0.796231 -0.012423 -0.189937 0.171119 0.342822 0.190779 -0.040751 0.053542 0.209001 0.464028 0.537952 0.029232 0.113466 -0.110305 -0.703297 0.015212 0.431960 0.215725 -0.427920 0.027152 0.771698 -0.465493 0.513670 0.229928 0.326669 -0.435357 -0.575745 -0.225139 0.052500 -0.288815 -0.385972 0.387156 0.565855 -0.282141 -0.076012 -0.136156 0.220913 -0.282690 0.195617 0.418739 0.040258 0.342825 -0.302576 0.140128 0.253660 0.089176 -0.173145 0.067920 0.043377 0.447603 -0.010342 0.064838 0.369280 -0.196717 0.254960 0.072237 0.139631 -0.461113 
36 0.169595 -0.653992 0.135949 -0.548136 -0.094812 0.413862 0.096790 -0.617476 -0.520210 0.774185 -0.385025 -0.521390 -0.124658 0.542531 -0.478274 -0.271589 0.509116 -0.760083 0.763923 -0.657066 0.056915 -0.478442 0.679567 -0.096613 0.247238 -0.194767 -0.108077 0.563386 0.058767 0.174727 0.247855 0.227373 -0.057587 0.311274 -0.466082 0.318861 0.386455 -0.264501 0.321827 0.122681 0.057050 -0.848163 -0.774756 0.005770 -0.128980 0.116335 0.298066 0.126902 -0.070020 0.026916 0.216707 0.456598 0.462935 0.021391 0.120044 -0.089856 -0.591757 0.136155 0.459790 0.188604 -0.406302 0.018054 0.751283 -0.412648 0.485546 0.242848 0.320155 -0.376985 -0.601396 -0.235422 0.053423 -0.237605 -0.360584 0.382520 0.547307 -0.223187 -0.055124 -0.139009 0.242835 -0.245448 0.196478 0.359745 0.037185 0.404020 -0.311635 0.171078 0.161721 0.043768 -0.159005 0.021846 0.008767 0.425096 -0.045954 0.134229 0.361086 -0.109459 0.268407 0.066673 0.134960 -0.400624 
37 0.041553 -0.639853 0.087895 -0.467053 -0.036804 0.372626 0.130477 -0.663527 -0.609282 0.777340 -0.362761 -0.497313 -0.154633 0.509565 -0.484921 -0.283989 0.448900 -0.729488 0.800711 -0.626325 0.052631 -0.463184 0.673431 -0.101711 0.266187 -0.189790 -0.186990 0.537303 -0.006792 0.129214 0.252236 0.166552 -0.024880 0.299863 -0.425395 0.262200 0.382202 -0.292136 0.288404 0.142259 0.085178 -0.810864 -0.739615 0.041759 -0.221441 0.160173 0.269361 0.179628 0.006133 0.134118 0.272838 0.429453 0.491828 -0.022335 0.053728 -0.149507 -0.656410 0.094641 0.414470 0.127615 -0.427794 0.018985 0.738437 -0.364459 0.499040 0.264514 0.330993 -0.387213 -0.635967 -0.272046 0.056605 -0.220796 -0.358086 0.392619 0.493334 -0.297152 -0.031530 -0.167460 0.301641 -0.212340 0.221836 0.500180 0.069419 0.286864 -0.323017 0.172199 0.243376 0.048103 -0.139032 0.023501 -0.023140 0.496552 -0.069925 0.098368 0.317063 -0.141147 0.198109 0.007415 0.143813 -0.422195 
38 0.097034 -0.603833 0.036892 -0.509940 -0.007597 0.314840 0.176493 -0.664262 -0.554143 0.728338 -0.328897 -0.536543 -0.090251 0.478644 -0.429657 -0.296280 0.440944 -0.727129 0.782353 -0.618800 0.008590 -0.464557 0.636677 -0.134204 0.228450 -0.171458 -0.134757 0.570263 0.067577 0.179295 0.238772 0.222615 -0.020507 0.331561 -0.410725 0.286170 0.430059 -0.273269 0.303347 0.160794 0.093053 -0.883723 -0.708422 0.024030 -0.247185 0.198441 0.256518 0.234320 -0.051543 0.120594 0.178800 0.448253 0.504420 0.000718 0.076633 -0.130837 -0.646576 0.015499 0.374752 0.142745 -0.426067 0.028733 0.699099 -0.361432 0.487411 0.200629 0.323808 -0.430979 -0.570473 -0.256258 0.052980 -0.255524 -0.395432 0.353966 0.518298 -0.250852 -0.085366 -0.155512 0.207528 -0.223461 0.194300 0.444246 0.053867 0.310172 -0.243750 0.151466 0.210684 0.059929 -0.153096 -0.045303 -0.002552 0.484946 -0.049622 0.063543 0.312182 -0.164781 0.233264 0.086096 0.179626 -0.408355 
39 0.164354 -0.601658 0.033553 -0.545709 0.071430 0.357151 0.203122 -0.656643 -0.532042 0.719838 -0.341992 -0.514741 -0.219782 0.475747 -0.487826 -0.352428 0.526526 -0.751060 0.745751 -0.595692 0.086353 -0.513352 0.601461 -0.110317 0.229328 -0.177122 -0.117332 0.529550 0.032605 0.153152 0.264428 0.233180 -0.058786 0.289160 -0.449723 0.314422 0.410814 -0.273975 0.337509 0.116820 0.068725 -0.833475 -0.719868 0.014704 -0.226951 0.210601 0.300256 0.191008 -0.002887 0.095113 0.285431 0.429627 0.507099 0.010331 0.039012 -0.181910 -0.669485 0.058693 0.449340 0.101072 -0.380518 0.016807 0.715018 -0.360045 0.512714 0.232238 0.289856 -0.442540 -0.612219 -0.272803 0.016779 -0.256938 -0.305910 0.379826 0.506913 -0.208456 -0.058925 -0.156207 0.281423 -0.212241 0.215711 0.404898 0.063211 0.249667 -0.323082 0.203279 0.232572 0.029451 -0.157939 -0.020247 -0.021713 0.551782 -0.090387 0.095287 0.319218 -0.152968 0.178333 0.059784 0.088367 -0.405672 
40 0.065075 -0.586323 0.004177 -0.481090 0.052485 0.364045 0.187155 -0.575523 -0.549925 0.775604 -0.353867 -0.448993 -0.151986 0.546429 -0.491856 -0.351220 0.455852 -0.716376 0.709571 -0.600326 0.061335 -0.466298 0.551944 -0.086935 0.219684 -0.159611 -0.146745 0.579785 0.078773 0.190475 0.290585 0.231892 0.039239 0.342432 -0.408590 0.283937 0.386480 -0.236627 0.325295 0.091950 0.121725 -0.824581 -0.762940 -0.055943 -0.189307 0.136545 0.276538 0.202741 -0.059487 0.070534 0.132279 0.441203 0.438952 -0.024679 0.045781 -0.182498 -0.692986 0.050714 0.477207 0.137272 -0.363663 0.008141 0.759461 -0.434241 0.418756 0.160941 0.318482 -0.408750 -0.623745 -0.207795 0.073193 -0.181369 -0.263022 0.335843 0.472232 -0.310707 -0.151807 -0.163819 0.292841 -0.209807 0.253330 0.470450 0.007434 0.352901 -0.329230 0.185327 0.265016 0.028715 -0.186549 -0.048951 0.056461 0.513098 -0.140420 0.152784 0.289720 -0.070153 0.144281 0.028460 0.136161 -0.427894 
41 0.096523 -0.570275 0.030470 -0.416945 0.001292 0.340392 0.180051 -0.646171 -0.626098 0.737324 -0.301855 -0.413633 -0.140165 0.476991 -0.474179 -0.314865 0.381292 -0.640349 0.722208 -0.548724 0.065477 -0.414322 0.636885 -0.114511 0.234813 -0.191637 -0.152732 0.573403 0.099813 0.142262 0.269710 0.140553 -0.060817 0.287249 -0.480941 0.263432 0.397818 -0.242088 0.309720 0.174149 0.058669 -0.786942 -0.733420 0.079479 -0.160530 0.083261 0.256967 0.178108 -0.008261 0.058394 0.222293 0.444020 0.453105 -0.060009 0.090862 -0.072188 -0.646788 0.064307 0.379900 0.122541 -0.395203 0.022883 0.725890 -0.355017 0.343077 0.213230 0.236159 -0.416071 -0.592940 -0.234367 0.068660 -0.162549 -0.282359 0.351604 0.464837 -0.243919 -0.085271 -0.159425 0.246119 -0.228432 0.249023 0.398089 0.078713 0.261363 -0.267778 0.092824 0.223383 0.038833 -0.149916 -0.013020 0.006974 0.530686 -0.048073 0.105119 0.297855 -0.146931 0.170637 0.029349 0.136415 -0.386288 
42 0.161425 -0.509810 -0.015108 -0.493178 0.141865 0.317658 0.203335 -0.612363 -0.546776 0.699862 -0.315973 -0.376669 -0.216024 0.428844 -0.498836 -0.282305 0.470127 -0.674204 0.672428 -0.496462 0.086766 -0.440840 0.570819 -0.141225 0.193151 -0.158136 -0.132108 0.521062 0.083136 0.136896 0.268118 0.144670 -0.058890 0.314021 -0.430716 0.237443 0.402559 -0.230904 0.318946 0.141764 0.070468 -0.825183 -0.672900 0.015723 -0.188397 0.160982 0.250213 0.230546 0.007838 0.048811 0.235385 0.421389 0.448477 -0.048481 0.071514 -0.123428 -0.632632 -0.000704 0.306395 0.068094 -0.390664 0.003091 0.686823 -0.342945 0.434005 0.193229 0.254500 -0.432672 -0.540778 -0.193573 0.051316 -0.195077 -0.271033 0.339714 0.471030 -0.236161 -0.090494 -0.177566 0.280555 -0.244162 0.224959 0.374412 0.021910 0.308033 -0.311247 0.182201 0.248124 0.089768 -0.203593 0.051991 0.015422 0.502803 -0.045583 0.035593 0.335451 -0.157563 0.150652 0.074643 0.101173 -0.406999 
43 0.147780 -0.515055 -0.030594 -0.447118 0.172628 0.354433 0.227007 -0.640318 -0.630272 0.731553 -0.298811 -0.391381 -0.238924 0.481813 -0.459804 -0.315423 0.486732 -0.750585 0.677636 -0.570340 0.065234 -0.435135 0.603066 -0.120182 0.226502 -0.170661 -0.129182 0.563751 0.124565 0.164961 0.252116 0.249824 -0.052373 0.282593 -0.446407 0.249878 0.424558 -0.272844 0.323005 0.180257 0.079571 -0.945361 -0.711856 0.003206 -0.197112 0.218795 0.271966 0.247733 -0.021118 0.054697 0.248186 0.472368 0.439014 -0.050816 0.073869 -0.160936 -0.696309 -0.013878 0.298733 0.027848 -0.417028 0.003102 0.738450 -0.261567 0.363582 0.216313 0.252352 -0.523435 -0.586947 -0.272476 0.038388 -0.175013 -0.266978 0.369103 0.470705 -0.216441 -0.166613 -0.154438 0.246027 -0.231787 0.192045 0.400721 0.047399 0.248623 -0.312854 0.155797 0.240519 0.095852 -0.185324 0.008557 -0.007220 0.551373 -0.074449 0.098055 0.351524 -0.171422 0.172829 0.046125 0.089076 -0.389338 
44 -0.000132 -0.560994 -0.010891 -0.409252 0.189323 0.341149 0.200943 -0.607318 -0.576162 0.721888 -0.319220 -0.420164 -0.236264 0.401211 -0.497862 -0.365217 0.469659 -0.704788 0.733338 -0.501288 0.083355 -0.399963 0.570518 -0.128593 0.169968 -0.120827 -0.170928 0.585722 0.089953 0.142697 0.278445 0.114808 -0.021481 0.263499 -0.446697 0.219247 0.424599 -0.188225 0.338441 0.115220 0.069414 -0.866910 -0.622077 0.019767 -0.229553 0.230187 0.237322 0.256543 0.070243 0.103978 0.217336 0.383758 0.415716 -0.076683 0.006881 -0.220754 -0.698941 -0.021651 0.292332 0.011341 -0.395582 0.007210 0.614977 -0.349374 0.447951 0.237496 0.286574 -0.446773 -0.654305 -0.242011 0.043780 -0.213188 -0.200983 0.354957 0.483784 -0.219850 -0.063148 -0.147432 0.335383 -0.219540 0.256095 0.513449 0.005577 0.224140 -0.328820 0.244451 0.296717 0.089173 -0.154882 -0.026726 -0.027899 0.614451 -0.104240 0.041826 0.230440 -0.140987 0.096045 0.067286 0.083574 -0.422967 
45 0.031517 -0.436207 0.004364 -0.547324 0.116245 0.337422 0.203614 -0.670958 -0.636627 0.714802 -0.298121 -0.259786 -0.285045 0.338879 -0.483011 -0.351010 0.393692 -0.665800 0.634286 -0.442651 0.124653 -0.384593 0.521464 -0.091897 0.248936 -0.119626 -0.132584 0.495037 0.057157 0.087425 0.262029 0.125114 -0.007208 0.285313 -0.420574 0.177706 0.340092 -0.222051 0.335375 0.145471 0.081484 -0.789731 -0.648055 0.042441 -0.190500 0.168435 0.260456 0.228773 0.069153 0.055332 0.304684 0.418738 0.498213 -0.067860 0.017227 -0.150487 -0.648607 0.015835 0.320122 0.037666 -0.430149 0.002920 0.727796 -0.245965 0.357524 0.181886 0.234845 -0.529181 -0.548211 -0.240043 0.056021 -0.156454 -0.233973 0.357918 0.428895 -0.240737 -0.091220 -0.172010 0.298757 -0.214525 0.212434 0.478852 0.063288 0.164001 -0.328000 0.132760 0.313445 0.026406 -0.183415 0.024885 0.021226 0.571053 -0.076873 0.032796 0.262109 -0.194298 0.021714 0.016448 0.111096 -0.414733 
46 0.084367 -0.462113 -0.109780 -0.552638 0.226695 0.365639 0.260610 -0.729863 -0.667074 0.706495 -0.262460 -0.327669 -0.338642 0.348640 -0.518405 -0.369871 0.419480 -0.687928 0.639024 -0.428599 0.185888 -0.454040 0.516475 -0.115696 0.230671 -0.114958 -0.084382 0.527247 0.101634 0.070722 0.229672 0.142527 -0.059426 0.240059 -0.447074 0.201042 0.366789 -0.188911 0.410764 0.191831 0.077657 -0.790965 -0.647078 -0.025133 -0.117483 0.233872 0.321698 0.210079 0.058863 0.015387 0.367456 0.421170 0.433285 -0.069792 0.002499 -0.184586 -0.649050 -0.007014 0.333493 -0.019408 -0.409441 0.003898 0.757527 -0.270198 0.318433 0.175292 0.198519 -0.552748 -0.553134 -0.244107 0.056992 -0.153528 -0.227215 0.371867 0.417835 -0.242887 -0.030914 -0.155801 0.321987 -0.201845 0.196838 0.447782 0.073619 0.164374 -0.310605 0.116597 0.287300 -0.015540 -0.201981 0.007880 0.013267 0.664533 -0.047694 0.090385 0.329907 -0.190823 0.052240 -0.018820 0.038628 -0.364489 
47 0.065470 -0.603011 -0.070114 -0.390020 0.213481 0.327580 0.226462 -0.573223 -0.535714 0.677243 -0.258353 -0.456932 -0.303531 0.470539 -0.449358 -0.422378 0.507936 -0.707195 0.674020 -0.532611 0.056368 -0.423383 0.540977 -0.091198 0.208619 -0.090719 -0.110959 0.513030 0.088601 0.144631 0.242899 0.254892 -0.000411 0.219319 -0.422617 0.212926 0.414885 -0.209683 0.325875 0.083368 0.104535 -0.833151 -0.623040 -0.017487 -0.203216 0.357411 0.305107 0.268966 0.032726 0.103796 0.166722 0.365388 0.488468 -0.009311 -0.014828 -0.247373 -0.615354 -0.042838 0.302559 0.032548 -0.388008 0.024917 0.627807 -0.319546 0.419047 0.165246 0.156338 -0.553486 -0.536185 -0.199058 0.036230 -0.230737 -0.213038 0.342912 0.468112 -0.233654 -0.101311 -0.112356 0.250166 -0.187865 0.269768 0.454016 0.037740 0.201984 -0.313738 0.188642 0.335192 0.046742 -0.162824 -0.136810 0.039268 0.644857 -0.143958 0.034293 0.205420 -0.175004 0.048796 0.058404 0.091562 -0.402617 
48 0.011680 -0.427797 -0.186880 -0.382033 0.299823 0.321925 0.319700 -0.703341 -0.678558 0.708875 -0.271270 -0.204830 -0.300472 0.314059 -0.533245 -0.370216 0.418444 -0.672426 0.560750 -0.337438 0.176426 -0.392226 0.520870 -0.142896 0.249733 -0.075971 -0.110521 0.525522 0.101150 -0.022306 0.276395 0.059639 -0.068704 0.222653 -0.457436 0.131767 0.385449 -0.135123 0.344769 0.249218 0.066160 -0.747998 -0.632562 0.006355 -0.078124 0.145675 0.327649 0.174219 0.075003 -0.034426 0.348821 0.407679 0.421607 -0.086360 -0.022107 -0.183657 -0.638092 -0.014906 0.224853 0.008028 -0.418292 -0.007244 0.701750 -0.237529 0.303557 0.192229 0.131065 -0.525752 -0.626877 -0.209495 0.077243 -0.116545 -0.142556 0.374643 0.402784 -0.269293 -0.023215 -0.107768 0.345360 -0.177494 0.248901 0.425456 0.025927 0.142750 -0.343579 0.157296 0.278983 0.006924 -0.161389 -0.025885 -0.008040 0.664760 -0.064158 0.130234 0.224266 -0.163626 -0.011371 -0.049703 0.074871 -0.381528 
49 0.102082 -0.452421 -0.121141 -0.546032 0.362062 0.339734 0.319054 -0.738760 -0.682755 0.708953 -0.289071 -0.255332 -0.378779 0.279955 -0.541255 -0.436916 0.442187 -0.706776 0.639204 -0.370267 0.227564 -0.437713 0.497808 -0.129223 0.237818 -0.116645 -0.083272 0.515985 0.113222 0.064994 0.306466 0.113984 -0.036150 0.227348 -0.469523 0.175967 0.354314 -0.155279 0.408421 0.180545 0.043447 -0.795442 -0.575070 0.012173 -0.120742 0.301396 0.296272 0.215121 0.084106 0.018716 0.405160 0.405269 0.481460 -0.071504 -0.054679 -0.248449 -0.592736 -0.013172 0.268106 -0.105037 -0.401883 0.002733 0.712652 -0.211573 0.390160 0.175715 0.189127 -0.596169 -0.648630 -0.253038 0.035609 -0.176941 -0.178989 0.375576 0.427661 -0.205946 -0.077758 -0.179081 0.377543 -0.158224 0.235911 0.440688 0.044318 0.111172 -0.366216 0.203862 0.307351 -0.026852 -0.199010 -0.047840 -0.024015 0.708714 -0.100534 0.048875 0.269468 -0.174656 -0.033406 0.024998 0.077562 -0.403209 
50 0.029685 -0.579360 -0.030016 -0.418309 0.230015 0.411312 0.254674 -0.622462 -0.596267 0.697536 -0.263996 -0.275595 -0.371900 0.329585 -0.545515 -0.428410 0.472163 -0.670761 0.577013 -0.394600 0.190689 -0.403211 0.451206 -0.042140 0.198735 -0.123208 -0.053852 0.510124 0.084847 0.058859 0.293988 0.138183 -0.010662 0.258954 -0.452235 0.208493 0.342065 -0.184283 0.336620 0.125138 0.026770 -0.706396 -0.614133 0.043363 -0.078313 0.296746 0.283563 0.199238 0.119826 0.015401 0.314611 0.340039 0.446815 -0.045528 -0.033479 -0.221608 -0.566213 0.002186 0.271693 -0.043837 -0.363189 -0.015272 0.677030 -0.253337 0.378113 0.149295 0.145975 -0.503107 -0.565419 -0.145212 0.057872 -0.155859 -0.134200 0.350203 0.413512 -0.276495 -0.039276 -0.156062 0.358984 -0.144673 0.262291 0.384224 0.068986 0.117370 -0.403723 0.197421 0.319336 -0.038650 -0.142705 -0.138494 0.055071 0.717520 -0.161903 0.097114 0.157136 -0.110583 -0.074718 0.012158 0.021395 -0.365424 
51 0.008171 -0.525201 -0.110105 -0.367971 0.322266 0.388411 0.212792 -0.662011 -0.558097 0.722098 -0.318940 -0.327290 -0.284252 0.346059 -0.482339 -0.345923 0.414330 -0.696956 0.599362 -0.442708 0.159923 -0.366827 0.427494 -0.046087 0.182296 -0.044444 -0.102164 0.528084 0.133697 0.091184 0.275836 0.174326 -0.007495 0.224403 -0.427672 0.180110 0.397750 -0.181258 0.308051 0.147908 0.049519 -0.807801 -0.554600 0.039434 -0.136754 0.305236 0.254007 0.281940 0.086027 0.079771 0.291037 0.363264 0.412863 -0.106276 -0.039828 -0.252798 -0.671302 -0.026700 0.251197 -0.077185 -0.383051 -0.000358 0.706250 -0.246610 0.335718 0.177652 0.162686 -0.573605 -0.617475 -0.247175 0.040118 -0.122796 -0.090898 0.365608 0.427082 -0.201506 -0.105044 -0.165151 0.349514 -0.201442 0.260389 0.462959 -0.000805 0.151608 -0.331482 0.223154 0.282395 0.056134 -0.140054 -0.076034 -0.032029 0.649050 -0.096773 0.002655 0.226195 -0.181796 0.020582 0.036131 0.096714 -0.436144 
52 0.007179 -0.378852 -0.110462 -0.565982 0.214277 0.365241 0.310935 -0.858381 -0.768861 0.759814 -0.282209 -0.148822 -0.335078 0.257873 -0.573414 -0.338551 0.357094 -0.653393 0.586823 -0.305777 0.237026 -0.377167 0.512990 -0.084820 0.298625 -0.147438 -0.073609 0.503378 0.048367 -0.022704 0.232610 0.027876 -0.029280 0.216322 -0.468140 0.133742 0.291533 -0.185159 0.410993 0.285051 -0.017589 -0.671423 -0.638097 0.090166 -0.109613 0.128350 0.304766 0.181370 0.125215 -0.005349 0.452183 0.376609 0.410179 -0.161949 -0.034557 -0.155031 -0.541965 0.009372 0.208729 -0.080054 -0.439905 -0.000015 0.797341 -0.115207 0.199088 0.164892 0.117146 -0.465689 -0.550887 -0.249766 0.064834 -0.035985 -0.141010 0.357114 0.316101 -0.275502 -0.013489 -0.183359 0.386674 -0.141308 0.200261 0.436905 0.121697 0.088959 -0.401013 0.139451 0.272450 -0.114075 -0.131740 -0.039358 -0.004472 0.733881 -0.048964 0.099910 0.301211 -0.148969 -0.030594 -0.065426 0.059657 -0.328677 
53 0.034063 -0.400338 -0.194122 -0.493299 0.280359 0.414551 0.287357 -0.738463 -0.727139 0.675073 -0.192997 -0.122724 -0.433854 0.265776 -0.527029 -0.407885 0.425779 -0.667552 0.506561 -0.252940 0.186327 -0.360272 0.587771 -0.160625 0.285642 -0.044626 -0.089142 0.522810 0.141345 -0.012939 0.219891 0.114591 -0.083414 0.151073 -0.542940 0.061027 0.347274 -0.223677 0.329056 0.277044 -0.060407 -0.699209 -0.675347 0.160349 -0.162655 0.136143 0.367680 0.246986 0.190918 -0.037299 0.398417 0.365822 0.440216 -0.106182 0.024069 -0.102986 -0.620082 -0.065047 0.181319 0.012342 -0.455639 -0.011326 0.728567 -0.210209 0.238559 0.218472 0.035184 -0.630341 -0.556196 -0.208107 0.055446 -0.091008 -0.098321 0.416763 0.421323 -0.202193 -0.060062 -0.115578 0.301348 -0.204224 0.251786 0.337616 0.087696 0.081847 -0.364899 0.164348 0.295499 0.004971 -0.197248 -0.033029 0.015720 0.817622 -0.030354 -0.028109 0.263588 -0.185971 -0.041980 0.036006 0.054771 -0.385078 
54 -0.036325 -0.534590 -0.093788 -0.374707 0.401725 0.376717 0.327454 -0.737297 -0.610343 0.659038 -0.221580 -0.186429 -0.379376 0.237438 -0.558424 -0.426526 0.430103 -0.704860 0.496250 -0.308355 0.227847 -0.352617 0.443378 -0.050660 0.238886 -0.040074 -0.074877 0.538593 0.143807 0.041942 0.317649 0.020641 -0.006048 0.175642 -0.494725 0.142634 0.327937 -0.143915 0.317428 0.210958 -0.022741 -0.738805 -0.566345 0.069776 -0.076026 0.208422 0.316814 0.182719 0.171777 0.007279 0.425577 0.338092 0.467552 -0.123988 -0.056013 -0.219144 -0.585107 0.029047 0.229840 -0.085506 -0.398075 0.018284 0.621681 -0.160562 0.297156 0.208115 0.088221 -0.535466 -0.675991 -0.239579 0.040024 -0.131052 -0.101023 0.408920 0.439932 -0.218611 -0.008851 -0.176717 0.438791 -0.193572 0.297035 0.433015 0.087603 0.083572 -0.356704 0.164623 0.326399 -0.056028 -0.140031 -0.137991 0.008348 0.799717 -0.145119 0.129724 0.160832 -0.169306 -0.090051 -0.013841 0.048352 -0.367742 
55 -0.044207 -0.469698 -0.168286 -0.431369 0.389295 0.382475 0.325236 -0.677829 -0.635943 0.718487 -0.251033 -0.154068 -0.402511 0.267587 -0.500164 -0.432974 0.377835 -0.622634 0.516511 -0.301890 0.210650 -0.372524 0.407925 -0.050723 0.261602 -0.053880 -0.079624 0.542306 0.169673 0.052208 0.269051 0.087232 0.047279 0.135474 -0.442830 0.127114 0.311300 -0.158338 0.365983 0.183697 -0.004447 -0.701943 -0.636072 0.112405 -0.113774 0.254531 0.336795 0.229247 0.166310 0.025459 0.361767 0.292750 0.463675 -0.121740 -0.051744 -0.207997 -0.582609 0.011216 0.249553 -0.069604 -0.417275 0.013540 0.681788 -0.171561 0.237855 0.148532 0.043640 -0.583244 -0.632831 -0.149113 0.078017 -0.106981 -0.090796 0.406766 0.396222 -0.289482 -0.015537 -0.145077 0.414854 -0.157314 0.310859 0.422131 0.072507 0.052124 -0.388519 0.195742 0.336013 -0.036795 -0.139403 -0.158404 0.019941 0.845702 -0.133146 0.069684 0.179584 -0.142747 -0.176225 -0.055414 0.039573 -0.359475 
56 -0.008970 -0.387975 -0.163307 -0.481633 0.345508 0.359425 0.312706 -0.857989 -0.750843 0.639303 -0.226902 -0.125527 -0.436815 0.113714 -0.569051 -0.404769 0.404135 -0.696294 0.523871 -0.234371 0.328666 -0.446436 0.567675 -0.107108 0.360756 -0.045981 -0.083791 0.434460 0.061586 -0.116745 0.279905 -0.015580 -0.101675 0.137145 -0.518075 0.086541 0.305618 -0.137126 0.413024 0.325731 -0.030854 -0.679323 -0.522734 0.119284 -0.116879 0.180335 0.322908 0.135946 0.226433 -0.029471 0.629701 0.386238 0.441250 -0.129393 -0.073335 -0.171949 -0.525510 -0.009207 0.180546 -0.163517 -0.422763 -0.013206 0.688727 -0.023696 0.165889 0.171023 0.068343 -0.621082 -0.574357 -0.308942 0.034166 -0.078314 -0.080491 0.405193 0.287037 -0.151803 0.031204 -0.165284 0.436176 -0.109340 0.222511 0.414223 0.143231 -0.080394 -0.388614 0.085480 0.339141 -0.119604 -0.170823 0.027947 -0.014349 0.830201 -0.080973 0.042911 0.252797 -0.180565 -0.115338 -0.057931 0.034935 -0.379144 
57 -0.030230 -0.306030 -0.274889 -0.410042 0.429012 0.324805 0.347375 -0.790380 -0.689153 0.589577 -0.179908 -0.031679 -0.448300 0.153621 -0.550777 -0.345707 0.357684 -0.645844 0.478722 -0.199138 0.344464 -0.367055 0.482040 -0.041010 0.284003 -0.032188 -0.063184 0.477568 0.093105 -0.072960 0.272653 -0.021853 -0.112129 0.083086 -0.504421 0.070566 0.319820 -0.158180 0.393583 0.349004 -0.075828 -0.661795 -0.557765 0.187784 -0.127276 0.108771 0.346997 0.163164 0.238547 -0.044749 0.594025 0.358303 0.450212 -0.158592 -0.065765 -0.152991 -0.498251 -0.031060 0.117534 -0.178072 -0.432814 -0.014159 0.723673 -0.003459 0.171069 0.186697 0.011201 -0.561488 -0.605943 -0.318898 0.013675 -0.072342 -0.083175 0.398089 0.295244 -0.163405 0.069682 -0.156144 0.386959 -0.150781 0.211029 0.399664 0.160064 -0.035999 -0.367578 0.119412 0.291884 -0.076501 -0.126818 -0.063257 -0.067314 0.836868 -0.029148 0.063428 0.248088 -0.248372 -0.130331 -0.063577 0.042140 -0.311473 
58 -0.061437 -0.256309 -0.273926 -0.365367 0.520282 0.310428 0.403643 -0.865615 -0.846963 0.696490 -0.173808 0.051374 -0.403438 0.173431 -0.625364 -0.342184 0.319650 -0.617845 0.482776 -0.168651 0.361000 -0.413477 0.419043 -0.079274 0.342337 -0.059914 -0.162087 0.424681 0.028719 -0.094256 0.280384 -0.124577 -0.033121 0.232159 -0.462747 0.031295 0.330672 -0.124451 0.329854 0.403627 -0.010903 -0.650609 -0.562916 0.170175 -0.160917 0.098496 0.321883 0.199287 0.365420 0.071915 0.700517 0.362139 0.478630 -0.226760 -0.153475 -0.220074 -0.552974 0.004492 0.146267 -0.180698 -0.458282 -0.032939 0.772603 -0.063671 0.164647 0.212684 0.070039 -0.539723 -0.562243 -0.302361 0.021838 0.039288 -0.066597 0.389581 0.226936 -0.319336 0.087415 -0.185430 0.501671 -0.113496 0.220797 0.550085 0.205058 -0.112349 -0.393137 0.079185 0.384480 -0.127957 -0.069129 -0.016301 -0.018926 0.851365 -0.042055 0.014176 0.208395 -0.219136 -0.141721 -0.116265 0.018143 -0.329890 
59 -0.030183 -0.358960 -0.302254 -0.277374 0.496940 0.366884 0.381963 -0.846381 -0.779030 0.656982 -0.188011 -0.095720 -0.415902 0.112163 -0.543927 -0.384847 0.326888 -0.684979 0.479424 -0.206480 0.335356 -0.375209 0.428840 -0.105063 0.320729 0.034081 -0.114907 0.487459 0.053660 -0.168667 0.259962 -0.035372 -0.079823 0.173619 -0.468338 0.037305 0.371555 -0.141790 0.381587 0.370139 0.002253 -0.773155 -0.561882 0.137574 -0.174704 0.179799 0.339628 0.216036 0.242703 0.042799 0.595333 0.358176 0.445196 -0.159424 -0.115618 -0.218407 -0.620944 -0.013369 0.147336 -0.124206 -0.471327 0.001690 0.727749 -0.040985 0.190908 0.226792 0.082713 -0.596160 -0.619939 -0.265456 0.077993 -0.034058 -0.060426 0.398451 0.266994 -0.230282 0.047764 -0.152641 0.432751 -0.136128 0.269693 0.462176 0.193304 -0.091342 -0.356828 0.107526 0.336628 -0.109560 -0.132548 -0.096703 -0.037165 0.921759 -0.089992 0.090170 0.149034 -0.184909 -0.132357 -0.139570 0.034395 -0.266419 
60 -0.054684 -0.186372 -0.407751 -0.243723 0.560774 0.277144 0.393578 -0.848389 -0.767781 0.562071 -0.118237 -0.055701 -0.385218 0.116329 -0.495574 -0.298103 0.304224 -0.601075 0.525452 -0.187432 0.282353 -0.325212 0.427324 -0.090089 0.313256 0.033919 -0.128512 0.370511 0.022756 -0.185887 0.291509 -0.053120 -0.125747 0.273138 -0.502893 0.019413 0.424974 -0.143757 0.304972 0.406556 0.033479 -0.733278 -0.468960 0.161693 -0.205825 0.178990 0.283219 0.266377 0.344787 0.082038 0.632989 0.325962 0.547369 -0.146720 -0.149083 -0.186035 -0.518059 -0.021102 0.049577 -0.209275 -0.497466 -0.046023 0.787179 -0.023049 0.209513 0.180483 0.038329 -0.705953 -0.520392 -0.285449 0.040528 -0.012353 -0.107188 0.401473 0.273793 -0.275764 0.074098 -0.126660 0.472321 -0.107422 0.216641 0.513762 0.147165 -0.141343 -0.401844 0.167870 0.354578 -0.052495 -0.120106 -0.021768 -0.040435 0.842702 -0.027327 -0.082474 0.148833 -0.267642 -0.164016 -0.091335 0.044066 -0.284982 
61 -0.048518 -0.241521 -0.399258 -0.272552 0.653001 0.230625 0.480541 -0.844791 -0.784158 0.596444 -0.146065 0.060000 -0.432598 0.046955 -0.564784 -0.355892 0.339095 -0.648023 0.375992 -0.077254 0.360422 -0.333600 0.355600 -0.098470 0.288014 -0.033294 -0.097541 0.427607 0.081535 -0.121646 0.258171 -0.052903 -0.090426 0.141744 -0.471569 0.006217 0.327357 -0.154311 0.375218 0.399461 -0.050322 -0.738458 -0.484412 0.166365 -0.195304 0.223656 0.285497 0.222014 0.303899 0.012856 0.610088 0.332157 0.455396 -0.180223 -0.152949 -0.266250 -0.545315 -0.043561 0.035734 -0.207873 -0.429523 -0.033248 0.708966 0.016123 0.228955 0.222532 0.090639 -0.496637 -0.628061 -0.320349 0.015066 -0.019642 -0.042661 0.368602 0.228996 -0.243468 0.056869 -0.187420 0.467288 -0.103745 0.207211 0.453964 0.148946 -0.095555 -0.430539 0.189966 0.360890 -0.068843 -0.111154 -0.114612 -0.057175 0.915478 -0.053880 -0.009478 0.193097 -0.243907 -0.126382 -0.040437 0.028212 -0.327461 
62 0.097570 -0.208369 -0.497290 -0.211867 0.628763 0.262271 0.478254 -0.836776 -0.782635 0.569197 -0.140540 0.052507 -0.475698 0.006499 -0.494114 -0.392142 0.425859 -0.761128 0.271525 -0.108255 0.295660 -0.321272 0.361350 -0.135018 0.337678 0.025754 -0.082679 0.391007 0.089706 -0.079862 0.222492 -0.088322 -0.132003 0.087507 -0.499547 0.013082 0.361630 -0.183566 0.407485 0.446154 -0.082194 -0.773952 -0.534534 0.280816 -0.185281 0.197824 0.324134 0.212356 0.289167 0.004838 0.698800 0.361141 0.510553 -0.220982 -0.170544 -0.242499 -0.508805 0.014343 -0.044048 -0.256062 -0.497271 -0.031146 0.685078 0.115775 0.133677 0.322097 -0.043897 -0.615146 -0.595061 -0.310403 0.022000 -0.003394 0.003131 0.383395 0.236505 -0.169364 0.060328 -0.162090 0.464475 -0.077648 0.231480 0.348709 0.215102 -0.189410 -0.414176 0.146946 0.294879 -0.153339 -0.134312 -0.091484 -0.116130 0.902619 0.011629 -0.034522 0.221814 -0.302108 -0.132410 -0.099219 0.049688 -0.216811 
63 0.040677 -0.179031 -0.495169 -0.199471 0.627968 0.157356 0.469442 -0.853090 -0.752159 0.507856 -0.132728 0.017727 -0.474851 0.039838 -0.511247 -0.338432 0.385251 -0.683003 0.442934 -0.176874 0.302711 -0.278138 0.411794 -0.071842 0.298310 0.033814 -0.122185 0.359999 0.033401 -0.122193 0.239203 -0.069401 -0.170633 0.146375 -0.488084 0.008693 0.377432 -0.130144 0.305272 0.399335 -0.089898 -0.681543 -0.399430 0.262896 -0.232037 0.094416 0.234269 0.204234 0.306447 0.072390 0.640640 0.351499 0.430964 -0.194070 -0.127097 -0.186393 -0.461560 -0.023977 -0.065047 -0.259708 -0.420828 -0.052470 0.589787 0.077735 0.119943 0.260535 -0.072551 -0.560705 -0.506325 -0.364840 -0.035653 0.032953 -0.037125 0.346534 0.245370 -0.116622 0.089755 -0.144083 0.436525 -0.048084 0.184727 0.433569 0.197945 -0.233502 -0.386698 0.122923 0.274880 -0.144351 -0.007159 -0.125064 -0.202430 0.854717 0.037145 -0.151548 0.208086 -0.333348 -0.026793 -0.059085 0.050114 -0.240620 
64 0.101081 -0.028848 -0.680836 -0.040424 0.833627 0.051830 0.594903 -0.793285 -0.713023 0.354915 -0.055379 -0.053699 -0.424395 -0.054123 -0.484993 -0.323979 0.352201 -0.649227 0.395152 -0.127593 0.317317 -0.348726 0.283791 -0.106271 0.236645 0.038069 -0.151868 0.337432 0.020687 -0.112161 0.330513 -0.123824 -0.233341 0.159779 -0.477544 0.071929 0.432029 -0.127860 0.316926 0.446847 -0.032878 -0.845876 -0.257002 0.235678 -0.287573 0.238017 0.158396 0.206890 0.363735 0.112073 0.792557 0.299155 0.501787 -0.181037 -0.240246 -0.260095 -0.323552 0.073114 -0.103122 -0.450838 -0.393603 -0.054710 0.635788 0.145733 0.286829 0.262812 0.124886 -0.512796 -0.624181 -0.436440 -0.078656 -0.077008 -0.065745 0.350732 0.169899 -0.122675 0.196378 -0.116936 0.506469 0.023269 0.094732 0.490123 0.229712 -0.310861 -0.395411 0.247225 0.300205 -0.129110 0.000605 -0.148136 -0.210325 0.860448 -0.043751 -0.059627 0.099311 -0.275445 -0.072718 -0.006789 0.064624 -0.153488 
65 0.244043 0.016246 -0.798341 0.205663 0.856724 -0.054873 0.666854 -0.682131 -0.566622 0.221795 0.041708 0.007306 -0.473294 0.017219 -0.385758 -0.355695 0.536338 -0.740686 0.132426 -0.175722 0.150894 -0.284648 0.285257 -0.064895 0.158963 -0.064627 -0.137256 0.399987 0.061912 0.012023 0.250123 -0.070393 -0.267810 0.215574 -0.531019 0.157640 0.511297 -0.153856 0.318348 0.404825 -0.097644 -0.783775 -0.293458 0.311206 -0.298945 0.070896 0.124157 0.141567 0.284683 0.152202 0.751010 0.307864 0.501607 -0.196548 -0.207141 -0.260343 -0.323345 0.128788 -0.247879 -0.425553 -0.369600 -0.068496 0.457415 0.307831 0.248607 0.389728 -0.131465 -0.505802 -0.557515 -0.485611 -0.180065 0.010090 -0.024618 0.360787 0.254294 -0.010990 0.231563 -0.039503 0.491925 0.031639 0.033543 0.400502 0.223239 -0.440256 -0.417518 0.326402 0.192941 -0.164716 0.101703 -0.168638 -0.314515 0.752734 0.059535 -0.091244 0.141251 -0.344679 0.101197 -0.020963 0.036176 -0.106492 
66 0.348658 0.065140 -0.972230 0.246045 1.032030 -0.229120 0.769937 -0.531844 -0.457093 0.214279 0.010975 -0.012281 -0.435493 0.035898 -0.312685 -0.411337 0.499274 -0.683369 0.091216 -0.246142 0.140621 -0.222074 0.092179 0.002747 0.122858 -0.054041 -0.083772 0.375741 0.244950 0.219589 0.230772 0.048115 -0.161874 0.184361 -0.368379 0.213221 0.479618 -0.146220 0.250968 0.263592 -0.124852 -0.711812 -0.233822 0.376857 -0.333196 -0.010403 -0.031367 0.180456 0.295090 0.209712 0.491056 0.206949 0.467732 -0.117837 -0.132866 -0.209866 -0.215933 0.129851 -0.292126 -0.423818 -0.360107 -0.046748 0.391526 0.217965 0.261850 0.345355 -0.073767 -0.431427 -0.450382 -0.461187 -0.169686 0.023532 -0.107941 0.283468 0.248323 -0.015733 0.158810 -0.116180 0.383798 0.008721 0.054065 0.394805 0.253930 -0.444784 -0.265666 0.274757 0.171029 -0.053952 0.229591 -0.366248 -0.377995 0.710065 0.045724 -0.248322 0.118245 -0.314997 0.209272 0.029526 0.091489 -0.022282 
67 0.258604 0.078056 -0.924417 0.408066 0.888205 -0.253046 0.785318 -0.538099 -0.429214 0.171019 0.084330 -0.006983 -0.414029 0.030276 -0.227403 -0.389147 0.360065 -0.616057 0.062057 -0.209932 0.011849 -0.102799 0.207086 0.034126 0.109389 -0.110745 -0.083556 0.361807 0.250477 0.299365 0.170015 0.085964 -0.132139 0.073456 -0.378643 0.174713 0.424578 -0.148429 0.099741 0.296707 -0.190385 -0.593473 -0.184423 0.457080 -0.452799 -0.186242 -0.005495 0.164686 0.300687 0.253782 0.308461 0.159907 0.421826 -0.150865 -0.015540 -0.042235 -0.117893 0.136675 -0.222307 -0.240561 -0.263908 0.001695 0.251759 0.135767 0.193286 0.409842 -0.133497 -0.136627 -0.368149 -0.472190 -0.239598 0.037694 -0.105306 0.198304 0.224091 0.053585 0.137858 0.026681 0.200400 0.025254 0.016930 0.356964 0.233322 -0.303784 -0.167877 0.146797 0.060543 -0.100589 0.328819 -0.381922 -0.405597 0.518900 0.196123 -0.433301 0.161574 -0.424367 0.318246 0.105400 0.222445 -0.097158 
68 0.095262 0.065049 -0.795682 0.383967 0.774743 -0.327978 0.744622 -0.565976 -0.360399 -0.020445 0.205833 -0.125747 -0.272000 -0.086905 -0.106522 -0.293227 0.246891 -0.594975 -0.046352 -0.171474 -0.063647 -0.104554 0.165707 0.014005 0.162907 -0.102401 -0.075572 0.277888 0.173029 0.277609 0.020337 0.025415 -0.017041 0.031837 -0.258555 0.168387 0.314991 -0.273176 -0.028238 0.288999 -0.225178 -0.424297 -0.162103 0.435119 -0.419348 -0.143448 -0.089257 0.155426 0.236314 0.355818 0.273462 0.091317 0.303194 -0.165017 0.062860 0.071392 -0.044532 0.070775 -0.327158 -0.150386 -0.310668 0.018905 0.160820 0.191482 0.225880 0.388099 -0.054584 -0.031402 -0.247668 -0.528503 -0.205383 0.023182 -0.216373 0.138854 0.206953 0.032871 0.162397 -0.054094 0.146616 -0.021247 -0.016686 0.428232 0.205934 -0.174242 -0.114458 0.189550 -0.004007 0.001617 0.337655 -0.308934 -0.438598 0.333568 0.217987 -0.351292 0.162025 -0.350104 0.564924 0.154521 0.313852 -0.071514 
69 0.066138 0.008167 -0.720554 0.346939 0.757478 -0.312349 0.724099 -0.489453 -0.253560 -0.073612 0.226761 -0.141537 -0.287914 -0.060618 -0.018397 -0.274774 0.228400 -0.580478 -0.071773 -0.169818 -0.097984 -0.113803 0.143012 0.034399 0.166361 -0.019093 -0.068820 0.290151 0.129766 0.228960 -0.036830 0.059974 0.057675 0.051838 -0.173601 0.169400 0.212594 -0.287789 -0.032654 0.215202 -0.227746 -0.320883 -0.182685 0.434962 -0.538338 -0.204744 -0.094845 0.177341 0.153051 0.406870 0.089981 0.076808 0.281901 -0.125762 0.071504 0.110633 0.007361 0.152101 -0.190647 -0.016208 -0.231981 0.021188 0.150188 0.120449 0.186562 0.376358 0.026623 0.085905 -0.149437 -0.500518 -0.158206 0.015202 -0.196329 0.075047 0.131780 0.077705 0.150766 -0.033236 0.088302 0.018083 -0.018359 0.385993 0.249281 -0.082397 -0.002548 0.097552 -0.129446 -0.023631 0.288582 -0.280426 -0.408227 0.161336 0.152881 -0.250115 0.101565 -0.214486 0.518497 0.134498 0.354208 -0.055050 
70 0.054424 -0.008471 -0.676542 0.414931 0.715536 -0.304604 0.643113 -0.376656 -0.150441 -0.140730 0.235824 -0.113109 -0.290862 -0.036346 0.080548 -0.197097 0.221288 -0.532789 -0.160322 -0.153850 -0.090069 -0.045321 0.097776 0.021281 0.172896 -0.034916 -0.036101 0.097402 0.020762 0.204855 -0.131313 0.128073 0.114985 -0.090034 -0.106996 0.142638 0.079213 -0.344426 -0.026256 0.100225 -0.184624 -0.148009 -0.181258 0.398370 -0.535368 -0.201500 -0.014660 0.161215 0.106923 0.376521 0.083959 0.064145 0.265996 -0.062787 0.071361 0.113532 0.029523 0.189360 0.021939 0.039670 -0.162093 0.031533 0.121295 0.016804 0.193421 0.299101 0.123847 0.148960 -0.115059 -0.404507 -0.125541 -0.043711 -0.192332 0.014697 0.063498 0.055809 0.149523 -0.011363 -0.013808 0.060267 -0.044940 0.324108 0.297321 -0.046733 0.069816 0.000992 -0.102738 -0.048130 0.221956 -0.208179 -0.366009 0.043118 0.193778 -0.279709 0.152915 -0.251363 0.507886 0.114962 0.312809 -0.048447 
71 0.053490 -0.025074 -0.546550 0.441101 0.655683 -0.299915 0.576481 -0.353138 -0.102271 -0.256212 0.281372 -0.175061 -0.252936 -0.039618 0.106306 -0.162601 0.233565 -0.446289 -0.235710 -0.104083 -0.053242 -0.090780 0.000512 0.023236 0.170416 -0.043807 -0.027445 -0.040809 -0.018010 0.191109 -0.160879 0.132861 0.131379 -0.165462 -0.015378 0.102104 -0.048007 -0.324904 -0.027943 0.039192 -0.163749 -0.034479 -0.147301 0.352315 -0.495320 -0.142324 -0.014689 0.128599 0.050812 0.343880 0.023535 0.046624 0.193334 -0.027399 0.116433 0.172123 0.038652 0.202768 0.170195 0.165829 -0.102952 0.047303 0.074118 -0.033684 0.213996 0.256518 0.157425 0.213953 -0.085452 -0.343520 -0.108807 -0.095815 -0.224415 0.004202 0.017416 0.061389 0.070108 -0.069777 -0.124469 0.025032 -0.060977 0.246660 0.286565 -0.040430 0.100819 -0.011053 -0.103951 -0.054162 0.160601 -0.149136 -0.307517 -0.049131 0.154797 -0.234137 0.136697 -0.204020 0.451236 0.119057 0.301128 -0.040268 
72 0.074423 -0.043799 -0.437803 0.454852 0.679139 -0.244425 0.516716 -0.320589 -0.052590 -0.299374 0.292949 -0.180237 -0.302644 -0.023098 0.129857 -0.152354 0.221709 -0.382338 -0.265309 -0.077032 -0.026213 -0.049499 -0.042948 0.049356 0.172220 -0.039498 -0.005959 -0.136088 -0.002270 0.219246 -0.202778 0.176708 0.133002 -0.256034 0.016333 0.066892 -0.088033 -0.312693 -0.029422 -0.009279 -0.180467 0.039064 -0.130531 0.312769 -0.437232 -0.136891 -0.009920 0.129790 0.033618 0.291489 -0.010644 0.037273 0.139783 -0.020045 0.109257 0.149672 0.045384 0.199204 0.242961 0.169233 -0.063694 0.066068 0.052582 -0.074658 0.165738 0.227425 0.195974 0.241521 -0.070426 -0.289069 -0.092177 -0.078909 -0.189526 -0.006388 -0.023013 0.088657 0.045247 -0.069423 -0.171136 0.019259 -0.066912 0.169191 0.310666 -0.031893 0.161701 -0.056621 -0.117376 -0.022097 0.076830 -0.047673 -0.268057 -0.111752 0.155366 -0.255609 0.134945 -0.196951 0.381624 0.101776 0.266668 -0.020597 
73 0.035211 -0.041349 -0.349016 0.445535 0.630852 -0.222349 0.486179 -0.315014 -0.041357 -0.316342 0.295487 -0.175662 -0.290962 -0.048802 0.107315 -0.147715 0.260323 -0.367278 -0.309494 -0.049279 -0.005035 -0.066355 -0.100903 0.067512 0.152506 -0.011475 0.003299 -0.160925 0.032428 0.200751 -0.175502 0.154912 0.114948 -0.307535 0.060258 0.033994 -0.105665 -0.264991 -0.051010 -0.019039 -0.161192 0.082260 -0.083125 0.259433 -0.347602 -0.130447 -0.015057 0.115278 0.031941 0.238103 -0.018650 0.008258 0.103178 -0.023427 0.152583 0.220229 0.001781 0.134005 0.270664 0.184271 -0.052942 0.091002 0.011271 -0.109881 0.138519 0.179621 0.189258 0.205268 -0.023226 -0.225171 -0.071495 -0.114446 -0.247398 0.014822 -0.008830 0.083136 0.001871 -0.088303 -0.212353 -0.023749 -0.079046 0.135266 0.258525 -0.039303 0.202164 -0.066891 -0.106247 0.011922 0.049741 0.009291 -0.230187 -0.117371 0.158013 -0.260454 0.143294 -0.197837 0.322578 0.098587 0.234311 0.010883 
74 -0.040519 -0.061057 -0.262969 0.437070 0.609233 -0.201658 0.479323 -0.326299 -0.046252 -0.294111 0.275533 -0.153483 -0.310365 -0.070410 0.076150 -0.153078 0.258673 -0.333585 -0.308982 -0.023064 0.033898 -0.076916 -0.117758 0.086527 0.157177 -0.026369 0.008302 -0.184903 0.063420 0.198644 -0.161563 0.128859 0.096279 -0.320273 0.063443 0.015102 -0.135652 -0.216186 -0.041871 -0.055060 -0.168690 0.121692 -0.057193 0.232953 -0.311993 -0.140827 -0.046788 0.132070 0.001748 0.193084 -0.068942 0.009667 0.044316 -0.032723 0.174197 0.244316 -0.004054 0.123334 0.311763 0.225211 -0.033054 0.101627 -0.019193 -0.141444 0.094879 0.143626 0.196904 0.198797 0.019011 -0.155104 -0.030179 -0.131184 -0.260475 0.011405 -0.015312 0.088967 -0.022339 -0.088599 -0.249055 -0.038159 -0.065782 0.085284 0.271556 -0.021486 0.247069 -0.102917 -0.100306 0.037393 -0.005238 0.065711 -0.187228 -0.108933 0.152792 -0.262336 0.151102 -0.186473 0.245659 0.097642 0.186989 0.013091 
75 -0.068055 -0.081570 -0.220143 0.385381 0.588434 -0.177552 0.452454 -0.342251 -0.056951 -0.290564 0.255244 -0.165115 -0.307954 -0.128546 0.059261 -0.146137 0.285077 -0.384840 -0.333254 0.003804 0.079519 -0.087684 -0.171111 0.096372 0.137385 0.010844 0.023960 -0.172244 0.095182 0.175276 -0.156490 0.104164 0.107388 -0.325164 0.064330 -0.009226 -0.185832 -0.204151 -0.037748 -0.097807 -0.168066 0.140140 -0.015381 0.190461 -0.256552 -0.122247 -0.062172 0.131534 0.020688 0.142277 -0.076001 -0.008549 0.017991 -0.037732 0.195591 0.277844 -0.015525 0.107810 0.346222 0.247102 -0.029860 0.119153 -0.025135 -0.144619 0.059712 0.101472 0.229752 0.175167 0.063197 -0.106868 0.009438 -0.151121 -0.272108 0.006983 -0.019523 0.105106 -0.066491 -0.112826 -0.262561 -0.068050 -0.046623 0.047910 0.249110 -0.000276 0.253609 -0.105580 -0.089449 0.065374 -0.061483 0.092590 -0.133314 -0.101662 0.115909 -0.221535 0.136727 -0.146279 0.183060 0.095373 0.153324 0.038196 
76 -0.127157 -0.090399 -0.147077 0.336424 0.581874 -0.119527 0.428233 -0.347435 -0.076164 -0.245907 0.224724 -0.150579 -0.270149 -0.114225 0.027256 -0.108863 0.316522 -0.403947 -0.356926 0.028853 0.108745 -0.111716 -0.166850 0.101412 0.177786 0.018176 0.025013 -0.221169 0.122696 0.173600 -0.144607 0.067343 0.127080 -0.300929 0.070873 -0.029377 -0.245157 -0.205963 -0.071540 -0.149464 -0.123758 0.162523 -0.017303 0.132885 -0.252598 -0.113783 -0.064580 0.168785 -0.008521 0.098941 -0.081325 0.002861 0.003356 -0.046018 0.198830 0.289585 -0.064778 0.091297 0.374797 0.253003 -0.011099 0.117678 -0.047593 -0.154824 0.039401 0.057734 0.250459 0.150031 0.049741 -0.033789 0.055044 -0.175775 -0.251894 0.019105 -0.001843 0.068529 -0.068204 -0.126291 -0.223755 -0.096764 -0.012085 0.031034 0.207480 0.026981 0.286851 -0.152769 -0.050865 0.099230 -0.115927 0.154231 -0.091849 -0.108837 0.095804 -0.156754 0.124890 -0.119667 0.116335 0.066755 0.103795 0.041691 
77 -0.113335 -0.102336 -0.076492 0.251741 0.572275 -0.095325 0.396506 -0.404464 -0.065951 -0.212257 0.169694 -0.186596 -0.273174 -0.128210 0.004870 -0.091771 0.312829 -0.404588 -0.317810 0.009254 0.138137 -0.127309 -0.178243 0.107052 0.132491 0.033417 0.018606 -0.181489 0.106664 0.144306 -0.109917 0.033352 0.111289 -0.289819 0.085171 -0.039493 -0.257544 -0.178118 -0.038951 -0.182507 -0.088486 0.138000 0.015429 0.062932 -0.174482 -0.087118 -0.070010 0.146641 -0.031582 0.081071 -0.088962 -0.001669 -0.010384 -0.053766 0.227478 0.323804 -0.096221 0.084106 0.418880 0.255343 -0.021438 0.120433 0.000228 -0.164806 0.031701 0.022560 0.325480 0.149806 0.068273 -0.013417 0.093166 -0.198241 -0.280087 0.024169 -0.004262 0.066233 -0.132455 -0.172431 -0.235202 -0.139760 -0.003595 0.036095 0.199821 0.062043 0.293144 -0.161714 -0.039726 0.102792 -0.160847 0.200563 -0.047908 -0.134523 0.054379 -0.099443 0.116124 -0.095500 0.072295 0.036422 0.085840 0.072489 
78 -0.108455 -0.092994 -0.063909 0.218843 0.596248 -0.108826 0.408023 -0.434292 -0.087264 -0.179536 0.140349 -0.165194 -0.304437 -0.097429 -0.034707 -0.093974 0.334355 -0.396881 -0.310953 -0.002748 0.148341 -0.133812 -0.157585 0.098955 0.127318 -0.016139 0.003785 -0.197440 0.103828 0.163578 -0.102551 0.011331 0.103091 -0.237081 0.094089 -0.025404 -0.252235 -0.155244 -0.034319 -0.209092 -0.046304 0.124128 0.036403 -0.035839 -0.118043 -0.062114 -0.096877 0.134229 -0.093530 0.025856 -0.118635 0.040968 -0.082550 -0.065058 0.232304 0.296990 -0.137580 0.051239 0.434078 0.215277 0.029957 0.113118 -0.007447 -0.193343 -0.007030 -0.052186 0.371181 0.118915 0.051547 0.033307 0.122777 -0.192408 -0.225377 0.007031 -0.004539 0.045282 -0.185084 -0.200108 -0.180534 -0.140566 -0.005309 0.031005 0.151829 0.124900 0.286959 -0.191442 -0.005641 0.125271 -0.239959 0.288594 0.002345 -0.172596 0.023517 -0.023545 0.163327 -0.057722 0.078856 0.043165 0.031979 0.063718 
79 -0.040296 -0.109656 -0.020399 0.207974 0.598781 -0.084090 0.401973 -0.473229 -0.134369 -0.136945 0.098806 -0.185191 -0.305372 -0.065383 -0.080576 -0.076837 0.363192 -0.392566 -0.245007 -0.014970 0.178303 -0.158500 -0.117462 0.084411 0.122224 -0.064805 0.017498 -0.203028 0.124943 0.164414 -0.070049 0.015372 0.097137 -0.171010 0.060220 -0.039129 -0.234072 -0.102010 -0.026165 -0.216899 -0.010182 0.091317 0.051887 -0.150487 -0.023423 -0.015899 -0.120611 0.164186 -0.114104 -0.023650 -0.137127 0.099989 -0.130846 -0.102425 0.277325 0.323359 -0.195126 0.018991 0.440657 0.162914 0.047621 0.091556 0.046142 -0.184727 -0.049965 -0.093079 0.394778 0.081725 0.033265 0.042118 0.125411 -0.140421 -0.169513 0.004930 0.006721 0.058439 -0.268381 -0.260986 -0.169902 -0.201877 -0.005196 0.033023 0.120781 0.188538 0.264055 -0.212172 0.017991 0.158949 -0.295608 0.371678 0.044832 -0.217465 0.002344 0.012012 0.209870 -0.011089 0.103648 0.066736 0.007414 0.013739 
80 0.010621 -0.132300 0.039859 0.188838 0.594734 -0.019764 0.412058 -0.500389 -0.206583 -0.080050 0.100516 -0.175944 -0.329382 -0.035676 -0.138176 -0.089538 0.437204 -0.453118 -0.265293 -0.022684 0.201796 -0.137797 -0.115309 0.097677 0.066283 -0.116465 0.065766 -0.114813 0.190580 0.160675 -0.022058 0.035930 0.086327 -0.058919 -0.030829 -0.025021 -0.199899 -0.066781 -0.023431 -0.207416 -0.001214 0.051778 0.013424 -0.217018 0.093918 -0.015583 -0.122234 0.158786 -0.095903 -0.075875 -0.131584 0.133642 -0.135172 -0.135568 0.303301 0.339892 -0.218234 0.005706 0.395762 0.105757 0.053295 0.072170 0.140209 -0.187638 -0.147543 -0.132353 0.369086 0.026448 0.049120 0.061114 0.132243 -0.074491 -0.103179 -0.001959 0.017054 0.106082 -0.363938 -0.305736 -0.161409 -0.244323 0.033965 -0.040226 0.132079 0.218753 0.215545 -0.213080 0.017459 0.180569 -0.354934 0.415171 0.081756 -0.182483 -0.022055 0.073483 0.283296 0.041985 0.120386 0.114851 -0.026826 -0.043411 
81 -0.025808 -0.265329 0.188730 0.232406 0.580993 0.094437 0.411412 -0.568797 -0.231029 0.043969 0.056972 -0.131184 -0.296970 0.052887 -0.206764 -0.087715 0.485859 -0.466375 -0.217624 -0.061875 0.203121 -0.117244 -0.050758 0.120695 0.081253 -0.120530 0.081223 -0.043787 0.261184 0.156307 0.060760 0.080632 0.096986 -0.012955 -0.122821 -0.000838 -0.147475 -0.021601 -0.025248 -0.181616 -0.030433 -0.040527 -0.064778 -0.281820 0.151519 0.007222 -0.124794 0.217863 -0.089039 -0.111851 -0.112601 0.195298 -0.150935 -0.209762 0.325240 0.334939 -0.267151 -0.025168 0.372105 0.049842 0.071385 0.080000 0.203540 -0.216345 -0.241310 -0.150706 0.315430 -0.060515 0.032233 0.073141 0.140277 -0.012599 -0.021264 0.025278 0.057401 0.107611 -0.469080 -0.378921 -0.120163 -0.298173 0.098480 -0.099809 0.140706 0.280688 0.144950 -0.225747 0.046489 0.161620 -0.372323 0.413171 0.134180 -0.084321 -0.070554 0.129262 0.316000 0.081148 0.163168 0.157190 -0.048454 -0.092815 
82 -0.090502 -0.346212 0.369786 0.218515 0.572957 0.202291 0.391561 -0.639282 -0.268015 0.171966 -0.011566 -0.142799 -0.328224 0.102451 -0.298955 -0.119068 0.524578 -0.463167 -0.189993 -0.080265 0.260838 -0.117673 -0.069595 0.134923 0.085627 -0.176678 0.095263 -0.052017 0.316246 0.209044 0.126236 0.083861 0.079645 -0.013663 -0.194310 -0.014933 -0.124895 0.006562 0.002688 -0.180897 -0.064148 -0.108667 -0.199279 -0.324337 0.258289 0.013916 -0.063440 0.218051 -0.133493 -0.182111 -0.116048 0.224914 -0.193895 -0.249220 0.324689 0.285257 -0.348919 -0.058355 0.369172 -0.016416 0.094051 0.066965 0.287442 -0.258213 -0.283950 -0.167055 0.267347 -0.108630 -0.046072 0.118941 0.143836 0.027518 0.050939 0.062764 0.086776 0.059853 -0.538973 -0.406801 -0.082353 -0.323929 0.150614 -0.151934 0.154572 0.327769 0.083672 -0.204290 0.094135 0.126616 -0.409723 0.345888 0.201062 0.103587 -0.131021 0.219423 0.290625 0.101200 0.110041 0.162351 -0.094438 -0.123879 
83 -0.118713 -0.472238 0.479079 0.196378 0.595062 0.348678 0.319301 -0.714709 -0.337981 0.239433 -0.033402 -0.149383 -0.386279 0.162483 -0.351465 -0.098635 0.569832 -0.498765 -0.093691 -0.122190 0.321219 -0.098110 0.014547 0.199789 0.103970 -0.143776 0.109056 -0.006267 0.303156 0.115739 0.171409 0.133251 0.054371 -0.033290 -0.269905 -0.032665 -0.123845 0.015696 0.028979 -0.192936 -0.061973 -0.148270 -0.193021 -0.365124 0.316214 0.090509 -0.051340 0.271765 -0.075017 -0.264307 -0.028951 0.263713 -0.164093 -0.273150 0.333335 0.302761 -0.412992 -0.065895 0.454079 -0.022363 0.054582 0.071877 0.380070 -0.254554 -0.323271 -0.201049 0.206484 -0.247241 -0.114255 0.133587 0.183418 0.040939 0.106617 0.122533 0.106020 0.083541 -0.564043 -0.428744 -0.008140 -0.342392 0.226371 -0.186359 0.131806 0.332353 -0.023214 -0.175011 0.137814 0.131148 -0.451570 0.382131 0.233825 0.226717 -0.207703 0.268838 0.342613 0.152835 -0.002116 0.153496 -0.154927 -0.184835 
84 -0.296948 -0.638511 0.610598 0.127641 0.638914 0.504800 0.247525 -0.802201 -0.364167 0.330554 -0.075012 -0.163856 -0.489091 0.160349 -0.390468 -0.137196 0.536863 -0.492060 -0.018408 -0.110783 0.366145 -0.007711 0.020700 0.227391 0.095699 -0.107538 0.147678 0.061145 0.338539 0.095038 0.193056 0.141234 0.087588 -0.040777 -0.364683 -0.038323 -0.141984 0.010622 0.056737 -0.194767 -0.072906 -0.105507 -0.240370 -0.362331 0.371864 0.141124 0.008392 0.238445 -0.062357 -0.331351 -0.006348 0.270973 -0.177434 -0.283262 0.303574 0.236286 -0.481874 -0.040714 0.502346 -0.070303 0.078348 0.039574 0.429842 -0.267150 -0.342692 -0.206783 0.271315 -0.314107 -0.231413 0.143207 0.203876 0.013975 0.262558 0.132826 0.126627 0.092618 -0.535984 -0.420783 0.146546 -0.314656 0.308714 -0.218184 0.084476 0.336658 -0.122954 -0.115796 0.186284 0.083498 -0.564517 0.342447 0.274242 0.336302 -0.275258 0.379719 0.312662 0.180612 -0.060692 0.170642 -0.198806 -0.222074 
85 -0.433594 -0.696919 0.735631 0.027107 0.586356 0.675823 0.108963 -0.826523 -0.392411 0.467561 -0.141592 -0.176945 -0.556828 0.132896 -0.434578 -0.089397 0.556098 -0.594271 0.088433 -0.147399 0.440440 0.028084 0.008330 0.303813 0.057895 -0.114651 0.144762 0.135025 0.340365 0.017874 0.193604 0.045564 0.137188 -0.035818 -0.402685 -0.032576 -0.184988 0.007531 0.140164 -0.267935 0.001303 -0.115615 -0.260819 -0.344458 0.383741 0.154241 -0.009402 0.273985 -0.003401 -0.340995 -0.030460 0.321462 -0.131498 -0.336295 0.322533 0.278417 -0.476174 0.013284 0.549904 -0.079982 0.010816 -0.007312 0.539145 -0.309194 -0.289057 -0.258756 0.302824 -0.365295 -0.333007 0.186284 0.253966 0.019017 0.367546 0.100825 0.124654 0.056442 -0.489802 -0.440257 0.253448 -0.282813 0.369961 -0.105104 0.049030 0.384733 -0.156464 -0.075241 0.217081 0.119790 -0.572165 0.256822 0.276772 0.466998 -0.374629 0.520312 0.337930 0.300062 -0.151649 0.168663 -0.209861 -0.313024 
86 -0.447753 -0.780212 0.771788 0.092698 0.597204 0.725126 0.064312 -0.881462 -0.447372 0.444578 -0.129183 -0.184734 -0.631682 0.204644 -0.503582 -0.119730 0.541477 -0.487951 0.122562 -0.121733 0.444685 0.028376 0.019910 0.245184 0.039162 -0.119591 0.079103 0.136130 0.334173 0.045691 0.215770 0.054575 0.045700 -0.130255 -0.439981 -0.051597 -0.118006 0.015451 0.215735 -0.245407 -0.060860 -0.121534 -0.311129 -0.330659 0.381356 0.160240 0.058823 0.221907 0.047204 -0.366269 0.053259 0.300705 -0.196060 -0.309862 0.253005 0.170964 -0.499219 -0.048832 0.526850 -0.153891 0.048534 -0.035726 0.512557 -0.356289 -0.248601 -0.233539 0.270714 -0.443732 -0.405513 0.124935 0.190252 0.021380 0.364827 0.158595 0.155041 0.046545 -0.506661 -0.414440 0.266506 -0.258627 0.386648 -0.167051 0.016143 0.385938 -0.257401 -0.005249 0.252079 0.099528 -0.587797 0.281741 0.287364 0.547206 -0.390468 0.515416 0.338879 0.275175 -0.208392 0.183632 -0.251490 -0.338145 
87 -0.414455 -0.798115 0.668489 0.231400 0.681361 0.723110 0.045091 -0.815833 -0.412920 0.441424 -0.209101 -0.212732 -0.614854 0.178603 -0.459645 -0.097694 0.545202 -0.525572 0.157722 -0.100596 0.500128 -0.059790 0.018712 0.231908 0.079896 -0.067509 0.044118 0.081167 0.298184 -0.036295 0.201332 0.012571 0.029647 -0.055716 -0.414421 -0.078246 -0.108661 0.006386 0.226647 -0.200189 -0.081833 -0.155897 -0.251585 -0.254345 0.351675 0.202887 0.030434 0.213962 0.145186 -0.365651 0.176109 0.267260 -0.180306 -0.303461 0.156221 0.079158 -0.401889 0.036887 0.494431 -0.216731 0.040012 -0.060421 0.537163 -0.250554 -0.207172 -0.209582 0.228418 -0.450988 -0.517974 0.080629 0.199223 0.032328 0.416603 0.203685 0.135363 0.048048 -0.481618 -0.493750 0.368143 -0.243741 0.457678 -0.173719 0.052760 0.361480 -0.337764 0.049362 0.267047 0.055479 -0.559547 0.257232 0.249565 0.628693 -0.434118 0.562148 0.321822 0.368150 -0.306386 0.156006 -0.256285 -0.422270 
88 -0.360734 -0.808703 0.661848 0.297392 0.809772 0.665541 0.112581 -0.873402 -0.433860 0.451571 -0.167620 -0.086601 -0.587320 0.178357 -0.514195 -0.123491 0.567176 -0.503940 0.117883 -0.078015 0.493953 0.020210 0.013742 0.214780 0.092899 -0.035446 0.013282 0.067699 0.265211 -0.039118 0.277873 -0.010812 0.053191 -0.050289 -0.456526 -0.097521 -0.090249 0.063040 0.216286 -0.195527 -0.080190 -0.170210 -0.287334 -0.263852 0.372532 0.117557 0.014049 0.225252 0.217473 -0.369299 0.190601 0.264260 -0.153616 -0.342403 0.103379 0.023896 -0.375670 0.057830 0.482227 -0.220933 0.043942 -0.053438 0.524322 -0.285905 -0.232384 -0.191619 0.188466 -0.436972 -0.524918 0.106511 0.199050 0.045055 0.448162 0.227296 0.137059 0.033863 -0.405858 -0.472800 0.455970 -0.234859 0.483669 -0.109594 0.048784 0.276853 -0.438073 0.107571 0.360529 -0.003451 -0.548642 0.206742 0.298245 0.747581 -0.487828 0.558115 0.241287 0.370611 -0.309215 0.163093 -0.260306 -0.396344 
89 -0.415511 -0.821196 0.613718 0.358734 0.773878 0.635186 0.026619 -0.869272 -0.413863 0.457046 -0.213853 -0.119233 -0.640253 0.169353 -0.570487 -0.237372 0.569859 -0.451628 0.131912 -0.038858 0.489080 0.051862 0.044896 0.224896 0.063009 -0.059968 -0.019044 0.062700 0.201226 -0.050154 0.337748 -0.061043 -0.006514 -0.094840 -0.432070 -0.092827 -0.050507 0.137274 0.214895 -0.163724 -0.115358 -0.202382 -0.215271 -0.272812 0.413429 0.193696 0.010257 0.163607 0.246685 -0.355243 0.258368 0.259451 -0.131821 -0.318427 0.038735 -0.055088 -0.370153 0.074150 0.577565 -0.245144 0.050690 -0.029971 0.482105 -0.261981 -0.247839 -0.189911 0.124644 -0.381136 -0.589306 0.073977 0.191948 0.040882 0.405653 0.249983 0.089056 0.075653 -0.341949 -0.445744 0.495947 -0.167460 0.503148 -0.037456 0.039692 0.233264 -0.523510 0.174116 0.357815 -0.066601 -0.465875 0.228766 0.258848 0.770715 -0.474713 0.358578 0.220069 0.307207 -0.373425 0.176303 -0.195852 -0.463955 
90 -0.358258 -0.817005 0.548350 0.450501 0.898294 0.622311 0.059578 -0.813707 -0.384208 0.438535 -0.190726 -0.155044 -0.696499 0.174835 -0.511892 -0.165299 0.553015 -0.406995 0.194461 -0.076036 0.502762 0.020004 0.009947 0.266846 -0.011955 -0.082896 -0.054974 0.158789 0.259225 0.017839 0.328986 -0.105704 0.013133 -0.076916 -0.385154 -0.075298 -0.018650 0.138703 0.324834 -0.272020 -0.094581 -0.269149 -0.174079 -0.233530 0.282563 0.130578 -0.086672 0.230283 0.273983 -0.308368 0.229581 0.228535 -0.161941 -0.375857 0.026266 -0.066814 -0.381477 0.042144 0.427376 -0.393598 0.033689 -0.063202 0.459775 -0.192981 -0.167245 -0.217737 0.233753 -0.402972 -0.626083 0.051253 0.167762 0.093575 0.397303 0.277181 0.118540 0.009603 -0.290851 -0.491372 0.621077 -0.141124 0.514568 0.057396 0.022350 0.204756 -0.490644 0.220291 0.409164 0.022132 -0.441669 0.142851 0.236939 0.864453 -0.495304 0.347679 0.266268 0.316243 -0.430701 0.141404 -0.234124 -0.399231 
91 -0.302232 -0.804236 0.529445 0.425200 0.827881 0.618234 0.018338 -0.808936 -0.336611 0.425906 -0.188802 -0.210206 -0.632861 0.189128 -0.547155 -0.180593 0.557180 -0.388278 0.201382 -0.064685 0.472627 0.080621 0.002342 0.305186 0.016771 -0.045587 -0.051828 0.078362 0.186033 -0.058291 0.333596 -0.127159 0.028276 -0.134996 -0.404331 -0.078177 0.030783 0.124269 0.259126 -0.225553 -0.079175 -0.207874 -0.087229 -0.215357 0.290173 0.165679 -0.137917 0.223259 0.332200 -0.225934 0.272568 0.189110 -0.104804 -0.355747 -0.004426 -0.109703 -0.348784 0.099981 0.401271 -0.345309 0.008737 -0.057831 0.453825 -0.198587 -0.107757 -0.151351 0.225996 -0.405789 -0.623226 0.039872 0.166144 0.086197 0.451851 0.264085 0.118688 0.018630 -0.291505 -0.472897 0.653945 -0.170705 0.496556 0.178900 -0.053575 0.211019 -0.539665 0.277145 0.429030 0.021780 -0.435307 0.127798 0.226427 0.792883 -0.498451 0.394948 0.235533 0.340731 -0.384685 0.106243 -0.223785 -0.442276 
92 -0.463671 -0.830595 0.597928 0.404645 0.760211 0.565001 0.069213 -0.806371 -0.382408 0.482241 -0.189971 -0.066819 -0.589465 0.249734 -0.561229 -0.219452 0.565529 -0.346390 0.256090 -0.078139 0.487449 0.074738 -0.049616 0.356386 -0.052179 -0.090589 -0.039202 0.116292 0.160540 -0.046483 0.297452 -0.140591 0.071454 -0.081088 -0.331114 -0.067586 -0.041469 0.189296 0.295280 -0.255756 -0.031710 -0.116395 -0.072479 -0.237258 0.301940 0.249100 -0.087470 0.235591 0.304421 -0.227587 0.244991 0.265363 -0.070324 -0.334044 -0.067102 -0.166226 -0.369032 0.068339 0.437991 -0.365114 0.043633 -0.098432 0.433705 -0.175471 -0.060470 -0.140583 0.196737 -0.408936 -0.664432 -0.007957 0.115071 0.075006 0.402181 0.287517 0.144521 -0.013839 -0.252255 -0.460536 0.657259 -0.109789 0.414000 0.210629 -0.034695 0.129946 -0.527716 0.236560 0.432986 -0.035699 -0.367449 0.098912 0.194952 0.699663 -0.458382 0.249195 0.231768 0.256822 -0.492359 0.154791 -0.241658 -0.506067 
93 -0.365270 -0.849613 0.636721 0.390797 0.824699 0.634197 0.016300 -0.742196 -0.317228 0.469304 -0.210147 -0.018293 -0.603919 0.174906 -0.609490 -0.208108 0.576355 -0.317532 0.114697 0.041490 0.555496 -0.007242 -0.054018 0.343789 0.017245 -0.043352 -0.023948 0.094774 0.188325 -0.091294 0.368382 -0.152244 0.055084 -0.116303 -0.377800 -0.027957 -0.047552 0.188694 0.247258 -0.236244 -0.082743 -0.168970 -0.032339 -0.216711 0.316797 0.207821 -0.155837 0.155101 0.319298 -0.283568 0.342483 0.281711 -0.091442 -0.302860 -0.048783 -0.153897 -0.302500 0.169092 0.446051 -0.362428 0.046724 -0.083493 0.461208 -0.103418 -0.073146 -0.158759 0.239099 -0.446413 -0.650244 -0.003169 0.146208 0.099819 0.485616 0.296499 0.076496 0.007816 -0.177029 -0.418627 0.747873 -0.093414 0.425574 0.189178 -0.050036 0.086613 -0.623547 0.313815 0.393419 -0.037633 -0.320337 0.130653 0.154965 0.704593 -0.448481 0.250701 0.176768 0.284635 -0.411797 0.118420 -0.217757 -0.468025 
94 -0.481447 -0.722414 0.461808 0.546062 0.843185 0.513958 0.069740 -0.812367 -0.309347 0.388253 -0.108355 0.007106 -0.522772 0.212323 -0.528692 -0.183874 0.515659 -0.393814 0.157451 -0.049925 0.502184 0.080140 -0.038338 0.369972 0.056749 -0.115733 -0.061861 0.051192 0.028498 -0.151649 0.313194 -0.131665 -0.011558 -0.059028 -0.288865 -0.071022 0.030846 0.201141 0.275653 -0.140306 -0.047840 -0.162268 -0.034280 -0.202101 0.300586 0.239876 -0.096382 0.124695 0.335359 -0.230701 0.356435 0.219379 -0.074050 -0.299101 -0.150994 -0.282409 -0.396152 0.064327 0.353850 -0.382413 0.045796 -0.071642 0.364244 -0.100518 -0.103833 -0.123312 0.224554 -0.390512 -0.663234 -0.107558 0.079981 0.128194 0.500174 0.235303 0.021587 -0.006973 -0.245381 -0.461331 0.709403 -0.048205 0.348256 0.256158 -0.048354 0.030897 -0.604020 0.249329 0.443043 -0.034426 -0.267091 0.152350 0.192050 0.659996 -0.479407 0.222294 0.237229 0.275986 -0.424657 0.098841 -0.239939 -0.486073 
95 -0.436033 -0.769268 0.597540 0.560140 0.828854 0.534656 0.069227 -0.676087 -0.314973 0.341702 -0.133108 -0.091123 -0.509078 0.242017 -0.502523 -0.156807 0.545906 -0.308614 0.273859 -0.085817 0.485923 -0.013160 -0.045147 0.350789 -0.001706 -0.035488 -0.082881 0.051528 0.009922 -0.170049 0.377180 -0.171063 0.022724 -0.135321 -0.266343 -0.080199 0.027161 0.241209 0.252002 -0.205485 -0.039217 -0.155217 0.012005 -0.178820 0.263974 0.348138 -0.113259 0.202891 0.368516 -0.070486 0.318838 0.198634 -0.088113 -0.281448 -0.199576 -0.307556 -0.361290 0.008328 0.321742 -0.470888 0.052414 -0.111624 0.459921 -0.221045 0.022466 -0.086033 0.294973 -0.302540 -0.663806 -0.042982 0.082736 0.123105 0.493860 0.234577 -0.036926 -0.077947 -0.198894 -0.425476 0.708376 -0.021202 0.389596 0.314791 -0.077485 0.094441 -0.558582 0.328839 0.393478 0.020177 -0.297452 0.207562 0.075745 0.689271 -0.484196 0.255394 0.269489 0.383724 -0.459043 0.126919 -0.168353 -0.570875 
96 -0.372512 -0.641716 0.533387 0.603508 0.733373 0.521150 0.012250 -0.681010 -0.356930 0.433992 -0.215869 -0.136430 -0.443974 0.150624 -0.543458 -0.176900 0.580833 -0.339420 0.217810 -0.052754 0.489010 0.085685 -0.032547 0.355068 -0.091115 -0.172461 -0.087168 0.137925 0.071456 -0.075666 0.385111 -0.203404 0.024311 -0.053392 -0.311642 0.001145 0.019622 0.209824 0.293275 -0.169783 0.014244 -0.164491 0.000173 -0.214433 0.196969 0.250810 -0.193054 0.199792 0.439902 -0.095354 0.312680 0.217212 -0.104806 -0.330115 -0.153064 -0.288697 -0.376364 0.082198 0.349065 -0.482808 0.112685 -0.111524 0.388807 -0.137424 -0.006762 -0.098876 0.291965 -0.233430 -0.634603 -0.116573 0.015766 0.137915 0.412568 0.157653 -0.032837 -0.078659 -0.117996 -0.392707 0.697931 -0.009166 0.281076 0.433676 -0.048772 0.039761 -0.588973 0.336835 0.466181 -0.049076 -0.258202 0.106005 0.204386 0.597931 -0.474151 0.184630 0.139822 0.309166 -0.352721 0.192511 -0.146191 -0.530223 
97 -0.497436 -0.518463 0.471555 0.536883 0.773181 0.563873 0.062599 -0.744587 -0.426847 0.447673 -0.205986 -0.009192 -0.496248 0.146667 -0.520388 -0.108302 0.489006 -0.293161 0.260193 -0.083219 0.450629 0.089210 0.018003 0.333237 0.060499 -0.101464 -0.094378 -0.008184 0.082178 -0.167068 0.399072 -0.259687 0.007235 0.024842 -0.265525 -0.073585 0.004696 0.234178 0.170938 -0.120691 -0.008232 -0.095077 -0.025730 -0.244564 0.247548 0.034538 -0.200458 0.147966 0.409509 -0.176902 0.415351 0.202702 -0.037151 -0.320574 -0.149289 -0.190353 -0.272187 0.136099 0.364560 -0.515327 0.145446 -0.095794 0.417343 -0.165702 -0.068939 -0.107665 0.203972 -0.347455 -0.639269 -0.102859 0.017704 0.068446 0.471361 0.194261 -0.039918 -0.041501 -0.119069 -0.354467 0.689696 0.034640 0.281736 0.305158 -0.017876 -0.051916 -0.623670 0.238735 0.430217 -0.075260 -0.209313 0.213520 0.184011 0.562358 -0.483643 0.201894 0.103361 0.292681 -0.390453 0.165296 -0.129455 -0.510397 
98 -0.411820 -0.599938 0.570350 0.560789 0.818394 0.570971 0.027838 -0.711257 -0.321114 0.372359 -0.125492 -0.043575 -0.386820 0.225902 -0.521503 -0.018200 0.441533 -0.298812 0.224009 -0.019213 0.542246 0.013639 -0.067350 0.401907 0.045986 -0.023438 -0.126850 0.010334 0.054253 -0.107718 0.365113 -0.209056 0.019273 0.061550 -0.240255 -0.019334 0.033505 0.243768 0.217129 -0.125315 0.093805 -0.202403 0.054885 -0.215352 0.142314 0.008201 -0.213575 0.161451 0.434271 -0.142033 0.366194 0.199024 -0.127559 -0.344161 -0.161114 -0.212761 -0.218356 0.119971 0.355154 -0.502221 0.165235 -0.127722 0.312901 -0.123263 -0.045326 -0.235726 0.300385 -0.329385 -0.633944 -0.080629 0.004267 0.142978 0.411708 0.195154 0.050970 -0.093129 -0.067282 -0.388324 0.784810 -0.022243 0.365196 0.380320 -0.048144 0.055972 -0.541959 0.258573 0.463306 -0.080074 -0.143676 0.066159 0.194356 0.608049 -0.457378 0.196491 0.158263 0.347867 -0.369087 0.169461 -0.174575 -0.481243 
99 -0.552740 -0.542552 0.551682 0.593649 0.806108 0.509545 0.024025 -0.618602 -0.268401 0.396765 -0.155531 -0.151872 -0.411407 0.151471 -0.466555 -0.109843 0.487600 -0.236832 0.359394 -0.119306 0.419465 -0.021869 0.014811 0.363111 0.035997 -0.093634 -0.114403 -0.008015 0.002698 -0.138458 0.456132 -0.191826 0.073711 0.048275 -0.234837 0.019977 0.052256 0.192906 0.160317 -0.191787 0.070047 -0.200623 0.018356 -0.226960 0.165998 0.205965 -0.249724 0.207205 0.418223 -0.046764 0.319247 0.140980 -0.006161 -0.303427 -0.169030 -0.263411 -0.237741 0.145099 0.245516 -0.503051 0.122303 -0.096171 0.331172 -0.145215 0.056686 -0.143698 0.301810 -0.268757 -0.605954 -0.098296 0.019150 0.144863 0.497250 0.145948 -0.055210 -0.135091 -0.165526 -0.454751 0.791174 0.045735 0.279139 0.445055 -0.091470 0.028931 -0.624217 0.377529 0.459752 0.055430 -0.187650 0.270215 0.146057 0.467424 -0.493668 0.155545 0.109466 0.319063 -0.261025 0.170880 -0.159663 -0.513568 
100 -0.491322 -0.645253 0.444113 0.700433 0.809060 0.524241 0.009793 -0.596512 -0.330130 0.392097 -0.154444 -0.078798 -0.433219 0.250612 -0.505239 -0.074823 0.384990 -0.171727 0.368099 -0.118554 0.461946 0.077835 -0.070429 0.383623 0.021066 -0.113950 -0.119049 0.011150 0.035021 -0.204873 0.406872 -0.135580 0.047160 0.082558 -0.236259 -0.000808 0.105043 0.240481 0.185084 -0.157698 0.076944 -0.162550 0.030200 -0.149476 0.133491 0.199125 -0.259577 0.208872 0.384834 -0.060277 0.285641 0.220935 -0.063408 -0.303016 -0.180781 -0.315699 -0.227039 0.139544 0.319099 -0.542010 0.152885 -0.107594 0.353227 -0.114470 0.036562 -0.118386 0.306777 -0.293333 -0.657091 -0.079178 0.058541 0.066963 0.456918 0.117165 -0.034571 -0.116161 -0.120070 -0.363078 0.695650 0.056248 0.290034 0.441532 -0.087959 0.057505 -0.632810 0.267432 0.408901 -0.007412 -0.118713 0.159661 0.144957 0.364218 -0.498433 0.099320 0.091207 0.347634 -0.307946 0.139834 -0.114537 -0.540323 
101 -0.520897 -0.547640 0.510730 0.776761 0.725332 0.441838 0.062037 -0.586661 -0.361328 0.306107 -0.080183 -0.121005 -0.492048 0.130685 -0.596870 -0.141972 0.348351 -0.253483 0.343665 -0.160996 0.505212 0.066701 -0.135026 0.424273 -0.022691 0.040265 -0.148193 0.013324 0.027071 -0.188964 0.417878 -0.244252 -0.078777 -0.038564 -0.204332 -0.014932 0.047961 0.283205 0.135856 -0.132572 0.034134 -0.275801 0.118493 -0.280292 0.197486 0.167577 -0.282618 0.091242 0.369509 -0.047566 0.373612 0.250903 -0.107319 -0.231562 -0.224831 -0.303793 -0.227759 0.056750 0.142548 -0.631724 0.188155 -0.130429 0.301404 -0.200569 -0.013886 -0.155740 0.353609 -0.249710 -0.676295 -0.158245 0.054976 0.170647 0.441664 0.191454 -0.065006 -0.081037 -0.170863 -0.353355 0.730063 0.161004 0.210151 0.440678 -0.036125 0.035113 -0.566350 0.268324 0.331299 0.017007 -0.119832 0.193081 0.086135 0.425313 -0.398161 0.028264 0.137513 0.271602 -0.285138 0.217628 -0.065779 -0.509062 
102 -0.614425 -0.604180 0.526008 0.740507 0.720626 0.392549 -0.008422 -0.585465 -0.277294 0.299897 -0.089720 -0.202197 -0.418502 0.209119 -0.483326 -0.014024 0.292701 -0.149341 0.365324 -0.160481 0.472271 0.071137 -0.097393 0.414189 -0.000633 -0.055769 -0.123187 0.022901 0.041818 -0.136960 0.355124 -0.178082 0.040701 0.093206 -0.201300 0.019320 0.103615 0.276401 0.234051 -0.223810 0.103899 -0.279485 0.082726 -0.236348 0.167577 0.126145 -0.328312 0.134843 0.376576 0.079415 0.364823 0.222519 -0.104124 -0.287131 -0.170700 -0.262103 -0.200280 0.037498 0.209649 -0.672908 0.051799 -0.160890 0.383824 -0.156288 -0.062886 -0.163922 0.295506 -0.275075 -0.499006 -0.155380 0.028229 0.204025 0.367959 0.139651 -0.014125 -0.068287 -0.077569 -0.333542 0.697538 0.035752 0.325873 0.590168 -0.099208 0.106810 -0.516180 0.242401 0.374140 0.106578 -0.068114 0.246108 0.097010 0.337881 -0.408276 -0.029471 0.155753 0.275260 -0.238698 0.169305 -0.071752 -0.539934 
103 -0.618678 -0.508848 0.519749 0.823692 0.797919 0.427052 0.033588 -0.591476 -0.306585 0.250128 -0.080828 -0.088008 -0.417029 0.114751 -0.501531 -0.052723 0.298173 -0.146241 0.391748 -0.133534 0.537466 0.039846 -0.082125 0.434617 0.049805 -0.003497 -0.155239 -0.034738 -0.037343 -0.260285 0.442241 -0.070923 -0.063141 0.065820 -0.286166 0.042668 0.083237 0.296945 0.138474 -0.121462 0.144101 -0.301928 0.202548 -0.164660 0.186569 0.195765 -0.307355 0.116022 0.522680 -0.010736 0.460178 0.232079 -0.042522 -0.215086 -0.184895 -0.277420 -0.114723 0.102754 0.242975 -0.635592 0.090730 -0.129536 0.362647 -0.077755 -0.086440 -0.138684 0.307817 -0.316771 -0.683055 -0.253314 -0.014548 0.047612 0.454279 0.122906 -0.054291 0.028959 -0.083966 -0.260966 0.670765 0.070688 0.185450 0.569520 -0.015358 0.050364 -0.514821 0.184008 0.347647 0.057555 -0.053736 0.270771 0.097487 0.276526 -0.483950 0.058037 0.080371 0.317447 -0.183880 0.218483 -0.089409 -0.521985 
104 -0.575684 -0.505521 0.503582 0.740577 0.732607 0.434396 0.042670 -0.657441 -0.217013 0.236510 -0.014329 -0.285956 -0.371413 0.171038 -0.420585 -0.069593 0.305231 -0.202026 0.423229 -0.227118 0.452704 0.149757 -0.028097 0.542530 -0.010685 -0.034085 -0.091548 0.044116 -0.081658 -0.209260 0.440889 -0.105478 -0.078749 0.080063 -0.247798 0.045844 0.188915 0.314936 0.167152 -0.082131 0.077265 -0.243178 0.160297 -0.264932 0.302510 0.201457 -0.280854 0.096841 0.374142 0.009105 0.356108 0.135964 -0.018125 -0.297297 -0.223651 -0.324920 -0.230790 0.065649 0.150454 -0.632641 0.086562 -0.068293 0.255461 -0.096471 -0.037649 -0.126224 0.253438 -0.316041 -0.643815 -0.179652 0.005919 0.138262 0.431444 0.198930 0.063187 -0.002129 -0.054449 -0.298214 0.743059 0.017165 0.168889 0.658653 -0.108603 -0.037114 -0.530885 0.285630 0.400735 0.074568 -0.075477 0.342071 0.124530 0.291140 -0.401898 -0.040004 0.136854 0.267657 -0.235517 0.184132 -0.088461 -0.517466 
