259 100
0 -1.829976 0.130161 -0.983377 -0.395582 0.202634 0.532070 -0.535585 -0.059229 -0.940892 0.103295 0.587235 0.075293 0.279367 -0.174300 -0.522941 0.397444 -0.484759 0.264930 -0.717472 0.252755 0.518796 -0.079828 -0.112185 0.439559 0.533443 0.452802 0.180323 -0.401819 0.096272 0.100796 0.441826 0.159052 0.442961 -0.052742 0.354572 0.339344 -0.123107 -0.264676 0.128027 -0.404335 -0.650946 0.196036 -0.069687 -0.371420 -0.266186 0.351819 0.303026 0.440008 -0.799548 -0.766930 0.557941 -0.311503 -0.325740 -0.035194 0.705407 0.388492 0.101493 -0.042290 0.189057 -0.448099 -0.078212 0.351893 -0.074369 -0.065831 0.043154 -0.558914 0.293038 -0.548168 -0.043144 0.128815 0.316515 0.355881 -0.332293 -0.586606 0.103468 -0.254469 -0.587654 -0.465965 0.184772 0.867382 0.116414 0.237372 -0.299215 -0.543903 -0.245617 0.150836 -0.164461 0.000730 -0.712394 0.562844 0.247038 0.157438 0.388253 -0.100896 -0.326898 0.433565 -0.240466 0.010635 0.384909 -0.616461 
1 -1.142707 0.065230 -0.410140 -0.107744 0.264981 0.393420 -0.597741 -0.231991 -0.628450 -0.175623 0.645222 -0.421224 0.339825 0.218541 -0.256419 -0.386019 -0.393034 0.249286 -0.117161 -0.268138 0.086072 -0.121749 -0.133187 0.736044 0.345661 0.574820 -0.133606 -0.491936 0.317396 0.670243 0.522466 0.040392 0.160726 0.009832 0.125952 0.373320 0.423344 -0.266736 0.531618 -0.498690 -1.259562 -0.134608 -0.192518 -0.024148 0.089641 -0.031358 0.373630 0.693031 -1.328584 -0.406819 -0.501051 -0.388327 -0.231155 0.202830 0.805264 0.388575 0.045597 0.348914 -0.022213 -0.059251 0.386503 0.371217 -0.095846 -0.349334 0.344662 -0.499998 -0.480152 -0.399965 0.518988 -0.457734 -0.661181 0.543606 -0.274999 0.025699 -0.030760 0.138427 -0.730523 -0.416332 0.383177 0.296317 0.018805 0.471959 -0.459381 -0.301099 -0.013255 0.562331 -0.424863 0.812196 -0.351431 0.609423 0.008072 -0.500777 0.121606 0.056090 -0.450325 0.479704 0.146478 0.543897 0.418078 -0.677888 
2 -1.013330 -0.651403 -0.264822 0.068700 0.408511 0.351377 -0.773686 -0.004525 -0.659395 -0.008240 0.650717 -0.590254 -0.146326 0.332438 -0.286265 -0.314562 -0.462555 0.326060 -0.233726 -0.453766 0.082843 0.092952 0.056784 0.057896 0.354934 -0.108724 0.233865 -0.333600 0.262523 0.663746 0.154285 0.451585 0.669786 0.170959 0.786362 0.101273 0.403158 0.107553 -0.085314 -0.040217 -0.549619 -0.086277 -0.636830 -0.370108 -1.070778 -0.267280 0.669841 0.278742 -0.344497 -0.393353 -0.008465 -0.337863 -0.260363 -0.015431 0.751857 0.046744 -0.081566 -0.047120 -0.012046 -0.118065 0.137129 0.151017 -0.277348 0.006866 0.412075 -0.285296 0.273247 -0.583829 -0.188553 0.117100 0.143557 0.141337 -0.014142 -0.443490 0.344072 -0.010982 0.042593 -0.378071 -0.078848 0.322102 -0.159700 -0.415551 -0.052296 -0.274064 -0.428416 -0.030655 -0.034537 0.215095 -0.581857 0.317963 0.341566 -0.150003 0.222231 -0.188374 -0.242456 0.085893 0.151387 0.584334 0.198082 -0.671390 
3 -0.781963 -0.793592 -0.351575 0.174846 0.374376 0.364803 -0.667669 -0.028564 -0.959172 -0.015795 0.640204 -0.360492 0.000418 0.499989 -0.224757 -0.542944 -0.468367 0.418620 -0.389966 -0.410620 0.058891 0.254123 0.151706 0.024950 0.444631 -0.105267 0.119939 -0.332506 0.230991 0.484268 0.228111 0.031383 0.793251 0.420108 0.581294 0.131635 0.090230 0.091780 0.058221 0.050661 -0.503501 -0.154405 -0.504842 -0.455822 -0.978493 -0.245440 0.695747 0.175234 -0.209073 -0.264342 0.049778 0.001170 -0.264854 -0.184512 0.525278 0.119152 -0.042779 -0.332349 0.104989 -0.071508 0.169338 0.019421 -0.557375 -0.165599 0.124665 -0.396407 0.059820 -0.286636 -0.052990 0.248111 0.003279 -0.040336 0.068901 -0.410346 0.554790 -0.116370 -0.253238 -0.354844 0.004565 0.597442 -0.025090 -0.413753 -0.024099 -0.122497 -0.584710 -0.265538 0.144672 0.016393 -0.557693 0.057514 0.170685 -0.127383 0.471805 -0.496519 -0.059985 -0.083451 0.295632 0.407191 0.303019 -0.501623 
4 -0.654144 -0.805731 -0.185306 0.005786 0.317048 0.293388 -0.542568 -0.064036 -1.028000 -0.047871 0.700110 -0.254670 0.001451 0.537164 -0.278209 -0.423300 -0.554495 0.397739 -0.459216 -0.212508 0.089452 0.149174 0.136408 0.035198 0.541961 -0.093711 0.277737 -0.207482 0.095462 0.350973 0.299143 -0.146799 0.829704 0.467533 0.575039 0.120910 0.096859 -0.109992 0.197853 0.035248 -0.564523 -0.169204 -0.397588 -0.536977 -0.935793 -0.131112 0.906597 0.150213 -0.104122 -0.078638 -0.012798 0.125131 -0.121688 -0.289035 0.597353 0.068105 -0.014089 -0.374734 0.194238 -0.122034 0.025640 0.152452 -0.491056 -0.277727 -0.042266 -0.533882 0.098945 -0.157462 0.210980 0.043595 -0.043133 -0.072613 0.219840 -0.280524 0.497854 -0.153270 -0.359270 -0.354231 0.037755 0.593711 0.001035 -0.288395 0.219069 0.160404 -0.450424 -0.403599 0.123466 0.157348 -0.399953 0.095559 -0.080944 -0.041011 0.394431 -0.626859 0.149483 -0.128373 0.325612 0.163371 0.252162 -0.415541 
5 -0.667483 -0.701372 -0.055265 -0.240858 0.231880 0.291165 -0.518582 -0.151025 -0.918707 0.050678 0.760456 -0.338575 -0.051819 0.453304 -0.252285 -0.362411 -0.436767 0.415323 -0.443117 -0.115107 0.176104 -0.015526 -0.012109 0.090380 0.584763 -0.129553 0.261317 -0.087395 0.036449 0.328181 0.371189 -0.123845 0.914556 0.422722 0.671721 -0.071791 0.155493 -0.283878 0.021109 0.015423 -0.482322 -0.059959 -0.497861 -0.537776 -0.797897 -0.004656 0.894443 0.049404 -0.036457 -0.095774 -0.064449 -0.004379 0.037733 -0.424031 0.577921 0.121800 -0.044756 -0.314159 0.238004 -0.192890 0.051144 0.188640 -0.316865 -0.284427 0.050953 -0.443346 0.022702 -0.157167 0.350424 -0.252773 -0.099705 0.008878 0.352722 -0.362823 0.464088 -0.233842 -0.299792 -0.333754 0.010706 0.597014 0.145905 -0.243766 0.392354 0.301541 -0.551999 -0.454352 0.207213 0.171228 -0.292220 0.131718 -0.254673 -0.091509 0.361921 -0.609648 0.224620 -0.155177 0.305887 0.034800 0.258974 -0.293656 
6 -0.693373 -0.678050 0.047753 -0.368921 0.165212 0.304966 -0.544353 -0.276645 -0.764340 0.063745 0.779547 -0.474597 -0.165249 0.463667 -0.168308 -0.427024 -0.288612 0.453824 -0.379927 -0.078540 0.219164 -0.073413 -0.198512 0.096414 0.514008 -0.228412 0.167115 -0.055067 0.020193 0.348281 0.315529 -0.048650 0.914041 0.478381 0.737467 -0.187961 0.183403 -0.249493 -0.075829 0.001204 -0.441593 -0.081631 -0.651997 -0.451912 -0.667374 -0.044517 0.771980 -0.037278 0.063315 -0.042284 -0.088023 -0.077030 0.033125 -0.475247 0.428365 0.162717 -0.011221 -0.282586 0.188431 -0.144232 0.198427 0.177047 -0.212579 -0.271612 0.145307 -0.304173 -0.106483 -0.065761 0.361788 -0.360112 -0.221937 0.000155 0.346073 -0.291795 0.393305 -0.239149 -0.168955 -0.262215 -0.023803 0.468269 0.206551 -0.218065 0.389861 0.367051 -0.604739 -0.469218 0.335370 0.277876 -0.223687 0.093508 -0.297611 -0.171604 0.395088 -0.656683 0.276641 -0.185081 0.208171 0.130330 0.219580 -0.305157 
7 -0.601604 -0.676502 0.000821 -0.453556 0.048350 0.316928 -0.597653 -0.253005 -0.789793 0.058017 0.841630 -0.598260 -0.202505 0.506204 -0.097202 -0.499396 -0.227769 0.519341 -0.320915 -0.096913 0.187578 -0.098373 -0.274834 0.070577 0.407461 -0.286110 0.144984 -0.087805 0.098645 0.398023 0.217808 0.022456 0.868211 0.528878 0.469899 -0.188213 0.105744 -0.308985 -0.063968 -0.045187 -0.451640 -0.151126 -0.720093 -0.388393 -0.536683 -0.090719 0.602698 -0.096164 0.116036 -0.010550 -0.086173 -0.033947 -0.057253 -0.543726 0.345508 0.241948 0.041739 -0.247687 0.193526 -0.127367 0.304410 0.194496 -0.171670 -0.251831 0.201150 -0.309737 -0.249028 0.010681 0.301805 -0.348695 -0.439992 -0.039247 0.387193 -0.145871 0.332922 -0.255834 -0.185048 -0.362220 -0.049834 0.360603 0.169642 -0.207984 0.366894 0.437310 -0.616457 -0.463394 0.400507 0.275678 -0.275065 -0.036605 -0.337013 -0.333733 0.470551 -0.662382 0.291435 -0.173253 0.294797 0.329213 0.240922 -0.304767 
8 -0.640755 -0.695377 0.037688 -0.464162 0.133872 0.268011 -0.577245 -0.289332 -0.872256 -0.027264 0.793346 -0.646873 -0.233470 0.547975 -0.075928 -0.474544 -0.355867 0.557982 -0.239904 -0.015642 0.227320 -0.160907 -0.377054 0.019806 0.335409 -0.268855 0.172082 -0.039991 0.114584 0.288221 0.152103 0.027499 0.690369 0.433821 0.324370 -0.113789 0.016577 -0.341885 0.048742 -0.082725 -0.482451 -0.313802 -0.683729 -0.340156 -0.469864 -0.164513 0.572078 -0.087185 0.125736 0.129289 0.008114 0.055948 -0.145162 -0.559843 0.290905 0.148562 0.078568 -0.266561 0.184711 -0.041041 0.312074 0.210090 -0.104871 -0.225446 0.177421 -0.348215 -0.287401 0.123920 0.170232 -0.319903 -0.406254 -0.154679 0.389697 -0.011188 0.276871 -0.191676 -0.099779 -0.391066 -0.036645 0.200658 0.089226 -0.153224 0.392118 0.515772 -0.549125 -0.442880 0.374627 0.335104 -0.259386 0.008693 -0.269642 -0.376764 0.478372 -0.680533 0.322824 -0.127995 0.236687 0.395022 0.214752 -0.393544 
9 -0.594901 -0.659816 0.067599 -0.443647 0.170991 0.220900 -0.589098 -0.269878 -0.954006 -0.037457 0.722376 -0.734753 -0.277078 0.559864 -0.054415 -0.449371 -0.419458 0.643915 -0.136446 0.074348 0.273966 -0.205244 -0.376447 0.039931 0.350092 -0.276739 0.180282 -0.069274 0.132924 0.286559 0.151259 -0.002254 0.601146 0.308114 0.100974 -0.089547 -0.032611 -0.306643 0.087884 -0.078364 -0.553766 -0.357977 -0.627007 -0.310406 -0.387834 -0.171536 0.570155 0.004399 0.147496 0.175055 0.012954 0.193567 -0.126586 -0.585790 0.274316 0.133800 0.045951 -0.292575 0.246629 0.095418 0.409727 0.217224 -0.085588 -0.281388 0.186291 -0.432258 -0.299353 0.152599 0.119661 -0.391393 -0.394372 -0.172572 0.391539 0.065416 0.296684 -0.227953 -0.105584 -0.483235 0.031070 0.150584 -0.005245 -0.148210 0.411648 0.544203 -0.470179 -0.373620 0.297040 0.219420 -0.203261 0.070363 -0.212073 -0.458355 0.386912 -0.661570 0.356557 -0.169456 0.187891 0.292747 0.375217 -0.426431 
10 -0.710395 -0.529761 0.052644 -0.413201 0.240799 0.279235 -0.538572 -0.342303 -1.015169 -0.048603 0.666892 -0.718108 -0.264183 0.551548 -0.011294 -0.462483 -0.445786 0.718055 -0.119392 0.056854 0.301975 -0.350720 -0.415650 0.009006 0.385870 -0.232259 0.146443 0.031977 0.140614 0.339919 0.227423 -0.093449 0.513721 0.232340 -0.015084 -0.054312 -0.002626 -0.399513 0.050376 -0.038340 -0.538134 -0.408391 -0.587520 -0.387184 -0.312877 -0.156832 0.560394 0.084255 0.117170 0.180095 -0.045753 0.216053 -0.056322 -0.603010 0.234051 0.063335 -0.003529 -0.289035 0.298859 0.133321 0.443785 0.217496 -0.032777 -0.280441 0.213639 -0.388695 -0.297358 0.086319 0.034962 -0.436246 -0.303726 -0.133654 0.533050 0.059455 0.243878 -0.209446 -0.146078 -0.450054 0.023070 0.090379 -0.023091 -0.073806 0.410468 0.487909 -0.456127 -0.359605 0.211185 0.144449 -0.248309 0.163771 -0.150679 -0.495921 0.273043 -0.554690 0.308027 -0.204773 0.104561 0.160087 0.356821 -0.448748 
11 -0.658111 -0.447439 0.029411 -0.325520 0.208388 0.249942 -0.424342 -0.424104 -1.059650 -0.047533 0.649523 -0.680254 -0.205920 0.467758 0.026941 -0.448437 -0.384675 0.684391 -0.116837 -0.006013 0.302576 -0.487026 -0.392115 -0.035786 0.369002 -0.182468 0.132660 0.100000 0.157976 0.342954 0.296406 -0.037582 0.490739 0.162513 -0.126545 -0.108317 -0.020223 -0.340832 0.041794 -0.020958 -0.522534 -0.427758 -0.509678 -0.369784 -0.279039 -0.195179 0.494956 0.114630 0.062347 0.189493 -0.119912 0.084762 0.008964 -0.557051 0.180360 -0.008847 -0.024221 -0.361106 0.341977 0.109707 0.468198 0.198305 -0.135274 -0.207117 0.099401 -0.371403 -0.328354 0.014427 0.012352 -0.455859 -0.294531 -0.146651 0.682677 0.109848 0.300318 -0.293452 -0.152824 -0.451348 0.111817 0.146987 -0.067269 -0.118406 0.475375 0.397371 -0.499074 -0.335332 0.184170 0.092144 -0.257994 0.190493 -0.177560 -0.589283 0.255397 -0.452686 0.235863 -0.216740 0.058774 0.076630 0.439265 -0.396555 
12 -0.699145 -0.423793 0.042201 -0.296939 0.260840 0.212444 -0.367161 -0.488891 -1.045624 -0.019827 0.655138 -0.632834 -0.141821 0.429738 0.152004 -0.493483 -0.307516 0.617982 -0.169705 -0.035789 0.221067 -0.525155 -0.350339 0.046495 0.519752 -0.173300 0.035042 0.110326 0.120357 0.384691 0.395822 -0.054489 0.463105 0.188724 -0.141383 -0.101536 0.127374 -0.366472 0.013984 -0.056363 -0.597537 -0.491196 -0.384735 -0.333634 -0.197305 -0.226797 0.461354 0.238523 0.074578 0.335600 -0.194991 0.051541 0.062270 -0.563163 0.170961 -0.114973 -0.133382 -0.319169 0.358493 0.196870 0.399194 0.219217 -0.072197 -0.215415 0.021736 -0.330982 -0.379097 0.020888 0.003715 -0.469435 -0.264497 -0.008669 0.709359 0.226322 0.360137 -0.331626 -0.056201 -0.329224 0.080964 0.145832 -0.124573 -0.102960 0.444067 0.360120 -0.609730 -0.270850 0.165661 0.066535 -0.220345 0.186584 -0.222674 -0.649344 0.268731 -0.369046 0.192873 -0.236538 -0.007962 -0.060223 0.458342 -0.373982 
13 -0.766876 -0.502623 0.003228 -0.230778 0.257073 0.235456 -0.395984 -0.576190 -1.080739 -0.029324 0.609182 -0.538145 -0.084019 0.489762 0.140145 -0.495473 -0.176257 0.545098 -0.208152 -0.140353 0.131916 -0.496192 -0.331894 0.030007 0.528777 -0.135016 -0.060365 0.015436 0.107490 0.372014 0.465358 -0.080208 0.363498 0.288630 -0.123007 -0.109015 0.182178 -0.369918 -0.021969 -0.081156 -0.629625 -0.479642 -0.360539 -0.315858 -0.113412 -0.199127 0.468840 0.213341 0.039093 0.432615 -0.225327 0.001078 0.162242 -0.521414 0.128606 -0.072860 -0.200503 -0.225940 0.273730 0.167731 0.454256 0.197837 -0.087636 -0.216706 0.024036 -0.170036 -0.403214 0.054154 -0.000944 -0.490098 -0.316030 -0.049913 0.708537 0.281729 0.251601 -0.340069 -0.115738 -0.287914 0.002354 0.152348 -0.007182 -0.095287 0.412567 0.302203 -0.633565 -0.269131 0.130838 0.160671 -0.160305 0.117053 -0.193326 -0.679957 0.218810 -0.431222 0.196409 -0.224559 -0.094221 -0.158605 0.356071 -0.259435 
14 -0.749801 -0.523784 0.008608 -0.219166 0.179825 0.296436 -0.400775 -0.633677 -1.075017 -0.018259 0.591684 -0.408266 -0.053156 0.531360 0.108888 -0.446618 -0.172277 0.504066 -0.287645 -0.132780 0.129632 -0.489372 -0.290926 0.014236 0.500638 -0.169460 -0.054664 -0.034518 0.107081 0.338626 0.483709 -0.077405 0.300703 0.388558 -0.178034 -0.059944 0.259297 -0.367188 -0.025326 -0.113864 -0.685772 -0.492464 -0.307977 -0.294958 -0.075584 -0.212702 0.420936 0.262755 0.008882 0.444751 -0.103979 0.002848 0.202857 -0.489067 0.123353 -0.011316 -0.209587 -0.167062 0.273559 0.142939 0.397576 0.262262 -0.110764 -0.232064 -0.028834 -0.162361 -0.396589 0.071070 -0.012943 -0.442639 -0.325506 0.042036 0.678509 0.433418 0.204271 -0.340655 -0.169539 -0.246525 -0.017620 0.149824 -0.081278 -0.119061 0.394128 0.306824 -0.556472 -0.250342 0.029272 0.228117 -0.114074 0.067335 -0.210928 -0.609723 0.244121 -0.480571 0.238288 -0.218937 -0.144022 -0.185453 0.365228 -0.304956 
15 -0.825216 -0.460139 -0.006981 -0.241360 0.059148 0.389678 -0.406292 -0.640864 -1.083955 0.008013 0.526466 -0.399649 -0.098394 0.599675 0.127857 -0.388955 -0.076007 0.548921 -0.356743 -0.184821 0.138881 -0.536983 -0.331681 -0.036878 0.544917 -0.219247 -0.045213 -0.087963 0.136147 0.358564 0.448404 -0.106426 0.227738 0.472602 -0.187439 -0.045808 0.250282 -0.408618 -0.098233 -0.081184 -0.628459 -0.444085 -0.184594 -0.292427 -0.063790 -0.153085 0.370215 0.268240 0.049926 0.439682 -0.006292 -0.005045 0.201306 -0.444931 0.040089 0.122273 -0.195333 -0.138912 0.263956 0.125639 0.421926 0.358585 -0.089777 -0.255241 0.013862 -0.033196 -0.340687 0.075211 0.035915 -0.363032 -0.401240 0.017878 0.688091 0.489281 0.091451 -0.376296 -0.259126 -0.232437 -0.076391 0.160392 -0.066294 -0.056444 0.314554 0.189568 -0.483171 -0.337351 0.020784 0.283574 -0.137810 -0.021069 -0.167091 -0.551243 0.215028 -0.417482 0.210377 -0.202866 -0.189971 -0.209990 0.295249 -0.352982 
16 -0.735560 -0.467808 0.082749 -0.194126 0.078046 0.378603 -0.375455 -0.739881 -1.050228 0.076505 0.524954 -0.408295 -0.112581 0.578287 0.135684 -0.311229 -0.104738 0.577435 -0.410952 -0.099648 0.211115 -0.552393 -0.429163 -0.057809 0.512827 -0.205964 -0.013634 -0.118597 0.083200 0.223741 0.411645 -0.035537 0.241118 0.490684 -0.148105 -0.035143 0.245856 -0.355539 -0.077189 -0.067187 -0.523591 -0.404368 -0.092187 -0.316750 -0.023123 -0.216399 0.298665 0.204497 0.139327 0.469605 0.082799 -0.011301 0.222049 -0.356135 -0.066032 0.218041 -0.192874 -0.205399 0.297198 0.145219 0.358585 0.393324 -0.096937 -0.275504 -0.064451 0.003512 -0.302036 0.094444 0.097844 -0.312667 -0.416107 0.104487 0.684806 0.577126 0.042654 -0.420753 -0.303226 -0.287023 -0.065403 0.284736 -0.169458 -0.048621 0.276862 0.234854 -0.416808 -0.411878 0.096013 0.346619 -0.142480 -0.100848 -0.147635 -0.505434 0.253485 -0.466987 0.199681 -0.220957 -0.190397 -0.210793 0.361679 -0.401980 
17 -0.765347 -0.384175 0.163137 -0.207457 0.141519 0.299890 -0.282524 -0.797142 -1.015448 0.064211 0.577245 -0.540592 -0.125387 0.682229 0.078832 -0.313284 -0.187699 0.574365 -0.407747 -0.072532 0.412734 -0.539762 -0.444075 -0.051823 0.478941 -0.183346 -0.073756 -0.220840 0.129525 0.025535 0.413633 -0.003288 0.133502 0.416093 -0.028722 -0.116677 0.302570 -0.309283 -0.005392 -0.083141 -0.520736 -0.392017 -0.066487 -0.201936 -0.111180 -0.257449 0.297585 0.183031 0.056196 0.458395 0.203562 -0.068363 0.176406 -0.368015 -0.178769 0.229827 -0.225638 -0.193807 0.170386 0.268590 0.287916 0.386348 -0.203515 -0.306182 -0.028970 0.087616 -0.252175 0.072469 0.056778 -0.199583 -0.425510 0.103177 0.575860 0.627505 0.059230 -0.429240 -0.255118 -0.278624 -0.129210 0.197983 -0.074573 -0.075446 0.308899 0.192965 -0.485707 -0.417420 -0.001377 0.357500 -0.085030 -0.163035 -0.055834 -0.388737 0.314709 -0.417584 0.249002 -0.181941 -0.330290 -0.185092 0.299566 -0.323916 
18 -0.757981 -0.338781 0.235680 -0.163565 0.255190 0.343034 -0.366153 -0.781814 -1.007488 0.125711 0.549623 -0.527190 -0.107593 0.709406 -0.001191 -0.270149 -0.233411 0.609329 -0.336526 -0.041561 0.513621 -0.554301 -0.405138 -0.045677 0.391191 -0.198415 -0.101810 -0.179675 0.137280 -0.082144 0.369409 0.030650 0.103964 0.446135 -0.092430 -0.166112 0.213741 -0.319012 0.045237 -0.119709 -0.385932 -0.300356 -0.017640 -0.231671 -0.086561 -0.198675 0.281146 0.210170 0.062649 0.322811 0.212220 -0.029834 0.176567 -0.368160 -0.161827 0.247653 -0.254346 -0.156867 0.250954 0.337293 0.270362 0.399005 -0.214706 -0.429868 -0.029661 0.078753 -0.300557 0.045133 0.094016 -0.258285 -0.520367 0.176018 0.525362 0.590158 0.028617 -0.405401 -0.348608 -0.274249 -0.064438 0.221607 -0.063059 -0.131576 0.292839 0.191825 -0.420156 -0.396394 0.019164 0.359208 -0.069754 -0.144436 -0.079364 -0.409696 0.290402 -0.380768 0.235284 -0.183501 -0.320450 -0.269563 0.300672 -0.296749 
19 -0.818764 -0.273358 0.292689 -0.105251 0.336605 0.282218 -0.370719 -0.681395 -1.027648 0.028014 0.484264 -0.542836 -0.060650 0.749403 0.011270 -0.319659 -0.261373 0.517041 -0.363289 -0.073849 0.534490 -0.522648 -0.363499 -0.056395 0.303742 -0.214838 -0.103537 -0.168335 0.121335 -0.123486 0.287000 0.056326 0.089444 0.484700 -0.158958 -0.189994 0.112419 -0.358745 0.043258 -0.142621 -0.273433 -0.254482 -0.037194 -0.196670 -0.049082 -0.176937 0.209390 0.214582 0.087718 0.241322 0.212103 0.081106 0.142952 -0.367645 -0.206025 0.260861 -0.330699 -0.159579 0.298240 0.391660 0.207101 0.372793 -0.170923 -0.424249 -0.023248 0.095856 -0.308398 0.098714 0.088031 -0.297993 -0.539729 0.272081 0.435206 0.580561 0.062952 -0.371638 -0.348440 -0.302029 0.009330 0.275834 -0.074317 -0.254094 0.288127 0.191994 -0.518070 -0.385052 0.073592 0.251039 -0.008585 -0.199885 -0.106971 -0.518071 0.378843 -0.337074 0.253266 -0.222016 -0.218846 -0.370745 0.302906 -0.246866 
20 -0.766522 -0.217835 0.359824 -0.101420 0.403095 0.244160 -0.432639 -0.645715 -1.007543 0.081049 0.447072 -0.544538 -0.091098 0.655608 0.006188 -0.259565 -0.280504 0.544961 -0.306533 0.026306 0.529376 -0.524304 -0.397529 -0.006231 0.313997 -0.278895 -0.122195 -0.163484 0.144427 -0.233618 0.249720 0.014507 0.109895 0.471612 -0.225872 -0.185276 0.011612 -0.467170 0.070460 -0.121683 -0.179467 -0.243673 0.028004 -0.143680 -0.034187 -0.103361 0.238602 0.189812 0.121259 0.231402 0.249983 0.059350 0.174708 -0.337739 -0.207129 0.314825 -0.369724 -0.227818 0.389972 0.459000 0.143227 0.328498 -0.094019 -0.423991 -0.103260 0.028051 -0.268498 0.097247 0.113777 -0.311236 -0.646756 0.355620 0.357225 0.665403 0.129257 -0.436725 -0.361903 -0.380716 0.045529 0.414759 -0.167618 -0.209040 0.262373 0.229689 -0.446188 -0.375856 0.140979 0.165415 0.031993 -0.194121 -0.134568 -0.569771 0.282915 -0.263906 0.244040 -0.214110 -0.153362 -0.437670 0.359445 -0.267587 
21 -0.749723 -0.250135 0.469734 -0.099619 0.275131 0.168793 -0.411500 -0.667106 -0.970228 0.098709 0.467132 -0.523798 -0.047579 0.696197 0.008720 -0.207367 -0.216759 0.499373 -0.383271 -0.014629 0.548905 -0.590047 -0.481767 -0.069466 0.339144 -0.328486 -0.065388 -0.129360 0.130678 -0.130202 0.214946 0.122243 0.055380 0.457419 -0.174346 -0.222136 -0.026831 -0.506309 -0.001138 -0.233260 -0.118009 -0.274490 0.035071 -0.121908 -0.017163 -0.182625 0.172968 0.194097 0.153067 0.185568 0.237509 -0.060313 0.211362 -0.351047 -0.166737 0.305080 -0.444985 -0.224507 0.310327 0.406318 0.170885 0.336267 -0.046435 -0.300259 -0.057206 -0.012327 -0.228738 0.010463 -0.034760 -0.295893 -0.635580 0.409677 0.417565 0.668945 0.171705 -0.491655 -0.234564 -0.319463 0.043163 0.460480 -0.233238 -0.288488 0.246435 0.119366 -0.504257 -0.322054 0.105533 0.176463 0.073870 -0.220219 -0.183312 -0.649365 0.321808 -0.206738 0.180877 -0.162338 -0.103286 -0.442552 0.321742 -0.326346 
22 -0.658340 -0.282249 0.473058 -0.057312 0.271363 0.105136 -0.502047 -0.683482 -1.039093 0.069860 0.447551 -0.522866 0.024296 0.709824 -0.083913 -0.113780 -0.158647 0.459890 -0.366577 -0.017675 0.533563 -0.565029 -0.429912 -0.123497 0.291940 -0.386116 0.005646 -0.124547 0.125106 -0.162663 0.207537 0.233745 0.020884 0.479634 -0.188685 -0.236737 -0.161158 -0.456355 -0.079647 -0.288631 -0.115368 -0.216489 0.065496 -0.073289 0.000345 -0.148520 0.144625 0.225679 0.156830 0.208403 0.305569 -0.026897 0.247877 -0.341320 -0.066549 0.283003 -0.510186 -0.212659 0.334462 0.341778 0.147528 0.287294 -0.004807 -0.280022 -0.060033 0.015093 -0.145136 0.025670 -0.062118 -0.330786 -0.662974 0.449978 0.297988 0.669151 0.195037 -0.515861 -0.181164 -0.334754 0.015386 0.555213 -0.290802 -0.323683 0.292470 0.020381 -0.557154 -0.355154 0.139338 0.108929 0.135913 -0.210776 -0.240738 -0.695035 0.361113 -0.163858 0.127017 -0.162419 -0.062750 -0.442815 0.294556 -0.354749 
23 -0.785561 -0.163661 0.473671 -0.095440 0.201958 0.017251 -0.403706 -0.766561 -0.980781 0.010300 0.471299 -0.601934 -0.031219 0.625437 -0.031726 0.026303 -0.207885 0.422315 -0.442255 0.027228 0.465598 -0.590213 -0.492112 -0.094294 0.291091 -0.436939 0.040541 -0.173665 0.026675 -0.229068 0.108863 0.260107 -0.040638 0.410324 -0.092465 -0.189660 -0.132632 -0.473295 -0.026385 -0.347647 -0.236357 -0.217330 0.052907 -0.029409 -0.089929 -0.200654 0.259062 0.271979 0.085109 0.302441 0.296015 -0.012003 0.239329 -0.327781 -0.021001 0.196392 -0.529525 -0.168982 0.253611 0.459654 0.032114 0.351708 0.084865 -0.247570 -0.161454 -0.041346 -0.021339 0.090623 -0.175725 -0.290741 -0.618451 0.305947 0.326442 0.642871 0.190160 -0.574742 -0.140108 -0.416430 -0.079435 0.560801 -0.260265 -0.217176 0.404020 0.072696 -0.488576 -0.335867 0.173713 0.123379 0.208952 -0.180180 -0.256001 -0.778379 0.406381 -0.265229 0.101443 -0.044688 -0.125593 -0.491435 0.194134 -0.290265 
24 -0.807249 -0.278992 0.515336 -0.057814 0.281802 -0.030523 -0.350943 -0.783863 -0.955129 -0.055782 0.430132 -0.610841 0.022718 0.566719 -0.071150 0.096875 -0.135125 0.336354 -0.448002 0.083689 0.500770 -0.618661 -0.480220 -0.104526 0.197711 -0.324212 0.092940 -0.194300 0.071256 -0.308370 0.132758 0.339712 -0.131954 0.273614 -0.188707 -0.259731 -0.151038 -0.502334 0.002344 -0.434019 -0.254232 -0.227017 0.058426 0.061885 -0.031311 -0.207712 0.247626 0.251229 0.104953 0.308416 0.245861 -0.093583 0.282228 -0.325125 0.093382 0.133569 -0.514103 -0.103088 0.255928 0.332820 -0.058011 0.397656 0.081576 -0.248599 -0.143426 -0.018199 -0.098857 0.078533 -0.186584 -0.331907 -0.530879 0.309936 0.355976 0.611175 0.254814 -0.536634 -0.133388 -0.368781 -0.079822 0.544178 -0.279226 -0.332143 0.533647 0.076492 -0.497378 -0.181792 0.075775 0.117701 0.291379 -0.037066 -0.260662 -0.780197 0.425333 -0.289314 0.098211 0.008873 -0.076354 -0.423186 0.185222 -0.296572 
25 -0.877375 -0.360948 0.549735 0.024728 0.336060 -0.049708 -0.464017 -0.761820 -0.905121 -0.063523 0.405132 -0.514679 0.041032 0.614837 -0.137788 0.187705 -0.053909 0.324651 -0.407907 0.030859 0.448104 -0.469549 -0.448514 -0.146193 0.155592 -0.435607 0.194005 -0.322715 0.049337 -0.288909 0.102800 0.266614 -0.136548 0.339569 -0.218885 -0.263434 -0.162863 -0.555625 0.001345 -0.383745 -0.207890 -0.122568 0.038253 -0.014198 0.021153 -0.183058 0.252500 0.317541 0.235497 0.330195 0.252495 -0.025308 0.322994 -0.281559 0.191726 0.101448 -0.585922 -0.028129 0.189942 0.293048 -0.101885 0.445103 0.196423 -0.236291 -0.077573 0.002796 -0.091702 0.175280 -0.172917 -0.335189 -0.522427 0.314710 0.325756 0.555207 0.119355 -0.477581 -0.126833 -0.396349 -0.126966 0.497998 -0.269929 -0.321284 0.500353 0.030519 -0.504013 -0.221253 0.147044 0.130373 0.333396 0.040934 -0.171622 -0.783845 0.291682 -0.329793 0.097081 -0.019412 -0.005510 -0.450897 0.118863 -0.354513 
26 -0.917273 -0.380964 0.636814 0.103362 0.343597 -0.038743 -0.462894 -0.724820 -0.872610 -0.036236 0.331219 -0.479822 0.009160 0.492998 -0.178403 0.114872 -0.030804 0.225444 -0.477586 -0.010112 0.371778 -0.543476 -0.427245 -0.113070 0.169090 -0.401311 0.233502 -0.240447 0.035154 -0.184047 0.092520 0.247748 -0.179427 0.269701 -0.193537 -0.249487 -0.076987 -0.657629 -0.026401 -0.401874 -0.234558 -0.107136 0.002780 -0.139565 -0.007229 -0.147698 0.276840 0.281389 0.264955 0.293698 0.174361 0.040549 0.346471 -0.289950 0.181682 0.051606 -0.627477 0.095693 0.219326 0.201196 -0.153954 0.428456 0.331904 -0.309539 -0.053941 0.044010 -0.023456 0.164311 -0.237724 -0.414956 -0.497278 0.393189 0.414183 0.519929 0.014492 -0.451764 -0.170414 -0.453511 -0.288622 0.451158 -0.286072 -0.250007 0.498369 0.153502 -0.451366 -0.160104 0.061655 0.144528 0.306170 0.010898 -0.243878 -0.774929 0.233357 -0.415031 0.110653 -0.008480 0.062084 -0.393551 0.097340 -0.260396 
27 -0.855308 -0.279863 0.695406 0.170886 0.421976 0.064293 -0.408115 -0.685595 -0.861571 0.004460 0.286752 -0.478526 0.084294 0.542429 -0.213183 0.151826 -0.005478 0.225066 -0.482172 -0.078262 0.396112 -0.565970 -0.429872 -0.111081 0.206949 -0.426654 0.184334 -0.261360 0.082072 -0.143384 0.089708 0.281334 -0.184975 0.232999 -0.304966 -0.280104 -0.073690 -0.692696 0.038033 -0.456422 -0.245751 -0.105079 0.053500 -0.203965 -0.087265 -0.209730 0.195588 0.347635 0.281503 0.267155 0.189200 0.125040 0.259739 -0.318196 0.229283 0.062062 -0.672367 0.213268 0.216854 0.234485 -0.171782 0.486433 0.253540 -0.394506 -0.067241 -0.019434 -0.108628 0.213844 -0.320784 -0.340334 -0.467588 0.416191 0.466038 0.505049 0.015424 -0.368194 -0.193511 -0.493336 -0.278574 0.381749 -0.244357 -0.319258 0.492462 0.155806 -0.375491 -0.146694 0.024988 0.214454 0.338003 -0.006262 -0.187593 -0.763808 0.247491 -0.378660 0.098514 0.027769 0.074015 -0.423110 0.146181 -0.227927 
28 -0.894335 -0.165769 0.743369 0.190653 0.393723 0.154874 -0.313596 -0.741369 -0.888702 0.039365 0.247464 -0.517897 0.026729 0.527425 -0.218234 0.206227 0.025564 0.196461 -0.520161 -0.106992 0.391241 -0.613584 -0.454750 -0.080588 0.254155 -0.444469 0.215887 -0.265736 0.020586 -0.061440 0.088960 0.320634 -0.226974 0.130677 -0.273777 -0.325298 -0.109034 -0.774418 -0.045655 -0.473835 -0.232385 -0.107324 0.084918 -0.183362 -0.144890 -0.217089 0.139457 0.304199 0.296143 0.292489 0.152796 0.186765 0.260820 -0.345202 0.242875 0.095113 -0.605272 0.240025 0.250451 0.210909 -0.199737 0.543857 0.310140 -0.324273 -0.095853 0.038899 -0.013889 0.152052 -0.353407 -0.214054 -0.408061 0.349612 0.498174 0.448401 -0.094931 -0.354192 -0.186699 -0.539707 -0.373977 0.345928 -0.202625 -0.208210 0.468501 0.047151 -0.354934 -0.208345 -0.035649 0.204202 0.291748 -0.068664 -0.161131 -0.670119 0.164871 -0.272943 0.009374 0.088331 0.042176 -0.298627 0.061872 -0.222796 
29 -0.828263 -0.103167 0.682808 0.206337 0.459348 0.202679 -0.389499 -0.769108 -0.844409 0.095163 0.256234 -0.609615 0.015040 0.486803 -0.156484 0.181590 -0.007729 0.195041 -0.530236 -0.138849 0.386316 -0.659853 -0.473465 -0.106692 0.202676 -0.392230 0.187233 -0.299226 0.003186 -0.112195 0.034730 0.255958 -0.225504 0.142492 -0.186533 -0.281315 -0.007264 -0.922530 -0.070564 -0.440151 -0.259689 -0.111871 0.140269 -0.334952 -0.155259 -0.220318 0.114491 0.360194 0.325403 0.248572 0.147096 0.158402 0.198957 -0.324910 0.239572 0.077456 -0.556783 0.248194 0.162196 0.261502 -0.322159 0.626049 0.355462 -0.379030 -0.095366 -0.008487 0.005534 0.136542 -0.344364 -0.152627 -0.398230 0.454381 0.514529 0.441822 -0.136419 -0.375891 -0.218523 -0.533195 -0.475098 0.349533 -0.231789 -0.251905 0.387965 0.092968 -0.441100 -0.177868 0.012374 0.199762 0.270555 -0.097182 -0.096208 -0.660522 0.165304 -0.251692 -0.002406 0.123816 0.102669 -0.214589 0.162012 -0.227996 
30 -0.914648 -0.063933 0.705928 0.283513 0.552522 0.216383 -0.339053 -0.695855 -0.882690 0.120546 0.183103 -0.552806 0.021618 0.454872 -0.121844 0.115018 0.023292 0.157115 -0.446494 -0.213601 0.393001 -0.546202 -0.389269 -0.055167 0.201927 -0.378538 0.137157 -0.351343 0.045489 -0.135724 0.033163 0.138903 -0.265307 0.154642 -0.210316 -0.324896 0.018766 -0.980626 -0.130490 -0.424853 -0.164132 -0.127167 0.145874 -0.366630 -0.135430 -0.224333 0.015115 0.302823 0.385141 0.270027 0.050417 0.167196 0.171642 -0.342658 0.223383 0.038727 -0.510042 0.241247 0.160373 0.226187 -0.291277 0.586649 0.393107 -0.313991 -0.080606 0.087012 -0.060301 0.117564 -0.333484 -0.086605 -0.410495 0.521230 0.423904 0.443178 -0.102184 -0.346821 -0.216543 -0.504182 -0.460198 0.327122 -0.275535 -0.287376 0.307649 0.065812 -0.529578 -0.234676 0.004984 0.161989 0.206527 -0.091924 0.006584 -0.680855 0.178940 -0.193526 -0.058809 0.078710 0.092862 -0.159028 0.163517 -0.268692 
31 -0.807239 0.050886 0.676450 0.318408 0.537281 0.270160 -0.295081 -0.802448 -0.766371 0.133660 0.370704 -0.701754 -0.030581 0.361166 -0.061668 0.097281 -0.015668 0.154929 -0.403647 -0.177668 0.457595 -0.553252 -0.429179 -0.036434 0.233228 -0.335615 0.176336 -0.338786 0.017439 -0.124854 0.039353 0.152082 -0.245274 0.111584 -0.143814 -0.341740 0.005229 -0.992076 -0.193852 -0.475923 -0.214097 -0.122330 0.195991 -0.380878 -0.137237 -0.192131 0.000049 0.312988 0.424091 0.297268 0.099989 0.169179 0.160790 -0.456653 0.234813 0.004327 -0.387901 0.242946 0.086984 0.306426 -0.339151 0.643333 0.474541 -0.309497 -0.057011 0.142084 -0.015684 0.051053 -0.289588 -0.065403 -0.431702 0.611147 0.387825 0.448689 -0.129762 -0.390397 -0.179907 -0.504974 -0.546627 0.313789 -0.394665 -0.234921 0.324859 0.021914 -0.525654 -0.331661 0.066242 0.193111 0.132667 -0.106299 -0.041660 -0.573298 0.198433 -0.151698 -0.140899 0.085425 0.081963 -0.032640 0.245764 -0.285390 
32 -0.941619 -0.024365 0.577480 0.263701 0.695744 0.256373 -0.257818 -0.707910 -0.769532 0.207996 0.263239 -0.670476 -0.028096 0.250030 -0.006034 0.044897 -0.065620 0.180688 -0.416864 -0.168237 0.497811 -0.441481 -0.408193 0.033172 0.167423 -0.214524 0.115722 -0.320426 0.062904 -0.207803 -0.039898 0.146137 -0.250830 0.142704 -0.133649 -0.354117 0.010189 -0.998849 -0.148795 -0.473355 -0.207596 -0.121347 0.116794 -0.356803 -0.108136 -0.306457 0.024545 0.274279 0.554168 0.386906 0.118642 0.295053 0.158988 -0.413463 0.144220 -0.062411 -0.403511 0.191479 0.135995 0.312955 -0.364706 0.621503 0.518431 -0.304585 -0.111134 0.180573 -0.106737 0.076167 -0.265908 -0.056436 -0.394355 0.750227 0.239025 0.459346 -0.127125 -0.361608 -0.192055 -0.550211 -0.496548 0.289014 -0.411961 -0.153830 0.252288 -0.014930 -0.662203 -0.314067 0.055002 0.107219 0.099376 -0.094426 0.032997 -0.649682 0.133489 -0.120951 -0.181318 0.081855 0.018870 -0.064211 0.190875 -0.279534 
33 -0.828507 -0.078427 0.640513 0.439439 0.714382 0.201327 -0.305103 -0.853417 -0.786306 0.140797 0.265069 -0.610094 0.069796 0.223027 0.020763 0.038156 0.082126 0.188968 -0.395683 -0.138293 0.452840 -0.433132 -0.395650 0.049654 0.233532 -0.240885 0.101248 -0.432345 0.081281 -0.185945 0.052794 0.109389 -0.103688 0.224877 -0.195984 -0.382246 -0.069732 -0.889959 -0.148289 -0.564545 -0.207273 -0.051756 0.132263 -0.337712 -0.067257 -0.241611 -0.115576 0.199662 0.580751 0.475880 -0.105740 0.180515 0.179660 -0.370983 0.106305 -0.105154 -0.283195 0.176424 0.124845 0.266789 -0.333400 0.595536 0.535050 -0.302171 -0.094427 0.215883 -0.141533 0.106032 -0.215391 0.018877 -0.432331 0.783311 0.221103 0.430596 -0.150980 -0.340513 -0.214397 -0.454990 -0.493648 0.439833 -0.552984 -0.195680 0.120735 -0.058340 -0.603626 -0.311094 0.158549 0.051258 0.065838 0.069141 0.025915 -0.647599 0.132666 -0.205546 -0.215628 0.014809 -0.043627 0.052772 0.213835 -0.341839 
34 -0.852550 -0.207677 0.667284 0.401343 0.606585 0.265021 -0.266855 -0.915037 -0.715043 0.184560 0.304279 -0.683035 0.101621 0.246368 0.069676 0.057535 0.124068 0.209947 -0.410868 -0.029440 0.474853 -0.421066 -0.440545 0.151003 0.231759 -0.182308 0.019346 -0.417758 0.132707 -0.156281 0.011029 0.271602 -0.131377 0.250511 -0.201194 -0.386678 -0.125193 -0.676384 -0.046196 -0.626424 -0.229259 -0.135944 0.135356 -0.323588 -0.010677 -0.361601 -0.229698 0.326011 0.640881 0.480002 -0.022314 0.171871 0.129038 -0.323044 0.189440 -0.060722 -0.316799 0.197884 0.228669 0.248473 -0.249168 0.576415 0.492199 -0.331746 -0.226265 0.214318 -0.231178 0.057895 -0.315992 0.040052 -0.402022 0.759814 0.153049 0.425789 -0.100944 -0.324062 -0.157977 -0.263930 -0.357915 0.445367 -0.529230 -0.205506 0.097386 -0.163399 -0.601321 -0.242130 0.303279 0.209134 0.061749 0.036082 -0.029839 -0.565595 0.227485 -0.187875 -0.222791 0.018025 -0.080402 0.176460 0.177603 -0.347233 
35 -0.736556 -0.136269 0.596229 0.429907 0.575666 0.208584 -0.407633 -0.819744 -0.734883 0.338390 0.205581 -0.757816 0.051469 0.140587 0.029733 0.009457 0.145916 0.179174 -0.544967 -0.107128 0.381654 -0.258813 -0.407156 0.191378 0.263661 -0.253651 -0.029515 -0.414533 0.167664 -0.210645 -0.114258 0.409214 -0.043476 0.290344 -0.222632 -0.408639 -0.126760 -0.734907 -0.109420 -0.593603 -0.211665 -0.027063 0.042814 -0.327079 0.031270 -0.381424 -0.213634 0.367304 0.683933 0.590687 -0.031646 0.267303 0.126212 -0.278485 0.204688 0.024041 -0.400416 0.186096 0.192205 0.343944 -0.291995 0.568111 0.541207 -0.344729 -0.209839 0.250296 -0.227555 0.061362 -0.295929 0.059845 -0.321373 0.773899 0.052916 0.422459 -0.035683 -0.420891 -0.178672 -0.375985 -0.342739 0.484476 -0.558546 -0.127048 -0.007203 -0.225334 -0.620318 -0.223050 0.290243 0.103764 0.073830 -0.064368 -0.005011 -0.521728 0.124657 -0.234249 -0.169783 0.026272 -0.083606 0.082653 0.241370 -0.358981 
36 -0.683206 -0.231160 0.561525 0.517916 0.556997 0.151161 -0.382926 -0.870293 -0.717361 0.369945 0.178667 -0.741900 0.087757 0.140765 -0.023812 0.023345 0.185901 0.210960 -0.563016 -0.025174 0.366399 -0.237935 -0.332958 0.206265 0.340761 -0.204988 -0.045212 -0.468585 0.160864 -0.218439 -0.202328 0.354937 -0.047551 0.227862 -0.153376 -0.278842 -0.098181 -0.702129 -0.098732 -0.682845 -0.268342 -0.068620 -0.044831 -0.241661 0.063779 -0.348049 -0.288921 0.382051 0.541932 0.583060 0.036535 0.289525 0.216551 -0.270131 0.160000 0.087817 -0.389676 0.269368 0.156389 0.359024 -0.198787 0.542427 0.518062 -0.438261 -0.250214 0.143821 -0.234723 0.074903 -0.397401 0.089984 -0.435141 0.738632 -0.068947 0.437104 -0.076742 -0.461861 -0.165905 -0.453718 -0.391922 0.539718 -0.533701 -0.090089 -0.014817 -0.104586 -0.641747 -0.143555 0.248219 0.110958 0.172670 -0.079737 0.022545 -0.531674 0.124132 -0.352632 -0.160858 0.056850 -0.125858 0.123790 0.308539 -0.309009 
37 -0.592040 -0.159290 0.550835 0.518438 0.436441 0.083930 -0.408911 -0.961592 -0.765123 0.325533 0.143292 -0.773486 0.094623 0.242001 0.010332 -0.000695 0.116486 0.124976 -0.573157 -0.051262 0.325600 -0.178072 -0.284777 0.196557 0.351140 -0.243561 0.030667 -0.490392 0.262831 -0.286109 -0.259708 0.472867 -0.037092 0.353515 -0.118535 -0.301828 -0.055568 -0.677217 -0.196188 -0.678252 -0.330964 -0.080033 -0.220370 -0.239285 0.085373 -0.395105 -0.251039 0.388018 0.468160 0.651865 -0.073006 0.378525 0.191550 -0.202866 0.203300 0.080103 -0.443141 0.285441 0.098121 0.337621 -0.098563 0.451666 0.470718 -0.354831 -0.295220 0.120187 -0.148078 -0.028810 -0.420472 0.076118 -0.341902 0.725629 -0.084813 0.461273 -0.093160 -0.485790 -0.188878 -0.490888 -0.375932 0.527235 -0.544804 -0.050786 0.015716 -0.098690 -0.606467 -0.164435 0.192754 0.103981 0.130495 -0.154586 0.005473 -0.472248 0.204923 -0.398156 -0.108448 -0.015960 -0.166678 0.197685 0.251396 -0.322047 
38 -0.566915 -0.049841 0.384151 0.578071 0.532287 0.025547 -0.415597 -0.878273 -0.789608 0.325007 0.140600 -0.785721 0.074059 0.294929 -0.012489 -0.027551 0.046397 0.110039 -0.606903 -0.091517 0.343677 -0.201941 -0.230928 0.129361 0.328762 -0.135247 0.004411 -0.423232 0.238865 -0.385733 -0.317303 0.437154 -0.111380 0.304723 -0.172826 -0.205817 -0.008053 -0.692501 -0.108430 -0.689557 -0.271339 -0.070001 -0.184617 -0.213679 0.171197 -0.352408 -0.233017 0.441130 0.472955 0.708140 -0.153675 0.400074 0.298873 -0.182800 0.272708 0.004875 -0.468493 0.311101 0.086306 0.382391 -0.160674 0.481756 0.426893 -0.493418 -0.362228 0.139892 -0.083846 -0.089085 -0.413122 0.063395 -0.290982 0.659538 -0.008788 0.410757 -0.079427 -0.535074 -0.292779 -0.510161 -0.373214 0.542671 -0.431040 -0.021874 0.094871 -0.076144 -0.579004 -0.076772 0.055707 0.039982 0.152753 -0.104994 0.133937 -0.427473 0.042920 -0.473680 -0.189453 -0.005466 -0.173815 0.084368 0.225489 -0.314278 
39 -0.541971 -0.074481 0.391191 0.554854 0.492823 0.006287 -0.371387 -0.833726 -0.858405 0.234951 0.135711 -0.813488 -0.054151 0.340156 -0.050762 0.029435 -0.044439 0.084983 -0.539739 -0.050248 0.546615 -0.197175 -0.216695 0.057544 0.257580 -0.075358 0.111590 -0.462442 0.300719 -0.320103 -0.349252 0.533572 -0.156488 0.346557 -0.082977 -0.244405 -0.165134 -0.728854 -0.065772 -0.731508 -0.208761 -0.109582 -0.139476 -0.184966 0.201245 -0.427989 -0.250442 0.379031 0.447210 0.628446 -0.150025 0.430949 0.328369 -0.221057 0.352656 0.071582 -0.395995 0.253864 0.101706 0.359524 -0.109612 0.437398 0.372123 -0.407296 -0.447191 0.040786 -0.037191 -0.208957 -0.473399 0.056916 -0.349643 0.704439 -0.043789 0.364899 -0.051690 -0.608607 -0.367392 -0.538852 -0.379136 0.603371 -0.426558 -0.016758 -0.051791 -0.183235 -0.606395 0.002078 0.052239 0.114300 0.214960 -0.115952 0.186523 -0.436993 0.016948 -0.507391 -0.208191 0.016143 -0.241956 0.158926 0.192184 -0.309355 
40 -0.539666 -0.085914 0.436384 0.647614 0.431148 0.022087 -0.389526 -0.891681 -0.745933 0.132366 0.183051 -0.886632 -0.053432 0.463524 -0.063847 0.114614 -0.003916 0.096534 -0.443532 -0.100803 0.552138 -0.179721 -0.178049 0.065373 0.181990 -0.074615 0.068713 -0.529348 0.307626 -0.369529 -0.302369 0.468730 -0.244835 0.284704 -0.113339 -0.223472 -0.119835 -0.612799 -0.138968 -0.701941 -0.220849 -0.114942 -0.204593 -0.210005 0.231810 -0.466216 -0.189717 0.401046 0.400431 0.680577 -0.215279 0.491624 0.307308 -0.257313 0.472149 0.047590 -0.334456 0.368726 -0.019402 0.421123 -0.061307 0.431586 0.355005 -0.490933 -0.384421 -0.008206 0.056151 -0.248641 -0.449486 0.033417 -0.299774 0.630810 -0.050202 0.433043 -0.129430 -0.568491 -0.394749 -0.499551 -0.445084 0.471182 -0.460881 -0.063821 0.013956 -0.135271 -0.434484 0.048093 -0.109462 0.118633 0.264138 -0.158759 0.217745 -0.425401 0.071561 -0.536633 -0.178445 -0.002798 -0.173958 0.137051 0.237151 -0.366043 
41 -0.596448 -0.098959 0.476242 0.646038 0.536763 0.050087 -0.315807 -0.933723 -0.765654 0.015452 0.204997 -0.865031 -0.054712 0.477302 -0.142018 0.119293 -0.025557 0.077631 -0.427963 -0.071258 0.622440 -0.068205 -0.163844 0.070213 0.234711 -0.020677 0.131734 -0.547225 0.222048 -0.361791 -0.194789 0.409161 -0.285695 0.222851 -0.090484 -0.312373 -0.127084 -0.520129 -0.114307 -0.723259 -0.173401 -0.084484 -0.069523 -0.278688 0.214868 -0.484558 -0.140108 0.466598 0.375400 0.748187 -0.226008 0.518044 0.380968 -0.215614 0.550183 0.118642 -0.427384 0.301570 -0.068090 0.400709 0.021009 0.352194 0.357510 -0.484940 -0.397189 0.082895 0.058451 -0.219584 -0.390619 -0.024054 -0.307958 0.621866 -0.098609 0.337643 -0.087234 -0.652429 -0.377509 -0.451524 -0.376626 0.375860 -0.427737 -0.047964 -0.034601 -0.239253 -0.414539 -0.034512 -0.058306 0.187576 0.305868 -0.152864 0.282300 -0.389649 0.116411 -0.527131 -0.100404 -0.025082 -0.226869 0.164480 0.152862 -0.387822 
42 -0.600167 -0.116064 0.375817 0.607440 0.630327 0.107802 -0.398880 -0.866760 -0.678710 -0.028552 0.104085 -0.784584 -0.069646 0.569367 -0.052165 0.111508 -0.086409 0.039508 -0.424184 -0.139610 0.616574 -0.068394 -0.228334 -0.003798 0.263924 -0.009659 0.280422 -0.503362 0.184765 -0.214674 -0.213431 0.473755 -0.279498 0.248864 -0.066393 -0.279631 -0.121137 -0.581343 -0.200662 -0.627003 -0.027537 -0.050290 -0.026750 -0.217316 0.355551 -0.391749 -0.122965 0.484182 0.441065 0.661381 -0.273782 0.706588 0.413823 -0.185404 0.471505 0.078669 -0.478410 0.292078 -0.060517 0.472620 0.030088 0.451115 0.371394 -0.490997 -0.299156 0.003612 0.062109 -0.257712 -0.317621 -0.078958 -0.178852 0.706054 -0.058111 0.254478 -0.118433 -0.575635 -0.405171 -0.534214 -0.298237 0.428629 -0.384666 0.005324 -0.131107 -0.270632 -0.384835 -0.050650 -0.093783 0.204711 0.287744 -0.106591 0.277055 -0.356898 0.021035 -0.433520 -0.138512 -0.097853 -0.161813 -0.002630 0.234869 -0.522963 
43 -0.695854 -0.133642 0.524391 0.719083 0.662411 0.084235 -0.302897 -0.801082 -0.682938 -0.096738 0.069366 -0.774431 -0.128948 0.609797 0.037143 0.093399 0.049360 0.012142 -0.433194 -0.115150 0.687271 0.027991 -0.208986 0.032724 0.374010 -0.040484 0.292370 -0.687008 0.177112 -0.166524 -0.172261 0.386625 -0.337427 0.197283 -0.047931 -0.287733 -0.150769 -0.471348 -0.249377 -0.674239 -0.083926 0.015386 0.042915 -0.208811 0.295963 -0.391800 -0.083936 0.465067 0.430654 0.673688 -0.339639 0.639285 0.373735 -0.191087 0.527896 0.085490 -0.509207 0.209695 -0.020311 0.488002 0.020228 0.356372 0.398552 -0.469585 -0.283481 0.056362 0.142167 -0.301984 -0.268642 -0.044463 -0.185727 0.699164 -0.080916 0.317076 -0.134149 -0.599176 -0.397833 -0.467728 -0.282697 0.462121 -0.488063 -0.007812 -0.190361 -0.298873 -0.256828 -0.114976 -0.088702 0.213034 0.303017 -0.078170 0.252177 -0.309043 0.148088 -0.413908 -0.130612 -0.131895 -0.094165 0.040183 0.250564 -0.576820 
44 -0.732491 -0.242546 0.538074 0.640009 0.657485 0.109022 -0.350575 -0.887765 -0.611800 -0.121010 0.060075 -0.797458 -0.250995 0.481022 -0.048450 0.065490 0.055938 0.009339 -0.353995 -0.179498 0.629128 -0.001259 -0.205721 0.023090 0.424975 0.038915 0.302021 -0.641453 0.188766 -0.108714 -0.113464 0.369954 -0.261410 0.209968 0.008926 -0.271719 -0.120558 -0.475606 -0.192899 -0.643163 -0.026148 -0.051276 0.166583 -0.138921 0.307826 -0.233171 0.005246 0.501329 0.346145 0.667619 -0.405722 0.728430 0.334064 -0.160068 0.500513 0.074860 -0.579213 0.198949 0.021519 0.530583 -0.011492 0.379435 0.387869 -0.500452 -0.270788 -0.021739 0.214611 -0.261649 -0.229433 0.002847 -0.208416 0.708470 -0.101315 0.280533 -0.108609 -0.680769 -0.395746 -0.593508 -0.286342 0.484518 -0.352961 0.063050 -0.265486 -0.326404 -0.164427 -0.031116 0.041516 0.231045 0.330616 -0.090727 0.195121 -0.315127 0.085174 -0.347195 -0.103929 -0.111994 -0.122885 -0.082175 0.177308 -0.514446 
45 -0.804019 -0.285633 0.610711 0.673011 0.658368 0.042526 -0.288279 -0.786231 -0.754932 -0.209563 -0.067913 -0.808322 -0.318091 0.438598 0.034691 -0.079378 0.110546 -0.043519 -0.401466 -0.119197 0.556647 0.018806 -0.280529 0.093473 0.382792 0.023853 0.282546 -0.687063 0.171983 -0.039425 -0.093908 0.232445 -0.261759 0.142422 0.005442 -0.236178 -0.160983 -0.562832 -0.133636 -0.499159 -0.082866 -0.144978 0.106045 -0.113884 0.314048 -0.354742 0.112018 0.443905 0.378333 0.631884 -0.498071 0.765957 0.354980 -0.139258 0.523735 0.003168 -0.601938 0.165988 0.087924 0.515549 -0.055717 0.227356 0.432148 -0.516021 -0.441019 -0.079939 0.345228 -0.302049 -0.202294 -0.064098 -0.186161 0.745255 -0.079762 0.319255 -0.065386 -0.655331 -0.260548 -0.535319 -0.362851 0.557674 -0.409589 0.099761 -0.295122 -0.293651 -0.137849 -0.023251 0.003115 0.137981 0.414155 -0.060659 0.201885 -0.393593 0.047659 -0.327863 -0.156132 -0.164963 0.034958 -0.023628 0.120543 -0.537365 
46 -0.776624 -0.216164 0.679000 0.620338 0.799378 0.125154 -0.212750 -0.811484 -0.610473 -0.190262 -0.051287 -0.843685 -0.385558 0.303484 0.023007 -0.129813 0.149549 -0.156288 -0.450700 -0.163541 0.510007 0.008288 -0.303224 0.145351 0.307800 -0.005113 0.214208 -0.755739 0.234282 -0.119970 -0.070283 0.315052 -0.246926 0.176633 -0.006987 -0.300118 -0.040330 -0.514688 -0.202396 -0.579786 -0.026888 -0.093408 0.152980 0.028278 0.222796 -0.230569 0.148408 0.387488 0.304915 0.524800 -0.483749 0.652056 0.282995 -0.042183 0.424411 0.053166 -0.647719 0.132930 0.084932 0.547093 -0.105886 0.183229 0.298146 -0.505189 -0.465858 -0.008746 0.369769 -0.376502 -0.079460 0.007109 -0.303188 0.846210 -0.181312 0.442154 -0.013329 -0.709410 -0.299221 -0.595775 -0.369572 0.671337 -0.429620 0.079035 -0.304830 -0.226905 -0.021035 -0.010389 0.054662 0.128179 0.364977 -0.100080 0.098492 -0.274381 0.147259 -0.277805 -0.140268 -0.127402 0.037687 0.085474 0.149887 -0.578507 
47 -0.745587 -0.200021 0.708424 0.595996 0.822486 -0.038842 -0.177631 -0.762604 -0.670725 -0.176167 -0.025660 -0.757413 -0.435835 0.219650 0.013253 -0.181549 0.014783 -0.221502 -0.523130 -0.156883 0.506982 0.006118 -0.250533 0.149355 0.390376 0.071894 0.231120 -0.691717 0.225786 -0.124462 -0.088565 0.371078 -0.171948 0.078801 -0.071887 -0.276893 0.015600 -0.629085 -0.175481 -0.526313 0.051441 -0.101179 0.159572 0.041029 0.271314 -0.233399 0.112745 0.310879 0.315509 0.582825 -0.578061 0.666004 0.232545 -0.034394 0.493970 0.056578 -0.583546 0.105225 0.046850 0.516121 -0.168237 0.220534 0.293735 -0.530910 -0.413896 -0.096000 0.390828 -0.435702 -0.070838 0.041775 -0.243271 0.933477 -0.104607 0.410874 0.027213 -0.769134 -0.316170 -0.692349 -0.338303 0.705355 -0.487577 0.019561 -0.276820 -0.116854 -0.029606 0.016021 0.023892 0.091842 0.342969 -0.137606 0.103087 -0.383779 0.129132 -0.319940 -0.158860 -0.113057 0.135618 0.034988 0.151675 -0.547610 
48 -0.707560 -0.194216 0.792289 0.626569 0.860298 -0.165818 -0.139531 -0.783378 -0.725408 -0.302285 0.056400 -0.764501 -0.400785 0.355803 -0.043613 -0.241585 0.066484 -0.283613 -0.538688 -0.210783 0.474681 -0.135291 -0.282895 0.243251 0.424988 0.044628 0.104294 -0.658905 0.172489 -0.210999 -0.005162 0.315418 -0.184102 0.030735 -0.082513 -0.281570 0.017470 -0.649144 -0.260370 -0.581173 0.042031 -0.148395 0.210758 0.014809 0.314886 -0.171561 0.032608 0.300002 0.296579 0.690376 -0.634238 0.533243 0.234438 -0.058140 0.476252 0.004538 -0.626137 0.024345 0.054638 0.555690 -0.224372 0.166059 0.298903 -0.583190 -0.421567 -0.091026 0.368685 -0.455209 -0.018695 0.004601 -0.179066 0.801452 0.027186 0.534345 0.103838 -0.742848 -0.233157 -0.548337 -0.334682 0.664255 -0.466916 -0.062534 -0.269765 -0.061818 0.015173 -0.011156 -0.035709 0.073156 0.324582 -0.128352 0.085171 -0.292412 0.245164 -0.324050 -0.183626 -0.078947 0.118475 0.197665 0.140671 -0.530270 
49 -0.670096 -0.272035 0.747173 0.595733 0.852597 -0.158404 -0.175067 -0.787149 -0.693836 -0.229090 0.206459 -0.735030 -0.376034 0.268703 -0.051286 -0.259862 -0.018696 -0.270279 -0.619324 -0.209965 0.493795 -0.158122 -0.408035 0.174810 0.418227 0.050163 0.169677 -0.600148 0.261181 -0.166668 -0.005467 0.435894 -0.139442 0.089851 -0.115574 -0.261003 0.112707 -0.754134 -0.174387 -0.624519 0.032474 -0.219837 0.285168 0.102397 0.372389 -0.150188 0.025184 0.325962 0.311055 0.679454 -0.666148 0.439614 0.204849 -0.030644 0.573333 0.060173 -0.621708 0.067470 0.035696 0.597648 -0.305108 0.206047 0.393054 -0.607433 -0.389290 -0.174449 0.344295 -0.458956 -0.035578 0.049120 -0.201091 0.975273 0.055955 0.441641 0.079162 -0.746064 -0.125055 -0.520236 -0.293599 0.676669 -0.494113 -0.082310 -0.346629 -0.101365 0.082363 0.081320 0.074368 0.047956 0.305947 -0.073741 0.058806 -0.332153 0.246333 -0.274162 -0.206790 -0.017809 0.211422 0.224553 0.066305 -0.498922 
50 -0.628528 -0.273369 0.802446 0.641182 0.878350 -0.215871 -0.173508 -0.752820 -0.687404 -0.302424 0.223764 -0.601672 -0.351399 0.315670 -0.203859 -0.298627 -0.007590 -0.277449 -0.645309 -0.166593 0.631316 -0.214951 -0.379541 0.173091 0.373794 -0.001687 0.202866 -0.669133 0.260167 -0.213097 0.050425 0.432458 -0.102145 0.033093 -0.011262 -0.383027 0.035440 -0.779885 -0.263264 -0.655329 -0.020023 -0.207835 0.246769 0.087732 0.334130 -0.121619 0.008300 0.304954 0.279991 0.694436 -0.541021 0.406224 0.194054 -0.051261 0.554561 0.112390 -0.517567 -0.016669 0.025633 0.646933 -0.352392 0.233379 0.318542 -0.599486 -0.329234 -0.231775 0.299988 -0.514527 0.021321 0.000431 -0.172732 0.986711 0.042221 0.448696 -0.067223 -0.775040 -0.100821 -0.517655 -0.325238 0.571083 -0.514887 -0.098716 -0.343687 -0.063398 0.063446 -0.051377 -0.028774 0.174830 0.259964 0.009119 0.070373 -0.288491 0.223790 -0.279760 -0.234156 -0.029188 0.171117 0.334852 0.013272 -0.510464 
51 -0.548368 -0.264552 0.770240 0.626632 0.832366 -0.265454 -0.049696 -0.667983 -0.811936 -0.272274 0.252426 -0.698078 -0.385163 0.315812 -0.152084 -0.418284 -0.016044 -0.243513 -0.844319 -0.257606 0.618628 -0.274287 -0.367225 0.192368 0.499341 0.060445 0.159551 -0.606471 0.385446 -0.124200 -0.036713 0.527502 -0.166870 0.112815 -0.057169 -0.316300 0.099827 -0.757066 -0.182623 -0.671625 -0.105224 -0.170129 0.245912 0.142746 0.295744 -0.117183 -0.011797 0.357998 0.337170 0.775263 -0.413538 0.375031 0.188354 -0.043206 0.657720 0.063980 -0.535542 0.041938 0.064158 0.624203 -0.344973 0.218463 0.326899 -0.654308 -0.316475 -0.101529 0.346715 -0.486969 0.015289 0.043936 -0.148189 0.986235 0.094861 0.430367 -0.088653 -0.729214 -0.022255 -0.421458 -0.320731 0.613866 -0.638667 -0.263794 -0.295431 -0.125686 0.121976 -0.011469 -0.033472 0.206873 0.319700 -0.008212 0.092039 -0.232646 0.202240 -0.332155 -0.180587 -0.040113 0.181207 0.322656 0.013861 -0.489356 
52 -0.510238 -0.241967 0.772474 0.535710 0.829575 -0.269001 -0.022697 -0.644062 -0.766555 -0.346686 0.313345 -0.732238 -0.321948 0.325106 -0.242560 -0.467349 -0.039404 -0.288271 -0.890225 -0.343896 0.616803 -0.216961 -0.299353 0.148407 0.536039 -0.063606 0.244796 -0.537646 0.411108 -0.125781 -0.038447 0.552349 -0.174233 0.189807 0.037688 -0.368246 0.042775 -0.717603 -0.195725 -0.689476 -0.112208 -0.084421 0.316503 0.232638 0.235551 -0.104430 -0.048980 0.460719 0.383130 0.852011 -0.276323 0.355763 0.234016 -0.096670 0.723360 0.048903 -0.557715 0.041825 -0.002650 0.572202 -0.412339 0.192946 0.360435 -0.657957 -0.231772 -0.047894 0.346499 -0.433382 0.032988 0.063968 -0.066394 1.001119 0.083033 0.417414 -0.012094 -0.723942 0.089882 -0.357729 -0.292508 0.481853 -0.663343 -0.381362 -0.288384 -0.262916 0.119665 -0.008558 -0.120714 0.157875 0.291757 0.052789 0.059277 -0.220279 0.269348 -0.320507 -0.165837 -0.010591 0.154437 0.313741 -0.079061 -0.607564 
53 -0.590656 -0.344812 0.849414 0.575863 0.757154 -0.189026 -0.101673 -0.635452 -0.805964 -0.400190 0.205290 -0.650082 -0.241570 0.335725 -0.366509 -0.455271 -0.078192 -0.367011 -0.935439 -0.503633 0.562016 -0.166808 -0.233167 0.146686 0.322375 -0.050329 0.265490 -0.520789 0.566629 -0.192599 -0.051425 0.685794 -0.176472 0.306372 0.085206 -0.523461 -0.062712 -0.616391 -0.295389 -0.710194 -0.198326 -0.127644 0.284578 0.216375 0.277834 -0.133779 -0.096986 0.448898 0.427391 0.867189 -0.438278 0.429456 0.216655 0.043450 0.752866 0.012401 -0.684301 -0.102261 0.081835 0.623013 -0.470209 0.225280 0.296120 -0.559361 -0.181170 -0.088244 0.306176 -0.371748 -0.074299 0.081649 0.042500 1.017717 0.045793 0.409330 0.063739 -0.649651 0.140535 -0.339412 -0.129059 0.369398 -0.570496 -0.422947 -0.272483 -0.244839 0.025800 -0.069143 -0.122248 0.306919 0.232728 0.149455 0.033158 -0.316871 0.409153 -0.305522 -0.088906 -0.035456 0.103328 0.329058 -0.119219 -0.446537 
54 -0.624419 -0.326950 0.776643 0.386655 0.725205 -0.209054 0.009129 -0.681091 -0.827074 -0.392824 0.089888 -0.617089 -0.185590 0.330128 -0.384914 -0.571629 0.020304 -0.473741 -0.877016 -0.621332 0.592929 -0.172197 -0.159821 0.176455 0.409764 -0.129284 0.271013 -0.543574 0.741316 -0.216215 -0.163657 0.487308 -0.172447 0.389097 0.239494 -0.575264 -0.047924 -0.761356 -0.280980 -0.705896 -0.253247 -0.012991 0.150182 0.260964 0.199091 -0.189835 -0.107243 0.494297 0.368096 0.863552 -0.356459 0.500305 0.239147 0.001028 0.730873 -0.160778 -0.626687 -0.062362 -0.021055 0.496548 -0.510883 0.246427 0.265408 -0.541238 -0.264017 -0.072905 0.287460 -0.313733 -0.062125 0.169605 0.067157 1.045952 0.019048 0.397541 -0.038847 -0.506082 0.070776 -0.237063 -0.265890 0.319935 -0.544468 -0.389117 -0.316367 -0.213653 -0.052851 -0.015363 -0.255638 0.292012 0.264569 0.204567 -0.011655 -0.303587 0.348808 -0.302826 -0.007773 -0.047323 0.010598 0.377353 -0.226344 -0.555224 
55 -0.678874 -0.158727 0.795040 0.491379 0.648071 -0.261898 -0.055098 -0.565792 -0.820937 -0.420535 0.042656 -0.602399 -0.134675 0.393356 -0.359807 -0.605026 0.090365 -0.483394 -0.894935 -0.564778 0.496842 -0.104292 -0.160627 0.343586 0.384419 -0.200609 0.242524 -0.678475 0.734751 -0.064681 -0.272710 0.524692 -0.043359 0.510437 0.202939 -0.596984 -0.148753 -0.844341 -0.176071 -0.706261 -0.275575 0.006341 0.001135 0.293044 0.231289 -0.169793 -0.083430 0.577414 0.396865 0.789109 -0.442566 0.516590 0.171518 0.002547 0.700365 -0.194967 -0.560202 -0.016769 -0.026182 0.639005 -0.478034 0.336734 0.249614 -0.600166 -0.260624 -0.175729 0.168248 -0.198588 -0.038225 0.194613 0.049443 0.877503 -0.003707 0.468101 -0.015847 -0.457860 -0.022558 -0.298826 -0.277734 0.256736 -0.480062 -0.396502 -0.273270 -0.247398 0.036815 0.040120 -0.290747 0.349464 0.258992 0.145038 -0.104272 -0.302762 0.314225 -0.258057 0.039568 0.030575 0.020258 0.286907 -0.256763 -0.471703 
56 -0.749502 -0.054136 0.697838 0.419019 0.524997 -0.256657 -0.063069 -0.569355 -0.634262 -0.483986 0.200569 -0.669096 -0.051679 0.422912 -0.343994 -0.595240 0.092582 -0.499710 -0.796015 -0.565094 0.485491 -0.019558 -0.206398 0.365774 0.352127 -0.174919 0.262638 -0.678429 0.725685 -0.063106 -0.334905 0.382879 0.004804 0.670511 0.314810 -0.751454 -0.204620 -0.909710 -0.000528 -0.786766 -0.076179 -0.050169 -0.010797 0.467002 0.244338 -0.178913 -0.114520 0.602589 0.457170 0.810886 -0.572588 0.575742 0.156248 -0.040201 0.695795 -0.189608 -0.502637 0.040193 -0.127198 0.787518 -0.493963 0.569421 0.320582 -0.635128 -0.316280 -0.256139 0.004267 -0.155894 0.085969 0.312730 0.022128 0.828310 0.010303 0.397954 -0.008893 -0.386796 -0.038577 -0.311825 -0.311527 0.168078 -0.316873 -0.439978 -0.224286 -0.302381 0.033865 0.133027 -0.210302 0.415162 0.279642 0.127578 -0.124080 -0.266397 0.302113 -0.148993 0.091793 0.010467 0.053519 0.146983 -0.330812 -0.455265 
57 -0.805224 0.078129 0.644302 0.459273 0.432482 -0.192643 0.072534 -0.611292 -0.645890 -0.370311 0.324116 -0.644307 -0.129230 0.374371 -0.280883 -0.543446 0.012221 -0.394504 -0.769017 -0.398722 0.369290 0.041207 -0.153518 0.476718 0.397817 -0.056172 0.254410 -0.843377 0.668918 0.054464 -0.417115 0.380141 0.074421 0.644995 0.229924 -0.746410 -0.168694 -0.867946 0.070649 -0.761941 -0.088802 -0.005296 0.048327 0.372903 0.206384 -0.137187 -0.151943 0.580349 0.536539 0.691385 -0.632471 0.583466 0.199648 0.041266 0.845677 -0.066522 -0.403301 0.033249 -0.066334 0.924157 -0.471175 0.694480 0.209308 -0.575011 -0.239516 -0.262320 0.088648 -0.222966 0.153271 0.304917 -0.091250 0.751021 0.065142 0.467973 -0.140108 -0.318465 0.010002 -0.312977 -0.283266 0.118342 -0.347407 -0.474873 -0.119103 -0.321555 0.086596 0.055979 -0.140479 0.441441 0.200294 0.068372 -0.060159 -0.248697 0.265382 -0.272296 -0.010307 -0.024768 0.139069 0.032980 -0.351768 -0.308728 
58 -0.756673 0.113713 0.606399 0.416008 0.455740 -0.055709 0.122098 -0.712478 -0.434873 -0.225780 0.339225 -0.671849 -0.109216 0.218227 -0.336972 -0.555000 0.066874 -0.359973 -0.825518 -0.418960 0.290913 0.092650 -0.160554 0.509412 0.277035 0.030753 0.182185 -0.850324 0.630361 0.131802 -0.531421 0.294279 0.117187 0.735088 0.324030 -0.709077 0.006780 -0.762723 0.078718 -0.749868 -0.095463 0.041238 0.045738 0.285150 0.083472 -0.213392 -0.082862 0.661322 0.499116 0.680010 -0.564683 0.630391 0.354282 0.105431 0.952870 0.001731 -0.483695 0.016169 -0.078351 1.034769 -0.501150 0.745268 0.165257 -0.671609 -0.279729 -0.307249 0.114559 -0.289270 0.187525 0.291589 -0.267998 0.825145 0.104909 0.428611 -0.274266 -0.385429 -0.104170 -0.369390 -0.317668 0.099774 -0.277821 -0.401932 -0.060450 -0.269698 0.180013 0.046136 -0.107104 0.432966 0.224466 0.009524 -0.062171 -0.202604 0.182339 -0.374333 0.000297 0.025664 0.146679 0.018676 -0.377382 -0.227691 
59 -0.840114 0.142151 0.599911 0.500901 0.430506 -0.022650 0.145556 -0.838940 -0.470913 -0.126129 0.298159 -0.640402 -0.098889 0.142834 -0.380128 -0.612781 0.052833 -0.351223 -0.834515 -0.444314 0.231930 0.149703 -0.212795 0.491830 0.102165 0.093445 0.216154 -0.765546 0.508075 0.112112 -0.557434 0.279764 0.094594 0.681226 0.400420 -0.634254 -0.056508 -0.729802 -0.108641 -0.791659 -0.132310 0.027227 0.082119 0.074710 0.100520 -0.238121 -0.130222 0.604156 0.472970 0.643414 -0.682711 0.571099 0.445208 0.144482 1.024427 0.072746 -0.502650 -0.096273 -0.143961 0.995049 -0.457059 0.647674 0.132738 -0.577049 -0.110784 -0.257773 0.156197 -0.399906 0.248822 0.114525 -0.368597 0.807576 0.043962 0.372128 -0.332837 -0.407030 -0.155697 -0.262982 -0.302350 0.016816 -0.346797 -0.340188 -0.016333 -0.221841 0.121088 -0.118389 -0.047082 0.551153 0.134546 0.021266 -0.084940 -0.379968 0.209736 -0.463811 -0.034241 0.044070 0.241291 -0.018148 -0.307381 -0.070375 
60 -0.925657 0.192093 0.523294 0.447913 0.523042 -0.082960 0.118149 -0.777686 -0.455709 0.083143 0.342993 -0.618936 -0.144448 0.091262 -0.462544 -0.568947 0.047746 -0.209158 -0.876805 -0.563318 0.257896 0.142676 -0.148162 0.450586 -0.009841 0.162209 0.296974 -0.680516 0.417075 0.054956 -0.531440 0.195850 0.040193 0.650475 0.522647 -0.536012 -0.108594 -0.640320 -0.143640 -0.815360 -0.120435 0.059689 0.127698 -0.012896 0.163959 -0.259840 -0.112432 0.614702 0.401960 0.600323 -0.669117 0.431309 0.576591 0.187290 1.041349 -0.023396 -0.524417 -0.160022 -0.184141 0.953515 -0.608437 0.696428 0.038860 -0.613577 -0.052733 -0.196435 0.338798 -0.246084 0.369589 0.130828 -0.544260 0.747500 0.018575 0.367768 -0.404729 -0.337333 -0.182522 -0.257232 -0.437196 -0.014392 -0.290143 -0.326298 0.081882 -0.201977 0.146682 -0.111268 -0.195322 0.536171 0.095050 0.012904 0.008707 -0.266954 0.163494 -0.444855 -0.036280 0.073114 0.238373 -0.051276 -0.200822 -0.082468 
61 -0.973927 0.161637 0.443462 0.519666 0.525949 -0.225110 0.062491 -0.721753 -0.526415 0.019863 0.199135 -0.701915 -0.160202 0.159829 -0.453009 -0.668746 0.037132 -0.106390 -0.812396 -0.486126 0.188337 0.185729 -0.132721 0.472779 0.000341 0.224526 0.271508 -0.670065 0.399803 -0.023725 -0.530202 0.093059 0.104114 0.510716 0.595804 -0.454726 -0.245734 -0.635860 -0.106469 -0.946715 0.028713 0.053771 0.065478 -0.072609 0.132539 -0.100441 -0.190638 0.526858 0.399708 0.654912 -0.743824 0.484691 0.543223 0.215225 0.956860 -0.059148 -0.501667 -0.126837 -0.191149 0.916753 -0.639130 0.525395 0.200596 -0.635999 0.105672 -0.175920 0.425930 -0.192864 0.396422 0.090635 -0.585109 0.726416 -0.100565 0.294800 -0.446920 -0.366914 -0.139233 -0.310414 -0.404811 -0.017693 -0.286253 -0.286314 0.110480 -0.158505 0.032920 -0.142715 -0.172174 0.438410 0.049075 0.087604 0.104646 -0.287088 0.168133 -0.530437 -0.083971 -0.002570 0.319679 -0.011911 -0.249354 -0.022216 
62 -0.945067 0.116216 0.424896 0.554310 0.521939 -0.254255 0.120177 -0.688362 -0.670238 0.154604 0.280015 -0.754912 -0.117334 0.106473 -0.426757 -0.715367 0.064376 0.005719 -0.806498 -0.523754 0.087523 0.186987 -0.225971 0.461541 0.048489 0.263834 0.325031 -0.674375 0.482457 0.021528 -0.466633 0.100682 0.096622 0.459354 0.683717 -0.388478 -0.348798 -0.540571 -0.073368 -0.931083 0.039827 0.077985 0.088652 -0.076938 0.117483 -0.129854 -0.152063 0.424733 0.435726 0.567060 -0.749964 0.481163 0.532328 0.185337 0.875967 -0.131678 -0.511549 -0.098159 -0.204441 1.024461 -0.595394 0.378209 0.149492 -0.617480 0.165717 -0.138465 0.549690 -0.092406 0.376952 0.129490 -0.596630 0.711783 -0.107302 0.272444 -0.506699 -0.362572 0.066277 -0.332566 -0.541398 0.082127 -0.274927 -0.111758 0.135409 -0.177816 0.007050 -0.230648 -0.145089 0.332601 0.043254 0.107680 0.225185 -0.255757 0.132775 -0.544947 -0.118384 -0.018159 0.289879 -0.042036 -0.284031 -0.031123 
63 -0.928244 0.131721 0.304604 0.550684 0.586399 -0.384963 -0.018097 -0.653055 -0.659565 0.178376 0.359897 -0.782876 -0.046562 0.093625 -0.345053 -0.670830 0.039826 0.109497 -0.775415 -0.494973 0.161422 0.253331 -0.315518 0.434046 0.029328 0.257735 0.406316 -0.735495 0.473075 -0.066631 -0.338496 0.040626 0.076383 0.443749 0.697503 -0.390165 -0.411542 -0.455824 -0.047229 -0.982995 0.059205 0.167423 0.221699 -0.143877 0.066304 -0.074238 -0.155714 0.304805 0.394340 0.644585 -0.702771 0.518859 0.452685 0.070974 0.719757 -0.166997 -0.408214 -0.051542 -0.362763 1.066969 -0.645234 0.353116 0.257489 -0.525387 0.367672 -0.163640 0.493469 -0.039510 0.395158 0.135239 -0.608457 0.758690 -0.172719 0.245656 -0.447291 -0.338253 0.157274 -0.386923 -0.571456 -0.006618 -0.224556 0.067955 0.061976 -0.191608 0.036533 -0.396708 -0.230223 0.296865 -0.083239 0.183168 0.334520 -0.298867 0.227598 -0.526950 -0.152803 -0.076910 0.261056 -0.155153 -0.201619 -0.097328 
64 -0.848038 0.131285 0.192553 0.442780 0.645166 -0.403921 -0.020689 -0.609167 -0.617311 0.152602 0.365565 -0.844494 -0.113425 0.035677 -0.192414 -0.674488 -0.134483 0.235062 -0.799790 -0.527072 0.171714 0.318421 -0.382926 0.365980 0.086780 0.186256 0.334346 -0.604346 0.597667 -0.067806 -0.346407 0.094538 0.156240 0.466706 0.759472 -0.373807 -0.411444 -0.534327 -0.011060 -1.019466 0.243701 0.208860 0.163176 -0.115858 0.007877 -0.109119 0.011146 0.316536 0.333381 0.655924 -0.491790 0.446770 0.415740 0.117751 0.655816 -0.217835 -0.479903 -0.075723 -0.411961 1.117949 -0.592898 0.238049 0.335371 -0.679918 0.366362 -0.106455 0.471629 0.008525 0.438519 0.120524 -0.622244 0.783283 -0.235385 0.226470 -0.428324 -0.399953 0.173460 -0.377238 -0.641788 0.034899 -0.307929 0.235471 -0.026180 -0.234020 0.093089 -0.326447 -0.116880 0.219560 -0.078297 0.173447 0.286677 -0.295596 0.157877 -0.502642 -0.127403 -0.027638 0.193837 -0.143080 -0.337402 -0.206325 
65 -0.788680 0.197226 0.084692 0.624398 0.541273 -0.443252 -0.168524 -0.600609 -0.661774 0.045808 0.294945 -0.810714 -0.090601 0.120391 -0.195847 -0.653852 -0.221336 0.283874 -0.787580 -0.482132 0.059036 0.263199 -0.425254 0.364384 0.187662 0.137700 0.246222 -0.519546 0.582122 -0.024282 -0.411851 0.245512 0.234219 0.361835 0.717966 -0.281173 -0.464361 -0.587737 0.038840 -1.000933 0.328143 0.309125 0.087970 -0.109814 -0.042353 -0.000416 0.005619 0.220331 0.382818 0.712351 -0.484291 0.522825 0.302465 0.109436 0.645031 -0.307140 -0.518325 -0.051042 -0.400870 1.106751 -0.568165 0.136917 0.416277 -0.772437 0.451903 -0.140116 0.530419 -0.078059 0.341472 0.085765 -0.652988 0.684008 -0.291926 0.192637 -0.241768 -0.374099 0.199477 -0.394258 -0.587713 0.021654 -0.385740 0.334768 -0.146016 -0.237003 0.079726 -0.420376 -0.130764 0.268470 -0.100108 0.241101 0.247626 -0.315625 0.109390 -0.512426 -0.224825 0.001472 0.156834 -0.183725 -0.400357 -0.196759 
66 -0.796310 0.210133 0.072231 0.466989 0.485034 -0.356348 -0.133036 -0.586135 -0.600044 0.049556 0.242334 -0.810363 -0.068883 0.025512 -0.191594 -0.577159 -0.192459 0.322137 -0.740318 -0.564322 0.175452 0.262184 -0.465957 0.465977 0.252501 0.182668 0.085410 -0.432362 0.639527 -0.027291 -0.416231 0.301416 0.112381 0.234816 0.635588 -0.292500 -0.494561 -0.487704 0.113251 -0.965265 0.327624 0.363936 0.026787 -0.211555 -0.131712 -0.013699 0.108855 0.240851 0.385857 0.680283 -0.390917 0.610835 0.143999 0.031828 0.698098 -0.443191 -0.668159 -0.027198 -0.312545 1.098100 -0.504598 0.021023 0.380662 -0.909163 0.403253 -0.070587 0.492849 -0.093722 0.342442 -0.010231 -0.718683 0.653158 -0.340908 0.155562 -0.208265 -0.431119 0.175169 -0.353244 -0.591865 0.011716 -0.454245 0.473961 -0.167946 -0.301951 0.167950 -0.430621 -0.046460 0.332518 -0.053867 0.239325 0.146778 -0.343170 0.082659 -0.512913 -0.274976 0.073317 0.144034 -0.198296 -0.460355 -0.186709 
67 -0.953548 0.362704 0.106534 0.511334 0.539266 -0.262942 -0.085624 -0.593162 -0.472365 0.044166 0.214442 -0.736765 -0.059172 -0.018076 -0.074580 -0.511404 -0.357172 0.323535 -0.738718 -0.657529 0.024279 0.203583 -0.454162 0.495787 0.341028 0.051372 0.030987 -0.292373 0.624530 0.053915 -0.465436 0.449375 0.079016 0.232040 0.551140 -0.221776 -0.455099 -0.530124 0.056544 -0.930443 0.397201 0.518018 0.036156 -0.259876 -0.179363 0.044883 0.188551 0.214983 0.419498 0.636937 -0.406832 0.593322 0.043602 0.003227 0.714042 -0.545949 -0.653045 -0.005906 -0.187791 1.075131 -0.492366 0.051329 0.384335 -0.912740 0.376629 -0.070710 0.478730 -0.103213 0.271583 -0.036915 -0.716668 0.630572 -0.333344 0.013318 -0.122762 -0.400896 0.109796 -0.295274 -0.528547 0.030199 -0.499440 0.526593 -0.285132 -0.244547 0.348669 -0.386667 0.041130 0.380817 -0.152727 0.203499 -0.061120 -0.335185 0.062538 -0.570499 -0.265908 0.099310 0.110863 -0.203545 -0.418488 -0.261574 
68 -0.846645 0.352303 0.067915 0.479250 0.646150 -0.399088 -0.037720 -0.547205 -0.571125 0.074074 0.183946 -0.644825 -0.041073 0.071625 0.005568 -0.428053 -0.208138 0.325006 -0.833140 -0.600119 0.110972 0.161889 -0.507872 0.546015 0.404020 0.071733 -0.016468 -0.241163 0.556973 -0.072158 -0.507484 0.505887 0.052300 0.190843 0.521159 -0.191602 -0.428378 -0.492523 0.022277 -0.977285 0.347270 0.606581 -0.033574 -0.378789 -0.209539 -0.074011 0.035430 0.176333 0.339151 0.617099 -0.547303 0.522195 0.032586 -0.008995 0.692029 -0.592456 -0.668687 0.057561 -0.181066 1.002979 -0.428901 0.019774 0.231056 -0.980521 0.215872 -0.020775 0.394155 -0.134601 0.294032 -0.004056 -0.641402 0.426840 -0.329360 -0.103783 -0.128421 -0.321816 0.087476 -0.174534 -0.513114 0.148726 -0.403460 0.513808 -0.242833 -0.134563 0.287369 -0.409925 0.065136 0.489813 -0.120045 0.125502 0.022569 -0.386025 0.219416 -0.751485 -0.281171 0.156359 0.143567 -0.109266 -0.274347 -0.294462 
69 -0.961019 0.289583 0.037537 0.408411 0.666939 -0.520336 -0.028624 -0.568921 -0.664847 0.051579 0.114853 -0.627149 -0.065681 -0.008806 0.054482 -0.492227 -0.287210 0.200524 -0.823923 -0.567031 0.048735 0.230593 -0.447712 0.620004 0.455793 0.014747 0.035203 -0.224294 0.539052 -0.161629 -0.584682 0.678099 0.085830 0.176338 0.446314 -0.303918 -0.351810 -0.466427 -0.020058 -0.949529 0.456276 0.653887 0.022143 -0.442726 -0.197385 -0.101874 0.065331 0.154633 0.291727 0.560764 -0.633123 0.551849 0.014257 0.081612 0.723034 -0.605992 -0.729311 0.079162 -0.086750 0.964744 -0.373303 -0.059076 0.164247 -0.975329 0.115816 0.031245 0.219127 -0.006175 0.274712 0.000773 -0.563556 0.292206 -0.266958 -0.341102 -0.092238 -0.349993 0.095150 -0.139243 -0.380812 0.199834 -0.397626 0.424306 -0.333752 -0.025785 0.370422 -0.238662 0.127295 0.450005 -0.079509 0.053453 -0.056959 -0.439046 0.375473 -0.896939 -0.219407 0.205411 0.092618 0.046550 -0.342003 -0.267085 
70 -0.966165 0.326873 -0.002629 0.406747 0.636418 -0.352098 0.037454 -0.403943 -0.702828 0.116295 0.144774 -0.458096 -0.011317 0.070236 0.146785 -0.335495 -0.277706 0.111907 -0.888725 -0.729723 0.053917 0.180374 -0.397209 0.587664 0.564465 0.039217 0.029507 -0.167120 0.515998 -0.165615 -0.531940 0.647149 0.029968 0.141446 0.380447 -0.182628 -0.433057 -0.556301 -0.054407 -0.873232 0.461971 0.598942 0.135913 -0.406049 -0.158189 -0.114218 -0.041363 0.026714 0.244489 0.607727 -0.707953 0.438514 -0.043766 0.007879 0.765171 -0.565036 -0.635887 0.098219 -0.156743 0.926970 -0.461507 -0.059098 0.065894 -0.819738 0.140129 -0.026932 0.231029 0.010545 0.246615 0.101357 -0.610480 0.364715 -0.144421 -0.408467 0.095083 -0.365747 0.074060 -0.168128 -0.369824 0.270873 -0.322673 0.460972 -0.338137 -0.028045 0.278728 -0.213754 0.021445 0.589770 -0.065269 0.076893 0.041237 -0.546798 0.515411 -1.026999 -0.216577 0.337208 0.179539 -0.034163 -0.270896 -0.330887 
71 -0.980568 0.414636 -0.078095 0.303292 0.437127 -0.456636 0.072938 -0.366973 -0.827810 0.103354 0.133560 -0.372399 -0.021416 0.063064 0.280527 -0.377605 -0.185607 0.061792 -0.834964 -0.740452 0.008249 0.262832 -0.306901 0.492155 0.546952 0.044332 0.068899 -0.223249 0.469436 -0.175914 -0.476962 0.556421 0.046702 0.221863 0.229837 -0.214700 -0.314761 -0.741107 -0.135441 -0.887323 0.557362 0.565459 0.127143 -0.371113 -0.253953 -0.270563 -0.078481 0.040383 0.180584 0.613701 -0.834808 0.382073 -0.051256 -0.036727 0.808120 -0.445469 -0.534470 0.227742 -0.151999 0.814641 -0.357615 -0.075715 0.019928 -0.789280 0.053949 -0.052983 0.117698 -0.079870 0.227169 0.221222 -0.522610 0.392198 -0.131548 -0.367223 0.044243 -0.468009 0.123233 -0.180462 -0.353023 0.235124 -0.298042 0.525865 -0.327664 0.010024 0.231575 -0.250898 0.100739 0.407677 -0.085330 -0.042241 0.073157 -0.575842 0.636393 -0.969182 -0.275953 0.206726 0.218397 -0.015667 -0.372685 -0.329180 
72 -1.011379 0.373425 -0.133081 0.254802 0.435906 -0.323083 0.134981 -0.325823 -0.831326 0.065024 0.122950 -0.291549 -0.055127 -0.002953 0.355690 -0.297973 -0.187892 0.037411 -0.809584 -0.842094 0.033734 0.280020 -0.266633 0.415553 0.673220 0.084175 -0.012565 -0.260522 0.506375 -0.114696 -0.410996 0.517760 -0.021243 0.149753 0.283320 -0.226132 -0.196162 -0.766808 -0.277361 -0.901776 0.665077 0.487063 0.160845 -0.271487 -0.288788 -0.226284 -0.136215 -0.044736 0.175641 0.616995 -0.825222 0.354382 -0.095450 -0.112220 0.902943 -0.234418 -0.424127 0.281222 -0.103533 0.779274 -0.358687 -0.077930 0.030374 -0.775575 0.156104 -0.134307 -0.003024 -0.074331 0.146700 0.219798 -0.444982 0.487866 -0.089291 -0.405339 0.098544 -0.581764 0.173729 -0.145634 -0.370894 0.190244 -0.259939 0.498071 -0.316332 0.098051 0.241193 -0.198516 0.097273 0.435312 -0.062670 0.002135 0.106112 -0.600383 0.801782 -0.993951 -0.273621 0.190675 0.290569 -0.007533 -0.291970 -0.250154 
73 -0.992422 0.410103 -0.389300 0.272814 0.245703 -0.221411 0.068863 -0.261137 -0.849860 0.012233 0.148961 -0.219612 -0.067560 0.162690 0.394771 -0.307936 -0.023489 0.052269 -0.763963 -0.762542 0.158568 0.331218 -0.052878 0.288549 0.672019 -0.018135 0.070636 -0.295897 0.431374 -0.123088 -0.476396 0.432832 -0.119663 0.134088 0.274997 -0.287446 -0.281714 -0.631567 -0.317773 -1.015536 0.764979 0.565789 0.061184 -0.142247 -0.219395 -0.241057 -0.188554 0.057495 -0.034307 0.601787 -0.800238 0.353711 0.002004 -0.260056 0.958498 -0.178790 -0.331742 0.306103 -0.149099 0.778734 -0.383601 0.006045 0.014128 -0.708133 0.149482 -0.153595 -0.036781 -0.104482 0.133735 0.092430 -0.488322 0.439570 -0.117362 -0.483267 0.134038 -0.723900 0.185228 -0.097935 -0.424788 0.176919 -0.342164 0.481293 -0.309669 0.106572 0.117617 -0.222063 -0.042234 0.349510 0.031367 0.104012 0.203449 -0.634847 0.837559 -0.973128 -0.256443 0.144488 0.249628 -0.033364 -0.293496 -0.396013 
74 -0.951981 0.387369 -0.365340 0.247522 0.272805 -0.055536 0.224712 -0.311516 -0.777463 0.064370 0.081899 -0.114639 -0.066135 0.178963 0.262331 -0.343828 0.027894 0.012816 -0.769216 -0.742062 0.194799 0.439554 -0.069765 0.231427 0.772113 -0.267706 -0.011083 -0.400562 0.418026 -0.069726 -0.456838 0.309051 -0.068336 -0.014265 0.187841 -0.411660 -0.227873 -0.617613 -0.398534 -1.077809 0.755920 0.430966 0.003417 -0.095656 -0.270245 -0.133103 -0.144708 0.103745 -0.072613 0.569478 -0.685735 0.367836 -0.013021 -0.295204 1.099619 -0.139343 -0.345883 0.305346 -0.173330 0.730892 -0.356951 0.092176 0.102511 -0.829790 0.074082 -0.257532 -0.034116 -0.123381 0.082594 0.133791 -0.558770 0.426869 -0.051227 -0.516683 0.177978 -0.711495 0.093586 0.012857 -0.402201 0.171561 -0.334807 0.334591 -0.206379 0.097706 0.203428 -0.205965 -0.179292 0.243897 0.009274 0.097995 0.044001 -0.580945 0.897212 -0.896816 -0.260024 0.088755 0.290031 -0.133038 -0.280621 -0.416956 
75 -0.841225 0.417899 -0.424825 0.139443 0.174825 0.011353 0.114241 -0.291966 -0.752431 0.120667 0.140413 -0.150155 -0.141621 0.159159 0.185155 -0.356333 0.074904 -0.002113 -0.640720 -0.702699 0.234011 0.396616 0.085170 0.274691 0.824623 -0.259767 0.023549 -0.472270 0.364114 -0.069107 -0.334634 0.258325 -0.022692 -0.018890 0.189055 -0.431734 -0.319857 -0.575944 -0.420396 -1.079221 0.832902 0.350531 0.001428 -0.063248 -0.186960 -0.060228 -0.132401 0.243321 -0.231320 0.550032 -0.616577 0.352642 0.040771 -0.290334 1.169270 -0.222718 -0.285145 0.436154 -0.032305 0.791121 -0.410443 0.081597 0.031919 -0.855345 -0.030100 -0.248258 0.014053 -0.125768 0.113800 0.118156 -0.586195 0.442986 -0.074395 -0.514746 0.019281 -0.692639 0.140468 -0.011297 -0.500186 0.208818 -0.309997 0.391819 -0.067696 0.143586 0.245671 -0.172440 -0.122544 0.190153 0.050084 0.217058 0.082116 -0.379229 0.961494 -0.872986 -0.264597 -0.027966 0.336837 -0.020228 -0.342578 -0.561053 
76 -0.858089 0.295418 -0.402914 0.252636 0.314609 0.145496 0.103883 -0.366368 -0.681665 0.170762 0.139942 -0.177832 -0.118944 0.268919 0.063277 -0.293916 0.261624 0.085304 -0.581427 -0.707723 0.188047 0.463926 0.017684 0.279529 0.907402 -0.320134 -0.040996 -0.417120 0.391739 -0.123933 -0.350202 0.189105 -0.112238 -0.078195 0.112084 -0.378408 -0.328403 -0.545840 -0.495787 -1.114103 0.794684 0.244985 -0.117020 -0.019540 -0.204110 0.005827 -0.134992 0.247105 -0.227031 0.593117 -0.577204 0.368892 0.095068 -0.285596 1.267308 -0.225019 -0.329514 0.483346 0.016457 0.691387 -0.358431 0.049152 0.113757 -0.838781 0.003549 -0.178521 0.099553 -0.116043 0.083614 0.095950 -0.544281 0.271239 -0.054802 -0.508956 0.031756 -0.513369 0.199986 0.066890 -0.443908 0.109166 -0.227916 0.518670 0.043256 0.099795 0.219002 -0.249070 -0.117310 0.162111 -0.028444 0.327985 0.087416 -0.267932 0.963627 -0.702637 -0.251859 -0.045626 0.387211 0.019637 -0.363928 -0.629803 
77 -0.758595 0.250028 -0.260765 0.180898 0.340946 0.191792 0.178931 -0.405274 -0.648692 0.261585 0.128889 -0.214452 -0.184001 0.249363 -0.008250 -0.291079 0.264470 0.053917 -0.460641 -0.711714 0.204551 0.429760 0.134596 0.366243 0.881951 -0.256371 -0.105429 -0.477346 0.448874 -0.081509 -0.245214 0.186135 -0.006924 -0.038773 -0.042877 -0.385460 -0.340554 -0.591775 -0.590622 -1.214064 0.912581 0.181082 -0.070676 -0.068173 -0.221626 0.017934 -0.165728 0.213546 -0.312632 0.582034 -0.482311 0.361776 0.133480 -0.282684 1.326288 -0.153442 -0.467532 0.411506 0.203408 0.642967 -0.367422 0.136220 0.082459 -0.846705 -0.003561 -0.244518 0.000511 -0.260447 0.042641 0.140235 -0.591317 0.301439 -0.067048 -0.370183 0.034012 -0.395953 0.101266 0.063894 -0.491169 0.068432 -0.161106 0.565413 0.079938 0.247483 0.152675 -0.323497 0.023349 0.052388 -0.113672 0.349799 0.031087 -0.121272 1.020801 -0.674696 -0.251341 -0.114888 0.345764 0.074244 -0.343280 -0.588756 
78 -0.790753 0.163096 -0.258279 0.246882 0.383940 0.230198 0.112592 -0.381442 -0.672971 0.299443 0.086992 -0.141789 -0.207900 0.306891 -0.129373 -0.397073 0.293320 0.060418 -0.380038 -0.792559 0.334968 0.489734 0.179826 0.310781 0.804078 -0.280050 -0.099326 -0.539004 0.499466 -0.145288 -0.209245 0.158517 -0.022028 0.006532 -0.067791 -0.305070 -0.325111 -0.614163 -0.580646 -1.150131 0.961444 0.292411 -0.169185 -0.076972 -0.201556 0.092584 -0.120111 0.178838 -0.333597 0.638961 -0.499493 0.308259 0.138352 -0.238012 1.286927 -0.110802 -0.616178 0.324924 0.287645 0.567331 -0.430771 0.022095 0.075022 -0.764292 0.040732 -0.256463 -0.040955 -0.375040 0.057059 0.028404 -0.489736 0.308050 -0.001447 -0.272406 0.005579 -0.332351 0.041828 -0.061159 -0.388666 0.075013 -0.109421 0.641657 0.004037 0.291255 0.276565 -0.354091 0.039197 0.012326 -0.188998 0.376315 0.021645 -0.025462 0.949409 -0.619672 -0.272311 -0.118916 0.410462 -0.002436 -0.331663 -0.535941 
79 -0.793484 -0.045841 -0.301507 0.204055 0.451339 0.069082 0.087035 -0.434724 -0.632362 0.307784 0.064515 -0.201116 -0.285961 0.420607 -0.140937 -0.447739 0.367772 0.055656 -0.252017 -0.781408 0.303202 0.515008 0.181965 0.383942 0.669516 -0.232704 -0.211262 -0.462398 0.616729 -0.316380 -0.219295 0.240262 0.144287 0.028645 -0.178608 -0.316087 -0.288836 -0.649376 -0.549394 -1.186073 1.018967 0.349631 -0.330191 -0.066711 -0.243703 0.120719 -0.075434 0.154723 -0.283579 0.509308 -0.545046 0.283988 0.184284 -0.174111 1.315800 -0.146728 -0.649350 0.402849 0.355224 0.466592 -0.450660 0.018015 0.108484 -0.806067 0.044900 -0.115898 -0.044493 -0.402066 0.020049 -0.000610 -0.415024 0.262591 -0.016466 -0.251533 -0.136326 -0.176094 -0.032488 0.004546 -0.171081 0.134137 0.121865 0.603083 0.068132 0.259535 0.275087 -0.342783 0.174760 -0.074122 -0.246650 0.403208 0.036498 0.105540 0.832670 -0.559060 -0.283363 -0.155675 0.447714 -0.014942 -0.397876 -0.536687 
80 -0.753845 -0.110485 -0.262277 0.124133 0.384771 0.136996 -0.019426 -0.364473 -0.599963 0.327663 0.020293 -0.143228 -0.334072 0.263124 -0.156734 -0.607753 0.271353 -0.036209 -0.286928 -0.660161 0.290286 0.542524 0.201861 0.351730 0.603651 -0.107198 -0.199466 -0.446469 0.636035 -0.171984 -0.137086 0.285135 0.215753 0.042579 -0.238587 -0.364475 -0.337538 -0.560157 -0.343000 -1.200522 1.043313 0.342002 -0.377418 -0.059146 -0.147868 0.045878 -0.229673 0.135441 -0.256392 0.458609 -0.564954 0.334781 0.244337 -0.186172 1.251971 -0.027668 -0.669562 0.312021 0.378560 0.409424 -0.500802 0.078080 0.098460 -0.797769 0.056842 -0.277526 -0.122628 -0.515803 -0.020840 0.033958 -0.361413 0.447764 0.121846 -0.122659 -0.091139 -0.216462 -0.072451 -0.101715 -0.136537 0.069307 0.221487 0.628689 0.035789 0.269026 0.250864 -0.332380 0.155216 -0.074904 -0.263004 0.406531 0.037471 0.025557 0.727513 -0.528909 -0.290908 -0.186397 0.481973 -0.134744 -0.434318 -0.595110 
81 -0.764743 -0.224620 -0.311532 0.132175 0.432708 0.186982 0.002284 -0.264101 -0.630569 0.475822 -0.020792 -0.043380 -0.332850 0.302319 -0.207630 -0.724004 0.279431 -0.070970 -0.289428 -0.637699 0.415864 0.532467 0.209291 0.212894 0.531126 -0.035842 -0.226390 -0.344475 0.735582 -0.137032 -0.191670 0.268724 0.233671 0.125004 -0.276903 -0.456305 -0.357884 -0.639229 -0.274272 -1.159109 1.017307 0.329774 -0.327187 -0.164716 -0.134681 0.042449 -0.215399 0.067851 -0.224577 0.384419 -0.565025 0.226478 0.288789 -0.241111 1.168773 -0.158036 -0.632794 0.216069 0.375546 0.369720 -0.546641 0.034578 0.153770 -0.796858 0.077565 -0.267368 -0.168215 -0.603475 -0.053817 0.068839 -0.373996 0.496016 0.161799 -0.085222 -0.177927 -0.338356 -0.124539 -0.076329 -0.011366 0.051662 0.345210 0.676788 -0.162884 0.125782 0.060078 -0.389811 0.178384 -0.012268 -0.226711 0.442189 0.033195 0.043659 0.685595 -0.564476 -0.296005 -0.087622 0.495459 -0.182751 -0.504727 -0.654402 
82 -0.762050 -0.327336 -0.271095 0.034606 0.520080 0.301727 -0.128782 -0.262516 -0.605841 0.670236 0.043128 -0.068665 -0.349413 0.103477 -0.122638 -0.708304 0.201259 0.003996 -0.267967 -0.521837 0.425117 0.634681 0.135146 0.229194 0.458196 0.073794 -0.262975 -0.215997 0.678961 -0.022509 -0.219445 0.172396 0.098332 0.009881 -0.287595 -0.545895 -0.360871 -0.597077 -0.203479 -1.135510 0.950204 0.249920 -0.355624 -0.264914 -0.088433 -0.010504 -0.266134 0.021825 -0.101714 0.301757 -0.552523 0.237634 0.225386 -0.160299 1.077261 -0.194998 -0.686926 0.090840 0.375678 0.438543 -0.484096 0.005609 0.165670 -0.870855 0.059821 -0.252346 -0.201695 -0.596749 -0.064724 0.063755 -0.326125 0.541550 0.317066 -0.024102 -0.158804 -0.305525 -0.029555 -0.071369 0.028177 0.053601 0.347554 0.695994 -0.145607 0.121679 0.154825 -0.396142 0.169204 0.054039 -0.314377 0.355977 0.029820 0.100358 0.680600 -0.460428 -0.360431 -0.073892 0.601245 -0.231688 -0.481433 -0.716443 
83 -0.824761 -0.436749 -0.320391 0.070710 0.514464 0.312124 -0.106967 -0.079011 -0.582517 0.600205 0.039112 -0.030410 -0.358085 0.109475 -0.100190 -0.795406 0.297733 -0.002777 -0.310722 -0.439311 0.383037 0.650870 0.111873 0.218448 0.482484 0.166073 -0.357204 -0.089100 0.647809 0.023535 -0.239097 0.066530 0.058870 -0.071881 -0.241349 -0.597397 -0.447845 -0.615239 -0.126469 -1.112183 0.960364 0.292805 -0.329387 -0.305581 -0.156743 -0.031122 -0.269333 0.056413 0.050142 0.259634 -0.493835 0.118386 0.212538 -0.120507 1.024399 -0.078655 -0.671914 -0.031599 0.321626 0.505673 -0.479104 -0.016757 0.144247 -0.871574 -0.044585 -0.238638 -0.208249 -0.598990 -0.088918 0.113719 -0.365910 0.549391 0.419864 -0.009433 -0.142876 -0.424288 0.031481 -0.079635 0.108426 0.083273 0.353239 0.686480 -0.301455 -0.008987 -0.009388 -0.342465 0.205075 0.178279 -0.287369 0.324901 0.093660 0.242568 0.559091 -0.446442 -0.257384 -0.071839 0.576275 -0.182962 -0.486058 -0.724890 
84 -0.910328 -0.352973 -0.291908 0.067748 0.537027 0.346728 -0.016010 0.037349 -0.534260 0.589115 0.047579 -0.089803 -0.431670 0.138575 0.028679 -0.848468 0.335796 -0.066992 -0.313044 -0.381921 0.272656 0.559598 0.025329 0.241518 0.405623 0.165795 -0.353055 0.079642 0.677000 0.017681 -0.284007 0.059412 -0.058564 -0.083251 -0.143879 -0.537206 -0.516007 -0.631752 -0.179951 -1.046515 0.909637 0.322339 -0.322911 -0.279172 -0.094105 -0.202388 -0.150476 0.097291 0.121804 0.158354 -0.496986 0.033046 0.204024 -0.132387 1.115188 0.042397 -0.628881 -0.057373 0.207597 0.540767 -0.401001 -0.103318 0.058379 -0.845341 -0.095382 -0.182366 -0.133707 -0.630367 -0.141436 0.030315 -0.348698 0.589617 0.397094 0.096041 -0.045977 -0.395891 0.093660 -0.006701 0.125897 0.081464 0.393174 0.703314 -0.268060 -0.023404 -0.008569 -0.330525 0.118728 0.339472 -0.249550 0.319780 0.061960 0.203259 0.593323 -0.401586 -0.212282 -0.057938 0.673167 -0.137709 -0.431645 -0.912501 
85 -0.846577 -0.291713 -0.379424 0.003815 0.409972 0.325248 0.015592 0.030307 -0.619112 0.698814 0.037463 -0.025198 -0.429924 0.112140 -0.009686 -0.861409 0.241860 0.044108 -0.448482 -0.291954 0.237272 0.561567 -0.113884 0.213232 0.496647 0.178319 -0.335588 -0.049115 0.696723 0.113824 -0.409458 0.015871 -0.105255 -0.075631 -0.002136 -0.405761 -0.494792 -0.505343 -0.057190 -0.984124 0.753397 0.314136 -0.475390 -0.153810 -0.034127 -0.235345 -0.239203 0.105932 0.239289 0.104211 -0.420285 0.040017 0.163527 0.103515 1.101275 0.032741 -0.665191 -0.022323 0.196405 0.573406 -0.252975 -0.114711 0.073475 -0.827582 -0.204265 -0.211396 -0.076420 -0.632359 -0.344087 0.010517 -0.442121 0.571846 0.503246 0.232807 -0.023506 -0.310445 0.210202 0.039654 0.172490 0.147966 0.377371 0.737105 -0.204855 -0.001075 -0.012940 -0.284729 0.039818 0.509053 -0.303511 0.337628 0.017522 0.266151 0.585755 -0.366946 -0.310310 -0.160783 0.607132 -0.074118 -0.413908 -0.820887 
86 -0.956626 -0.221492 -0.275933 -0.092776 0.427071 0.334189 0.086902 -0.064146 -0.583674 0.650564 0.052156 -0.084564 -0.485607 0.106002 0.105398 -0.984029 0.244228 -0.003943 -0.419105 -0.298510 0.263557 0.540846 -0.102605 0.288469 0.459526 0.191434 -0.359959 0.046134 0.645274 -0.042717 -0.372544 -0.290164 -0.268111 -0.089764 0.184649 -0.356731 -0.515645 -0.563810 0.008168 -0.952036 0.666216 0.341324 -0.407025 -0.214817 -0.152883 -0.266399 -0.228902 0.103348 0.211300 0.018662 -0.575753 -0.100720 0.192348 -0.006613 1.074801 0.014923 -0.542128 -0.065650 0.115630 0.531342 -0.327586 -0.200807 0.118321 -0.729812 -0.331387 -0.197705 0.109356 -0.615660 -0.437343 0.114287 -0.409236 0.522431 0.554616 0.258771 0.041617 -0.320284 0.189299 0.225738 0.095971 0.195880 0.442994 0.703680 -0.153352 0.008913 -0.021124 -0.266714 -0.001943 0.473691 -0.226843 0.363499 0.034707 0.248244 0.633630 -0.380603 -0.306947 -0.170584 0.662160 0.004831 -0.367577 -0.949692 
87 -0.846280 -0.103981 -0.271010 -0.102637 0.268683 0.293300 0.117839 -0.044376 -0.601182 0.465472 0.100837 -0.042461 -0.458663 0.059032 0.074687 -0.996197 0.170269 -0.057496 -0.428261 -0.201865 0.256389 0.440728 -0.040968 0.362909 0.506472 0.146211 -0.313741 -0.065765 0.750767 -0.103652 -0.229431 -0.313130 -0.284792 -0.013646 0.249114 -0.331538 -0.533785 -0.626826 0.098952 -0.978929 0.585027 0.380531 -0.532571 -0.146936 -0.156573 -0.281343 -0.207351 0.129620 0.222498 0.027859 -0.553378 -0.176878 0.263689 -0.037614 0.904159 0.086343 -0.611393 -0.050098 0.099145 0.512553 -0.295996 -0.361888 0.100465 -0.577030 -0.374838 -0.144264 0.113315 -0.595616 -0.571718 0.172902 -0.378591 0.561699 0.505994 0.371903 0.061707 -0.349027 0.179779 0.214023 0.078731 0.275964 0.447791 0.684985 -0.052885 0.063475 -0.059865 -0.271587 0.086059 0.589389 -0.210983 0.466031 0.016013 0.238912 0.587143 -0.439927 -0.215999 -0.222322 0.489688 0.088872 -0.436045 -0.956975 
88 -0.815981 -0.003134 -0.157066 -0.017642 0.284695 0.286295 0.113547 -0.120121 -0.566916 0.349472 0.097625 -0.033009 -0.442854 0.055104 0.158430 -0.987574 0.129485 -0.147687 -0.459528 -0.191272 0.253711 0.417673 -0.018466 0.396756 0.525919 0.115134 -0.300006 -0.087672 0.713283 -0.116873 -0.238765 -0.410972 -0.336787 -0.006706 0.363138 -0.248014 -0.530891 -0.569899 0.135267 -1.015776 0.548709 0.448204 -0.675974 -0.202113 -0.150819 -0.303207 -0.175601 0.131372 0.029368 0.002539 -0.600906 -0.156920 0.258368 -0.042687 0.857792 0.108426 -0.645656 -0.086119 -0.064253 0.482637 -0.236022 -0.442289 0.114650 -0.462128 -0.342620 -0.187378 0.144729 -0.577439 -0.664716 0.193934 -0.357436 0.465151 0.448449 0.334875 0.066949 -0.281498 0.055810 0.298906 0.089883 0.357574 0.430167 0.748775 -0.012387 0.164394 0.032974 -0.309843 0.080769 0.629684 -0.250178 0.523814 0.017031 0.151599 0.568562 -0.516334 -0.215557 -0.245001 0.458414 0.007416 -0.445866 -1.114197 
89 -0.744814 0.033345 -0.011348 0.066538 0.237671 0.352862 0.079611 -0.108894 -0.654505 0.288341 0.234542 -0.007090 -0.446275 -0.069543 0.026908 -0.998007 -0.046042 -0.160907 -0.482057 -0.144405 0.321957 0.431058 0.051989 0.386917 0.618309 0.130924 -0.302175 -0.151698 0.718426 -0.078578 -0.155830 -0.489500 -0.342989 -0.044077 0.318200 -0.260573 -0.474566 -0.599331 0.200095 -0.928867 0.577116 0.369515 -0.615711 -0.196956 -0.111435 -0.235931 -0.149956 0.112171 -0.085828 0.171835 -0.457325 -0.173112 0.228120 -0.002188 0.797968 0.011922 -0.676608 -0.118916 -0.159709 0.508200 -0.176470 -0.477281 0.173858 -0.446943 -0.308589 -0.160407 0.116132 -0.565960 -0.701238 0.279526 -0.288739 0.380373 0.430020 0.399246 0.153987 -0.260687 0.124724 0.238816 0.079785 0.212538 0.371622 0.799276 0.016086 0.252989 0.010778 -0.486645 0.149945 0.737057 -0.284502 0.586283 -0.019267 0.202178 0.692585 -0.544353 -0.171278 -0.158751 0.345631 -0.017151 -0.484225 -1.038309 
90 -0.758093 0.049879 0.062138 0.162267 0.165167 0.354710 -0.020364 -0.052462 -0.588833 0.141152 0.253477 -0.033817 -0.375080 -0.069988 -0.022941 -0.920032 -0.011614 -0.209967 -0.441562 -0.067815 0.305315 0.381393 0.186954 0.333155 0.602266 0.171520 -0.278573 -0.231251 0.719125 -0.126106 -0.163596 -0.591534 -0.368282 0.003415 0.394873 -0.256410 -0.465268 -0.549689 0.242127 -1.012284 0.524786 0.401152 -0.600704 -0.228087 -0.160986 -0.209501 -0.092564 0.255227 -0.225936 0.221797 -0.432053 -0.231705 0.237455 0.050173 0.674439 0.068480 -0.737471 -0.135372 -0.226202 0.521115 -0.063487 -0.556586 0.188174 -0.344025 -0.318796 -0.125944 0.067909 -0.504875 -0.664568 0.294282 -0.202870 0.267478 0.407793 0.333217 0.080710 -0.288133 0.038390 0.218085 0.135887 0.193981 0.424732 0.785732 0.022377 0.255868 0.084956 -0.475255 0.227197 0.773134 -0.273217 0.596089 -0.001584 0.156556 0.682342 -0.611085 -0.064591 -0.091164 0.270192 -0.032174 -0.502662 -1.069465 
91 -0.639923 -0.058386 0.048620 0.303914 0.142836 0.429353 0.056587 -0.181081 -0.591412 0.252211 0.348354 0.125263 -0.197291 -0.066500 -0.112996 -0.814930 -0.092738 -0.197081 -0.445670 -0.106345 0.336758 0.369712 0.214029 0.264021 0.615640 0.205118 -0.138391 -0.170003 0.542351 -0.028946 -0.273770 -0.587524 -0.440023 -0.014353 0.344881 -0.291489 -0.363263 -0.483724 0.265744 -1.054976 0.552424 0.454763 -0.605372 -0.308931 -0.093283 -0.087436 -0.157323 0.219201 -0.217883 0.233726 -0.467062 -0.144063 0.157899 0.091267 0.659060 -0.087916 -0.757929 -0.212204 -0.275977 0.527057 0.067709 -0.457533 0.236626 -0.354791 -0.298693 -0.125108 -0.037844 -0.492582 -0.671052 0.243326 -0.202406 0.227579 0.423422 0.342594 0.045241 -0.260156 0.029556 0.119912 0.258777 0.158449 0.354300 0.610186 -0.003773 0.236507 0.233816 -0.620580 0.219964 0.909243 -0.390327 0.635270 0.028641 0.171488 0.839880 -0.595650 -0.168251 -0.095622 0.287851 -0.161182 -0.319399 -1.111107 
92 -0.610591 -0.003218 0.060358 0.287888 0.116437 0.316570 -0.023606 -0.230005 -0.552980 0.254482 0.408330 0.077186 -0.212307 -0.126766 -0.215948 -0.871307 -0.134913 -0.175380 -0.387367 -0.044083 0.373225 0.402716 0.224201 0.147530 0.537450 0.144121 -0.048820 -0.149768 0.517459 -0.086096 -0.233007 -0.624230 -0.372810 0.053029 0.345235 -0.356842 -0.252657 -0.383375 0.342616 -1.055804 0.533157 0.501683 -0.569977 -0.355647 -0.112185 -0.119261 -0.052104 0.275544 -0.338290 0.328583 -0.413605 -0.130216 0.117773 0.137678 0.610769 -0.083613 -0.756604 -0.115179 -0.350585 0.563118 0.101681 -0.381727 0.389862 -0.252172 -0.332605 -0.121385 -0.093604 -0.471125 -0.617889 0.186754 -0.134983 0.132971 0.474868 0.279763 -0.076761 -0.240831 0.012958 -0.044218 0.274193 0.004308 0.411379 0.619264 -0.031360 0.231565 0.340010 -0.671102 0.213000 0.969067 -0.420934 0.615793 -0.014952 0.115033 0.823489 -0.508005 -0.125594 -0.056919 0.331607 -0.213943 -0.301181 -1.152203 
93 -0.654033 -0.054604 0.059992 0.297011 0.117206 0.242506 -0.063074 -0.154958 -0.628161 0.276183 0.452866 0.086795 -0.218578 -0.129911 -0.161699 -0.812074 -0.178572 -0.182567 -0.501804 -0.099417 0.301805 0.420611 0.252417 0.096868 0.632409 0.163069 0.012115 -0.190226 0.370564 -0.063470 -0.201907 -0.540803 -0.380484 -0.043122 0.268422 -0.324953 -0.233760 -0.309240 0.247003 -1.066605 0.553658 0.482276 -0.550832 -0.408009 -0.081108 -0.001723 -0.101701 0.319155 -0.301221 0.274034 -0.445061 -0.143539 0.104005 0.185048 0.524737 0.018652 -0.681126 -0.066548 -0.376372 0.559974 0.222231 -0.440578 0.447198 -0.225518 -0.196945 -0.060880 -0.127816 -0.395884 -0.631059 0.172457 -0.090672 0.112266 0.571070 0.235746 -0.149316 -0.340861 0.081809 -0.103405 0.461355 0.030756 0.361811 0.559966 0.027716 0.197760 0.467363 -0.687478 0.216878 0.906236 -0.544708 0.535393 -0.000331 0.134097 0.951297 -0.506341 -0.152571 -0.130025 0.419439 -0.212683 -0.257425 -1.175519 
94 -0.653247 0.028818 -0.006636 0.278657 0.067779 0.012648 -0.078961 -0.086066 -0.644013 0.285814 0.458777 0.044556 -0.294485 -0.146052 -0.124298 -0.888901 -0.128647 -0.202706 -0.551987 -0.107880 0.317585 0.398235 0.283613 0.003530 0.561050 0.106505 0.045061 -0.214405 0.356362 -0.137512 -0.174363 -0.564471 -0.376587 0.038739 0.274550 -0.399721 -0.143918 -0.254841 0.115657 -1.059669 0.554869 0.535181 -0.504481 -0.484202 -0.089694 -0.031003 -0.000906 0.349036 -0.349437 0.279969 -0.412769 -0.275466 0.105385 0.130866 0.540508 0.025889 -0.523950 0.028689 -0.346381 0.610048 0.295798 -0.318478 0.424643 -0.144690 -0.264167 0.003396 -0.208489 -0.355663 -0.607680 0.045058 -0.073426 0.111466 0.513690 0.213673 -0.328678 -0.479523 0.068444 -0.298963 0.443177 -0.041422 0.420417 0.448881 0.008312 0.165868 0.585264 -0.699976 0.138792 0.938919 -0.523254 0.539046 0.017249 0.137312 1.015396 -0.452985 -0.078482 -0.202902 0.454565 -0.187849 -0.131333 -1.168131 
95 -0.748236 -0.070477 -0.137225 0.209343 -0.024670 -0.004832 -0.072944 -0.122821 -0.668339 0.254471 0.311278 -0.047058 -0.374337 -0.272683 -0.074623 -0.926682 -0.178525 -0.140731 -0.491853 -0.073695 0.215038 0.463616 0.371255 0.072053 0.506096 0.149176 0.057715 -0.213948 0.401142 -0.212455 -0.164232 -0.446856 -0.403635 0.132539 0.263634 -0.427286 -0.173433 -0.272729 0.082977 -1.037688 0.468707 0.623374 -0.567131 -0.508830 -0.211336 0.074728 0.057955 0.391325 -0.314538 0.245868 -0.331966 -0.301579 0.077318 0.194658 0.493109 0.068220 -0.505457 0.101384 -0.239814 0.641474 0.321319 -0.351896 0.417487 -0.190801 -0.245001 0.105001 -0.250649 -0.183304 -0.632040 0.003083 0.017930 0.045935 0.496816 0.324616 -0.370074 -0.397837 0.130336 -0.349143 0.495800 -0.000074 0.335770 0.404509 0.023192 0.156021 0.712374 -0.547862 0.205920 0.934589 -0.463441 0.496688 -0.099535 0.147840 1.084161 -0.475372 -0.070213 -0.205571 0.387101 -0.142411 -0.040213 -1.028390 
96 -0.717111 -0.052576 -0.195083 0.197154 -0.054647 -0.107147 -0.061777 0.000150 -0.733658 0.243794 0.164160 -0.165907 -0.498287 -0.375736 -0.042924 -1.035821 -0.062011 -0.109295 -0.545370 -0.075536 0.105633 0.574389 0.320745 0.080016 0.492704 0.183481 0.065187 -0.215113 0.393073 -0.153869 -0.089748 -0.453335 -0.359216 0.095671 0.263155 -0.439947 -0.224399 -0.272397 -0.009717 -0.903517 0.446224 0.572682 -0.524024 -0.450708 -0.242516 0.036799 0.139762 0.332005 -0.274673 0.213794 -0.250366 -0.283680 0.034598 0.262090 0.516639 0.203102 -0.425788 0.167295 -0.210937 0.589868 0.345343 -0.339049 0.439340 -0.200882 -0.162781 0.145099 -0.287968 -0.069255 -0.540715 -0.024517 0.004029 0.124902 0.421854 0.348000 -0.488827 -0.414868 0.245892 -0.515798 0.522344 -0.010411 0.302769 0.404207 0.084121 0.170172 0.620089 -0.574139 0.272876 0.971510 -0.439967 0.483232 -0.100240 0.106628 1.060906 -0.376696 -0.052810 -0.296442 0.508052 -0.199163 0.054745 -1.063138 
97 -0.676298 -0.134289 -0.116246 0.304583 -0.183606 0.035747 0.082080 -0.071401 -0.721836 0.193892 0.075684 -0.237955 -0.557304 -0.505329 -0.074558 -1.085690 -0.111545 -0.050767 -0.536384 -0.061664 0.087889 0.551067 0.330875 0.041339 0.579556 0.143475 -0.114526 -0.246339 0.546995 -0.095510 -0.108406 -0.400478 -0.289352 0.076484 0.206194 -0.436070 -0.176263 -0.343610 0.003776 -0.886205 0.397495 0.542013 -0.595275 -0.342704 -0.408306 0.157998 0.309007 0.401484 -0.314652 0.163522 -0.015849 -0.321808 0.007435 0.208312 0.518904 0.182670 -0.347011 0.288649 -0.104884 0.602652 0.357668 -0.330430 0.487749 -0.336953 -0.166732 0.220914 -0.247436 -0.017482 -0.572903 -0.015597 -0.026266 0.153394 0.378258 0.354939 -0.465734 -0.447643 0.200464 -0.440815 0.472656 0.068276 0.088322 0.342400 0.150601 0.132308 0.759172 -0.512650 0.407186 0.975355 -0.306974 0.528096 -0.301129 0.164321 1.032464 -0.345380 -0.023761 -0.264198 0.403142 -0.167044 0.081845 -0.980482 
98 -0.707931 -0.046711 -0.180105 0.323701 -0.240094 0.092017 0.059487 -0.013512 -0.714739 0.284584 -0.192146 -0.326006 -0.585951 -0.518522 -0.040372 -1.168141 -0.121903 -0.040663 -0.473447 -0.096016 -0.091624 0.543139 0.354480 -0.059198 0.472596 0.156060 -0.117310 -0.256761 0.523299 -0.023136 -0.144337 -0.418684 -0.231242 0.048489 0.082598 -0.334210 -0.298259 -0.401280 -0.047563 -0.932800 0.397233 0.595673 -0.622824 -0.395484 -0.437957 0.275930 0.322166 0.309837 -0.271834 0.105182 -0.015122 -0.286756 -0.028150 0.235365 0.510157 0.330627 -0.279341 0.291571 -0.129371 0.507619 0.386475 -0.353784 0.503078 -0.307571 -0.049463 0.234352 -0.216741 0.064976 -0.535418 0.027371 -0.066378 0.226516 0.319275 0.322449 -0.501827 -0.504293 0.020044 -0.658358 0.516522 0.172658 0.124384 0.251144 0.133734 0.094572 0.740454 -0.517489 0.423166 0.912363 -0.237072 0.557638 -0.261208 0.167372 0.806448 -0.438123 -0.010404 -0.218736 0.464173 -0.274055 0.075144 -1.013156 
99 -0.603918 0.008713 -0.128237 0.360519 -0.284001 0.190751 0.151755 0.056345 -0.842585 0.326130 -0.264516 -0.342393 -0.622200 -0.560546 -0.138337 -1.180102 -0.237040 -0.074244 -0.586258 -0.194821 -0.104498 0.322081 0.390683 -0.162801 0.463829 0.225004 -0.235728 -0.167904 0.501191 0.043825 -0.129802 -0.342127 -0.139768 -0.036005 0.081415 -0.220517 -0.301401 -0.484456 -0.003457 -0.928110 0.444531 0.467628 -0.605119 -0.211172 -0.433261 0.347647 0.367882 0.187250 -0.279083 0.099070 0.010874 -0.415661 -0.090197 0.276940 0.546547 0.324070 -0.327822 0.168151 -0.095161 0.422212 0.379971 -0.282525 0.461093 -0.444989 -0.004797 0.179166 -0.248784 0.177871 -0.612979 0.111103 -0.180585 0.209318 0.311940 0.326503 -0.417865 -0.426163 -0.027429 -0.553497 0.488448 0.145423 0.125317 0.082380 0.193680 0.113010 0.743709 -0.569959 0.423634 0.911363 -0.281218 0.688477 -0.255610 0.135280 0.806370 -0.437600 -0.118304 -0.162793 0.383747 -0.296824 0.163743 -1.013497 
100 -0.553840 0.016096 -0.207017 0.244130 -0.215779 0.194522 0.259389 -0.001485 -0.940951 0.361472 -0.306212 -0.265232 -0.653782 -0.427312 -0.085478 -1.145201 -0.298221 -0.047778 -0.567783 -0.399240 -0.249966 0.215973 0.202466 -0.292324 0.503178 0.308108 -0.289460 -0.146686 0.513447 0.045525 -0.128359 -0.323921 -0.085080 -0.058853 0.004792 -0.147577 -0.223633 -0.493430 -0.001268 -0.951516 0.517870 0.362315 -0.521518 -0.167388 -0.355631 0.384553 0.306305 0.178532 -0.203045 0.073429 -0.051496 -0.440525 -0.211414 0.403596 0.566264 0.325012 -0.307104 0.219660 -0.292454 0.429111 0.480929 -0.190615 0.371475 -0.483183 -0.063938 0.280112 -0.125726 0.257462 -0.549137 0.181776 -0.228709 0.254126 0.382656 0.266890 -0.401706 -0.380238 -0.124113 -0.515144 0.537822 0.241922 0.199412 -0.074354 0.191333 0.023253 0.681357 -0.454566 0.484537 0.902682 -0.205114 0.715375 -0.078769 0.181708 0.763790 -0.392057 -0.077856 -0.162605 0.384443 -0.334296 0.186029 -1.020409 
101 -0.478428 0.008157 -0.125856 0.262122 -0.221356 0.192593 0.100206 -0.006437 -0.980343 0.240853 -0.316080 -0.169195 -0.644195 -0.231366 -0.067279 -1.207396 -0.313133 -0.060601 -0.554657 -0.451951 -0.335141 0.141534 0.086015 -0.295296 0.376194 0.328182 -0.327499 -0.071852 0.454449 0.061614 -0.096359 -0.279493 0.042870 0.001553 0.035876 -0.170968 -0.221307 -0.515159 0.025868 -1.044882 0.599650 0.355586 -0.561513 -0.099588 -0.264650 0.412917 0.222264 0.165250 -0.306540 0.001231 -0.172760 -0.512932 -0.207651 0.454314 0.559633 0.347196 -0.245658 0.185772 -0.428861 0.387663 0.482174 -0.123846 0.372107 -0.509398 -0.060263 0.215230 -0.086726 0.336643 -0.474404 0.228587 -0.185570 0.155775 0.467200 0.197290 -0.426366 -0.246212 -0.232351 -0.360308 0.593561 0.280047 0.263746 -0.114442 0.342618 0.111213 0.613314 -0.499512 0.519756 0.840443 -0.186882 0.813320 0.000122 0.102295 0.726858 -0.263871 -0.054324 -0.208235 0.382923 -0.418360 0.194416 -0.994073 
102 -0.393065 0.123987 -0.155332 0.178262 -0.274646 0.164975 -0.062911 0.058378 -0.985805 0.123611 -0.431153 -0.284966 -0.707563 -0.192829 -0.059363 -1.217025 -0.390899 -0.140011 -0.469967 -0.452368 -0.382924 0.056837 0.050159 -0.180076 0.264716 0.287068 -0.350264 0.002933 0.507026 0.002145 -0.057917 -0.168335 0.064852 -0.068083 0.097078 -0.349704 -0.268412 -0.513051 -0.037760 -1.014178 0.499308 0.271635 -0.432327 -0.224944 -0.285532 0.537024 0.266215 0.147786 -0.289421 -0.006105 -0.175654 -0.517479 -0.294564 0.472829 0.591025 0.259540 -0.225857 0.187321 -0.557732 0.434696 0.465409 -0.090415 0.437995 -0.628330 -0.089214 0.198607 -0.063458 0.415381 -0.560408 0.222472 -0.188342 0.165936 0.403479 0.080919 -0.446173 -0.209686 -0.276554 -0.259519 0.629643 0.278135 0.345351 -0.117568 0.456885 0.075853 0.496641 -0.578369 0.523029 0.736170 -0.262688 0.866971 0.017391 -0.003400 0.735730 -0.162152 -0.113757 -0.186515 0.371213 -0.419515 0.151429 -0.999226 
103 -0.253064 0.057827 -0.181070 0.124303 -0.254506 0.053723 -0.132668 0.012957 -1.079373 0.068099 -0.472051 -0.202278 -0.652846 -0.022042 -0.134687 -1.137395 -0.347754 -0.106197 -0.405229 -0.393731 -0.469255 0.015212 -0.031145 -0.092580 0.227752 0.385022 -0.348063 0.090944 0.326623 -0.129713 0.021964 0.007948 0.137380 -0.119062 0.124493 -0.324539 -0.231146 -0.429523 -0.001670 -1.093493 0.549822 0.282549 -0.411310 -0.266958 -0.296874 0.414648 0.178208 0.184711 -0.310175 -0.017624 -0.298807 -0.464402 -0.162573 0.426527 0.672412 0.235729 -0.258425 0.191704 -0.594433 0.481123 0.512405 -0.095656 0.387793 -0.718872 -0.224419 0.080849 0.001650 0.464879 -0.565541 0.292831 -0.133015 0.046653 0.496090 0.112674 -0.297132 -0.158163 -0.233482 -0.258904 0.740701 0.215009 0.415018 -0.182271 0.515368 0.031165 0.457041 -0.538170 0.404785 0.762118 -0.116530 0.813093 0.152551 -0.013641 0.830840 -0.033799 -0.140132 -0.174132 0.351358 -0.349716 0.314849 -1.044554 
