256 100
0 0.417170 0.977611 -0.910394 -0.990489 -0.600054 -0.091842 -0.319306 0.414531 -0.172808 0.102876 0.071425 0.943974 0.176982 -0.012848 -0.017576 0.068703 -0.588301 0.806751 -0.156828 0.521075 -0.083727 0.085333 0.413792 -0.379745 0.073535 -0.138454 -0.111201 0.052925 -0.302757 -0.271500 -0.061355 -0.450347 0.052241 0.431618 0.060878 -0.274446 -0.095348 -0.080779 -0.285984 0.553935 -0.054832 -0.182378 -0.040590 -0.111229 0.036371 0.392566 0.230132 -0.022149 -0.152931 0.177866 0.692128 0.123637 -0.000792 -0.238087 -0.032493 0.077955 -0.108224 -0.130233 -0.162191 -0.194989 0.005770 0.149829 -0.260617 0.468003 -0.573859 0.219564 -0.538359 0.231933 0.197761 -0.277257 -0.134568 0.101552 0.152971 -0.088983 -0.351183 0.286123 0.213870 -0.010716 -0.160748 0.013849 0.096207 -0.173653 0.705945 -0.690308 0.401947 -0.741955 0.022137 -0.545890 0.286877 -0.237989 -0.269809 0.380211 0.176141 0.317409 -0.062051 -0.370305 0.148183 -0.384603 -0.135286 0.506358 
1 0.029223 0.351169 0.099677 -1.127743 -1.607718 0.157253 -0.799182 0.469622 -0.066989 0.608973 -0.455750 0.617812 0.961502 0.142625 -0.027997 0.322114 -0.990475 1.150081 0.549155 0.284009 -0.404204 -0.067315 0.765552 -0.752480 -0.102324 -0.218732 -0.263862 0.448888 -0.548217 -0.407125 0.097185 -0.738753 -0.051745 1.143022 0.082901 -0.165698 0.273475 -0.014458 -0.302010 0.755034 0.336620 -0.677085 -0.241947 -0.310498 0.196709 0.994453 0.521944 -0.228549 -0.565662 0.224849 0.684563 0.242227 0.130388 -0.003408 -0.270533 -0.403535 -0.510080 -0.343690 -0.428732 0.105631 -0.074017 0.202876 -0.764465 0.381206 -0.250289 0.491145 -0.783027 0.388660 0.185677 -0.060944 -0.121195 -0.179308 0.048309 -0.141646 -0.136820 0.192491 0.546194 0.351383 -0.165558 -0.109813 0.341348 -0.417904 0.419260 -0.677409 0.623931 -0.774281 0.101161 -0.476248 0.363700 -0.464761 -0.246988 0.520817 0.193531 0.848135 -0.354021 -0.424438 0.010634 -0.656447 -0.393016 0.680901 
2 0.071516 0.364586 0.049812 -1.173137 -1.598958 0.146335 -0.777344 0.469860 -0.102651 0.628100 -0.458345 0.626552 0.942988 0.151683 -0.044766 0.300862 -0.969150 1.121258 0.560073 0.293721 -0.400824 -0.096592 0.767259 -0.782181 -0.108037 -0.199714 -0.267061 0.479669 -0.538886 -0.434502 0.090345 -0.713567 -0.048451 1.156757 0.080145 -0.174968 0.303675 -0.018430 -0.289577 0.767176 0.362088 -0.730019 -0.251046 -0.343161 0.206341 1.051702 0.529563 -0.205245 -0.565707 0.240695 0.678607 0.264007 0.128500 -0.009665 -0.292965 -0.446575 -0.544757 -0.396698 -0.459108 0.069419 -0.106976 0.195266 -0.735191 0.392176 -0.265241 0.467575 -0.811410 0.317545 0.202078 -0.049423 -0.109979 -0.162674 0.046141 -0.134452 -0.128442 0.160015 0.511774 0.338682 -0.167338 -0.123266 0.357051 -0.401291 0.397593 -0.634065 0.601177 -0.774437 0.125068 -0.462313 0.343079 -0.462963 -0.223667 0.560335 0.168817 0.867200 -0.360748 -0.416803 -0.010616 -0.663084 -0.397970 0.677017 
3 0.051256 0.580760 -0.064601 -1.376767 -1.734421 0.202856 -1.128491 1.039966 0.152781 0.577403 -0.412221 0.750334 0.892183 0.260076 0.067878 0.247993 -1.026700 1.245503 0.621195 0.266824 -0.408735 0.137776 0.632472 -0.559681 -0.257561 -0.121305 -0.202559 0.590912 -0.343078 -0.256135 0.136890 -0.465450 -0.009947 0.888571 -0.017018 -0.014417 0.301864 0.021275 -0.131923 0.543181 0.192153 -0.651704 -0.288167 -0.206406 0.113707 0.767997 0.361841 -0.227733 -0.374437 0.164547 0.515960 0.236600 0.138888 0.022039 -0.257659 -0.451591 -0.297631 -0.159572 -0.353425 -0.003267 -0.045375 0.088327 -0.518571 0.236864 0.011922 0.467707 -0.609252 0.328984 -0.176465 -0.223626 -0.221198 -0.134305 0.101110 -0.041607 0.040083 0.212939 0.589719 0.335080 0.136696 0.019176 0.326062 -0.242702 0.190742 -0.437808 0.206463 -0.279192 0.025762 -0.402437 0.441331 -0.582732 -0.334563 0.575562 0.134493 0.610131 -0.157176 -0.264090 0.176971 -0.322683 -0.155733 0.274704 
4 0.181011 0.740355 -0.167438 -1.429270 -1.703916 0.190790 -1.229862 1.315588 0.245893 0.441952 -0.318097 0.784512 0.706629 0.272979 0.069746 0.178158 -0.929145 1.245883 0.532902 0.277868 -0.392597 0.216879 0.517626 -0.452311 -0.331065 -0.084226 -0.162331 0.582564 -0.241617 -0.170262 0.157539 -0.331533 -0.019265 0.836881 -0.078167 0.046862 0.305238 0.016067 -0.096885 0.395698 0.154125 -0.672105 -0.280112 -0.239548 0.112785 0.682904 0.290445 -0.188026 -0.334610 0.117699 0.449607 0.258809 0.121233 0.028548 -0.201016 -0.424949 -0.310250 -0.119622 -0.247969 -0.030583 -0.036910 0.067507 -0.406845 0.123896 0.105832 0.429385 -0.479427 0.250108 -0.262331 -0.223987 -0.207609 -0.178935 0.060702 0.019059 0.147582 0.229099 0.526069 0.285608 0.191145 -0.018416 0.330513 -0.225496 0.119262 -0.289701 0.118873 -0.136285 0.005251 -0.313206 0.386960 -0.517873 -0.336380 0.553885 0.103000 0.559927 -0.062675 -0.227293 0.242868 -0.193408 -0.117516 0.143835 
5 0.182896 0.783787 -0.140678 -1.385585 -1.749766 0.192072 -1.281934 1.397648 0.257265 0.432720 -0.322486 0.863267 0.727860 0.235479 0.063800 0.199657 -0.941905 1.290472 0.473295 0.337995 -0.368226 0.238260 0.479614 -0.453908 -0.336436 -0.098510 -0.158198 0.539553 -0.241076 -0.200941 0.177842 -0.397851 -0.070091 0.828532 -0.084755 0.030781 0.299747 0.055603 -0.086398 0.406022 0.181920 -0.622652 -0.268157 -0.218889 0.154291 0.579015 0.292099 -0.243945 -0.331815 0.056720 0.483069 0.259421 0.132144 0.045618 -0.214273 -0.424411 -0.325065 -0.072066 -0.234799 0.003473 -0.031661 0.063901 -0.425824 0.112120 0.121681 0.452959 -0.465492 0.281039 -0.285781 -0.183054 -0.196246 -0.188591 0.068571 0.030671 0.150041 0.223376 0.562972 0.305356 0.210235 -0.032383 0.318874 -0.256032 0.089782 -0.320849 0.118537 -0.130576 0.000325 -0.280962 0.356980 -0.419688 -0.322513 0.494176 0.133510 0.565961 -0.049504 -0.221141 0.182093 -0.215148 -0.148153 0.130724 
6 0.249924 0.795390 -0.177651 -1.423088 -1.721106 0.183173 -1.295520 1.458827 0.269641 0.410641 -0.312988 0.831119 0.680045 0.271494 0.060422 0.163725 -0.883050 1.248903 0.488550 0.307134 -0.367239 0.239550 0.463056 -0.425323 -0.364368 -0.079441 -0.152195 0.550409 -0.209653 -0.165089 0.181253 -0.318511 -0.067066 0.818749 -0.112899 0.062396 0.326158 0.037599 -0.053785 0.348725 0.180504 -0.686178 -0.293474 -0.240943 0.142169 0.629360 0.279427 -0.205153 -0.333847 0.052533 0.425602 0.278938 0.131874 0.056580 -0.195096 -0.437141 -0.344661 -0.080838 -0.192559 -0.005346 -0.040047 0.054423 -0.363766 0.063153 0.185277 0.436016 -0.405122 0.225327 -0.331842 -0.183866 -0.185950 -0.215342 0.041335 0.053689 0.204656 0.215751 0.515327 0.278285 0.232367 -0.046828 0.324857 -0.235005 0.046054 -0.226167 0.056037 -0.047383 0.000002 -0.248800 0.325052 -0.427486 -0.318253 0.523107 0.107619 0.561160 0.001893 -0.191029 0.215316 -0.163547 -0.133227 0.067309 
7 0.255593 0.821557 -0.178712 -1.439418 -1.737400 0.182259 -1.291841 1.449221 0.254092 0.419537 -0.318885 0.851689 0.687043 0.249666 0.049217 0.172004 -0.892513 1.249556 0.485143 0.315506 -0.357904 0.233847 0.464430 -0.437292 -0.348578 -0.087016 -0.152069 0.540210 -0.219182 -0.182947 0.185517 -0.347496 -0.090230 0.838554 -0.118572 0.065424 0.321434 0.048889 -0.055937 0.372462 0.192830 -0.672263 -0.298353 -0.237413 0.161389 0.599493 0.299373 -0.230866 -0.340502 0.029077 0.464824 0.290209 0.149557 0.062673 -0.202867 -0.435394 -0.355248 -0.061180 -0.191003 0.013965 -0.055419 0.053220 -0.347219 0.067109 0.176063 0.439246 -0.415639 0.226921 -0.334309 -0.177101 -0.184498 -0.210362 0.030795 0.061944 0.206483 0.195260 0.528470 0.285004 0.230969 -0.048868 0.315180 -0.242731 0.053842 -0.251627 0.057368 -0.065503 0.000487 -0.262122 0.328053 -0.403378 -0.310429 0.508916 0.121537 0.575342 -0.001544 -0.197554 0.196544 -0.191292 -0.141192 0.075339 
8 0.289518 0.849388 -0.178371 -1.429760 -1.781807 0.155607 -1.331790 1.538052 0.301314 0.374155 -0.310804 0.847729 0.707330 0.241533 0.080247 0.183157 -0.891178 1.267866 0.459258 0.319236 -0.384278 0.242079 0.441848 -0.445727 -0.375636 -0.088984 -0.151355 0.528110 -0.219427 -0.165835 0.180443 -0.340896 -0.096442 0.825409 -0.094246 0.061462 0.325876 0.055246 -0.053594 0.349450 0.203292 -0.656025 -0.290205 -0.233295 0.164977 0.569532 0.297082 -0.263957 -0.356147 0.020725 0.415867 0.268253 0.149245 0.099277 -0.202029 -0.441022 -0.335351 -0.041309 -0.187800 0.057782 -0.047871 0.047131 -0.374863 0.037495 0.209811 0.447324 -0.410798 0.256086 -0.326814 -0.152159 -0.185368 -0.232114 0.010452 0.055366 0.222601 0.197990 0.552847 0.313255 0.225084 -0.045057 0.297661 -0.273912 0.007877 -0.222792 0.060881 -0.034577 -0.024824 -0.235878 0.323491 -0.394873 -0.307237 0.461235 0.136148 0.569692 0.002301 -0.181139 0.199698 -0.182000 -0.144470 0.075795 
9 0.286935 0.836204 -0.175742 -1.420048 -1.747309 0.164903 -1.321359 1.511091 0.300036 0.374194 -0.306444 0.834929 0.688791 0.254932 0.081561 0.180944 -0.887832 1.278286 0.458752 0.322257 -0.382938 0.259507 0.443511 -0.432618 -0.376130 -0.097050 -0.148318 0.533115 -0.218143 -0.159886 0.177454 -0.323962 -0.095367 0.832370 -0.110439 0.079039 0.326992 0.049506 -0.048472 0.344131 0.195216 -0.665837 -0.300606 -0.239426 0.163131 0.578770 0.286594 -0.252195 -0.355186 0.016415 0.426788 0.286758 0.146771 0.093340 -0.193175 -0.437182 -0.331648 -0.028568 -0.166488 0.048897 -0.043923 0.042848 -0.352416 0.030018 0.242595 0.457514 -0.390484 0.260202 -0.357447 -0.173894 -0.196039 -0.235655 0.001742 0.068042 0.244800 0.201841 0.560594 0.307025 0.247067 -0.041206 0.303414 -0.269774 0.018976 -0.211358 0.032492 -0.013790 -0.029325 -0.247507 0.334321 -0.390972 -0.324747 0.464701 0.133124 0.572826 0.028416 -0.176570 0.223831 -0.159651 -0.135915 0.060154 
10 0.295938 0.836528 -0.174428 -1.434914 -1.741256 0.174673 -1.327183 1.519742 0.287554 0.381657 -0.307639 0.831501 0.670589 0.261644 0.066922 0.171275 -0.860895 1.247446 0.464834 0.309965 -0.373026 0.244952 0.452952 -0.430947 -0.378560 -0.101779 -0.147779 0.544705 -0.205337 -0.145066 0.191368 -0.311653 -0.106048 0.842282 -0.133013 0.095717 0.340565 0.044110 -0.027324 0.342331 0.193453 -0.686625 -0.306686 -0.250470 0.165309 0.594983 0.284269 -0.235004 -0.357040 0.002361 0.433278 0.306530 0.171114 0.103844 -0.186059 -0.441935 -0.352164 -0.031985 -0.152858 0.046344 -0.048911 0.044465 -0.332448 0.017678 0.237678 0.452788 -0.377637 0.243878 -0.373053 -0.173543 -0.189995 -0.243045 0.001077 0.074619 0.252251 0.205257 0.550763 0.297120 0.254800 -0.054920 0.309442 -0.264796 0.002839 -0.184430 0.015786 0.004382 -0.028530 -0.236977 0.316779 -0.380831 -0.322630 0.479090 0.135130 0.577372 0.052127 -0.174879 0.232894 -0.150766 -0.130713 0.033223 
11 0.301882 0.818668 -0.170265 -1.429495 -1.751653 0.170621 -1.328570 1.529392 0.289127 0.384660 -0.311242 0.825678 0.677658 0.268378 0.068901 0.166437 -0.862417 1.248124 0.470050 0.303286 -0.382800 0.252762 0.444118 -0.432307 -0.388501 -0.091694 -0.150430 0.541731 -0.206802 -0.148690 0.184302 -0.307762 -0.096505 0.832935 -0.119439 0.082945 0.332396 0.044390 -0.052437 0.330241 0.193471 -0.686004 -0.298301 -0.252338 0.165334 0.605870 0.283102 -0.231927 -0.356405 0.013898 0.412874 0.291862 0.138512 0.085182 -0.189148 -0.437414 -0.346216 -0.036874 -0.160161 0.046801 -0.049607 0.043220 -0.334914 0.020213 0.239787 0.448672 -0.385010 0.236177 -0.359124 -0.166197 -0.187643 -0.237170 0.004274 0.069923 0.247980 0.199292 0.543441 0.301567 0.248004 -0.049404 0.307641 -0.265822 -0.000274 -0.185420 0.028246 -0.005480 -0.023219 -0.236397 0.317299 -0.393746 -0.315387 0.481378 0.131120 0.577734 0.042796 -0.171103 0.227696 -0.152785 -0.128216 0.028333 
12 0.313548 0.830884 -0.192932 -1.446910 -1.718618 0.176606 -1.312389 1.505026 0.274644 0.391898 -0.310568 0.810265 0.659015 0.277248 0.062018 0.160024 -0.855204 1.242768 0.468836 0.304969 -0.377988 0.259935 0.448314 -0.424633 -0.387339 -0.091015 -0.146578 0.547924 -0.197769 -0.142085 0.186086 -0.286622 -0.088789 0.829042 -0.129269 0.084080 0.349944 0.038794 -0.022336 0.337790 0.192576 -0.712088 -0.325968 -0.254018 0.162171 0.594904 0.290495 -0.235272 -0.354882 0.011781 0.420281 0.308424 0.157259 0.089805 -0.184477 -0.444566 -0.354657 -0.025976 -0.147550 0.042241 -0.061149 0.036651 -0.293508 0.006758 0.248853 0.449520 -0.375259 0.223168 -0.383869 -0.184067 -0.192127 -0.238379 0.001652 0.078510 0.262594 0.201823 0.543192 0.294142 0.266974 -0.049872 0.313375 -0.260448 0.015633 -0.178620 0.014630 -0.001823 -0.020453 -0.241530 0.313271 -0.405228 -0.318783 0.503160 0.122130 0.582107 0.055799 -0.170052 0.247397 -0.140068 -0.124502 0.024595 
13 0.331373 0.851934 -0.187751 -1.444371 -1.737720 0.163939 -1.332634 1.558241 0.308107 0.361162 -0.302079 0.822175 0.660868 0.266858 0.079868 0.160662 -0.844297 1.243537 0.448725 0.305873 -0.385009 0.261824 0.421447 -0.422374 -0.402490 -0.090591 -0.141728 0.536949 -0.190612 -0.132779 0.182351 -0.282295 -0.103139 0.828872 -0.122637 0.093738 0.351395 0.048432 -0.017914 0.318219 0.206715 -0.702761 -0.333922 -0.250267 0.173647 0.598145 0.279009 -0.239856 -0.361938 -0.002318 0.388591 0.293374 0.149488 0.109540 -0.184798 -0.447378 -0.342337 -0.017756 -0.148186 0.064350 -0.055492 0.031516 -0.309241 -0.010687 0.296593 0.458713 -0.361000 0.236775 -0.402222 -0.165221 -0.193251 -0.257727 -0.015952 0.082711 0.285672 0.193405 0.560887 0.316198 0.270133 -0.050215 0.303803 -0.282110 -0.023804 -0.155933 0.005150 0.029436 -0.035000 -0.220837 0.308163 -0.391473 -0.308892 0.470446 0.125666 0.582037 0.052450 -0.154856 0.236660 -0.134955 -0.129622 0.017604 
14 0.344322 0.840162 -0.200328 -1.464949 -1.722554 0.178812 -1.324455 1.536074 0.281363 0.386437 -0.306762 0.832936 0.642337 0.285999 0.056288 0.144166 -0.820711 1.210948 0.473515 0.284492 -0.381148 0.253611 0.443613 -0.425729 -0.392733 -0.099526 -0.146673 0.559737 -0.184806 -0.125168 0.195036 -0.271277 -0.098257 0.841729 -0.142922 0.097101 0.364390 0.034758 -0.013724 0.321280 0.200259 -0.734411 -0.342638 -0.260440 0.167583 0.606307 0.288212 -0.224270 -0.363786 -0.003789 0.403046 0.319801 0.168853 0.102114 -0.177833 -0.449435 -0.369494 -0.049772 -0.150052 0.029308 -0.054513 0.040489 -0.299446 0.004607 0.262242 0.446013 -0.361565 0.205248 -0.401815 -0.172213 -0.184738 -0.252742 -0.012024 0.089652 0.288991 0.193637 0.514779 0.285866 0.256767 -0.065178 0.314350 -0.260992 -0.020831 -0.136907 -0.024286 0.049414 -0.028954 -0.221746 0.301994 -0.382159 -0.315748 0.491962 0.131027 0.591408 0.086853 -0.160034 0.253772 -0.129553 -0.119892 -0.011347 
15 0.343116 0.808182 -0.190078 -1.436680 -1.717831 0.172965 -1.314137 1.531752 0.288758 0.393541 -0.317219 0.801675 0.652641 0.295319 0.065686 0.149029 -0.822026 1.206569 0.490986 0.268146 -0.392803 0.266801 0.440960 -0.427761 -0.410001 -0.092546 -0.142316 0.567823 -0.186982 -0.129553 0.190040 -0.258060 -0.099250 0.854846 -0.143885 0.107901 0.355773 0.040705 -0.039167 0.312967 0.196048 -0.737957 -0.330689 -0.276076 0.176136 0.639431 0.281232 -0.218841 -0.368100 0.003903 0.389389 0.309172 0.149695 0.100535 -0.186869 -0.465034 -0.354764 -0.033466 -0.159707 0.037405 -0.054068 0.029811 -0.292355 0.004692 0.288340 0.456311 -0.376389 0.213120 -0.394555 -0.174895 -0.192592 -0.238323 0.020845 0.070252 0.268877 0.209123 0.508938 0.292278 0.256956 -0.050974 0.319784 -0.277449 -0.023019 -0.136615 -0.012257 0.031540 -0.027547 -0.235681 0.308519 -0.430303 -0.309134 0.516662 0.112113 0.606684 0.065509 -0.148308 0.261139 -0.124084 -0.121810 -0.004284 
16 0.352128 0.851708 -0.224586 -1.448186 -1.696477 0.167870 -1.313356 1.548726 0.286154 0.380140 -0.306066 0.793112 0.633254 0.289646 0.065443 0.142089 -0.811252 1.198916 0.471258 0.275483 -0.383817 0.241726 0.441065 -0.426944 -0.400331 -0.099546 -0.140054 0.567956 -0.179539 -0.117468 0.199015 -0.251966 -0.098401 0.853363 -0.146412 0.108735 0.369297 0.040731 -0.012662 0.314839 0.205046 -0.755899 -0.362061 -0.272785 0.178511 0.613461 0.298369 -0.241565 -0.371817 -0.003437 0.391902 0.318231 0.155157 0.102732 -0.186234 -0.469925 -0.364534 -0.019264 -0.143466 0.049649 -0.062903 0.027135 -0.276289 -0.015274 0.278915 0.450634 -0.375738 0.206373 -0.373498 -0.167679 -0.185688 -0.231148 0.009382 0.080711 0.286989 0.205407 0.525684 0.298576 0.274579 -0.054195 0.324816 -0.280115 -0.024581 -0.130585 -0.030210 0.054645 -0.032139 -0.230916 0.308808 -0.413576 -0.316280 0.511098 0.117842 0.609054 0.081096 -0.147093 0.257082 -0.121174 -0.124350 -0.005834 
17 0.378568 0.857854 -0.225675 -1.501908 -1.727034 0.183294 -1.332222 1.557363 0.262114 0.408016 -0.321031 0.789834 0.627897 0.303194 0.044855 0.130048 -0.796298 1.181260 0.483515 0.263574 -0.384423 0.241593 0.453416 -0.427887 -0.393934 -0.103181 -0.145713 0.574279 -0.177744 -0.121557 0.194921 -0.249906 -0.095264 0.843075 -0.150425 0.098868 0.371714 0.030087 -0.021917 0.310687 0.204830 -0.761598 -0.360178 -0.269347 0.172982 0.611211 0.296236 -0.221329 -0.367554 -0.007080 0.392770 0.327134 0.176354 0.105432 -0.179134 -0.461296 -0.387219 -0.013673 -0.128850 0.059652 -0.065072 0.032924 -0.265619 -0.002660 0.259437 0.434494 -0.364388 0.175207 -0.412396 -0.171156 -0.181539 -0.246396 -0.012798 0.097902 0.307541 0.179364 0.510781 0.288338 0.275552 -0.067092 0.316762 -0.257564 -0.032166 -0.114807 -0.047199 0.065372 -0.025325 -0.218907 0.294493 -0.392705 -0.304963 0.506837 0.105382 0.601252 0.074299 -0.149998 0.244968 -0.127854 -0.133561 0.007838 
18 0.370356 0.846060 -0.224037 -1.485531 -1.694754 0.186988 -1.312346 1.531231 0.269789 0.393980 -0.305395 0.813788 0.615451 0.304601 0.049333 0.125252 -0.789950 1.173094 0.484536 0.259646 -0.380945 0.251431 0.445324 -0.418563 -0.401018 -0.091959 -0.142373 0.571629 -0.172167 -0.115920 0.199333 -0.234713 -0.106866 0.854388 -0.170188 0.125677 0.391725 0.031211 0.015928 0.319522 0.203363 -0.771449 -0.372788 -0.273940 0.174334 0.611204 0.298711 -0.223167 -0.367024 -0.015252 0.395992 0.337075 0.179831 0.108391 -0.179907 -0.469312 -0.382953 -0.013822 -0.127147 0.052338 -0.063976 0.029388 -0.254551 -0.007808 0.297540 0.447117 -0.354171 0.177623 -0.430529 -0.177819 -0.185941 -0.247282 0.001656 0.092690 0.301338 0.187731 0.485518 0.278117 0.266924 -0.064136 0.325666 -0.262883 -0.023803 -0.112630 -0.044564 0.060619 -0.021327 -0.221099 0.285101 -0.417272 -0.294445 0.530188 0.076741 0.606482 0.048554 -0.145293 0.253754 -0.117795 -0.127300 -0.007226 
19 0.388515 0.829518 -0.209071 -1.500688 -1.741598 0.193119 -1.345267 1.570195 0.263238 0.408418 -0.315029 0.813044 0.623450 0.317156 0.042603 0.124500 -0.795010 1.184168 0.485146 0.260836 -0.388222 0.251882 0.452302 -0.423980 -0.402869 -0.095181 -0.145119 0.571698 -0.173657 -0.118053 0.193081 -0.233860 -0.086208 0.842473 -0.152055 0.097173 0.364815 0.024852 -0.036205 0.296499 0.194131 -0.757887 -0.330714 -0.291796 0.176303 0.658468 0.274837 -0.178686 -0.368258 0.001698 0.368526 0.319534 0.160217 0.093235 -0.171302 -0.451563 -0.383445 -0.048458 -0.140676 0.027083 -0.069882 0.029911 -0.239505 -0.015848 0.292167 0.440537 -0.347152 0.169737 -0.431290 -0.170755 -0.179470 -0.250303 -0.024739 0.107502 0.327842 0.165095 0.510781 0.289639 0.286631 -0.068862 0.314825 -0.251314 -0.049216 -0.084708 -0.075699 0.088702 -0.029583 -0.218275 0.280335 -0.401746 -0.288924 0.514451 0.092575 0.611470 0.073214 -0.141586 0.253764 -0.123147 -0.127922 -0.008848 
20 0.401566 0.832800 -0.238371 -1.513059 -1.721756 0.191363 -1.322743 1.548777 0.254009 0.418544 -0.317684 0.799203 0.617995 0.331037 0.037721 0.115146 -0.779399 1.158266 0.508783 0.236799 -0.390724 0.224937 0.473797 -0.432573 -0.388462 -0.106933 -0.144155 0.598517 -0.172846 -0.109835 0.206033 -0.215800 -0.089594 0.857209 -0.164177 0.111228 0.387095 0.022969 -0.015062 0.305989 0.206397 -0.796905 -0.387561 -0.285156 0.176016 0.634839 0.305497 -0.209033 -0.371969 -0.001986 0.373611 0.332275 0.162428 0.092820 -0.176166 -0.466806 -0.389046 -0.055536 -0.150952 0.020479 -0.076785 0.026837 -0.226352 -0.012946 0.269479 0.427474 -0.369037 0.144326 -0.390569 -0.168032 -0.173871 -0.227214 -0.007903 0.100743 0.319812 0.170193 0.491341 0.284491 0.283515 -0.067930 0.327021 -0.254930 -0.033486 -0.090338 -0.040993 0.047720 -0.010554 -0.221292 0.279155 -0.428841 -0.283753 0.542726 0.080510 0.615625 0.066139 -0.142374 0.258814 -0.119135 -0.127147 -0.007262 
21 0.401770 0.813565 -0.237767 -1.517917 -1.687621 0.200942 -1.294390 1.502351 0.232651 0.445791 -0.333788 0.761024 0.605599 0.341620 0.021714 0.106005 -0.770593 1.144155 0.522978 0.228880 -0.384949 0.234729 0.471669 -0.426148 -0.396961 -0.098803 -0.142867 0.611898 -0.160919 -0.122203 0.196304 -0.210242 -0.078082 0.864214 -0.169440 0.107244 0.397311 0.027312 -0.001818 0.309559 0.205492 -0.817629 -0.395088 -0.299523 0.185900 0.674667 0.293605 -0.182863 -0.367219 -0.002264 0.375412 0.338017 0.185084 0.102876 -0.181890 -0.488200 -0.398510 -0.040903 -0.143421 0.019894 -0.074599 0.022450 -0.210263 -0.003160 0.258649 0.416248 -0.374593 0.126049 -0.428758 -0.178952 -0.178123 -0.224513 0.010266 0.102741 0.321518 0.166501 0.423189 0.251445 0.258502 -0.067765 0.343595 -0.253841 -0.012408 -0.096748 -0.046957 0.038434 0.003395 -0.227891 0.277993 -0.446160 -0.276384 0.570542 0.058806 0.627688 0.061747 -0.131367 0.254950 -0.114892 -0.129462 -0.013058 
22 0.401285 0.789543 -0.236770 -1.511233 -1.702916 0.202257 -1.294758 1.507295 0.228968 0.448470 -0.329281 0.786813 0.603673 0.339906 0.023676 0.093748 -0.781701 1.153038 0.519999 0.237330 -0.389151 0.225245 0.476945 -0.437018 -0.399167 -0.091478 -0.147018 0.621121 -0.161168 -0.116264 0.206475 -0.209944 -0.083473 0.872433 -0.175104 0.113356 0.410762 0.020285 0.008113 0.319594 0.194300 -0.820427 -0.358634 -0.311039 0.177437 0.702281 0.296850 -0.164453 -0.369662 0.007204 0.370881 0.333967 0.165378 0.083007 -0.183659 -0.483293 -0.402017 -0.093792 -0.176968 -0.017973 -0.077308 0.030502 -0.223228 0.010458 0.244037 0.416013 -0.385752 0.113041 -0.400319 -0.171795 -0.169091 -0.219438 0.017992 0.094464 0.305078 0.170467 0.437739 0.263173 0.261891 -0.071155 0.344996 -0.246828 -0.019620 -0.094787 -0.050864 0.048325 0.001538 -0.225120 0.275869 -0.454317 -0.277459 0.583895 0.051522 0.629941 0.041025 -0.142383 0.241555 -0.127850 -0.136105 0.007307 
23 0.429753 0.773184 -0.254917 -1.513553 -1.709089 0.196345 -1.296528 1.529769 0.219639 0.456682 -0.332297 0.781360 0.596527 0.353961 0.015766 0.080866 -0.768006 1.134153 0.534092 0.219029 -0.397770 0.225891 0.478000 -0.442009 -0.404657 -0.088056 -0.149119 0.630233 -0.161120 -0.119930 0.201152 -0.194860 -0.074911 0.875105 -0.172930 0.108271 0.412449 0.017841 -0.005581 0.309360 0.205348 -0.847127 -0.385872 -0.312253 0.178895 0.718916 0.296699 -0.153125 -0.369705 0.017864 0.355110 0.326562 0.151251 0.071522 -0.189978 -0.492005 -0.404582 -0.097526 -0.184192 -0.026599 -0.080777 0.025810 -0.205885 0.018158 0.245870 0.404883 -0.390706 0.089219 -0.385122 -0.165025 -0.162730 -0.205289 0.025605 0.092068 0.303600 0.158170 0.417159 0.258253 0.261499 -0.068941 0.345275 -0.239323 -0.022395 -0.085045 -0.060464 0.050013 0.011311 -0.226904 0.272879 -0.472354 -0.265439 0.597389 0.032987 0.637452 0.027896 -0.137072 0.236833 -0.129202 -0.139963 0.011759 
24 0.419859 0.772187 -0.243842 -1.521635 -1.704027 0.209451 -1.287276 1.491783 0.213372 0.478506 -0.345759 0.765576 0.609990 0.362961 0.010360 0.089394 -0.786220 1.154248 0.543124 0.222182 -0.398506 0.223844 0.497544 -0.441532 -0.397861 -0.096206 -0.149796 0.640183 -0.164960 -0.119457 0.209614 -0.199555 -0.061551 0.882193 -0.169640 0.093625 0.406795 0.014763 -0.031414 0.314261 0.201152 -0.854933 -0.386346 -0.313134 0.177812 0.713146 0.302541 -0.159204 -0.365653 0.040985 0.352938 0.314805 0.149180 0.061046 -0.186596 -0.486273 -0.409311 -0.098725 -0.189440 -0.034434 -0.084165 0.027529 -0.204779 0.016978 0.222817 0.407528 -0.403862 0.094508 -0.363573 -0.171239 -0.165252 -0.192532 0.049183 0.080222 0.281907 0.175939 0.418365 0.255432 0.261197 -0.070579 0.350963 -0.237128 -0.006072 -0.098531 -0.061766 0.046539 0.009727 -0.233287 0.284831 -0.479003 -0.276047 0.604342 0.034393 0.640480 0.026088 -0.144653 0.252858 -0.128836 -0.134385 0.006322 
25 0.434499 0.749914 -0.271181 -1.530596 -1.656223 0.213937 -1.250576 1.459125 0.182338 0.496924 -0.348950 0.748037 0.566760 0.365065 -0.006159 0.053744 -0.754873 1.110166 0.546861 0.215242 -0.387062 0.212199 0.493777 -0.443804 -0.391764 -0.092366 -0.149251 0.668716 -0.146915 -0.117357 0.213904 -0.180393 -0.065349 0.883971 -0.192571 0.106664 0.425603 0.009987 0.006371 0.314390 0.194463 -0.886519 -0.392176 -0.326147 0.177512 0.781487 0.292699 -0.108560 -0.361049 0.033937 0.357782 0.331055 0.153475 0.053151 -0.190358 -0.501106 -0.428320 -0.120178 -0.194165 -0.056375 -0.090505 0.027142 -0.182440 0.031219 0.219722 0.397573 -0.408053 0.048084 -0.386498 -0.175999 -0.158135 -0.191319 0.052721 0.092647 0.297052 0.167630 0.385946 0.242334 0.264284 -0.075173 0.367530 -0.230299 -0.007236 -0.085854 -0.078310 0.056080 0.025654 -0.234104 0.265967 -0.501045 -0.264626 0.658192 0.010830 0.654230 0.022464 -0.140785 0.235244 -0.126631 -0.142610 0.010503 
26 0.455449 0.741805 -0.282606 -1.527781 -1.670964 0.206542 -1.236916 1.454482 0.179739 0.511333 -0.359182 0.756779 0.584906 0.373898 -0.008613 0.049269 -0.752587 1.092854 0.563741 0.194867 -0.405520 0.198722 0.509851 -0.462425 -0.397037 -0.096282 -0.152955 0.691229 -0.144240 -0.110125 0.218227 -0.178569 -0.074005 0.913435 -0.198669 0.116987 0.451995 0.004444 0.001973 0.327700 0.196986 -0.909576 -0.387604 -0.325023 0.173177 0.782510 0.297410 -0.107004 -0.367250 0.039516 0.343283 0.325370 0.162357 0.055955 -0.197702 -0.512666 -0.430978 -0.136242 -0.233014 -0.066034 -0.096235 0.027381 -0.191643 0.052492 0.202273 0.393440 -0.431810 0.032894 -0.361522 -0.166183 -0.153936 -0.178960 0.055997 0.084436 0.295307 0.158951 0.362803 0.246084 0.243177 -0.076694 0.369152 -0.235981 0.002279 -0.098319 -0.057734 0.040197 0.028227 -0.227583 0.266240 -0.535112 -0.254184 0.671819 -0.009985 0.653644 -0.021947 -0.146554 0.223098 -0.140034 -0.157372 0.053038 
27 0.470772 0.742943 -0.321718 -1.540964 -1.627898 0.210270 -1.224709 1.450392 0.156506 0.510830 -0.344458 0.771954 0.542272 0.376250 -0.026139 0.024284 -0.734205 1.085135 0.554156 0.208431 -0.389750 0.205178 0.501985 -0.453682 -0.396417 -0.089913 -0.153286 0.686911 -0.144349 -0.118120 0.220977 -0.171567 -0.059239 0.893042 -0.203895 0.104016 0.438934 0.001684 -0.005002 0.320303 0.184345 -0.915006 -0.380383 -0.331616 0.170968 0.822738 0.292243 -0.080451 -0.350105 0.050401 0.365077 0.329238 0.148048 0.030766 -0.206012 -0.520831 -0.432874 -0.145250 -0.230430 -0.099006 -0.096727 0.024517 -0.168784 0.061544 0.210083 0.395115 -0.427530 0.014694 -0.392569 -0.184287 -0.158142 -0.175647 0.067752 0.095452 0.293916 0.153681 0.358577 0.228283 0.268225 -0.069060 0.372353 -0.218098 0.008098 -0.098535 -0.091553 0.056879 0.042945 -0.242761 0.267592 -0.538260 -0.260337 0.704998 -0.013658 0.658633 0.003014 -0.142890 0.228462 -0.131867 -0.147742 0.012623 
28 0.481069 0.728487 -0.321717 -1.533933 -1.616914 0.210042 -1.204546 1.423451 0.151454 0.520352 -0.351693 0.752949 0.545783 0.387393 -0.029610 0.026050 -0.725673 1.065425 0.561615 0.192072 -0.393755 0.195765 0.513591 -0.459678 -0.390951 -0.101973 -0.148934 0.701888 -0.137590 -0.108200 0.219909 -0.159879 -0.061869 0.902954 -0.211967 0.109329 0.445611 -0.003338 0.002936 0.323463 0.179310 -0.930410 -0.394744 -0.326867 0.166054 0.813564 0.293247 -0.082107 -0.356742 0.053938 0.352770 0.331931 0.148769 0.031807 -0.199082 -0.517306 -0.431515 -0.149501 -0.234902 -0.106584 -0.093356 0.023276 -0.162799 0.069260 0.183295 0.389989 -0.440485 0.009465 -0.379974 -0.189624 -0.158850 -0.164872 0.080036 0.087807 0.286418 0.168896 0.345185 0.225032 0.258913 -0.066751 0.374874 -0.229110 0.022539 -0.101598 -0.085985 0.047337 0.036057 -0.248778 0.264140 -0.554602 -0.263469 0.712090 -0.018276 0.659807 0.004738 -0.140877 0.238510 -0.126673 -0.150015 0.027185 
29 0.452909 0.748758 -0.346392 -1.507160 -1.585038 0.194496 -1.194314 1.431270 0.145110 0.508671 -0.339816 0.760653 0.535004 0.368490 -0.029272 0.015665 -0.733979 1.072883 0.547803 0.211806 -0.380092 0.195758 0.500202 -0.449729 -0.384747 -0.088800 -0.152916 0.699955 -0.128887 -0.111933 0.225296 -0.172096 -0.056961 0.891924 -0.208390 0.103779 0.449064 0.006138 0.002817 0.324246 0.185348 -0.925507 -0.395978 -0.318520 0.165276 0.808418 0.289530 -0.080497 -0.343713 0.050810 0.367649 0.336738 0.166800 0.036679 -0.208538 -0.528519 -0.437619 -0.146879 -0.240045 -0.109514 -0.097989 0.025685 -0.171633 0.069029 0.181812 0.386987 -0.437199 0.003677 -0.382948 -0.191475 -0.157570 -0.166961 0.080690 0.090617 0.285842 0.167363 0.333296 0.217482 0.253347 -0.072464 0.387410 -0.212078 0.029889 -0.120464 -0.063650 0.031854 0.053875 -0.238539 0.266009 -0.557455 -0.264394 0.727833 -0.033346 0.648129 -0.028979 -0.154108 0.212893 -0.133455 -0.159695 0.053474 
30 0.489480 0.734658 -0.381728 -1.523938 -1.592540 0.200427 -1.185549 1.419851 0.125468 0.529828 -0.345251 0.775487 0.517489 0.376324 -0.040379 -0.005015 -0.712432 1.028062 0.559919 0.191266 -0.387807 0.187945 0.519463 -0.459687 -0.387968 -0.094167 -0.158756 0.723088 -0.128965 -0.104479 0.222590 -0.164841 -0.064994 0.902970 -0.231662 0.114575 0.469442 -0.016964 0.006790 0.344147 0.164317 -0.957284 -0.390592 -0.296752 0.139295 0.821086 0.292225 -0.062610 -0.328836 0.072182 0.381566 0.335268 0.171952 0.018059 -0.212319 -0.529644 -0.439205 -0.157320 -0.270327 -0.135091 -0.112939 0.024820 -0.159364 0.099643 0.162253 0.396275 -0.463625 -0.017405 -0.393722 -0.214418 -0.165739 -0.156126 0.081203 0.098411 0.292419 0.164225 0.338733 0.217387 0.263767 -0.066856 0.382970 -0.197212 0.038312 -0.121561 -0.090076 0.049502 0.053429 -0.250972 0.278131 -0.592848 -0.277952 0.767269 -0.029408 0.642195 -0.019206 -0.163155 0.232589 -0.131432 -0.147963 0.046778 
31 0.450465 0.678854 -0.353088 -1.472948 -1.530796 0.213250 -1.153674 1.365942 0.128753 0.536494 -0.345238 0.758341 0.513737 0.394430 -0.041956 -0.007712 -0.718342 1.043981 0.583813 0.186271 -0.389102 0.198123 0.518054 -0.459774 -0.392515 -0.084232 -0.159232 0.730928 -0.131916 -0.112128 0.226396 -0.153798 -0.049188 0.907150 -0.231095 0.107168 0.465043 -0.015806 -0.000696 0.336513 0.159604 -0.971696 -0.389376 -0.316146 0.145293 0.888980 0.294389 -0.045606 -0.328305 0.082414 0.383714 0.337831 0.151480 0.003897 -0.223897 -0.547570 -0.441545 -0.170199 -0.264987 -0.150259 -0.099813 0.026675 -0.172409 0.103408 0.161371 0.399074 -0.476991 -0.024041 -0.387919 -0.216542 -0.166020 -0.150825 0.115051 0.089306 0.271696 0.183220 0.326557 0.211631 0.262686 -0.059431 0.410297 -0.209316 0.057212 -0.140439 -0.076361 0.037362 0.064341 -0.261770 0.275002 -0.620719 -0.277895 0.803994 -0.054153 0.655561 -0.038788 -0.158529 0.220193 -0.127717 -0.153959 0.050360 
32 0.452584 0.682736 -0.357101 -1.465681 -1.497825 0.218804 -1.129794 1.345220 0.112667 0.533952 -0.339627 0.747371 0.491990 0.377671 -0.051360 -0.013255 -0.711979 1.041779 0.551071 0.208955 -0.372897 0.192731 0.503883 -0.460352 -0.393306 -0.093052 -0.150836 0.744469 -0.109425 -0.108851 0.235999 -0.164969 -0.040244 0.920643 -0.232858 0.098198 0.466984 -0.002675 0.015504 0.336782 0.169616 -0.978942 -0.403095 -0.335501 0.170891 0.866757 0.300785 -0.059663 -0.342454 0.060824 0.376550 0.345726 0.144561 -0.002300 -0.212120 -0.542098 -0.456690 -0.174347 -0.267126 -0.156113 -0.099219 0.027109 -0.165649 0.099424 0.119724 0.375874 -0.485549 -0.034746 -0.385514 -0.197778 -0.153475 -0.140473 0.140655 0.079979 0.266323 0.190303 0.300996 0.197963 0.264874 -0.071856 0.423058 -0.226479 0.055449 -0.126727 -0.074205 0.026391 0.067801 -0.259594 0.258058 -0.622120 -0.265579 0.822803 -0.072065 0.689512 -0.040256 -0.141653 0.202447 -0.134620 -0.178526 0.079743 
33 0.420405 0.703291 -0.379756 -1.440604 -1.454386 0.205647 -1.120904 1.335183 0.118174 0.520149 -0.327590 0.769604 0.478439 0.359747 -0.047417 -0.009292 -0.704804 1.035117 0.536570 0.224472 -0.362595 0.206934 0.495305 -0.443045 -0.392496 -0.081242 -0.158425 0.727040 -0.105038 -0.104786 0.228767 -0.179129 -0.038081 0.887057 -0.235490 0.092874 0.454376 -0.011589 0.001859 0.337264 0.146788 -0.971146 -0.384933 -0.309633 0.144211 0.867299 0.279247 -0.045595 -0.314872 0.076246 0.413565 0.345721 0.160754 -0.005270 -0.211812 -0.535439 -0.444643 -0.149175 -0.258767 -0.155407 -0.098507 0.028646 -0.180828 0.109293 0.146710 0.398732 -0.464451 -0.020019 -0.407996 -0.231115 -0.169205 -0.153706 0.122145 0.095410 0.273996 0.201466 0.326990 0.190748 0.285626 -0.071577 0.423511 -0.210019 0.064147 -0.146390 -0.077343 0.040452 0.070331 -0.256943 0.274286 -0.614858 -0.293886 0.828397 -0.055612 0.664678 -0.028993 -0.161937 0.229417 -0.118478 -0.161021 0.055218 
34 0.432206 0.701901 -0.397201 -1.420562 -1.409876 0.208833 -1.106500 1.327870 0.113131 0.503829 -0.313336 0.779711 0.451042 0.361274 -0.048162 -0.020856 -0.692716 1.024109 0.532605 0.224184 -0.354472 0.219435 0.480989 -0.437862 -0.397853 -0.076441 -0.152363 0.726249 -0.098246 -0.104095 0.234933 -0.167388 -0.040020 0.883638 -0.248637 0.099674 0.458874 -0.010255 0.023430 0.336663 0.137348 -0.980440 -0.388858 -0.311721 0.144635 0.872142 0.276401 -0.038676 -0.306041 0.076575 0.410263 0.347783 0.147454 -0.020495 -0.217195 -0.541095 -0.435977 -0.155367 -0.260584 -0.187782 -0.087592 0.025851 -0.173335 0.120477 0.144162 0.402382 -0.465238 -0.019899 -0.414294 -0.236123 -0.170456 -0.139321 0.146875 0.092724 0.264898 0.215394 0.327514 0.184735 0.302775 -0.060989 0.437578 -0.221908 0.073022 -0.147165 -0.096896 0.054045 0.066638 -0.273387 0.274318 -0.628531 -0.308278 0.855234 -0.068132 0.684833 -0.021398 -0.154694 0.236596 -0.109147 -0.155652 0.040074 
35 0.405407 0.639177 -0.336578 -1.435040 -1.443109 0.242520 -1.108583 1.285456 0.088647 0.580924 -0.357278 0.759770 0.480569 0.393574 -0.079763 -0.031702 -0.689104 0.996763 0.569447 0.192407 -0.358564 0.212897 0.503527 -0.440932 -0.401677 -0.094222 -0.159555 0.778356 -0.088922 -0.094606 0.246508 -0.177864 -0.022422 0.908491 -0.256535 0.080092 0.466323 -0.016528 -0.010356 0.339100 0.124524 -1.006265 -0.382983 -0.326881 0.157144 0.934367 0.263855 -0.001964 -0.313924 0.091633 0.403040 0.347234 0.128647 -0.048464 -0.218505 -0.547918 -0.467375 -0.195373 -0.300404 -0.209092 -0.094912 0.034257 -0.187346 0.129018 0.101832 0.406926 -0.505649 -0.033337 -0.388395 -0.231155 -0.160508 -0.122564 0.176377 0.080658 0.246921 0.230183 0.275761 0.167917 0.275274 -0.074533 0.457815 -0.225010 0.098913 -0.157969 -0.076431 0.028185 0.084357 -0.264986 0.255764 -0.657211 -0.286669 0.899251 -0.099298 0.695370 -0.055808 -0.153540 0.202752 -0.120458 -0.182911 0.089092 
36 0.423758 0.704118 -0.434198 -1.400656 -1.384162 0.190228 -1.086817 1.322514 0.099956 0.504526 -0.297737 0.785913 0.423258 0.364280 -0.060515 -0.040228 -0.679042 1.003044 0.535160 0.215818 -0.350049 0.218279 0.483363 -0.423997 -0.395453 -0.087198 -0.157181 0.745305 -0.090115 -0.093656 0.236053 -0.159413 -0.022683 0.865846 -0.246151 0.091631 0.454958 -0.014628 -0.002203 0.326210 0.128002 -0.991539 -0.368740 -0.310359 0.126162 0.900498 0.255840 -0.008829 -0.298988 0.102143 0.414003 0.356703 0.147477 -0.037924 -0.215176 -0.545576 -0.448043 -0.180870 -0.282832 -0.216287 -0.097257 0.027620 -0.172237 0.124118 0.131043 0.408317 -0.476216 -0.027671 -0.424211 -0.266910 -0.180461 -0.139750 0.152958 0.085663 0.257267 0.229409 0.318957 0.174971 0.303700 -0.059506 0.438425 -0.186463 0.088906 -0.154057 -0.089783 0.044998 0.078935 -0.264420 0.281356 -0.645269 -0.317812 0.874899 -0.072832 0.653071 -0.014009 -0.168115 0.248025 -0.097660 -0.150977 0.049633 
37 0.452779 0.635188 -0.446918 -1.384941 -1.401682 0.185534 -1.055331 1.299854 0.083617 0.549104 -0.328530 0.723644 0.452590 0.401741 -0.058001 -0.063283 -0.666071 0.962579 0.564569 0.170829 -0.400095 0.205307 0.517560 -0.449963 -0.400360 -0.090553 -0.171270 0.779033 -0.092917 -0.074286 0.226202 -0.141361 -0.019162 0.885427 -0.254313 0.101716 0.495696 -0.037502 -0.023529 0.337483 0.123198 -1.027947 -0.370499 -0.286510 0.093732 0.942308 0.248745 0.022719 -0.289183 0.146934 0.368998 0.328456 0.153014 -0.038043 -0.228998 -0.561244 -0.437963 -0.197849 -0.346886 -0.224543 -0.099002 0.025690 -0.202651 0.158892 0.124560 0.416716 -0.520623 -0.045566 -0.387305 -0.264782 -0.184405 -0.116051 0.166789 0.074370 0.258849 0.214532 0.284257 0.186896 0.269954 -0.049600 0.447386 -0.184513 0.099337 -0.176395 -0.077269 0.045445 0.078670 -0.272699 0.307653 -0.733078 -0.320728 0.910277 -0.095327 0.656799 -0.077806 -0.174981 0.251555 -0.107133 -0.161209 0.089372 
38 0.350782 0.596440 -0.357234 -1.335007 -1.339219 0.231449 -1.074735 1.244568 0.094185 0.553511 -0.328869 0.743945 0.415122 0.404413 -0.067165 -0.044407 -0.673256 1.010703 0.565795 0.198396 -0.357934 0.232782 0.508880 -0.410949 -0.401273 -0.095667 -0.171788 0.760968 -0.094081 -0.085148 0.239332 -0.165988 0.012783 0.884076 -0.253222 0.091832 0.451353 -0.022775 -0.018152 0.311335 0.112330 -0.997172 -0.356177 -0.327243 0.110647 0.972470 0.224061 0.034354 -0.285505 0.152691 0.398504 0.354131 0.115635 -0.064090 -0.216446 -0.556880 -0.448738 -0.184843 -0.267054 -0.242162 -0.069422 0.028944 -0.190703 0.117116 0.097746 0.410886 -0.490894 -0.006224 -0.423853 -0.283787 -0.184398 -0.125621 0.210182 0.065968 0.226759 0.259787 0.285175 0.146512 0.305418 -0.054047 0.494688 -0.179619 0.124727 -0.156125 -0.086263 0.025014 0.095068 -0.285106 0.292048 -0.704055 -0.322470 0.928286 -0.125742 0.686432 -0.042837 -0.141248 0.255654 -0.077535 -0.148356 0.040958 
39 0.375203 0.553702 -0.317410 -1.331896 -1.357163 0.239860 -1.018348 1.180098 0.066467 0.613857 -0.358052 0.735691 0.484980 0.434446 -0.073159 -0.046942 -0.674172 0.940174 0.584739 0.135041 -0.393786 0.218985 0.528455 -0.429434 -0.398130 -0.125928 -0.162786 0.820172 -0.080707 -0.060855 0.247435 -0.136418 -0.020436 0.945859 -0.274189 0.111512 0.501648 -0.035092 -0.039038 0.364473 0.107973 -1.071017 -0.382238 -0.315630 0.128856 0.999352 0.242549 0.034631 -0.325342 0.147673 0.390790 0.360798 0.115454 -0.073282 -0.234544 -0.587242 -0.462162 -0.233557 -0.385260 -0.271127 -0.072851 0.029067 -0.209239 0.192583 0.050991 0.418487 -0.565556 -0.036287 -0.375426 -0.286466 -0.194153 -0.078436 0.232350 0.045685 0.225645 0.258435 0.227345 0.163849 0.249363 -0.052797 0.467262 -0.232934 0.131389 -0.189375 -0.070066 0.004695 0.076454 -0.294271 0.328069 -0.787231 -0.323590 0.958343 -0.133260 0.710140 -0.107692 -0.162619 0.274225 -0.102015 -0.176661 0.115862 
40 0.324921 0.621810 -0.354225 -1.320545 -1.290438 0.252144 -1.066663 1.245075 0.108928 0.530825 -0.303634 0.794864 0.383879 0.371787 -0.065794 -0.034061 -0.669566 1.008682 0.525775 0.231524 -0.332957 0.264649 0.480147 -0.393271 -0.410256 -0.087894 -0.144608 0.757055 -0.057564 -0.083715 0.247414 -0.161060 0.000170 0.855247 -0.281815 0.083689 0.432049 -0.015959 -0.012840 0.311355 0.088009 -0.992454 -0.373404 -0.313602 0.135034 0.932415 0.239194 0.016014 -0.279692 0.100975 0.418346 0.359987 0.105807 -0.083155 -0.199477 -0.532383 -0.436201 -0.175584 -0.281683 -0.256025 -0.056675 0.025397 -0.193396 0.125276 0.086544 0.415460 -0.506275 -0.011102 -0.465632 -0.282283 -0.195031 -0.123453 0.235959 0.082141 0.255485 0.285843 0.312211 0.151551 0.349112 -0.057079 0.505630 -0.244304 0.119717 -0.159756 -0.103977 0.039294 0.083426 -0.290879 0.283345 -0.699138 -0.335744 0.966203 -0.112275 0.701777 -0.011983 -0.139588 0.256066 -0.061539 -0.170515 0.033384 
41 0.347935 0.654424 -0.422691 -1.352459 -1.265981 0.231644 -1.044308 1.228023 0.085039 0.532853 -0.291987 0.789845 0.381830 0.379068 -0.074095 -0.051459 -0.660183 0.985639 0.530576 0.227850 -0.324540 0.230785 0.487734 -0.394075 -0.388538 -0.083117 -0.158812 0.753710 -0.083895 -0.090525 0.241274 -0.160326 0.016531 0.892994 -0.264793 0.085082 0.451079 -0.016547 -0.012223 0.329357 0.107573 -1.022323 -0.373760 -0.331264 0.120605 0.976094 0.243395 0.030020 -0.277023 0.137564 0.436578 0.365608 0.124637 -0.082329 -0.222539 -0.561450 -0.450230 -0.181735 -0.277280 -0.259435 -0.069057 0.030221 -0.195042 0.143791 0.074472 0.398804 -0.496233 -0.022223 -0.436589 -0.289680 -0.187933 -0.104731 0.227869 0.072289 0.227423 0.261718 0.286721 0.136539 0.333656 -0.050888 0.487859 -0.170126 0.126960 -0.166319 -0.096262 0.030688 0.104082 -0.294785 0.295686 -0.700087 -0.334181 0.960180 -0.116468 0.670334 -0.025441 -0.155088 0.256387 -0.072114 -0.150223 0.037384 
42 0.264947 0.484492 -0.270117 -1.274176 -1.276360 0.282789 -1.024006 1.098132 0.109253 0.610607 -0.356778 0.675655 0.455585 0.448421 -0.065814 -0.031676 -0.658695 0.954306 0.600366 0.126108 -0.401368 0.260684 0.547199 -0.410478 -0.427962 -0.152348 -0.173833 0.848779 -0.092059 -0.025563 0.244115 -0.163389 0.062255 0.934762 -0.257296 0.119979 0.447076 -0.048545 -0.063708 0.324424 0.060560 -1.039716 -0.371872 -0.339622 0.104120 1.057546 0.192791 0.069096 -0.284779 0.209379 0.396187 0.321785 0.069481 -0.137758 -0.222645 -0.560453 -0.401868 -0.199601 -0.332158 -0.344873 -0.000137 0.043420 -0.280916 0.189315 0.002517 0.415456 -0.583221 0.053884 -0.389044 -0.343422 -0.234773 -0.072545 0.312598 0.005873 0.158751 0.331526 0.274178 0.121384 0.305967 -0.016340 0.531434 -0.227246 0.207096 -0.213045 -0.061603 0.002420 0.079186 -0.357526 0.361185 -0.860855 -0.364880 1.033553 -0.195223 0.783200 -0.100085 -0.121259 0.314585 -0.056516 -0.155747 0.114392 
43 0.272471 0.628074 -0.356194 -1.349244 -1.243131 0.255325 -1.043060 1.191319 0.077488 0.538255 -0.281691 0.766408 0.336424 0.375341 -0.093121 -0.079743 -0.654662 0.973524 0.540923 0.219208 -0.303534 0.260727 0.482960 -0.362916 -0.414299 -0.086665 -0.148003 0.798669 -0.044326 -0.081632 0.255791 -0.157102 0.040997 0.853299 -0.264683 0.083257 0.416616 0.004929 -0.022641 0.296895 0.085772 -1.013336 -0.338270 -0.386037 0.160198 1.003514 0.199415 0.047952 -0.290902 0.129468 0.426633 0.378046 0.066933 -0.116352 -0.203032 -0.544669 -0.462204 -0.225273 -0.278961 -0.306336 -0.047429 0.041157 -0.212531 0.133215 0.043642 0.385988 -0.502915 -0.018178 -0.457647 -0.308112 -0.187963 -0.116178 0.254018 0.066811 0.228257 0.313662 0.266492 0.120970 0.338506 -0.055645 0.525707 -0.184313 0.132366 -0.156498 -0.070750 0.005916 0.112043 -0.288853 0.282433 -0.729488 -0.328132 1.024576 -0.161664 0.735050 -0.030907 -0.134150 0.262098 -0.050447 -0.166985 0.043860 
44 0.291157 0.587501 -0.352787 -1.262518 -1.161566 0.259279 -1.007549 1.183315 0.095532 0.540805 -0.288021 0.753264 0.354468 0.417536 -0.080167 -0.069772 -0.644458 0.996416 0.549253 0.198122 -0.347740 0.287803 0.454506 -0.363426 -0.452767 -0.115210 -0.151237 0.817204 -0.018748 -0.037237 0.270579 -0.119760 0.040594 0.920034 -0.293761 0.123673 0.461070 -0.005730 -0.012251 0.277116 0.082104 -1.074389 -0.364606 -0.371417 0.131754 1.069787 0.172027 0.073150 -0.292189 0.159054 0.364776 0.381873 0.042332 -0.127323 -0.208261 -0.578289 -0.451387 -0.227351 -0.307560 -0.337062 -0.014402 0.025606 -0.244551 0.143632 0.056142 0.398589 -0.532071 -0.012169 -0.454673 -0.322881 -0.216571 -0.095735 0.286368 0.045652 0.233529 0.333529 0.243807 0.118941 0.340351 -0.034439 0.539745 -0.209107 0.121147 -0.148832 -0.108501 0.057067 0.107331 -0.286969 0.309869 -0.788863 -0.345922 1.026729 -0.187253 0.706179 -0.047811 -0.121127 0.287645 0.002605 -0.163641 0.027673 
45 0.257317 0.636497 -0.358575 -1.307303 -1.200484 0.266940 -1.024505 1.136436 0.062492 0.564555 -0.289172 0.827621 0.380689 0.390426 -0.095672 -0.031775 -0.682289 1.032912 0.543002 0.255973 -0.297865 0.288130 0.498944 -0.356046 -0.403436 -0.112677 -0.151063 0.774639 -0.056872 -0.095522 0.276742 -0.191834 0.026424 0.905839 -0.305914 0.075311 0.427859 -0.000594 -0.035746 0.345349 0.083991 -0.985929 -0.352659 -0.355036 0.158731 0.979371 0.205590 0.048266 -0.266596 0.116317 0.468208 0.394018 0.081003 -0.146151 -0.190887 -0.516119 -0.453153 -0.207609 -0.283831 -0.322425 -0.041238 0.032060 -0.208195 0.169757 0.029539 0.393645 -0.502430 -0.021456 -0.468482 -0.318030 -0.200542 -0.094610 0.280234 0.076848 0.225958 0.313330 0.280441 0.105917 0.362230 -0.074750 0.520964 -0.180152 0.146259 -0.187363 -0.091875 -0.003818 0.130921 -0.305664 0.282231 -0.687746 -0.334406 1.000517 -0.124759 0.700565 -0.004201 -0.160745 0.275194 -0.042350 -0.168482 0.012664 
46 0.504051 0.345655 -0.423513 -1.389440 -1.136235 0.181118 -0.734767 0.741484 -0.038715 0.586748 -0.340612 0.386317 0.413749 0.509790 -0.087679 -0.023994 -0.535485 0.700049 0.739305 -0.084049 -0.337904 0.128533 0.604217 -0.319998 -0.237269 -0.052369 -0.064843 0.668256 -0.180603 -0.176019 0.134296 0.149906 0.011264 0.579145 -0.202988 0.124267 0.410796 0.050752 0.077836 0.332496 -0.019109 -0.638870 -0.244931 -0.247683 0.123148 0.644596 0.177083 0.010850 -0.088270 0.092007 0.222356 0.183990 0.019709 -0.025907 -0.230218 -0.492964 0.048562 -0.263032 -0.504966 -0.477210 -0.032782 -0.112620 0.166726 0.341699 -0.129227 0.049103 -0.625838 -0.289469 -0.106636 -0.286182 -0.185698 0.238152 0.371229 -0.038459 0.025787 0.087057 0.066528 0.101878 0.286649 0.222140 0.221270 -0.073676 0.041098 -0.037930 -0.416195 0.085454 0.081968 -0.458651 0.344659 -0.822695 -0.089853 0.744898 -0.232427 0.394591 -0.103906 0.054131 0.242636 0.004927 -0.029920 0.009446 
47 0.220406 0.546624 -0.283875 -1.213302 -1.198960 0.286833 -1.070814 1.185108 0.101390 0.525769 -0.276826 0.769646 0.347255 0.385516 -0.086559 -0.046767 -0.661490 1.017867 0.526366 0.248474 -0.307533 0.304667 0.444747 -0.346371 -0.445928 -0.085357 -0.162999 0.795232 -0.031171 -0.071839 0.269237 -0.197470 0.050131 0.864087 -0.275309 0.073366 0.431140 0.009735 -0.023648 0.274339 0.080288 -1.024670 -0.341178 -0.367945 0.153829 1.020520 0.175271 0.058874 -0.254393 0.145481 0.414104 0.366720 0.051967 -0.151825 -0.215897 -0.556174 -0.458735 -0.214789 -0.291898 -0.330391 -0.029035 0.027209 -0.258918 0.140452 0.052144 0.400637 -0.503722 -0.010438 -0.486398 -0.308746 -0.194983 -0.101096 0.285370 0.076822 0.236144 0.320340 0.271019 0.096939 0.377082 -0.068844 0.578693 -0.187489 0.128538 -0.171674 -0.095094 0.048650 0.128991 -0.275510 0.292728 -0.732456 -0.353422 1.043132 -0.152692 0.706366 -0.024102 -0.141614 0.253760 -0.032148 -0.164013 0.006515 
48 0.257111 0.555262 -0.292823 -1.201195 -1.154479 0.297818 -0.996791 1.070342 0.056487 0.610195 -0.331650 0.794020 0.373377 0.392330 -0.127975 -0.029054 -0.655178 0.990411 0.567177 0.219634 -0.308610 0.308292 0.511384 -0.372533 -0.437406 -0.119756 -0.149475 0.808073 -0.038614 -0.088269 0.314556 -0.224315 -0.006322 0.937134 -0.309946 0.070635 0.455585 0.044668 -0.043267 0.342716 0.088983 -1.053781 -0.313905 -0.412645 0.218409 1.046201 0.193395 0.042850 -0.293817 0.106709 0.484705 0.390415 0.071556 -0.162970 -0.239125 -0.575847 -0.473462 -0.221652 -0.361683 -0.398329 -0.004617 0.030663 -0.267023 0.196161 -0.017995 0.406869 -0.587873 -0.025705 -0.484035 -0.325058 -0.225617 -0.079136 0.337803 0.074829 0.213275 0.361335 0.289604 0.121188 0.384085 -0.047630 0.539027 -0.230299 0.166583 -0.266139 -0.077878 0.002929 0.122146 -0.315338 0.298649 -0.737947 -0.352992 1.062779 -0.154541 0.738790 -0.042899 -0.164583 0.242815 -0.043419 -0.210809 0.066834 
49 0.140954 0.538228 -0.243540 -1.239301 -1.114443 0.296070 -0.958022 1.021997 0.059383 0.579645 -0.292076 0.745860 0.338635 0.395933 -0.093997 -0.061327 -0.644779 0.927572 0.552942 0.189339 -0.266518 0.304993 0.498214 -0.266069 -0.394399 -0.132829 -0.149134 0.807642 -0.059527 -0.068929 0.284722 -0.180375 0.054890 0.896118 -0.309101 0.087577 0.393008 -0.004605 -0.087737 0.338957 0.043756 -1.006351 -0.348215 -0.355289 0.181238 1.076394 0.205627 0.036220 -0.302587 0.164923 0.453686 0.385430 0.058740 -0.138567 -0.219182 -0.573633 -0.430653 -0.249902 -0.360316 -0.357584 0.007546 0.045922 -0.300635 0.189003 -0.030974 0.437182 -0.594116 0.062111 -0.471628 -0.394893 -0.245127 -0.079762 0.373423 0.017217 0.173844 0.406378 0.288166 0.145749 0.330677 -0.025117 0.565369 -0.221512 0.204078 -0.225713 -0.069686 -0.038161 0.089965 -0.369749 0.361660 -0.850612 -0.388021 1.067078 -0.189453 0.803053 -0.086212 -0.148825 0.299734 -0.037277 -0.176926 0.074571 
50 0.076106 0.349114 -0.162353 -1.073567 -1.154833 0.213415 -0.874519 0.883022 0.031460 0.716148 -0.422205 0.655815 0.505436 0.413100 -0.128327 -0.041843 -0.618269 0.916095 0.697074 0.140041 -0.395735 0.237327 0.660645 -0.447757 -0.492203 -0.207897 -0.247138 0.951439 -0.130769 -0.057863 0.340595 -0.321780 0.082914 1.072124 -0.243491 0.056631 0.481211 0.031376 -0.214576 0.393917 0.146182 -1.148019 -0.251491 -0.516969 0.169056 1.327307 0.162855 0.139578 -0.345710 0.288864 0.451107 0.372000 0.030044 -0.193865 -0.263555 -0.591518 -0.475445 -0.369847 -0.473214 -0.471992 0.073726 0.091888 -0.508032 0.277541 -0.076819 0.416755 -0.661481 0.083982 -0.414267 -0.388143 -0.290779 -0.128060 0.405694 -0.032330 0.118997 0.434115 0.290593 0.161457 0.279423 -0.061604 0.566684 -0.172189 0.203480 -0.303422 0.066247 -0.114565 0.170443 -0.337251 0.372229 -0.883754 -0.338537 1.054881 -0.240728 0.805126 -0.192364 -0.166486 0.236528 -0.019166 -0.181598 0.125144 
51 0.582986 0.238690 -0.389049 -1.420900 -1.118403 0.154270 -0.639167 0.577659 -0.063179 0.603375 -0.371238 0.239831 0.454675 0.571889 -0.082695 0.013840 -0.498957 0.638903 0.836663 -0.188023 -0.367847 0.080774 0.665634 -0.329173 -0.236863 -0.061834 -0.059820 0.653167 -0.238047 -0.214539 0.087760 0.251053 0.020998 0.522915 -0.148766 0.139669 0.400140 0.066169 0.112027 0.310482 -0.034650 -0.616969 -0.158834 -0.314394 0.116522 0.706429 0.108570 0.029376 -0.078361 0.122895 0.170720 0.166806 -0.068732 -0.012247 -0.245188 -0.517029 0.183472 -0.330121 -0.588164 -0.570962 0.012469 -0.150882 0.201663 0.443489 -0.186491 -0.047748 -0.657109 -0.356970 0.026948 -0.318024 -0.202703 0.336309 0.423584 -0.099324 -0.050614 0.085710 -0.018556 0.084165 0.274615 0.313213 0.153870 -0.050133 0.014418 0.002451 -0.498512 0.087903 0.094545 -0.530892 0.380960 -0.901648 -0.051003 0.733155 -0.299162 0.389525 -0.133474 0.121593 0.313446 0.035453 -0.027798 0.041679 
52 0.175318 0.657973 -0.368424 -1.246399 -1.063979 0.275987 -0.987937 1.033816 0.018983 0.551735 -0.259584 0.900955 0.322861 0.363256 -0.135957 -0.012040 -0.685956 1.051168 0.521436 0.304397 -0.212681 0.311183 0.469170 -0.309986 -0.390103 -0.130966 -0.142097 0.727586 -0.074800 -0.132874 0.295202 -0.259391 0.057008 0.905918 -0.260774 0.031411 0.381514 0.054391 -0.023554 0.362515 0.092554 -0.973980 -0.320937 -0.416174 0.193585 0.967901 0.196639 0.022473 -0.249298 0.100915 0.553244 0.428324 0.058141 -0.176071 -0.203473 -0.529443 -0.478036 -0.207284 -0.255903 -0.396760 -0.004309 0.028247 -0.186969 0.193706 -0.022323 0.376738 -0.484661 0.030870 -0.543404 -0.369482 -0.222592 -0.068795 0.332212 0.078106 0.160935 0.331303 0.307709 0.043111 0.451038 -0.046182 0.540156 -0.143480 0.205316 -0.264624 -0.109551 -0.046044 0.162670 -0.364299 0.323274 -0.676102 -0.385202 1.041425 -0.102621 0.684101 0.084512 -0.179527 0.271476 -0.041526 -0.169934 -0.022115 
53 0.101362 0.547837 -0.283415 -1.164168 -1.038704 0.268100 -0.937263 0.944947 0.014852 0.597962 -0.328956 0.771953 0.434821 0.375513 -0.142611 -0.012428 -0.737941 1.050013 0.577860 0.249490 -0.243624 0.253641 0.504443 -0.355578 -0.405663 -0.112044 -0.200974 0.793027 -0.104637 -0.148259 0.310504 -0.308617 0.076710 0.987601 -0.218278 0.038799 0.405740 0.069710 -0.088651 0.370654 0.135947 -1.031835 -0.242471 -0.474006 0.202443 1.079299 0.152328 0.030900 -0.276742 0.194692 0.541098 0.402598 0.022525 -0.186203 -0.262778 -0.603445 -0.478002 -0.254716 -0.329402 -0.445623 0.044466 0.051738 -0.347623 0.240078 -0.052331 0.412360 -0.576434 0.055600 -0.513447 -0.409607 -0.237240 -0.075993 0.354373 0.038257 0.147501 0.367844 0.324799 0.106267 0.411711 -0.041753 0.577753 -0.102789 0.221763 -0.323013 -0.022952 -0.105018 0.169178 -0.377174 0.376888 -0.743432 -0.385765 0.994338 -0.157295 0.757352 -0.103525 -0.192215 0.265560 -0.088037 -0.170343 0.051753 
54 -0.005173 0.100041 -0.111386 -0.686651 -1.042102 0.248052 -0.672894 0.501783 -0.082827 0.684379 -0.371237 0.432434 0.588844 0.430044 -0.159574 0.037817 -0.656087 0.910766 0.745643 0.048563 -0.434094 0.177817 0.695081 -0.442376 -0.370918 -0.223818 -0.287905 0.795871 -0.285401 -0.203568 0.308029 -0.464844 0.041837 1.255661 -0.212183 -0.004555 0.535384 0.053960 -0.315719 0.486212 0.294877 -1.081504 -0.189239 -0.467909 0.204157 1.460923 0.218198 0.158156 -0.401326 0.421469 0.434180 0.311277 0.077802 -0.203042 -0.323243 -0.638763 -0.602163 -0.426012 -0.598983 -0.380905 -0.013288 0.112458 -0.668660 0.278611 -0.145356 0.461644 -0.826181 0.067124 -0.218340 -0.242025 -0.224456 -0.079122 0.467597 -0.128951 0.068438 0.323474 0.304944 0.228251 0.180612 -0.084494 0.593573 -0.121907 0.220083 -0.437564 0.233226 -0.313485 0.214789 -0.349018 0.401336 -0.821548 -0.307507 0.924342 -0.186854 0.893198 -0.333232 -0.224361 0.164890 -0.248350 -0.320674 0.292746 
55 0.172165 0.653283 -0.332168 -1.119668 -1.072593 0.265828 -1.024076 1.122006 0.046784 0.513209 -0.249496 0.875010 0.351143 0.366427 -0.147081 -0.012864 -0.689112 1.088710 0.539102 0.288461 -0.233255 0.332823 0.461597 -0.296204 -0.424230 -0.109119 -0.177783 0.731075 -0.080227 -0.154738 0.353099 -0.290156 0.019392 0.964195 -0.280383 0.052834 0.438629 0.084612 -0.084125 0.345628 0.143630 -1.038024 -0.257024 -0.446809 0.200685 1.011944 0.136524 0.038140 -0.242784 0.142217 0.555589 0.432546 0.060212 -0.188466 -0.217670 -0.532026 -0.488827 -0.184565 -0.257932 -0.442375 0.031911 0.032068 -0.262898 0.173894 -0.002489 0.383584 -0.469114 0.015693 -0.563333 -0.380641 -0.238026 -0.115167 0.330767 0.076776 0.182466 0.360621 0.331812 0.072120 0.460199 -0.055211 0.537420 -0.073346 0.177210 -0.273820 -0.099544 -0.012777 0.182379 -0.298768 0.313043 -0.591630 -0.381397 0.967479 -0.120343 0.660200 0.036148 -0.179143 0.287078 -0.011959 -0.165213 -0.042145 
56 0.086787 0.668161 -0.358789 -1.085129 -0.967823 0.293991 -0.938231 0.902990 0.022631 0.509704 -0.226245 0.855167 0.369836 0.332423 -0.141119 0.064240 -0.762316 1.142777 0.557747 0.328709 -0.226176 0.326951 0.567019 -0.332975 -0.373753 -0.155078 -0.184977 0.725732 -0.166585 -0.198690 0.349295 -0.372836 0.044673 1.003410 -0.284370 0.009174 0.391887 0.083640 -0.101252 0.445986 0.112545 -0.998013 -0.261147 -0.426128 0.217648 0.976468 0.190047 0.005936 -0.195319 0.169384 0.718608 0.404508 0.092894 -0.246951 -0.231957 -0.503793 -0.424179 -0.152615 -0.265907 -0.493126 0.027788 0.054712 -0.250454 0.252326 -0.125537 0.385208 -0.551030 0.079450 -0.543523 -0.426768 -0.272937 -0.064662 0.406131 0.050314 0.109513 0.404578 0.380476 0.065059 0.478437 -0.049221 0.527194 -0.071598 0.283701 -0.347858 -0.087987 -0.110417 0.186959 -0.410945 0.374844 -0.604885 -0.392863 0.998835 -0.127268 0.701109 0.014676 -0.191091 0.303679 -0.047859 -0.160078 0.008490 
57 0.041254 0.618403 -0.398235 -1.148950 -0.931326 0.255515 -0.869213 0.806670 -0.048020 0.575065 -0.262157 0.923434 0.405760 0.287965 -0.143895 0.035252 -0.792883 1.073276 0.580378 0.341727 -0.213979 0.292698 0.605427 -0.366997 -0.320674 -0.116697 -0.184494 0.776985 -0.120983 -0.189865 0.339148 -0.387362 0.086066 0.950078 -0.268135 -0.023567 0.342642 0.068346 -0.132204 0.497727 0.058027 -0.973923 -0.298798 -0.397154 0.237169 1.013565 0.225107 -0.007068 -0.229860 0.136563 0.676243 0.422140 0.075141 -0.240931 -0.200849 -0.482742 -0.393470 -0.256772 -0.386250 -0.487438 -0.010820 0.071608 -0.344440 0.312271 -0.168329 0.395110 -0.639405 0.073486 -0.532671 -0.452810 -0.267893 -0.055447 0.413519 0.043516 0.110051 0.404170 0.378967 0.079981 0.459507 -0.035024 0.580694 -0.094108 0.290670 -0.355943 -0.050866 -0.151573 0.187056 -0.422091 0.401896 -0.680225 -0.425975 1.078831 -0.099472 0.732102 0.003814 -0.240523 0.344852 -0.036405 -0.112766 0.022197 
58 0.132654 0.747020 -0.438520 -1.162869 -0.935457 0.272793 -0.905957 0.892552 -0.049580 0.567619 -0.236929 1.035072 0.290033 0.289858 -0.191650 0.049520 -0.745268 1.136050 0.477973 0.417532 -0.150508 0.326946 0.520520 -0.333797 -0.342009 -0.138501 -0.157405 0.677166 -0.102829 -0.174800 0.329574 -0.387915 0.038507 0.989151 -0.326591 -0.017238 0.357445 0.102651 -0.074190 0.475317 0.077718 -0.944595 -0.307087 -0.386507 0.225237 0.886767 0.221523 -0.007333 -0.142854 0.106738 0.771024 0.434424 0.095466 -0.272735 -0.222543 -0.483371 -0.398871 -0.157185 -0.305342 -0.508351 0.014763 0.021328 -0.187753 0.255377 -0.154203 0.399343 -0.577227 0.080192 -0.549933 -0.431928 -0.289751 -0.024866 0.417322 0.072978 0.116750 0.400794 0.410271 0.052171 0.511079 -0.052848 0.551725 -0.140643 0.308678 -0.360524 -0.107212 -0.141617 0.189866 -0.455210 0.371934 -0.618495 -0.393435 1.061052 -0.070546 0.697141 0.084762 -0.207222 0.323706 -0.020506 -0.159567 -0.022497 
59 0.016910 0.697823 -0.291100 -1.068473 -0.864450 0.303066 -0.886108 0.832089 -0.014153 0.534779 -0.217769 0.842541 0.376787 0.336947 -0.090335 0.121181 -0.809248 1.106689 0.609737 0.276296 -0.199401 0.392614 0.553159 -0.261092 -0.357939 -0.161611 -0.140003 0.761320 -0.082414 -0.183187 0.349076 -0.293629 0.044711 0.988340 -0.337564 0.037737 0.412309 0.068397 -0.106035 0.445675 0.102162 -1.032836 -0.286624 -0.417195 0.219484 1.069406 0.170094 0.059292 -0.276578 0.199922 0.665314 0.473726 0.064198 -0.278441 -0.176639 -0.475147 -0.456130 -0.232392 -0.363460 -0.559247 0.021368 0.037802 -0.227484 0.283925 -0.189969 0.408970 -0.590892 0.036085 -0.493304 -0.495425 -0.300173 -0.026941 0.453553 0.001555 0.097008 0.506075 0.370692 0.115324 0.414581 -0.048878 0.588314 -0.138699 0.307873 -0.382548 -0.024221 -0.156614 0.138187 -0.366321 0.388402 -0.636270 -0.491181 1.026426 -0.071048 0.702189 0.064582 -0.247670 0.394455 0.003673 -0.132494 0.004088 
60 -0.093780 0.164526 -0.117048 -0.633597 -0.942768 0.252843 -0.649465 0.332558 -0.171799 0.625076 -0.295527 0.506822 0.550874 0.324554 -0.113395 0.111551 -0.778701 0.990083 0.694739 0.142554 -0.447928 0.240887 0.852524 -0.511271 -0.234030 -0.233955 -0.277071 0.692716 -0.432592 -0.334233 0.279527 -0.475530 0.066860 1.228899 -0.252514 -0.074239 0.509130 -0.038891 -0.433664 0.644371 0.200513 -0.997144 -0.232198 -0.367259 0.151187 1.387168 0.282324 0.136087 -0.265791 0.478393 0.675554 0.285491 0.124850 -0.270846 -0.313945 -0.561977 -0.566291 -0.388399 -0.662729 -0.469979 -0.032218 0.115765 -0.500342 0.421244 -0.320515 0.497320 -0.863962 0.071456 -0.132191 -0.372794 -0.259937 0.000163 0.535137 -0.114122 -0.099786 0.358270 0.338920 0.124413 0.210524 -0.060901 0.582528 -0.100431 0.458535 -0.625510 0.169034 -0.424606 0.255054 -0.420552 0.434418 -0.724684 -0.345644 1.000785 -0.159787 0.788998 -0.309744 -0.285277 0.314992 -0.251333 -0.278918 0.290853 
61 0.046096 0.735654 -0.385112 -1.058409 -0.831711 0.268370 -0.870503 0.912116 0.003727 0.472238 -0.176123 0.909140 0.303673 0.274063 -0.079902 0.074771 -0.758863 1.131590 0.502422 0.382360 -0.195503 0.356230 0.547991 -0.312428 -0.367662 -0.121566 -0.151744 0.731891 -0.069815 -0.160015 0.315272 -0.335391 0.082849 0.978112 -0.321321 -0.003763 0.379686 0.051673 -0.092980 0.451666 0.074775 -1.057955 -0.332406 -0.387973 0.139961 0.979217 0.187132 0.039180 -0.163453 0.199069 0.723776 0.430335 0.087033 -0.241531 -0.196325 -0.489763 -0.441259 -0.204314 -0.393591 -0.536364 0.023544 0.015511 -0.242409 0.282815 -0.134466 0.424573 -0.588233 0.060260 -0.542895 -0.506854 -0.328288 -0.007808 0.463426 0.038784 0.087340 0.447275 0.393609 0.080238 0.493909 -0.015340 0.568503 -0.107342 0.321903 -0.397906 -0.091857 -0.108399 0.168553 -0.395734 0.405120 -0.674353 -0.464713 1.088646 -0.087960 0.658652 0.052722 -0.199148 0.400128 0.026204 -0.112151 -0.033247 
62 -0.049557 0.574030 -0.391414 -0.933342 -0.821890 0.259460 -0.728821 0.663230 -0.047413 0.546145 -0.168432 0.871322 0.427086 0.307219 -0.130471 0.130182 -0.827615 1.108540 0.660596 0.295716 -0.207949 0.359558 0.660004 -0.353912 -0.308603 -0.157873 -0.139359 0.698192 -0.267160 -0.285565 0.312381 -0.350715 0.127523 0.976405 -0.290616 -0.023832 0.360455 0.048139 -0.224023 0.627083 0.082512 -1.009064 -0.257699 -0.452854 0.162014 1.176615 0.258959 0.037732 -0.192462 0.311174 0.831362 0.454360 0.084748 -0.286481 -0.240456 -0.496007 -0.336739 -0.271946 -0.471790 -0.627549 0.114422 0.053187 -0.369005 0.342894 -0.234970 0.456572 -0.625212 0.274962 -0.474144 -0.548544 -0.359393 -0.008822 0.557132 -0.084865 -0.052192 0.468573 0.412826 0.069468 0.405976 0.052893 0.539962 -0.061688 0.425118 -0.341089 0.020653 -0.321051 0.152954 -0.523771 0.470265 -0.740172 -0.468053 0.997828 -0.067824 0.757978 0.094700 -0.208878 0.550584 -0.007377 -0.069392 0.010815 
63 0.031301 0.760739 -0.568455 -1.062721 -0.811324 0.235506 -0.920919 0.914778 0.039695 0.411508 -0.109108 1.002146 0.252892 0.308946 -0.102022 0.072510 -0.799522 1.180874 0.508450 0.393041 -0.175504 0.410090 0.572005 -0.237916 -0.315321 -0.082777 -0.175538 0.657136 -0.170013 -0.184349 0.309850 -0.368671 0.110783 0.867147 -0.305155 -0.012983 0.332762 0.050156 -0.125194 0.465668 0.000966 -0.912951 -0.301497 -0.308870 0.104957 0.837016 0.193615 0.017123 -0.095119 0.212241 0.785304 0.418429 0.110386 -0.311614 -0.181868 -0.404177 -0.367467 -0.117606 -0.222307 -0.522142 0.029118 0.039730 -0.242787 0.253164 -0.126071 0.422968 -0.548834 0.127643 -0.611844 -0.557560 -0.333114 -0.039533 0.414538 0.099305 0.113959 0.446423 0.488013 0.009826 0.568546 -0.021917 0.580556 0.000331 0.384467 -0.392541 -0.108284 -0.128301 0.184129 -0.473076 0.453040 -0.633178 -0.518164 1.058554 -0.040167 0.575223 0.148343 -0.262231 0.440905 0.031823 -0.046036 -0.097428 
64 0.305526 0.286064 -0.815770 -1.528470 -1.087833 0.252774 -0.655178 0.221622 -0.231807 0.470977 -0.012906 -0.150932 0.315191 0.862139 0.075304 0.183150 -0.742148 0.642004 1.322353 -0.570669 -0.434945 0.302212 1.198143 0.055212 0.286316 0.283953 -0.137007 0.329924 -0.750267 -0.537692 -0.168005 0.731326 0.492191 0.135555 -0.048860 -0.153323 0.277789 -0.290414 -0.435153 0.510465 -0.369827 -0.655500 -0.026067 -0.308218 -0.414358 1.209799 0.074355 0.698584 0.302526 0.931377 0.341203 -0.027212 -0.121502 -0.382116 -0.176045 -0.281624 0.368384 -0.778328 -0.784183 -1.236509 0.037224 -0.071941 0.450430 0.941669 -1.038524 -0.463005 -0.949357 -0.770142 0.661277 -0.759558 -0.269232 0.791835 0.760386 -0.281710 -0.671064 0.125861 -0.593311 -0.282243 -0.069858 0.530605 0.143327 0.506934 0.893392 -0.290677 -0.373755 -0.571604 0.398810 -0.898726 0.574017 -1.265765 0.064731 1.033649 -0.620787 -0.014047 -0.512139 -0.112379 0.639166 0.042683 0.202463 0.276631 
65 0.281385 0.564549 -0.712876 -1.025891 -0.787121 0.172659 -0.716486 0.771639 0.058721 0.380485 -0.057722 0.668074 0.275987 0.512840 0.090680 0.059623 -0.732918 0.897812 0.554071 0.078199 -0.327171 0.428476 0.622877 -0.160995 -0.160090 -0.088468 -0.084320 0.570745 -0.306187 -0.175055 0.054994 0.122149 0.201873 0.559495 -0.275974 0.105345 0.266000 -0.118999 -0.067154 0.442535 -0.192983 -0.588403 -0.323576 -0.039973 -0.130855 0.587299 0.149577 0.034899 0.018086 0.368036 0.537158 0.276116 0.073448 -0.193956 -0.208871 -0.402932 0.151815 0.007499 -0.329773 -0.575287 0.051948 -0.084163 0.129807 0.408624 -0.187088 0.313672 -0.630052 0.095478 -0.370945 -0.718837 -0.395073 0.300205 0.596731 -0.086223 -0.142632 0.350608 0.338860 0.068650 0.472460 0.366618 0.325627 0.083422 0.443068 -0.249017 -0.425737 -0.001591 0.007951 -0.730506 0.608845 -0.996185 -0.457285 0.888101 -0.145508 0.403513 0.062246 -0.027075 0.649762 0.129853 0.184932 -0.146206 
66 0.562440 0.362787 -0.751171 -1.343046 -0.637479 0.097504 -0.533528 0.500805 0.120720 0.139253 0.066593 0.158473 0.224709 0.722494 0.233036 0.128027 -0.555813 0.825525 0.729006 -0.151699 -0.350125 0.346824 0.658762 -0.087583 -0.126733 -0.016093 0.064318 0.345735 -0.459389 -0.205348 -0.178632 0.694101 0.256015 0.086920 -0.119761 0.171971 0.086420 -0.177283 0.090526 0.285899 -0.373551 -0.378509 -0.174755 -0.143782 -0.221117 0.825241 0.122443 0.116501 0.061702 0.366049 0.384421 0.188025 -0.084790 -0.058589 -0.183017 -0.423435 0.641568 -0.148317 -0.278427 -0.752821 0.181426 -0.154653 0.307740 0.536232 -0.243297 -0.012647 -0.759226 -0.150459 -0.032033 -0.818642 -0.493968 0.391712 0.604399 -0.202360 -0.317694 0.447470 0.137321 -0.010262 0.279806 0.660017 0.149330 -0.055243 0.500930 -0.147741 -0.627432 0.056260 0.003167 -0.983210 0.679793 -1.339106 -0.374188 0.953431 -0.298341 0.187931 0.078997 0.033282 0.854834 0.396684 0.275359 -0.112929 
67 -0.090950 0.855597 -0.890497 -0.848766 -0.691582 0.146695 -0.906580 1.253609 0.298368 0.059284 0.238622 0.859836 0.107214 0.492410 0.276376 -0.078341 -0.799901 1.164435 0.275421 0.336595 -0.324031 0.606654 0.456858 -0.055596 -0.226618 0.005404 -0.129866 0.459609 -0.210759 0.006508 0.022830 0.153618 0.427120 0.380401 -0.211420 0.037718 0.105554 -0.257969 -0.232978 0.288873 -0.258025 -0.656349 -0.438282 -0.068442 -0.343651 0.913451 0.228942 0.174715 -0.055552 0.536648 0.588584 0.339725 0.145225 -0.215083 -0.187619 -0.478612 -0.097323 0.026502 0.044971 -0.354417 0.136994 0.092758 -0.244791 0.124019 0.025399 0.540792 -0.521221 0.337536 -0.642000 -0.794239 -0.463677 -0.088119 0.440050 -0.014897 -0.001020 0.554633 0.417896 0.068737 0.349970 0.228261 0.596608 0.006529 0.580115 -0.330882 -0.089085 -0.098095 0.093199 -0.660322 0.567577 -1.048281 -0.603362 1.070108 -0.095848 0.363824 0.064348 -0.308312 0.685952 0.226352 0.243554 -0.241904 
68 -0.042915 1.025709 -0.969256 -0.985014 -0.606064 0.064471 -0.897640 1.277848 0.327936 -0.130376 0.333548 0.888827 0.034304 0.304230 0.304464 -0.078776 -0.787094 1.113518 0.077020 0.428308 -0.270795 0.575659 0.206336 -0.017577 -0.259616 0.129119 -0.097847 0.450421 -0.097126 0.034861 -0.036476 0.094452 0.408495 0.204745 -0.065496 0.007608 0.061407 -0.237397 -0.138724 0.250758 -0.290264 -0.643423 -0.375755 -0.040494 -0.265429 0.815691 0.155588 0.119044 -0.082204 0.463584 0.501283 0.281193 0.075767 -0.199193 -0.113092 -0.358132 -0.115395 -0.016391 0.083582 -0.258289 0.047299 0.121098 -0.247941 0.084918 0.100635 0.532729 -0.419788 0.377334 -0.594754 -0.747394 -0.412284 -0.120123 0.230532 0.056794 0.037288 0.515131 0.499450 0.055183 0.354787 0.176953 0.521641 0.031331 0.500408 -0.302535 -0.037866 0.049429 -0.013581 -0.532097 0.549770 -0.942728 -0.696865 1.037277 0.009666 0.343986 0.166057 -0.320184 0.692915 0.209345 0.289964 -0.139120 
69 -0.147688 1.279140 -1.117559 -1.275174 -0.468807 -0.112725 -0.812379 1.282146 0.369064 -0.247017 0.354142 0.875822 -0.024482 0.129596 0.307924 -0.068846 -0.777865 1.131830 0.102728 0.531674 -0.165647 0.478568 0.087777 0.010836 -0.299204 0.257253 -0.069433 0.403801 0.022561 0.049887 -0.046567 0.124865 0.414389 0.134665 0.000834 0.044878 0.004866 -0.138964 -0.004682 0.124524 -0.235015 -0.648004 -0.251456 -0.199194 -0.307043 0.781131 0.050603 0.107884 -0.130433 0.357677 0.393060 0.350400 -0.012014 -0.112690 0.012698 -0.273877 -0.033466 -0.098347 0.125169 -0.220999 0.048206 0.095759 -0.275417 0.014918 0.241451 0.407928 -0.191150 0.349619 -0.597211 -0.740921 -0.382902 -0.299778 0.010475 0.052973 0.170581 0.560081 0.500355 0.027842 0.364152 0.130512 0.504396 0.050886 0.328027 -0.072698 0.034076 0.056057 -0.002889 -0.438847 0.511301 -0.861232 -0.686487 0.949196 0.053033 0.268492 0.282283 -0.295434 0.795488 0.336312 0.339547 -0.186499 
70 0.576712 0.522033 -1.005594 -0.560175 -0.443889 -0.347802 -0.239059 0.746942 0.142193 -0.172082 0.169087 0.391309 0.078544 0.273287 0.238490 -0.129970 -0.326209 0.619586 -0.066387 0.196333 -0.463595 0.147751 0.280576 -0.372900 -0.216374 -0.061111 -0.163396 0.232444 -0.278715 -0.016952 -0.170763 0.092854 0.094794 0.305347 0.141600 0.009858 0.146270 -0.154858 -0.155657 0.210153 -0.026330 -0.413321 -0.120457 -0.099391 -0.153791 0.732466 0.161652 0.004580 -0.269972 0.300197 0.092782 0.058294 0.008454 0.096455 -0.163257 -0.325569 0.155905 -0.182200 -0.240912 -0.076193 0.025794 0.047538 -0.377312 0.220962 0.076682 0.263918 -0.562965 0.181315 0.036810 -0.291237 -0.224922 -0.106935 -0.005114 -0.129986 -0.055439 0.229515 0.294140 0.266086 -0.132891 0.250802 0.155143 -0.158986 0.223634 -0.205345 0.061739 -0.084964 -0.075853 -0.439533 0.474710 -0.855862 -0.326871 0.523465 -0.029869 0.246144 -0.155658 -0.194606 0.306828 -0.051958 0.025584 0.250684 
71 0.376759 0.857150 -0.862071 -0.596682 -0.433866 -0.286003 -0.425332 1.069948 0.257412 -0.225113 0.187079 0.699318 0.106883 0.011798 0.250460 -0.089717 -0.456477 0.750610 -0.229143 0.468090 -0.328761 0.269301 0.047383 -0.300169 -0.341125 -0.024775 -0.101752 0.314118 -0.013919 0.111077 -0.085126 -0.128697 0.140243 0.463757 0.025014 0.012753 0.087970 -0.195572 -0.178580 0.128986 -0.059106 -0.553041 -0.096696 -0.107227 -0.190843 0.723898 0.040836 0.091972 -0.299341 0.308379 0.226020 0.206990 0.017245 -0.064177 -0.018159 -0.187300 -0.214705 -0.035004 -0.044273 0.043627 0.020607 0.145334 -0.521282 0.113669 0.127539 0.495612 -0.256137 0.429803 -0.173437 -0.366972 -0.221665 -0.271456 -0.090914 -0.051135 0.098720 0.465058 0.354614 0.119617 -0.044308 -0.054058 0.309614 -0.247152 0.340260 -0.231502 0.333458 -0.106979 -0.148817 -0.207360 0.319524 -0.536775 -0.569061 0.479076 0.138532 0.380770 0.070819 -0.289680 0.508058 0.023689 0.027508 0.209781 
72 0.608254 0.621438 -0.723849 -0.369538 -0.535322 -0.271638 -0.437539 1.010391 0.156783 -0.136715 0.096247 0.604852 0.112779 0.104988 0.168528 -0.114913 -0.364000 0.681355 -0.183858 0.355043 -0.421422 0.245352 0.168585 -0.422450 -0.305193 -0.146704 -0.208681 0.204411 -0.169695 0.106043 -0.111510 -0.220435 0.084284 0.471826 0.049920 -0.105682 0.128934 -0.332541 -0.397705 0.153814 -0.060475 -0.529008 0.089259 -0.009967 -0.333526 0.972945 -0.036922 0.345460 -0.286752 0.542431 0.160867 0.086077 -0.015306 -0.174364 -0.040265 -0.103843 -0.319277 -0.124645 -0.091675 -0.040564 0.067446 0.201027 -0.689359 0.240829 -0.126732 0.443350 -0.306726 0.346177 0.122642 -0.248779 -0.137052 -0.204680 0.012379 -0.155334 -0.148302 0.470325 0.019306 -0.026391 -0.417241 -0.147481 0.254536 -0.232859 0.599308 -0.465561 0.611814 -0.390540 -0.051849 -0.113137 0.180362 -0.450329 -0.491726 0.403030 0.011859 0.300944 -0.196778 -0.394594 0.346927 -0.119970 -0.141305 0.544048 
73 0.636955 0.515390 -0.721537 -0.461151 -0.529355 -0.301618 -0.273728 0.812163 0.140150 -0.150999 0.100036 0.415961 0.148928 0.131551 0.188663 -0.117897 -0.259064 0.514766 -0.209973 0.251326 -0.382651 0.111028 0.127180 -0.363413 -0.182751 -0.080260 -0.111652 0.103513 -0.130050 0.094364 -0.178147 -0.003464 0.127348 0.251727 0.140654 -0.085692 0.042564 -0.228536 -0.315553 0.092060 -0.071184 -0.321678 0.063941 -0.085583 -0.197580 0.761338 0.013006 0.250726 -0.281205 0.384270 -0.019064 -0.002287 -0.089770 -0.071057 -0.001495 -0.058272 -0.086198 -0.224519 -0.168492 -0.027578 0.066006 0.151744 -0.512626 0.256208 -0.199892 0.228680 -0.367883 0.214516 0.334494 -0.134118 -0.092226 -0.083439 -0.019753 -0.184215 -0.176129 0.313080 -0.099157 0.005574 -0.488918 -0.051813 0.120810 -0.251485 0.451088 -0.289822 0.498436 -0.385970 -0.072033 -0.162679 0.182459 -0.491759 -0.269740 0.268179 -0.018609 0.189257 -0.241883 -0.273068 0.263619 -0.122770 -0.094269 0.525005 
74 0.487267 0.704554 -0.622098 -0.657907 -0.593062 -0.192220 -0.476047 0.978471 0.150491 -0.095654 0.107027 0.631341 0.092558 0.107934 0.137111 -0.122054 -0.373740 0.694054 -0.186365 0.365830 -0.343586 0.269298 0.117511 -0.311731 -0.270796 -0.076425 -0.142837 0.177017 -0.044303 0.131023 -0.121569 -0.120360 0.170865 0.237807 0.094175 -0.164171 -0.010145 -0.312124 -0.430138 0.050095 -0.152793 -0.408820 0.170965 -0.094387 -0.274539 0.950493 -0.114668 0.465310 -0.276397 0.517483 0.029658 0.045138 -0.151801 -0.272470 0.126637 0.114037 -0.323427 -0.248041 0.012177 -0.050335 0.103374 0.276526 -0.649341 0.211052 -0.340739 0.294491 -0.225558 0.287056 0.311229 -0.203230 -0.064860 -0.179689 -0.026027 -0.172762 -0.214562 0.513740 -0.245408 -0.171908 -0.594907 -0.211701 0.240311 -0.253335 0.698907 -0.409062 0.765326 -0.547966 -0.034168 -0.064273 0.056988 -0.370747 -0.396207 0.387585 -0.022194 0.185463 -0.171448 -0.417704 0.343914 -0.060343 -0.119037 0.616475 
75 0.446043 0.679091 -0.570862 -0.731198 -0.642912 -0.158402 -0.484743 0.931268 0.116268 -0.084272 0.097672 0.561674 0.071262 0.054576 0.125942 -0.120139 -0.329200 0.567440 -0.205799 0.335272 -0.259386 0.217631 0.041948 -0.233625 -0.213392 -0.040420 -0.093111 0.128752 -0.016745 0.102377 -0.156571 -0.071562 0.198695 0.145670 0.123037 -0.182118 -0.095388 -0.285251 -0.407894 -0.006563 -0.179636 -0.268386 0.237040 -0.097736 -0.229835 0.839669 -0.162152 0.469000 -0.227834 0.468602 -0.059343 -0.015091 -0.217595 -0.274224 0.151805 0.178517 -0.223630 -0.268077 0.004609 -0.057837 0.114170 0.262303 -0.565406 0.232623 -0.437857 0.155207 -0.206054 0.217545 0.431400 -0.141136 -0.009587 -0.088346 -0.013048 -0.211845 -0.285723 0.469152 -0.349006 -0.208860 -0.628122 -0.177739 0.181220 -0.225835 0.673835 -0.342922 0.721276 -0.553245 -0.041636 -0.048205 0.002069 -0.329215 -0.282307 0.309330 -0.079231 0.159601 -0.198683 -0.316246 0.262025 -0.061241 -0.124352 0.623186 
76 0.367585 0.763093 -0.591478 -0.854044 -0.658122 -0.125745 -0.571052 1.012046 0.109257 -0.083653 0.120389 0.649054 0.065531 0.093108 0.091883 -0.108078 -0.324510 0.649783 -0.238615 0.421929 -0.245194 0.259198 0.063371 -0.232740 -0.209818 -0.035999 -0.114013 0.091822 0.024733 0.126786 -0.149474 -0.120354 0.265967 0.149590 0.125475 -0.236560 -0.163057 -0.299892 -0.482976 -0.063896 -0.188568 -0.283844 0.271363 -0.193119 -0.252602 0.989681 -0.202995 0.588235 -0.253247 0.483989 -0.044489 0.026427 -0.284081 -0.353728 0.200126 0.222082 -0.340862 -0.327881 0.117475 -0.074454 0.169695 0.307661 -0.676574 0.201489 -0.527748 0.126339 -0.175716 0.214687 0.422040 -0.110429 0.020433 -0.152585 0.035998 -0.207218 -0.285775 0.537028 -0.403788 -0.287045 -0.629623 -0.248388 0.283635 -0.264726 0.727764 -0.354674 0.846293 -0.672282 0.032560 -0.014276 -0.080136 -0.272675 -0.287286 0.389007 -0.115835 0.218588 -0.179524 -0.346349 0.258167 -0.035987 -0.181402 0.644461 
77 0.347746 0.739592 -0.481935 -0.912642 -0.641728 -0.065143 -0.592084 0.956066 0.102532 -0.051300 0.079592 0.637409 0.083202 0.064800 0.068987 -0.079776 -0.307831 0.631318 -0.230804 0.434052 -0.207213 0.255941 0.035173 -0.230852 -0.270527 -0.010679 -0.100131 0.140474 0.033602 0.077242 -0.107312 -0.155239 0.260599 0.183952 0.124521 -0.261668 -0.193182 -0.268058 -0.469166 -0.091806 -0.149417 -0.291345 0.292389 -0.256348 -0.178817 1.016757 -0.197649 0.579419 -0.255807 0.446177 -0.037984 0.025006 -0.285181 -0.364051 0.236560 0.277030 -0.375492 -0.332472 0.163946 -0.055719 0.160514 0.307834 -0.632674 0.197244 -0.532079 0.100669 -0.120050 0.212257 0.428368 -0.082783 0.056424 -0.185412 0.009494 -0.197486 -0.281551 0.542107 -0.460595 -0.332032 -0.647862 -0.304417 0.304520 -0.281610 0.696450 -0.331339 0.835578 -0.663124 0.045539 -0.000156 -0.122044 -0.237616 -0.248974 0.385802 -0.143937 0.272952 -0.178869 -0.313527 0.198645 -0.053122 -0.202829 0.649601 
78 0.357005 0.645551 -0.422667 -0.930216 -0.600873 -0.045484 -0.521918 0.833191 0.090179 0.001425 0.033168 0.594521 0.036982 0.092082 0.059742 -0.076645 -0.278583 0.568355 -0.242753 0.377452 -0.192851 0.234507 0.044159 -0.225222 -0.226770 -0.031760 -0.071872 0.099900 0.013880 0.067302 -0.152671 -0.096696 0.256308 0.141537 0.150997 -0.245647 -0.229522 -0.256347 -0.430395 -0.119743 -0.133648 -0.198464 0.272613 -0.304568 -0.094627 0.951439 -0.167653 0.515230 -0.312928 0.351726 -0.121807 0.001954 -0.366359 -0.322795 0.213889 0.237407 -0.301362 -0.363630 0.101642 -0.088063 0.199391 0.258112 -0.559405 0.216756 -0.595588 -0.015910 -0.146566 0.146240 0.484482 0.007742 0.098934 -0.097141 0.124544 -0.236778 -0.318937 0.447178 -0.498581 -0.290722 -0.581915 -0.216301 0.258110 -0.334471 0.604859 -0.235360 0.724325 -0.646381 0.041855 -0.048224 -0.166385 -0.246158 -0.126832 0.341102 -0.203290 0.367074 -0.202094 -0.204529 0.137481 -0.086442 -0.253530 0.653433 
79 0.352852 0.593379 -0.353904 -0.852547 -0.653122 0.045397 -0.664547 0.898912 0.076252 0.020179 0.012013 0.637361 -0.028900 0.105606 0.014694 -0.072429 -0.316043 0.701815 -0.168251 0.430506 -0.160447 0.285403 0.073657 -0.250288 -0.276998 -0.074868 -0.100668 0.111960 0.018989 0.053239 -0.093915 -0.178290 0.226795 0.223008 0.076822 -0.277154 -0.205676 -0.232292 -0.409506 -0.120764 -0.112815 -0.289440 0.243215 -0.375478 -0.021187 1.070368 -0.156151 0.537096 -0.324168 0.321757 -0.039611 0.083034 -0.379050 -0.380393 0.228801 0.225004 -0.430091 -0.333490 0.206514 -0.106644 0.212929 0.268842 -0.582157 0.164476 -0.588002 0.045225 -0.109721 0.167416 0.361968 -0.002736 0.099771 -0.154956 0.153602 -0.204643 -0.283823 0.529770 -0.511042 -0.353327 -0.575065 -0.310830 0.355871 -0.399335 0.684527 -0.251667 0.791098 -0.691358 0.072257 -0.013720 -0.272028 -0.149177 -0.158735 0.424534 -0.228294 0.476979 -0.140889 -0.218431 0.119993 -0.080523 -0.320966 0.636281 
80 0.428121 0.476948 -0.243562 -0.861127 -0.578172 0.084787 -0.555255 0.741772 0.051293 0.076997 -0.040828 0.533175 0.014438 0.144750 -0.006178 -0.054776 -0.212341 0.562481 -0.178114 0.359654 -0.139337 0.226121 0.004055 -0.235701 -0.273438 -0.080647 -0.039108 0.092462 0.046375 0.051158 -0.113019 -0.069404 0.214597 0.198980 0.085406 -0.254538 -0.200657 -0.170375 -0.355078 -0.140647 -0.092531 -0.228894 0.254126 -0.417643 0.103416 1.028615 -0.132673 0.476166 -0.284356 0.210321 -0.095655 0.026690 -0.406126 -0.322277 0.146478 0.119928 -0.287017 -0.369313 0.079026 -0.190513 0.229780 0.203508 -0.457629 0.231213 -0.657771 -0.104407 -0.221977 0.028725 0.451518 0.090031 0.108914 -0.012119 0.253799 -0.246310 -0.327302 0.457687 -0.584790 -0.320169 -0.553209 -0.226919 0.301906 -0.469318 0.558109 -0.188013 0.628731 -0.608305 0.065583 -0.059763 -0.265687 -0.230825 -0.019497 0.415470 -0.312179 0.503200 -0.215773 -0.081872 0.011120 -0.080912 -0.351611 0.625753 
81 0.330019 0.473714 -0.142667 -0.708892 -0.653745 0.165301 -0.732076 0.905597 0.077023 0.121872 -0.053798 0.693907 0.035768 0.195329 -0.087705 -0.064291 -0.237154 0.753693 -0.175252 0.458752 -0.085816 0.294028 0.035956 -0.206328 -0.337364 -0.121592 -0.090512 0.135707 0.044644 0.016549 0.033845 -0.208721 0.215394 0.337942 0.017155 -0.285021 -0.163563 -0.095171 -0.398419 -0.140869 -0.068786 -0.406169 0.229551 -0.556463 0.197041 1.211227 -0.162250 0.531678 -0.314279 0.197060 0.046447 0.152609 -0.428227 -0.438678 0.162445 0.083247 -0.553446 -0.366359 0.236439 -0.221496 0.273998 0.270481 -0.554604 0.133331 -0.679119 -0.005612 -0.190340 0.093415 0.256723 0.074524 0.112412 -0.097251 0.288036 -0.162528 -0.262331 0.549756 -0.581007 -0.421848 -0.453752 -0.372395 0.471412 -0.467411 0.644573 -0.231060 0.666929 -0.651193 0.162028 -0.029106 -0.301094 -0.115083 -0.077490 0.575270 -0.338357 0.608248 -0.122515 -0.126230 0.005132 -0.070762 -0.438167 0.530001 
82 0.364115 0.404475 0.033588 -0.620957 -0.681828 0.220066 -0.749020 0.873654 0.047592 0.218753 -0.104806 0.742637 0.057055 0.229757 -0.178594 -0.063307 -0.194473 0.811396 -0.147312 0.445175 -0.115390 0.347500 0.036735 -0.220179 -0.435113 -0.189826 -0.114721 0.208360 0.044571 -0.001099 0.154228 -0.310880 0.132669 0.500099 -0.026878 -0.279419 -0.044015 -0.009400 -0.431283 -0.100939 0.014037 -0.493820 0.249298 -0.637407 0.333492 1.282243 -0.176833 0.496345 -0.349882 0.176386 0.068748 0.156782 -0.425041 -0.458369 0.106068 0.012330 -0.635292 -0.411102 0.102745 -0.310687 0.304505 0.239423 -0.588526 0.141161 -0.716556 -0.013930 -0.230083 0.044041 0.260225 0.146329 0.108178 -0.057783 0.367746 -0.165132 -0.257611 0.519893 -0.589551 -0.393692 -0.389242 -0.382762 0.467723 -0.499823 0.570238 -0.292439 0.627987 -0.617081 0.199705 0.005075 -0.307628 -0.095249 -0.018248 0.609562 -0.376372 0.681768 -0.174202 -0.111726 -0.087620 -0.105877 -0.547991 0.570995 
83 0.414016 0.329707 0.103959 -0.509081 -0.704110 0.235089 -0.764787 0.913509 0.023213 0.313007 -0.228695 0.761104 0.109077 0.233065 -0.235548 -0.039352 -0.163380 0.813303 -0.112773 0.432488 -0.104827 0.289083 0.072449 -0.251509 -0.449838 -0.250032 -0.139501 0.218810 0.053384 -0.048878 0.248301 -0.431262 0.070804 0.744360 -0.065614 -0.259911 0.026058 0.065125 -0.451776 -0.101590 0.146913 -0.589181 0.291007 -0.734388 0.444786 1.351478 -0.221948 0.476500 -0.373401 0.114988 0.102749 0.179615 -0.430191 -0.446175 0.034994 -0.077149 -0.667126 -0.416711 -0.028854 -0.406498 0.326381 0.205606 -0.635145 0.205916 -0.710522 -0.035922 -0.280057 -0.012396 0.227946 0.236695 0.150217 -0.056660 0.435317 -0.169065 -0.239373 0.475310 -0.558237 -0.388159 -0.283623 -0.414110 0.523237 -0.521425 0.496380 -0.314971 0.605757 -0.618592 0.257482 0.056999 -0.336994 -0.041158 0.031605 0.606926 -0.438302 0.817622 -0.250557 -0.040267 -0.196985 -0.164053 -0.656668 0.571076 
84 0.478040 0.278964 0.148791 -0.416986 -0.673304 0.269202 -0.753902 0.812810 -0.018068 0.365582 -0.278268 0.768150 0.188919 0.230778 -0.297479 0.025695 -0.230209 0.845512 -0.029233 0.421721 -0.137865 0.295204 0.114032 -0.326211 -0.511989 -0.249492 -0.189356 0.291268 -0.003960 -0.117455 0.339381 -0.565837 -0.017630 0.951814 -0.078053 -0.290047 0.138172 0.120255 -0.527504 -0.060220 0.286836 -0.704206 0.395878 -0.855156 0.577653 1.473257 -0.201971 0.457080 -0.403674 0.067341 0.161883 0.152689 -0.383050 -0.457289 -0.068790 -0.158873 -0.748050 -0.486162 -0.211545 -0.535060 0.324519 0.191030 -0.715391 0.292018 -0.762855 -0.103072 -0.338382 -0.147190 0.243645 0.312255 0.165088 -0.013923 0.560947 -0.172618 -0.231993 0.435105 -0.560632 -0.337614 -0.197984 -0.436957 0.527647 -0.511831 0.394854 -0.390756 0.592093 -0.608039 0.306215 0.114394 -0.382495 0.036812 0.078637 0.598644 -0.482318 0.935556 -0.316150 -0.032436 -0.338666 -0.267448 -0.773600 0.639984 
85 0.558182 0.275122 0.059335 -0.401537 -0.721641 0.175794 -0.704692 0.711838 -0.091838 0.484660 -0.424528 0.674667 0.201700 0.150443 -0.305249 0.028620 -0.243079 0.743269 0.084353 0.338995 -0.151828 0.291505 0.154806 -0.376121 -0.572057 -0.287075 -0.207471 0.376329 -0.022669 -0.193946 0.342757 -0.575920 -0.081008 1.098639 -0.118534 -0.295495 0.251594 0.213885 -0.421286 -0.034322 0.402245 -0.787977 0.484631 -0.889848 0.705464 1.494009 -0.247790 0.417321 -0.349512 0.017958 0.073450 0.123316 -0.382532 -0.416166 -0.107452 -0.257323 -0.681623 -0.558471 -0.469449 -0.650555 0.230381 0.111760 -0.594131 0.442967 -0.806018 -0.192901 -0.395566 -0.282653 0.260254 0.361101 0.211008 0.064050 0.623630 -0.234855 -0.198030 0.381453 -0.645609 -0.287787 -0.159147 -0.436962 0.481919 -0.413587 0.196889 -0.276919 0.461457 -0.570808 0.354104 0.154506 -0.354961 -0.036024 0.228241 0.517583 -0.573829 0.956529 -0.456386 0.068938 -0.404467 -0.295957 -0.800499 0.648726 
86 0.585862 0.508899 -0.057416 -0.858192 -0.600740 0.059157 -0.670117 0.694897 -0.018485 0.438568 -0.386028 0.643975 0.262959 0.288353 -0.216928 0.086491 -0.331772 0.875920 0.248020 0.300762 -0.158516 0.332129 0.225759 -0.315457 -0.590660 -0.163950 -0.126148 0.404358 0.016011 -0.143400 0.382062 -0.310618 -0.018072 0.960035 -0.112444 -0.218542 0.229235 0.381510 -0.277627 -0.057211 0.290352 -0.691759 0.390276 -1.101064 0.786190 1.231929 -0.238847 0.289952 -0.364773 -0.148255 -0.021739 0.181835 -0.537290 -0.362221 -0.082138 -0.304655 -0.315602 -0.617046 -0.513008 -0.822502 0.357184 -0.017337 -0.312138 0.410974 -0.804150 -0.443531 -0.392023 -0.313203 0.196088 0.255836 0.117673 0.244876 0.698446 -0.207358 -0.188981 0.350947 -0.632200 -0.307715 0.120714 -0.227820 0.455480 -0.400406 0.016400 0.019405 0.070660 -0.329174 0.342418 -0.057510 -0.293467 -0.137741 0.263711 0.569556 -0.550028 0.850127 -0.236653 0.207349 -0.186004 -0.049223 -0.578299 0.366561 
87 0.764153 0.456405 -0.380362 -1.499294 -0.379216 -0.080111 -0.443783 0.267842 -0.067813 0.308830 -0.345160 0.307278 0.143216 0.484316 -0.081460 0.187850 -0.260096 0.874171 0.657235 0.163020 -0.160546 0.195914 0.507664 -0.314481 -0.520774 0.031674 -0.008295 0.371748 -0.078650 -0.314080 0.088579 0.350468 0.116683 0.641257 0.066912 -0.151756 0.109603 0.525563 0.033531 -0.082626 0.072792 -0.482839 0.557562 -1.385135 0.706524 1.453054 -0.343540 0.264737 -0.258580 -0.222130 -0.170700 0.232955 -0.910684 -0.189825 -0.067287 -0.452956 0.440879 -0.978142 -0.767805 -1.127016 0.499034 -0.237784 -0.024091 0.685546 -0.889894 -0.840916 -0.576644 -0.643069 0.493822 -0.064931 -0.069780 0.544619 0.840772 -0.391774 -0.362152 0.452243 -0.746376 -0.287689 0.223332 0.252776 0.269802 -0.472857 -0.212758 0.423835 -0.426088 -0.242222 0.306101 -0.512446 -0.060787 -0.606198 0.391585 0.674550 -0.675622 0.675988 0.007854 0.550711 0.232131 0.334594 -0.342613 0.144530 
88 0.624176 0.355796 -0.077584 -0.628785 -0.718625 0.146034 -0.763295 0.749886 -0.070366 0.446398 -0.332810 0.603617 0.265684 0.406237 -0.202386 0.164861 -0.383357 0.912656 0.454274 0.213500 -0.195378 0.414209 0.379858 -0.315984 -0.616342 -0.146107 -0.122270 0.491592 0.002289 -0.248648 0.307020 -0.217545 -0.068798 0.985224 -0.220728 -0.237627 0.362760 0.373266 -0.282380 0.072240 0.214403 -0.667396 0.378969 -0.933396 0.725669 1.188209 -0.252848 0.288902 -0.171898 -0.084944 -0.018793 0.150540 -0.570065 -0.378064 -0.118086 -0.324497 -0.182647 -0.644798 -0.794241 -0.947410 0.319114 -0.130880 -0.266267 0.506953 -0.832934 -0.379924 -0.591793 -0.459809 0.173888 0.111053 0.019991 0.456998 0.899572 -0.195440 -0.189584 0.388034 -0.648299 -0.308977 0.169696 -0.151374 0.446284 -0.394744 0.028141 -0.014231 -0.053816 -0.274518 0.298921 -0.072209 -0.177933 -0.296218 0.200824 0.690891 -0.553197 0.801567 -0.187551 0.303672 -0.044471 0.049602 -0.551868 0.226133 
89 0.620796 0.268652 -0.173671 -1.090533 -0.578641 0.081950 -0.587008 0.366258 -0.096276 0.429372 -0.315933 0.395562 0.214254 0.556944 -0.089742 0.178045 -0.354025 0.986012 0.713408 0.105351 -0.268811 0.402503 0.609825 -0.322613 -0.600037 -0.124978 -0.019190 0.525929 -0.094433 -0.278524 0.199413 0.163494 0.039987 0.679271 -0.186467 -0.159120 0.276652 0.501170 -0.083867 0.055293 0.054155 -0.510122 0.422171 -1.027954 0.708086 1.318808 -0.217336 0.288018 -0.070095 -0.082449 -0.075403 0.170418 -0.648074 -0.330679 -0.097919 -0.349078 0.308861 -0.795357 -0.836114 -1.175809 0.389610 -0.248012 -0.025781 0.659173 -1.048334 -0.630096 -0.801129 -0.642484 0.403205 -0.083499 -0.137373 0.650809 1.027167 -0.380885 -0.377180 0.485108 -0.666629 -0.221417 0.171009 0.211438 0.318235 -0.409961 0.005193 0.095957 -0.342133 -0.283340 0.223827 -0.464595 0.050856 -0.639942 0.252005 0.694302 -0.659890 0.578362 -0.094154 0.454119 0.203520 0.301174 -0.281380 0.096859 
90 0.593766 0.221207 -0.189349 -1.192561 -0.587851 0.089620 -0.595440 0.436442 -0.010362 0.425671 -0.263658 0.457951 0.172427 0.631065 -0.118932 0.095100 -0.342083 1.003692 0.755378 0.061820 -0.244452 0.474868 0.578403 -0.184018 -0.583658 -0.093150 0.084278 0.456500 -0.134846 -0.314102 0.170411 0.334092 0.093319 0.601469 -0.145541 -0.121222 0.231078 0.468593 -0.150896 0.008678 -0.055055 -0.370684 0.391149 -1.090879 0.703502 1.285325 -0.240260 0.278418 -0.115624 -0.083507 -0.090445 0.144479 -0.723627 -0.274444 -0.088772 -0.375760 0.410329 -0.843668 -0.845213 -1.245062 0.488317 -0.238158 -0.030852 0.687826 -0.967380 -0.660149 -0.890695 -0.642624 0.432116 -0.123847 -0.172392 0.647551 1.057552 -0.341738 -0.388826 0.535315 -0.612196 -0.234737 0.213706 0.302311 0.264274 -0.378763 0.006252 0.098992 -0.508054 -0.157143 0.266313 -0.516826 0.093837 -0.747748 0.235426 0.814426 -0.660112 0.436773 -0.067154 0.412269 0.254919 0.426599 -0.326110 0.041090 
91 0.381078 0.215995 -0.036396 -0.639436 -0.852889 0.242810 -0.837874 0.789379 0.034221 0.433997 -0.183352 0.591455 0.284196 0.552325 -0.227718 0.080217 -0.420513 1.028175 0.501836 0.099008 -0.327808 0.595492 0.462744 -0.185487 -0.609170 -0.165590 -0.026743 0.639215 0.031068 -0.229974 0.393230 -0.027901 -0.064592 0.780411 -0.344440 -0.113694 0.511447 0.422724 -0.339937 0.147810 -0.003712 -0.583803 0.302168 -0.761569 0.711112 1.051297 -0.211259 0.277641 -0.025817 -0.062353 0.027885 0.154759 -0.434318 -0.426628 -0.105910 -0.323514 -0.129270 -0.600704 -0.800785 -0.994262 0.313058 -0.108099 -0.215625 0.407887 -0.898382 -0.279373 -0.874330 -0.534821 0.140564 -0.015583 -0.125970 0.479022 1.046677 -0.176987 -0.154272 0.514682 -0.557452 -0.225493 0.233538 -0.067334 0.437116 -0.410969 -0.004740 -0.091817 -0.268315 -0.137436 0.277359 -0.127387 0.064617 -0.431445 0.108339 0.759144 -0.557659 0.568236 -0.126376 0.235275 0.152198 0.217632 -0.436203 0.076718 
92 0.450929 0.238817 -0.063864 -1.101116 -0.688896 0.233659 -0.668296 0.508332 -0.033685 0.430690 -0.229359 0.381570 0.225081 0.645814 -0.099335 0.140164 -0.472292 1.057639 0.772561 0.068807 -0.305599 0.482439 0.623125 -0.153219 -0.525073 -0.012522 0.036493 0.504973 -0.113299 -0.267089 0.229965 0.337221 0.108412 0.492359 -0.186711 -0.173777 0.282668 0.439680 -0.236535 0.080463 -0.103524 -0.378037 0.380413 -0.902099 0.621217 1.225571 -0.119086 0.364691 0.041776 0.011303 -0.024155 0.042252 -0.597619 -0.339518 -0.137314 -0.387263 0.296018 -0.895265 -0.910795 -1.261949 0.367769 -0.175792 -0.004127 0.622035 -0.957312 -0.600031 -0.922341 -0.669454 0.384428 -0.120817 -0.204856 0.623307 1.014199 -0.253830 -0.305561 0.418308 -0.626809 -0.176694 0.163188 0.170591 0.355343 -0.282979 0.033328 0.057311 -0.395131 -0.146158 0.324955 -0.428927 0.137230 -0.711017 0.179292 0.904968 -0.578229 0.344792 -0.111404 0.251168 0.170184 0.348925 -0.281371 0.025484 
93 0.447416 0.162673 -0.147324 -1.176623 -0.724171 0.183915 -0.674351 0.586065 -0.048327 0.410654 -0.218916 0.449589 0.112155 0.571623 -0.104557 0.072191 -0.474480 1.069640 0.790006 0.087308 -0.252188 0.483463 0.581488 -0.116712 -0.510918 0.007437 0.071497 0.495125 -0.055286 -0.365705 0.187378 0.408310 0.114419 0.496266 -0.187507 -0.143779 0.228278 0.397701 -0.183321 0.052072 -0.068140 -0.368682 0.391425 -0.859362 0.528057 1.160336 -0.235065 0.372358 0.008652 -0.047533 -0.055643 0.116144 -0.568428 -0.256641 -0.082832 -0.300590 0.343111 -0.829299 -0.903663 -1.214036 0.421564 -0.216509 -0.060929 0.770400 -0.974222 -0.639083 -0.998352 -0.758281 0.380732 -0.152616 -0.190430 0.643595 1.104815 -0.263962 -0.310415 0.492652 -0.582296 -0.213780 0.223024 0.287682 0.344502 -0.316186 -0.008345 0.034327 -0.463913 -0.149164 0.310575 -0.441328 0.145828 -0.847746 0.192485 0.933225 -0.578611 0.288910 -0.085657 0.300924 0.174432 0.431895 -0.241238 -0.083370 
94 0.312892 0.219488 -0.108113 -1.053147 -0.770706 0.328490 -0.722540 0.544437 -0.003617 0.359447 -0.109789 0.437763 0.215116 0.530024 -0.110981 0.156056 -0.484021 1.058357 0.741453 0.149718 -0.264741 0.584271 0.602344 -0.109563 -0.520325 -0.006989 0.100965 0.568850 -0.026240 -0.338990 0.198302 0.310245 0.145026 0.398243 -0.268829 -0.152643 0.322769 0.362628 -0.163733 0.160076 -0.109313 -0.383682 0.330250 -0.785905 0.450934 1.113892 -0.166714 0.372074 0.115113 -0.006771 -0.048076 0.043332 -0.572081 -0.384428 -0.049074 -0.265860 0.277989 -0.839084 -0.981670 -1.241494 0.385202 -0.210313 -0.078582 0.730474 -0.995612 -0.571646 -0.974924 -0.743710 0.391564 -0.180717 -0.262260 0.633435 1.168855 -0.330654 -0.330521 0.458607 -0.557609 -0.157136 0.197250 0.217268 0.305636 -0.241004 0.033653 -0.067478 -0.447878 -0.111747 0.346183 -0.445405 0.121467 -0.811562 0.184680 0.932077 -0.563256 0.402920 -0.124519 0.280083 0.280327 0.358312 -0.281063 0.040461 
95 0.200600 0.231553 0.143988 -0.586686 -0.946277 0.342118 -0.881319 0.735331 -0.063385 0.497066 -0.220350 0.670910 0.287438 0.455501 -0.173124 0.080729 -0.489217 0.993458 0.478660 0.259294 -0.301200 0.644466 0.415980 -0.124547 -0.556006 -0.115212 -0.044576 0.584794 0.048240 -0.201832 0.301474 -0.052108 -0.013211 0.747482 -0.353268 -0.199381 0.435887 0.245490 -0.430152 0.245913 -0.045408 -0.454204 0.154014 -0.580859 0.531565 0.962091 -0.131623 0.321870 0.075611 -0.028500 0.091034 0.071288 -0.352605 -0.415999 -0.162073 -0.340326 -0.085515 -0.666018 -0.994184 -0.991402 0.275529 -0.128487 -0.243682 0.563196 -0.820656 -0.224025 -0.938211 -0.576930 0.203028 -0.043770 -0.173436 0.488393 1.019458 -0.159195 -0.115658 0.373057 -0.481873 -0.073711 0.217622 -0.071662 0.446571 -0.388628 -0.003168 -0.172148 -0.355952 -0.013210 0.295864 -0.170435 0.050909 -0.595246 0.140482 0.866021 -0.468450 0.446512 -0.248177 0.107911 0.001235 0.210809 -0.394470 0.047206 
96 0.106544 0.229303 0.070753 -0.632825 -0.933094 0.352049 -0.848664 0.782013 -0.043813 0.546974 -0.214268 0.624434 0.267439 0.437597 -0.120009 0.120860 -0.543583 0.985355 0.583187 0.228841 -0.259600 0.639737 0.418924 -0.165688 -0.495673 -0.075944 0.014489 0.530083 0.109940 -0.277327 0.252917 0.101721 0.063399 0.726075 -0.359036 -0.213740 0.436733 0.297809 -0.290628 0.218246 -0.040605 -0.501361 0.168820 -0.495275 0.419526 1.014024 -0.178566 0.373549 0.107957 0.027293 -0.041556 0.091762 -0.362445 -0.388465 -0.141811 -0.354864 0.018204 -0.638494 -1.039824 -0.958946 0.263993 -0.185262 -0.189482 0.515973 -0.808396 -0.237099 -0.903222 -0.544576 0.206479 0.015723 -0.117198 0.557791 1.089620 -0.215792 -0.189597 0.348933 -0.519148 -0.131021 0.235543 0.022745 0.459563 -0.346823 -0.022386 -0.158179 -0.382825 -0.094044 0.363943 -0.200380 0.079137 -0.660403 0.161772 0.958076 -0.396392 0.298198 -0.202496 0.160701 0.064613 0.222388 -0.355166 -0.033084 
97 0.203003 0.268066 -0.082298 -0.951119 -0.842341 0.343801 -0.763737 0.582780 -0.046092 0.501428 -0.214080 0.452652 0.252428 0.468759 -0.104449 0.151039 -0.566342 1.035533 0.762695 0.152863 -0.244871 0.546419 0.522241 -0.122068 -0.452055 0.107075 0.029652 0.481500 0.035124 -0.324067 0.179411 0.154737 0.154993 0.488078 -0.199061 -0.233197 0.295817 0.375758 -0.243725 0.209982 -0.102422 -0.391716 0.306374 -0.678922 0.433809 1.085133 -0.144129 0.439617 0.160751 0.089438 0.042040 0.034927 -0.400785 -0.378846 -0.170496 -0.327605 0.220529 -0.783280 -0.982353 -1.138998 0.286893 -0.153760 -0.066909 0.598934 -0.971802 -0.520223 -1.003929 -0.705060 0.311719 -0.061919 -0.148257 0.651842 1.052726 -0.225512 -0.296693 0.370790 -0.538635 -0.159171 0.228592 0.215470 0.417258 -0.288352 0.090433 -0.151122 -0.369020 -0.178213 0.345422 -0.431858 0.187618 -0.823166 0.240363 0.992554 -0.492672 0.182195 -0.217082 0.210859 0.059892 0.312184 -0.195512 0.001491 
98 -0.022953 0.238339 0.055266 -0.566667 -0.897401 0.440783 -0.928936 0.804094 -0.016627 0.601445 -0.283367 0.771044 0.334651 0.474856 -0.091404 0.234557 -0.540307 0.998548 0.580568 0.198481 -0.272975 0.659742 0.460605 -0.148712 -0.480117 -0.041745 -0.040171 0.541266 0.058787 -0.254668 0.275983 0.054338 0.060926 0.609618 -0.328623 -0.235588 0.363346 0.271270 -0.335620 0.209395 -0.001403 -0.446102 0.100675 -0.439108 0.343885 0.852926 -0.066820 0.408279 0.167255 -0.014954 0.035394 0.044746 -0.331077 -0.376777 -0.146029 -0.301323 0.016767 -0.614166 -0.879874 -0.985924 0.292534 -0.170470 -0.189128 0.569797 -0.791475 -0.258755 -0.961829 -0.565514 0.146647 -0.026825 -0.203674 0.489603 1.057158 -0.232770 -0.224660 0.317210 -0.407203 -0.065228 0.182049 0.075590 0.427501 -0.367505 0.018793 -0.147063 -0.381902 -0.082073 0.294847 -0.237280 0.163086 -0.723918 0.147368 0.917399 -0.511172 0.339390 -0.293855 0.161240 -0.033428 0.234049 -0.343841 -0.007285 
99 0.019912 0.128015 0.111303 -0.524891 -0.962088 0.400338 -0.885994 0.828760 0.098048 0.477343 -0.177016 0.697014 0.290816 0.416069 -0.173011 0.128066 -0.560620 0.987066 0.505409 0.176411 -0.281453 0.601874 0.525402 -0.118664 -0.394487 0.044675 -0.057162 0.572314 0.045020 -0.244516 0.371082 0.065361 0.016486 0.581465 -0.409242 -0.144171 0.448730 0.223527 -0.389575 0.253248 -0.200783 -0.603887 0.050935 -0.403386 0.336919 0.819576 -0.157051 0.301483 0.266111 0.030360 0.107909 -0.006167 -0.326956 -0.382819 -0.178369 -0.356928 0.026392 -0.615088 -1.024052 -0.986309 0.310066 -0.153672 -0.158381 0.557182 -0.873438 -0.219813 -0.937935 -0.518674 0.237056 -0.035356 -0.164604 0.526506 1.070042 -0.149747 -0.192009 0.362061 -0.464169 -0.091031 0.215413 -0.003389 0.462973 -0.446605 0.009270 -0.130390 -0.428412 -0.075231 0.275321 -0.199834 0.219061 -0.713165 0.240719 0.942467 -0.559362 0.319635 -0.464655 0.240138 0.021085 0.220654 -0.317686 0.084986 
100 0.036498 0.206434 -0.023749 -0.828671 -0.864376 0.398717 -0.866273 0.745268 0.064107 0.478233 -0.229665 0.502679 0.230000 0.337546 -0.005140 0.088212 -0.613258 0.926640 0.765060 0.141843 -0.195678 0.551442 0.500524 -0.091706 -0.372862 0.276456 0.032498 0.592848 0.099870 -0.303761 0.262381 0.219929 0.136340 0.407465 -0.325403 -0.275892 0.323802 0.295935 -0.280639 0.247035 -0.176156 -0.483898 0.211162 -0.488037 0.311740 0.996117 -0.062783 0.433301 0.248750 0.095883 0.052264 -0.077116 -0.380298 -0.321302 -0.198872 -0.333191 0.240791 -0.763762 -1.015204 -1.137150 0.273273 -0.170169 -0.087481 0.690833 -0.918308 -0.424327 -0.959597 -0.723531 0.299199 -0.076936 -0.167735 0.614480 1.065964 -0.235860 -0.326484 0.357129 -0.477816 -0.058883 0.142497 0.167515 0.422602 -0.304121 0.069093 -0.077279 -0.329583 -0.125329 0.327734 -0.339515 0.145021 -0.945450 0.252874 1.132720 -0.576586 0.246208 -0.467552 0.219967 -0.093087 0.271273 -0.158418 0.062178 
101 -0.059632 0.064338 0.106262 -0.549318 -0.958023 0.448736 -0.895143 0.847706 -0.033164 0.489527 -0.192067 0.607260 0.231610 0.396533 -0.100950 0.130220 -0.618819 0.960609 0.552045 0.186400 -0.320801 0.628521 0.426913 -0.144481 -0.407642 0.151655 -0.101390 0.574753 0.081642 -0.248402 0.264528 -0.039048 -0.001527 0.478104 -0.393060 -0.232979 0.409692 0.267783 -0.289877 0.218252 -0.157362 -0.524992 0.085671 -0.333530 0.328970 0.715534 -0.028823 0.297677 0.215466 0.105021 0.093390 -0.098625 -0.358896 -0.396180 -0.244003 -0.381558 0.148005 -0.640196 -1.065548 -1.062638 0.227521 -0.128235 -0.279150 0.442811 -0.843394 -0.167572 -1.025647 -0.552932 0.172847 -0.003025 -0.145675 0.522686 1.056276 -0.180934 -0.105448 0.287088 -0.393350 0.018925 0.152333 0.058569 0.576385 -0.360910 0.006539 -0.034070 -0.328142 -0.067931 0.244427 -0.241992 0.204748 -0.785539 0.136271 1.039198 -0.524726 0.429311 -0.431937 0.180038 -0.051462 0.191248 -0.242069 0.021551 
102 -0.056425 0.120082 0.140084 -0.526371 -1.021036 0.358749 -0.927869 0.823786 -0.036852 0.457607 -0.174643 0.583494 0.283108 0.315856 -0.111607 0.007497 -0.617614 0.961510 0.605097 0.207841 -0.201588 0.603015 0.354655 -0.094455 -0.437241 0.125078 -0.052940 0.602153 0.069784 -0.376836 0.289453 0.065687 -0.029176 0.512345 -0.444411 -0.172340 0.387717 0.263756 -0.278802 0.227864 -0.087149 -0.415174 0.127183 -0.325206 0.387094 0.890309 -0.111901 0.303542 0.201366 0.071766 0.040088 -0.043822 -0.327288 -0.281389 -0.261133 -0.399531 0.127195 -0.597548 -1.034235 -0.841605 0.182565 -0.153987 -0.256342 0.491708 -0.743594 -0.171183 -1.020134 -0.616150 0.154519 -0.029177 -0.084092 0.532251 0.986065 -0.155579 -0.138855 0.276699 -0.313615 0.042541 0.198759 0.136023 0.472641 -0.302829 -0.017485 -0.139872 -0.323169 0.035371 0.197754 -0.223952 0.121218 -0.799188 0.105056 1.032349 -0.510198 0.468782 -0.411539 0.273861 -0.041587 0.193839 -0.252129 -0.008346 
103 -0.057985 0.211202 0.183756 -0.658887 -0.953152 0.408034 -0.984007 0.795487 0.075321 0.512486 -0.135443 0.669563 0.231427 0.301520 -0.070887 0.057792 -0.553971 0.889168 0.552963 0.236568 -0.231765 0.612266 0.517387 -0.032373 -0.352498 0.208592 -0.083221 0.641894 0.053641 -0.309673 0.297346 -0.051066 0.035969 0.498682 -0.393098 -0.205795 0.448003 0.264446 -0.343761 0.255226 -0.200411 -0.571778 0.078148 -0.336940 0.292942 0.771135 -0.167449 0.316907 0.201200 0.108225 0.092050 -0.011209 -0.271554 -0.389445 -0.224252 -0.333378 0.158997 -0.589240 -1.064995 -0.815720 0.127811 -0.149886 -0.290448 0.563864 -0.856273 -0.168664 -1.056288 -0.559573 0.257249 -0.025938 -0.118269 0.634306 1.054099 -0.131529 -0.196505 0.404568 -0.317713 0.006637 0.280137 0.068479 0.532479 -0.319627 -0.030073 -0.198612 -0.321716 0.008714 0.206770 -0.172138 0.253077 -0.840948 0.133558 1.150541 -0.513284 0.325364 -0.410245 0.262638 -0.084232 0.139753 -0.258615 0.110401 
