256 100
0 0.097234 -0.785865 0.101127 -0.151822 0.391142 -0.102128 -0.899482 -0.027612 -0.009661 0.205477 0.303589 0.625552 -0.674451 -0.066347 -0.984279 -0.284479 -1.056577 -0.206863 0.292456 0.533104 0.320287 0.686692 0.603121 -0.003864 -0.149584 0.008367 -0.159754 -0.153066 0.480823 -0.769900 -0.256153 -0.141199 -0.058129 -0.245121 -0.097720 0.051343 -0.312298 -0.121091 0.358709 -0.235663 -0.234641 -0.495879 0.148929 0.649367 0.469807 0.523808 -0.485265 -0.135398 0.512541 0.683557 -0.462255 -0.565491 -0.900569 -0.628483 -0.641570 -0.008263 0.605414 0.396608 -0.000311 -0.073675 0.189336 0.134016 -0.779362 -0.615960 0.990119 -1.753166 -0.237278 -0.636928 0.082545 -0.447361 -0.520008 0.310233 -0.197967 -0.621590 -0.340140 0.516703 -0.024762 0.535974 0.306759 -1.287237 0.056306 -0.439493 -0.707713 0.379878 0.493100 -0.594837 -0.426814 0.250747 -0.105635 0.116291 -0.237480 -0.451297 -0.682495 0.072119 -0.206115 0.549993 0.406047 -0.300200 0.506375 -0.242500 
1 0.287195 -0.626309 0.331688 -0.445484 0.188903 0.135948 -0.664356 0.070524 -0.322141 0.429477 0.090258 0.404288 -0.347825 0.014278 -1.019124 -0.705521 -0.890920 -0.114378 0.016883 0.403134 0.889142 0.610158 0.414524 -0.122741 0.227289 -0.145192 -0.218905 -0.238540 0.478506 -0.432563 -0.251314 -0.472296 -0.475492 0.391047 -0.854521 -0.340265 0.325022 -0.000274 0.411043 -1.222625 0.063250 -0.799582 0.439256 0.911327 -0.278424 -0.141130 0.363351 0.209619 0.762648 0.871043 -1.086194 -0.618929 -2.324785 -1.170422 -0.211658 -0.051340 0.715482 0.943002 -0.028378 0.635997 -0.145654 -0.745107 -0.452115 -0.276769 1.735258 -1.645094 0.206142 -1.166040 -0.079251 -0.763162 -0.616720 1.332199 -0.491458 -0.545709 -0.432159 1.457336 0.233328 1.597431 -0.407024 -2.471762 0.407493 -1.370836 -0.726639 0.741847 -0.033384 -1.148646 -0.434660 0.346194 0.273152 0.490849 -0.688582 0.516524 -0.803272 0.977406 -0.800051 1.479837 0.325549 -0.191793 0.485199 -0.850504 
2 0.164862 -0.805508 0.108606 0.478947 0.057399 0.133445 -0.411106 -0.093849 -0.391188 0.226165 -0.020191 0.224352 -0.302066 0.173010 -0.625678 -0.559225 -0.416036 -0.322935 -0.173635 0.469181 0.121931 0.270396 0.244693 -0.056756 -0.017245 -0.221352 0.253557 0.001776 0.070902 -0.643687 -0.502908 0.240020 0.027465 -0.270931 -0.321653 -0.079448 -0.536635 -0.191297 0.430251 -0.895908 -0.182075 -0.481599 -0.226580 0.217891 0.018081 -0.191970 -0.947519 0.165957 0.754119 0.623511 -1.138763 -0.856977 -0.887200 -0.657169 -1.022294 0.218644 0.793165 0.754618 0.108307 0.084122 0.372777 -0.141402 -0.399209 -0.849630 0.541806 -1.150078 0.158924 -0.452838 0.016987 -0.392522 -0.537476 0.330629 -0.217175 0.020780 0.053599 0.279843 -0.223197 1.065578 -0.108695 -1.148729 0.436364 -0.490142 -0.363564 0.289083 0.174997 -0.670194 -0.056042 -0.277190 0.360318 0.399943 -0.011644 -0.060951 -0.495701 0.151444 -0.305540 0.068727 -0.213423 -0.128402 0.514941 -0.098080 
3 -0.225048 -0.522810 -0.217857 0.173238 -0.007443 0.272279 -0.332090 0.030639 -0.653729 0.010765 -0.018076 0.227410 -0.269254 0.049276 -0.423363 -0.682760 -0.141847 -0.247593 -0.288217 0.303605 0.210943 0.385018 0.340114 -0.147656 -0.264880 -0.319408 -0.059943 -0.160874 -0.207653 -0.634763 -0.648964 0.273875 -0.008363 -0.362283 -0.186433 -0.064301 -0.726027 -0.242383 0.436273 -0.312151 -0.247265 -0.474042 -0.108860 0.093872 -0.055478 -0.044440 -1.151010 0.026917 0.723996 0.481523 -1.236416 -1.020726 -0.765157 -0.469445 -1.006635 0.266638 0.586212 0.677301 -0.278006 -0.093274 0.331576 -0.015343 -0.445639 -0.712003 0.202578 -1.271064 0.108436 -0.372542 -0.188310 -0.306393 -0.598390 0.181607 -0.042760 0.112975 0.250251 0.277467 -0.452421 1.068238 -0.018013 -1.074988 0.509654 0.062650 -0.449348 0.174898 0.292873 -0.457917 -0.225403 -0.300460 0.463453 0.537339 0.105451 -0.134134 -0.188436 -0.069439 -0.319976 -0.174162 -0.050223 -0.258918 0.474516 -0.267246 
4 -0.405601 -0.441016 -0.156124 0.281479 0.004608 0.416259 -0.285359 -0.063932 -0.938215 -0.001301 -0.042850 0.395388 -0.277939 0.016979 -0.477131 -0.669443 0.078612 -0.348684 -0.433295 0.372252 0.003714 0.409813 0.446330 -0.158329 -0.360338 -0.372847 -0.190794 -0.258005 -0.327021 -0.643997 -0.732178 0.394973 -0.092931 -0.639216 -0.141106 0.194769 -0.885585 -0.222145 0.276498 0.036317 -0.172266 -0.378599 -0.265341 0.053099 -0.006002 -0.122975 -1.060875 -0.085379 0.758906 0.475144 -1.114841 -0.974620 -0.585470 -0.231747 -0.857751 0.189376 0.348873 0.611109 -0.366809 -0.257447 0.184536 -0.006278 -0.240526 -0.826634 0.043430 -1.237824 0.037602 -0.270002 -0.285161 -0.122818 -0.558558 0.207230 0.057929 0.250233 0.376038 0.240954 -0.547362 0.905648 0.001699 -0.724566 0.365583 0.183345 -0.605671 -0.026403 0.452230 -0.340466 -0.163855 -0.283718 0.174961 0.495143 -0.054279 -0.246224 0.045106 -0.189084 -0.395456 -0.156212 -0.115705 -0.255613 0.498760 -0.436978 
5 -0.237533 -0.147235 -0.154013 0.457182 0.032529 0.308214 -0.237481 0.021289 -1.036333 -0.060055 -0.121089 0.565827 -0.152237 0.001469 -0.539040 -0.661242 0.349396 -0.541387 -0.363195 0.548772 -0.024232 0.449138 0.420883 -0.106341 -0.477770 -0.425801 -0.175420 -0.307204 -0.329451 -0.622902 -0.800851 0.481330 -0.163968 -0.758356 -0.157743 0.388377 -0.955279 -0.115602 0.204654 0.060720 -0.050095 -0.186216 -0.362450 -0.095587 0.227406 -0.295544 -1.025608 -0.274526 0.621762 0.438739 -1.190950 -0.757636 -0.377079 -0.078122 -0.813354 0.211504 0.215101 0.549569 -0.409783 -0.395644 0.061505 0.140481 -0.294324 -0.872646 -0.118857 -1.146004 -0.090176 -0.092441 -0.226004 -0.127440 -0.530170 0.222872 0.090239 0.431801 0.286358 0.156778 -0.514185 0.751777 0.090204 -0.467348 0.229742 0.146460 -0.557819 -0.175390 0.431297 -0.367662 -0.140605 -0.273503 0.041471 0.550914 -0.237250 -0.313420 0.068780 -0.355011 -0.282726 -0.300236 -0.150885 -0.225099 0.665155 -0.463760 
6 -0.200564 0.014092 -0.263773 0.570170 0.039615 0.224314 -0.140678 0.103998 -1.142796 -0.167472 -0.128404 0.568330 -0.045633 -0.053140 -0.488143 -0.547761 0.522382 -0.572648 -0.360776 0.734999 -0.144455 0.408279 0.451368 -0.097037 -0.599444 -0.433927 -0.207634 -0.272514 -0.321061 -0.494895 -0.827086 0.498489 -0.214658 -0.885730 -0.211918 0.472678 -0.993026 0.017361 0.256266 -0.034712 -0.038824 -0.105552 -0.506595 -0.265943 0.266816 -0.343999 -1.093251 -0.429269 0.419036 0.313457 -1.312203 -0.540825 -0.144867 -0.051400 -0.770610 0.242234 0.127114 0.516938 -0.476575 -0.498890 -0.052844 0.345035 -0.329376 -0.685181 -0.227392 -0.965656 -0.151962 -0.067316 -0.122910 -0.131641 -0.535078 0.137667 0.113706 0.430032 0.279493 0.000234 -0.530455 0.722074 0.093641 -0.386466 0.186145 0.033368 -0.494369 -0.212456 0.378966 -0.323755 -0.109177 -0.263391 -0.078903 0.662133 -0.232108 -0.349103 0.106090 -0.360535 -0.323016 -0.475074 -0.179095 -0.217141 0.697161 -0.462849 
7 -0.169099 0.070390 -0.443688 0.710305 0.134632 0.206459 0.027915 0.209632 -1.133376 -0.260360 -0.155184 0.467331 0.046670 -0.166481 -0.441844 -0.440787 0.690481 -0.523819 -0.381340 0.841316 -0.278218 0.369742 0.419487 -0.107579 -0.769332 -0.429727 -0.245714 -0.270203 -0.322005 -0.402045 -0.737641 0.444612 -0.228551 -0.954948 -0.264740 0.435141 -1.037763 0.002397 0.385438 -0.106324 -0.092609 0.031161 -0.632381 -0.352552 0.363588 -0.406586 -1.175933 -0.625277 0.313240 0.157540 -1.426895 -0.454308 0.095583 -0.018734 -0.716059 0.309505 0.100614 0.416287 -0.512062 -0.602708 -0.176734 0.552121 -0.373095 -0.562088 -0.327631 -0.871708 -0.164007 0.069560 -0.069810 -0.119276 -0.595780 -0.002181 0.118754 0.508363 0.317263 -0.105433 -0.605133 0.733607 0.091589 -0.335626 0.096288 0.048218 -0.457035 -0.194617 0.335415 -0.208220 -0.085869 -0.082197 -0.225604 0.843689 -0.192722 -0.416602 0.138482 -0.359530 -0.244242 -0.471790 -0.164911 -0.132562 0.610221 -0.430988 
8 -0.238642 0.000528 -0.609848 0.872665 0.243522 0.266169 0.099308 0.223957 -1.135793 -0.274066 -0.135077 0.438837 0.105649 -0.242373 -0.396939 -0.264810 0.867927 -0.385086 -0.468126 0.931162 -0.424197 0.406637 0.506685 -0.071940 -0.868706 -0.376596 -0.277038 -0.364341 -0.349501 -0.279750 -0.579608 0.324396 -0.232848 -1.038188 -0.257764 0.441953 -1.039068 0.000097 0.493219 -0.147014 -0.153558 0.194867 -0.703756 -0.383492 0.373998 -0.425666 -1.210353 -0.680606 0.281442 0.102614 -1.389684 -0.395856 0.365793 0.011998 -0.738087 0.339010 0.119623 0.409182 -0.562202 -0.690892 -0.229858 0.663207 -0.345605 -0.453326 -0.452792 -0.817350 -0.102440 0.177330 -0.068180 -0.110323 -0.651393 -0.058287 0.189330 0.533936 0.343050 -0.192888 -0.699302 0.752406 0.157945 -0.297135 -0.061566 0.076073 -0.500831 -0.254010 0.429628 0.003163 0.047485 0.195949 -0.435941 0.980603 -0.200092 -0.471580 0.148631 -0.504161 -0.215888 -0.476487 -0.209532 -0.037766 0.457137 -0.377519 
9 -0.374654 0.077537 -0.729678 0.992800 0.248804 0.283239 0.172552 0.330685 -1.095577 -0.212221 -0.161845 0.528045 0.124253 -0.257319 -0.341200 -0.058045 1.015839 -0.310437 -0.490861 0.966047 -0.435705 0.463421 0.592121 -0.113905 -0.966694 -0.332271 -0.342969 -0.410782 -0.502708 -0.221574 -0.345779 0.253878 -0.207894 -1.130968 -0.202135 0.532958 -1.079973 0.129529 0.486352 -0.173805 -0.300609 0.311643 -0.761204 -0.340730 0.393837 -0.441032 -1.255915 -0.692698 0.287095 0.013808 -1.361250 -0.396203 0.613912 0.080631 -0.846735 0.375295 0.131416 0.459693 -0.479963 -0.831413 -0.179760 0.737937 -0.349660 -0.392166 -0.575491 -0.798194 0.005383 0.324690 -0.006885 -0.133432 -0.630758 -0.031826 0.337958 0.603252 0.335322 -0.402752 -0.798274 0.775970 0.154630 -0.309023 -0.158613 0.130297 -0.514932 -0.381624 0.561578 0.140738 0.095904 0.449156 -0.537673 1.073292 -0.176318 -0.483287 0.177891 -0.480681 -0.180399 -0.393478 -0.298444 0.005754 0.276189 -0.370505 
10 -0.452448 0.201145 -0.763515 1.031691 0.322662 0.205274 0.185823 0.453347 -0.973788 -0.191761 -0.164992 0.632002 0.120639 -0.329293 -0.336322 -0.017926 1.130013 -0.277722 -0.469724 0.980916 -0.427362 0.506402 0.571914 -0.188700 -1.088002 -0.352180 -0.381299 -0.478709 -0.668895 -0.267074 -0.220200 0.159371 -0.223373 -1.159967 -0.150285 0.641357 -1.074507 0.253360 0.414889 -0.207263 -0.425766 0.452698 -0.868970 -0.246073 0.472067 -0.445850 -1.263439 -0.742513 0.266189 -0.032850 -1.349874 -0.425076 0.774448 0.210799 -0.960619 0.390282 -0.030527 0.524981 -0.498842 -0.888827 -0.181096 0.852139 -0.327488 -0.505795 -0.725560 -0.805043 0.075510 0.499415 0.077035 -0.156747 -0.595812 0.025423 0.352193 0.716229 0.348950 -0.423152 -0.783974 0.722662 0.172430 -0.227243 -0.289460 0.248463 -0.662933 -0.470494 0.595889 0.220170 0.122394 0.617096 -0.614393 1.116155 -0.231345 -0.468975 0.205120 -0.509814 -0.067880 -0.297825 -0.301866 0.084462 0.295134 -0.397876 
11 -0.571632 0.301438 -0.819744 1.013026 0.363505 0.232862 0.240781 0.470918 -0.905706 -0.211836 -0.208544 0.785086 0.095795 -0.378456 -0.283768 0.075700 1.185479 -0.301700 -0.435070 1.038720 -0.402885 0.453258 0.636211 -0.111398 -1.212786 -0.358378 -0.519857 -0.452090 -0.789510 -0.350499 -0.126217 0.103178 -0.313705 -1.292075 -0.153476 0.658637 -1.106106 0.281031 0.209574 -0.299730 -0.572605 0.548968 -1.027352 -0.189695 0.479705 -0.387880 -1.335533 -0.833192 0.263571 -0.077851 -1.360391 -0.408335 0.928339 0.370685 -1.096011 0.392655 -0.209195 0.618632 -0.506930 -1.008342 -0.124827 0.885246 -0.328032 -0.602554 -0.864710 -0.669493 0.014440 0.534592 0.206580 -0.135245 -0.478738 0.065169 0.342499 0.692110 0.369131 -0.481981 -0.749673 0.677652 0.160639 -0.095115 -0.334979 0.270342 -0.741557 -0.503975 0.599438 0.258326 0.116175 0.697756 -0.679753 1.050354 -0.230626 -0.449880 0.207215 -0.559349 0.016938 -0.310472 -0.331441 0.159147 0.368136 -0.337262 
12 -0.704250 0.406489 -0.860090 0.904599 0.334762 0.212523 0.242990 0.487032 -0.843457 -0.163296 -0.251937 0.775017 0.039572 -0.408657 -0.299847 0.117174 1.225830 -0.348479 -0.385080 1.014687 -0.444943 0.504379 0.630511 -0.124191 -1.218733 -0.376884 -0.562073 -0.450147 -0.817710 -0.283898 -0.052437 0.064117 -0.470760 -1.306890 -0.202545 0.669923 -1.119776 0.331957 0.050775 -0.339295 -0.610491 0.632856 -1.090850 -0.247469 0.382312 -0.389635 -1.371806 -0.888729 0.223890 -0.121787 -1.402047 -0.411601 0.927206 0.426774 -1.186624 0.357007 -0.321267 0.711955 -0.448741 -0.969785 -0.035577 0.869503 -0.283649 -0.678615 -0.964873 -0.611663 -0.089416 0.523545 0.163761 -0.084766 -0.447470 0.020203 0.250642 0.648265 0.344355 -0.516373 -0.760862 0.767831 0.259416 -0.051724 -0.344925 0.244271 -0.777120 -0.513785 0.574588 0.282779 0.207471 0.631769 -0.673647 0.994581 -0.182136 -0.529350 0.133195 -0.599365 0.013081 -0.429331 -0.449860 0.186057 0.467336 -0.216801 
13 -0.775787 0.477880 -0.839513 0.795987 0.411841 0.229265 0.216225 0.575855 -0.778852 -0.158322 -0.278102 0.865688 -0.047226 -0.331436 -0.220097 0.085546 1.100487 -0.427130 -0.354815 0.994358 -0.471151 0.555358 0.507163 -0.153105 -1.111106 -0.274665 -0.689549 -0.354472 -0.780711 -0.247005 -0.154949 0.079837 -0.468857 -1.316345 -0.186603 0.635479 -1.164329 0.336983 -0.070101 -0.236385 -0.692266 0.630125 -1.142333 -0.267104 0.317768 -0.457518 -1.312717 -0.929000 0.140960 -0.222609 -1.341566 -0.391087 0.861844 0.411737 -1.162297 0.347361 -0.284131 0.727555 -0.429103 -0.935358 0.017602 0.854047 -0.282919 -0.794102 -0.873046 -0.604571 -0.080228 0.492468 0.228135 -0.123936 -0.469496 -0.045328 0.238266 0.524155 0.386320 -0.502625 -0.756543 0.836674 0.232161 0.106250 -0.320310 0.242197 -0.740327 -0.418450 0.540692 0.262714 0.164677 0.568627 -0.656973 0.946520 -0.212182 -0.596331 0.044652 -0.472820 -0.072172 -0.372979 -0.560011 0.268308 0.577094 -0.199395 
14 -0.751598 0.409887 -0.841334 0.739395 0.489534 0.228214 0.172015 0.500076 -0.669196 -0.098330 -0.335501 0.798867 -0.102803 -0.250162 -0.241510 0.028044 1.044242 -0.422248 -0.346002 0.903132 -0.442673 0.519171 0.525592 -0.123817 -1.005631 -0.285068 -0.701670 -0.273956 -0.703365 -0.305907 -0.234944 0.090519 -0.467488 -1.139713 -0.276712 0.513185 -1.131539 0.254153 0.000742 -0.106103 -0.647772 0.594664 -0.920661 -0.101463 0.312179 -0.490290 -1.144081 -1.002505 0.056949 -0.175363 -1.165794 -0.299920 0.720476 0.469508 -0.992321 0.352024 -0.150141 0.701320 -0.399912 -0.818676 -0.025425 0.784284 -0.285594 -0.735310 -0.769152 -0.597641 -0.073952 0.358303 0.135822 -0.112424 -0.391814 -0.042972 0.124807 0.404873 0.389563 -0.327926 -0.740166 0.932664 0.225754 0.165369 -0.239567 0.271809 -0.674587 -0.336824 0.521602 0.124638 0.066198 0.443931 -0.685293 0.890444 -0.301063 -0.560346 -0.011344 -0.440213 -0.121298 -0.375080 -0.612344 0.288542 0.578215 -0.217094 
15 -0.695209 0.407302 -0.895716 0.707695 0.480195 0.269794 0.196031 0.521436 -0.622158 -0.069734 -0.323617 0.680153 -0.248642 -0.245177 -0.228122 0.080499 0.981671 -0.450508 -0.302033 0.863389 -0.330666 0.581321 0.479888 -0.102072 -0.920196 -0.315645 -0.652792 -0.206873 -0.667806 -0.244591 -0.211263 0.036319 -0.474943 -1.014473 -0.184905 0.467599 -1.045591 0.155875 0.049914 -0.156829 -0.607930 0.657218 -0.735245 -0.152672 0.388419 -0.482575 -1.117595 -1.032223 0.058544 -0.241030 -1.175442 -0.333371 0.544682 0.406287 -0.915407 0.347564 -0.152715 0.689924 -0.416160 -0.718232 -0.000311 0.809627 -0.282800 -0.776999 -0.635938 -0.644516 -0.129449 0.318996 -0.038978 -0.049425 -0.508047 -0.024691 0.064602 0.343910 0.400134 -0.201508 -0.643644 0.998101 0.339905 0.222092 -0.108116 0.288520 -0.599812 -0.308574 0.582153 0.150949 0.012164 0.364081 -0.584461 0.907953 -0.305958 -0.568506 -0.183645 -0.412705 -0.103311 -0.305300 -0.645381 0.320210 0.574585 0.000729 
16 -0.632780 0.398880 -0.791603 0.555834 0.433203 0.368647 0.219073 0.421812 -0.557877 0.046289 -0.363314 0.712614 -0.287334 -0.134920 -0.250738 0.056013 0.893927 -0.400695 -0.291118 0.799749 -0.232345 0.626269 0.590172 -0.064894 -0.763999 -0.251963 -0.730485 -0.208629 -0.619937 -0.218126 -0.228235 0.074363 -0.554592 -0.911007 -0.183859 0.423555 -0.894426 0.166625 0.185671 -0.084523 -0.485696 0.658823 -0.451577 -0.142660 0.349031 -0.415304 -1.009737 -1.058519 -0.021968 -0.206826 -1.131884 -0.303803 0.370707 0.309545 -0.828546 0.331380 -0.125352 0.716829 -0.482387 -0.637717 0.004622 0.723498 -0.285002 -0.738359 -0.598055 -0.660034 -0.169417 0.158693 -0.083963 -0.069767 -0.509930 0.047135 -0.036623 0.216972 0.372896 -0.095471 -0.571602 0.959916 0.344765 0.251388 -0.001074 0.298862 -0.589457 -0.334012 0.561377 0.121638 -0.036832 0.225593 -0.578986 0.832786 -0.281131 -0.605564 -0.254341 -0.429192 -0.199470 -0.335372 -0.597149 0.329521 0.599260 0.078624 
17 -0.592358 0.355999 -0.659347 0.508300 0.443446 0.385493 0.214048 0.369303 -0.645431 0.127788 -0.388587 0.684119 -0.360083 -0.062683 -0.320160 0.046451 0.832582 -0.375442 -0.322842 0.778241 -0.180214 0.645923 0.560938 -0.029547 -0.638866 -0.317428 -0.691145 -0.176026 -0.582434 -0.215987 -0.151055 0.095684 -0.481103 -0.803665 -0.162392 0.413328 -0.834260 0.130307 0.302318 -0.139432 -0.376124 0.517743 -0.276071 -0.082629 0.290033 -0.367249 -0.883780 -1.062220 -0.211161 -0.138001 -1.032405 -0.213753 0.215270 0.266414 -0.689149 0.278962 -0.001581 0.775656 -0.471140 -0.539246 -0.074577 0.655942 -0.169529 -0.577886 -0.513968 -0.597401 -0.198535 0.109098 -0.158193 -0.064175 -0.385387 0.099286 -0.063883 0.165871 0.353726 0.049844 -0.508013 1.030126 0.377931 0.158470 0.084472 0.285089 -0.542186 -0.341253 0.490365 0.039025 -0.059076 0.123092 -0.609803 0.769587 -0.287688 -0.516857 -0.261317 -0.405266 -0.219215 -0.187303 -0.626572 0.260409 0.524056 0.133732 
18 -0.425343 0.261339 -0.528628 0.502871 0.415812 0.429579 0.226505 0.380609 -0.550446 0.308891 -0.360285 0.679117 -0.493340 0.054476 -0.326488 0.063060 0.783720 -0.371683 -0.338455 0.823572 -0.119153 0.722316 0.588689 -0.021278 -0.552563 -0.257654 -0.720320 -0.171016 -0.620183 -0.177600 -0.136157 0.126149 -0.413476 -0.735765 -0.036530 0.371782 -0.825637 0.059557 0.383901 0.000555 -0.321378 0.458422 -0.102280 -0.046520 0.293415 -0.396499 -0.801792 -1.023322 -0.315489 -0.256915 -1.049352 -0.244720 0.156530 0.221223 -0.660387 0.220657 -0.022736 0.712642 -0.383852 -0.416730 -0.120404 0.702769 -0.182629 -0.496218 -0.409058 -0.615545 -0.301768 0.115302 -0.216205 -0.179320 -0.356184 0.098104 -0.096530 0.159310 0.360986 0.120338 -0.415334 0.998980 0.371706 0.170261 0.172111 0.425477 -0.554488 -0.432747 0.510923 -0.047329 -0.114058 0.153820 -0.612271 0.815327 -0.291591 -0.632003 -0.226176 -0.370968 -0.217020 -0.159704 -0.591638 0.322235 0.400842 0.106942 
19 -0.370270 0.288231 -0.457254 0.439608 0.357405 0.529902 0.144486 0.329335 -0.554109 0.405250 -0.320448 0.611578 -0.625812 0.088549 -0.325339 0.104059 0.637444 -0.317820 -0.305259 0.771647 -0.035676 0.749424 0.597559 -0.064406 -0.419334 -0.263176 -0.740784 -0.133285 -0.571016 -0.288065 -0.100110 0.115116 -0.403103 -0.664591 -0.089225 0.233094 -0.769200 0.007921 0.423352 -0.011736 -0.234997 0.343909 -0.019047 0.099764 0.326362 -0.414626 -0.792791 -0.919838 -0.336327 -0.250298 -0.989213 -0.151979 -0.017290 0.160115 -0.613392 0.163938 0.065949 0.723179 -0.414642 -0.394829 -0.191872 0.570706 -0.167486 -0.340343 -0.324064 -0.559074 -0.335631 -0.068807 -0.181475 -0.185548 -0.175010 0.071015 -0.171704 0.140693 0.449077 0.162706 -0.453085 0.989210 0.267693 0.012929 0.260985 0.336091 -0.590461 -0.367762 0.454622 -0.042798 -0.189120 0.046053 -0.549365 0.801623 -0.257420 -0.539898 -0.233598 -0.286434 -0.098581 -0.022089 -0.574251 0.208180 0.308660 0.066988 
20 -0.364818 0.364768 -0.413252 0.393719 0.374404 0.558760 0.182605 0.316288 -0.569594 0.399574 -0.319834 0.596301 -0.648465 0.134432 -0.312832 0.072127 0.622456 -0.256521 -0.363206 0.836086 0.042738 0.725520 0.632506 -0.022952 -0.421286 -0.269339 -0.779000 -0.051438 -0.550429 -0.348347 -0.136084 0.132243 -0.388053 -0.642774 -0.179997 0.198940 -0.749741 0.021637 0.462743 0.067672 -0.194333 0.224239 0.007912 0.173281 0.283073 -0.443891 -0.730904 -0.901462 -0.389025 -0.315042 -0.977314 -0.153554 -0.049055 0.181679 -0.596120 0.140599 0.045799 0.704317 -0.389001 -0.352489 -0.212032 0.487215 -0.133986 -0.322046 -0.315469 -0.493856 -0.356954 -0.081976 -0.187612 -0.216528 -0.097328 0.001180 -0.187248 0.106577 0.547323 0.219162 -0.348343 0.959407 0.138780 0.031234 0.294717 0.314733 -0.632536 -0.332039 0.412060 -0.073770 -0.264977 0.051733 -0.569341 0.752008 -0.229074 -0.473942 -0.215891 -0.178860 -0.097764 0.039710 -0.562787 0.233634 0.258085 -0.016808 
21 -0.321222 0.313764 -0.381194 0.455295 0.285564 0.586907 0.168144 0.201599 -0.577254 0.413328 -0.267026 0.533789 -0.687027 0.174785 -0.283316 -0.024862 0.644566 -0.178047 -0.349755 0.762444 0.132153 0.583113 0.624303 -0.021004 -0.387987 -0.245164 -0.799564 -0.099630 -0.553996 -0.434480 -0.078431 0.181498 -0.438601 -0.605081 -0.228409 0.194427 -0.709629 -0.027457 0.451042 0.051317 -0.077423 0.220675 -0.016181 0.315557 0.283178 -0.511328 -0.687625 -0.923569 -0.461188 -0.370624 -0.964821 -0.190104 -0.147843 0.188289 -0.567638 0.100510 0.045802 0.666413 -0.457647 -0.317548 -0.199758 0.504756 -0.157679 -0.280730 -0.282547 -0.402150 -0.379916 -0.127839 -0.248348 -0.290115 0.011468 0.086652 -0.282568 0.040326 0.522316 0.312737 -0.386577 0.932915 0.081581 0.061170 0.387780 0.314223 -0.650985 -0.299082 0.366767 -0.055956 -0.300897 -0.002229 -0.650495 0.786526 -0.141001 -0.451685 -0.274250 -0.170140 -0.077282 0.070947 -0.480103 0.175137 0.196846 -0.014093 
22 -0.229944 0.344020 -0.323145 0.379710 0.281373 0.576370 0.169000 0.074263 -0.574175 0.373610 -0.280411 0.512845 -0.708621 0.218032 -0.323119 -0.081994 0.541884 -0.080503 -0.392148 0.726000 0.043011 0.590910 0.478628 0.035866 -0.298038 -0.229055 -0.827352 -0.219309 -0.578324 -0.414879 -0.084612 0.158493 -0.413012 -0.498303 -0.263685 0.166397 -0.631859 -0.083205 0.446558 -0.009891 -0.059249 0.196014 0.026627 0.300927 0.250284 -0.546664 -0.646588 -0.803042 -0.515506 -0.472021 -0.907596 -0.242572 -0.187747 0.070381 -0.552655 0.054147 0.089849 0.685804 -0.527026 -0.213356 -0.208685 0.454338 -0.150977 -0.265816 -0.247835 -0.377069 -0.399590 -0.244217 -0.106049 -0.416174 0.009162 0.099666 -0.337213 -0.071801 0.590623 0.385571 -0.385912 0.895843 -0.040380 0.067387 0.344132 0.226968 -0.676555 -0.281876 0.353949 -0.026329 -0.367334 -0.083563 -0.659620 0.817639 -0.008247 -0.464412 -0.252553 -0.138507 -0.144693 0.135664 -0.399435 0.166938 0.223395 -0.072679 
23 -0.246087 0.243724 -0.332695 0.370899 0.297292 0.600272 0.188795 0.041279 -0.579341 0.410765 -0.229601 0.477754 -0.786845 0.256961 -0.285136 -0.112406 0.487764 -0.022579 -0.378815 0.691127 0.019691 0.605271 0.442292 0.062497 -0.182971 -0.172417 -0.812489 -0.318801 -0.553648 -0.374824 -0.130398 0.068641 -0.399173 -0.407871 -0.245670 0.165450 -0.591469 -0.117781 0.405970 -0.063453 -0.055494 0.152504 0.035465 0.378954 0.130844 -0.631326 -0.575741 -0.687534 -0.604768 -0.455623 -0.818789 -0.284289 -0.238077 0.078673 -0.614714 0.062742 0.182213 0.743785 -0.573148 -0.219816 -0.184117 0.423158 -0.085904 -0.267753 -0.214977 -0.275831 -0.330319 -0.258237 -0.092478 -0.475303 -0.048437 0.094464 -0.424076 -0.134804 0.605592 0.360333 -0.270470 0.946290 0.088633 0.099851 0.240040 0.156582 -0.722169 -0.236756 0.361447 -0.027308 -0.290940 -0.062578 -0.628888 0.807817 0.010065 -0.469752 -0.296713 -0.098197 -0.232985 0.196200 -0.415614 0.157407 0.240414 -0.039422 
24 -0.157322 0.254241 -0.230876 0.391375 0.365196 0.616507 0.160510 0.056000 -0.539883 0.390967 -0.259391 0.511642 -0.815359 0.284484 -0.361709 -0.136703 0.436263 -0.029595 -0.399733 0.652614 0.007964 0.660498 0.400158 0.058383 -0.101605 -0.038728 -0.791205 -0.328118 -0.561847 -0.425459 -0.079404 0.043111 -0.487623 -0.382848 -0.260843 0.191003 -0.566728 -0.100098 0.359167 -0.102267 -0.023415 0.096153 -0.077895 0.443667 0.013131 -0.652423 -0.526652 -0.734686 -0.605839 -0.414769 -0.761341 -0.294792 -0.314920 0.101110 -0.553783 0.050221 0.271811 0.721200 -0.560010 -0.237484 -0.088813 0.478997 -0.038514 -0.201311 -0.145618 -0.229726 -0.237887 -0.303008 -0.082394 -0.536600 -0.076838 0.041814 -0.429051 -0.226804 0.627419 0.421111 -0.306155 0.873759 0.003858 0.150706 0.218093 0.165601 -0.706289 -0.188880 0.380005 -0.019899 -0.320869 -0.165308 -0.637934 0.776008 0.076945 -0.428879 -0.300535 -0.074283 -0.248534 0.317955 -0.297033 0.106519 0.179241 -0.106634 
25 -0.108219 0.277654 -0.221826 0.414086 0.418583 0.683349 0.138154 0.005420 -0.452365 0.460822 -0.275443 0.551872 -0.884024 0.290940 -0.378310 -0.126759 0.405414 -0.040102 -0.348124 0.633007 0.068989 0.676999 0.386977 0.111846 -0.014141 0.007395 -0.743289 -0.311073 -0.514072 -0.417089 -0.088531 -0.020640 -0.490512 -0.366596 -0.291096 0.030394 -0.487744 -0.070175 0.320738 -0.127632 0.067683 0.170232 -0.062170 0.497664 0.069671 -0.785031 -0.507739 -0.728679 -0.488684 -0.351100 -0.750563 -0.214917 -0.431025 0.098537 -0.521235 -0.003335 0.356787 0.657077 -0.544838 -0.240087 -0.096858 0.481457 -0.063334 -0.118071 -0.068118 -0.225556 -0.175995 -0.406561 -0.079741 -0.576173 -0.084826 -0.020297 -0.447741 -0.226457 0.620499 0.513454 -0.217430 0.834424 0.044719 0.208284 0.209392 0.067696 -0.694206 -0.143538 0.381445 0.064831 -0.327656 -0.224897 -0.597386 0.747662 0.066305 -0.412523 -0.309693 -0.110591 -0.196254 0.347801 -0.273050 0.085689 0.209681 -0.097918 
26 -0.053243 0.232271 -0.158674 0.435977 0.510864 0.639498 0.075375 0.024267 -0.457316 0.413989 -0.277277 0.598788 -0.813907 0.390062 -0.402712 -0.251386 0.439417 -0.049568 -0.375641 0.623845 0.083792 0.683636 0.361301 0.163364 0.033354 0.056316 -0.721388 -0.299756 -0.557248 -0.427460 -0.056424 -0.085976 -0.478059 -0.271256 -0.297195 0.019812 -0.468880 -0.140526 0.238001 -0.259738 0.040906 0.097087 -0.105274 0.530567 -0.059961 -0.817152 -0.460446 -0.769317 -0.500952 -0.376052 -0.629825 -0.279939 -0.405459 0.131701 -0.479266 -0.022958 0.373393 0.626652 -0.570463 -0.230314 -0.128855 0.461812 -0.128016 -0.134249 -0.027973 -0.166514 -0.274274 -0.393660 -0.045279 -0.612734 -0.058293 0.004342 -0.400419 -0.285148 0.589168 0.572312 -0.235521 0.875268 0.019819 0.202298 0.202019 0.038710 -0.646591 -0.220050 0.438340 -0.035364 -0.392240 -0.259519 -0.570741 0.701414 0.014814 -0.335790 -0.200460 -0.109460 -0.247382 0.258033 -0.277492 0.092102 0.186179 -0.194162 
27 -0.011118 0.266891 -0.173705 0.454807 0.515224 0.619669 0.076537 -0.011508 -0.384511 0.427871 -0.306007 0.670855 -0.769052 0.388401 -0.491047 -0.261360 0.502108 -0.115137 -0.377469 0.537847 0.106916 0.714601 0.317840 0.233196 0.096174 0.055835 -0.677899 -0.290406 -0.522341 -0.389028 0.019584 -0.122933 -0.523451 -0.228371 -0.321939 -0.091679 -0.438472 -0.199395 0.225551 -0.242285 0.082063 0.119823 -0.065564 0.605675 -0.078771 -0.945709 -0.466237 -0.680141 -0.398966 -0.339739 -0.589637 -0.214684 -0.539701 0.136829 -0.418502 -0.003098 0.578844 0.594435 -0.460883 -0.146201 -0.123899 0.477565 -0.125018 -0.060813 0.001450 -0.190653 -0.134704 -0.354791 -0.022651 -0.653573 -0.096311 -0.056963 -0.327005 -0.288476 0.453792 0.704160 -0.264777 0.861794 0.060525 0.267414 0.131578 0.083174 -0.512497 -0.170931 0.510284 0.012888 -0.414053 -0.283096 -0.542081 0.697373 -0.028200 -0.358103 -0.236604 -0.158654 -0.247402 0.261938 -0.267012 0.083757 0.182270 -0.175802 
28 -0.032373 0.236850 -0.167829 0.401978 0.502175 0.625536 0.054257 -0.065613 -0.351934 0.486369 -0.309520 0.594939 -0.767144 0.439522 -0.467472 -0.274674 0.570398 -0.080183 -0.407880 0.489100 0.156157 0.638397 0.258287 0.243861 0.124731 0.056321 -0.641786 -0.359559 -0.566050 -0.348056 0.100319 -0.110358 -0.514452 -0.110133 -0.304944 -0.153272 -0.287284 -0.134963 0.213865 -0.307470 0.114795 0.155006 -0.022568 0.627363 -0.014990 -1.014382 -0.460622 -0.652865 -0.378219 -0.318734 -0.564792 -0.284802 -0.487974 0.066119 -0.476232 -0.028505 0.598321 0.676575 -0.413546 -0.070320 -0.138867 0.492787 -0.231693 -0.028573 0.000392 -0.232953 -0.134955 -0.328953 -0.069495 -0.668536 -0.067152 -0.024245 -0.360672 -0.343942 0.403193 0.771990 -0.254034 0.928981 0.067971 0.179496 0.167111 0.069343 -0.541708 -0.239907 0.496869 0.036888 -0.399472 -0.215493 -0.474101 0.665267 -0.013437 -0.374839 -0.234826 -0.139923 -0.153673 0.205976 -0.326895 0.208000 0.187647 -0.097656 
29 -0.046198 0.353851 -0.131580 0.320103 0.589841 0.520444 0.025939 -0.065495 -0.244705 0.483767 -0.494987 0.595242 -0.645532 0.435882 -0.502872 -0.283363 0.586248 -0.049236 -0.388662 0.513656 0.149799 0.629659 0.101194 0.198163 0.091401 0.021918 -0.544223 -0.341509 -0.499531 -0.351510 0.088790 -0.035177 -0.584884 -0.104101 -0.364816 -0.178528 -0.215895 -0.110233 0.239916 -0.324509 0.173662 0.223787 0.031568 0.570643 -0.002868 -1.027094 -0.383722 -0.676947 -0.371721 -0.270601 -0.590569 -0.282219 -0.485391 0.084844 -0.505492 -0.075369 0.659027 0.678396 -0.353737 -0.052482 -0.223625 0.382389 -0.232767 0.001796 0.011268 -0.262964 -0.096837 -0.306304 -0.072792 -0.690185 -0.047191 -0.025733 -0.334514 -0.319759 0.362318 0.892999 -0.260897 0.886412 0.012059 0.148771 0.124472 0.091685 -0.558015 -0.237283 0.450979 -0.022359 -0.408074 -0.301822 -0.444014 0.650989 0.007761 -0.372397 -0.275992 -0.174874 -0.127565 0.260239 -0.258038 0.207563 0.309918 -0.171919 
30 -0.064449 0.369361 -0.107271 0.321179 0.543122 0.487949 0.018895 -0.019218 -0.219526 0.488291 -0.478994 0.552327 -0.586305 0.396474 -0.597565 -0.303099 0.622016 -0.077787 -0.293183 0.423255 0.150666 0.576769 0.140984 0.204232 0.197612 0.023741 -0.554953 -0.355591 -0.461101 -0.251285 0.189632 -0.101103 -0.727635 -0.107578 -0.354013 -0.183404 -0.169145 -0.103413 0.275321 -0.421141 0.195135 0.228989 0.043967 0.566264 0.039640 -1.038093 -0.411486 -0.630877 -0.348362 -0.138877 -0.534627 -0.281377 -0.541124 0.138063 -0.452937 0.002056 0.676099 0.669498 -0.275386 -0.051350 -0.253661 0.415592 -0.210805 0.016447 -0.014393 -0.279785 -0.112358 -0.291793 -0.133502 -0.633756 -0.050027 -0.091730 -0.477152 -0.397508 0.351433 0.971354 -0.149482 0.882258 0.044492 0.202918 0.178536 -0.013188 -0.628661 -0.212408 0.442218 0.035440 -0.452109 -0.293247 -0.381919 0.579264 -0.115024 -0.372365 -0.222985 -0.207661 -0.098969 0.257932 -0.226342 0.244747 0.220510 -0.180208 
31 -0.114232 0.370735 -0.160038 0.128339 0.507125 0.436040 -0.000226 0.048683 -0.120080 0.629379 -0.565399 0.461794 -0.597631 0.442087 -0.588674 -0.236399 0.663946 -0.030414 -0.305245 0.502970 0.172944 0.585981 0.140334 0.107823 0.192343 0.103833 -0.526657 -0.314384 -0.482954 -0.233379 0.274015 -0.132672 -0.758886 -0.165265 -0.327140 -0.186042 -0.123810 -0.069266 0.309833 -0.555045 0.186625 0.196488 0.091336 0.502313 -0.032075 -1.014575 -0.344942 -0.732400 -0.372302 -0.102200 -0.606633 -0.275712 -0.450668 0.089803 -0.444652 -0.002673 0.634816 0.762488 -0.290851 -0.011000 -0.213261 0.387974 -0.236673 0.084600 -0.004766 -0.261254 -0.192449 -0.354670 -0.119663 -0.603091 -0.023362 -0.140215 -0.472829 -0.338876 0.251109 0.991844 -0.141051 0.866338 0.030598 0.089578 0.216545 -0.061910 -0.677042 -0.251494 0.380721 0.018704 -0.426162 -0.335232 -0.404999 0.536311 0.023809 -0.325565 -0.180672 -0.225807 -0.205585 0.140166 -0.213711 0.246497 0.213642 -0.259924 
32 -0.178368 0.428315 -0.138816 0.104416 0.516481 0.450319 0.074788 0.062653 -0.088629 0.577864 -0.618353 0.437034 -0.536631 0.452119 -0.559283 -0.272232 0.718324 -0.012748 -0.278648 0.496997 0.187554 0.471969 0.184687 0.152598 0.245449 0.026874 -0.563279 -0.203599 -0.364824 -0.130372 0.288498 -0.110894 -0.769472 -0.201087 -0.346347 -0.207931 -0.043600 -0.092248 0.338243 -0.587252 0.192230 0.085779 0.084634 0.411538 -0.033541 -1.004124 -0.337084 -0.689772 -0.470592 -0.105577 -0.606170 -0.184540 -0.480564 0.120991 -0.471954 0.041344 0.687181 0.751093 -0.239474 0.048881 -0.314793 0.383495 -0.216262 0.122276 0.025441 -0.275288 -0.203933 -0.335005 -0.138775 -0.651693 0.084539 -0.078191 -0.521075 -0.312579 0.233581 1.031534 -0.103977 0.812557 0.028515 0.076037 0.296539 -0.082310 -0.688960 -0.251611 0.305335 -0.026695 -0.429411 -0.317416 -0.399963 0.453605 -0.011400 -0.293128 -0.136173 -0.216120 -0.260478 0.105763 -0.221052 0.288552 0.173711 -0.268813 
33 -0.221530 0.374876 -0.163430 0.094460 0.490909 0.482952 0.053634 -0.034696 -0.065984 0.521035 -0.609002 0.489628 -0.471001 0.481384 -0.559225 -0.280550 0.690396 0.065966 -0.241583 0.521432 0.146479 0.369763 0.271895 0.198608 0.259920 0.113063 -0.623895 -0.158140 -0.254200 -0.099544 0.274029 -0.136787 -0.865331 -0.250832 -0.423065 -0.260298 -0.004232 -0.187017 0.317565 -0.644488 0.187533 0.044737 0.021110 0.395155 -0.116919 -0.932286 -0.343944 -0.705227 -0.479959 -0.116745 -0.595276 -0.248163 -0.505356 0.112708 -0.424845 0.051561 0.698159 0.747846 -0.214137 0.067009 -0.242561 0.329178 -0.179462 0.051376 0.039580 -0.292629 -0.195418 -0.367775 -0.180384 -0.579557 0.041280 -0.166092 -0.473930 -0.335278 0.307621 1.033275 -0.058543 0.785929 -0.114715 0.075375 0.268103 -0.072427 -0.657825 -0.244201 0.275998 -0.018279 -0.482158 -0.306922 -0.414071 0.412327 0.029461 -0.264007 -0.121378 -0.152341 -0.372124 0.093894 -0.169411 0.373349 0.155464 -0.307770 
34 -0.178202 0.353505 -0.123038 0.077408 0.508485 0.493665 0.022974 -0.017127 -0.015624 0.540669 -0.691104 0.469011 -0.499553 0.547435 -0.637311 -0.286488 0.614848 0.064732 -0.284690 0.596642 0.172682 0.366976 0.275429 0.148631 0.349525 0.108653 -0.729759 -0.102645 -0.264744 0.010404 0.283423 -0.095296 -0.811130 -0.306783 -0.432442 -0.336423 0.060974 -0.180003 0.381034 -0.589360 0.150162 -0.027854 0.081956 0.293192 -0.156382 -0.879189 -0.329013 -0.701173 -0.535501 -0.159129 -0.596880 -0.232112 -0.485660 0.071173 -0.430286 0.063132 0.715581 0.711196 -0.124860 0.153747 -0.372673 0.350133 -0.296257 0.089200 0.105399 -0.323134 -0.239466 -0.326532 -0.242682 -0.556908 0.080878 -0.186844 -0.428533 -0.378210 0.263214 0.986260 -0.040699 0.786880 -0.112475 0.001467 0.361916 -0.020378 -0.630093 -0.238035 0.226428 -0.066720 -0.547116 -0.303926 -0.384251 0.350134 0.100383 -0.360705 -0.002538 -0.064837 -0.396123 0.112297 -0.211327 0.399992 0.143997 -0.343954 
35 -0.196687 0.300676 -0.193875 0.100485 0.466293 0.409844 -0.009548 -0.051949 0.105092 0.574810 -0.646912 0.409603 -0.493214 0.554095 -0.604105 -0.292088 0.548623 0.073811 -0.216135 0.567059 0.285300 0.291760 0.267556 0.129315 0.447580 0.186555 -0.748552 -0.136389 -0.262212 -0.006527 0.299523 -0.191457 -0.775993 -0.334693 -0.390833 -0.347751 0.051880 -0.188592 0.444972 -0.615030 0.149011 0.031452 0.006809 0.336742 -0.168238 -0.858445 -0.290952 -0.660353 -0.569726 -0.196980 -0.617402 -0.278456 -0.478239 0.115590 -0.388569 0.143559 0.671918 0.731869 -0.103435 0.175981 -0.416712 0.388690 -0.284202 -0.008820 0.118298 -0.347200 -0.157622 -0.257273 -0.249459 -0.603001 0.030824 -0.152419 -0.498836 -0.310856 0.287884 0.979424 0.125999 0.728584 -0.156452 0.035764 0.394404 0.001425 -0.710429 -0.186367 0.222648 -0.000310 -0.554743 -0.213001 -0.399719 0.334880 0.114427 -0.354721 0.060636 0.002735 -0.427767 0.200950 -0.144392 0.448231 0.112933 -0.335442 
36 -0.317955 0.308582 -0.301146 0.139859 0.483395 0.418369 0.020212 -0.038769 0.157243 0.541037 -0.665678 0.335874 -0.498753 0.546626 -0.527788 -0.285237 0.564131 0.037186 -0.328161 0.545398 0.267192 0.234262 0.296855 0.052580 0.401159 0.154127 -0.783154 -0.039329 -0.236206 0.033846 0.273472 -0.256413 -0.679056 -0.287592 -0.403400 -0.442819 0.038616 -0.221547 0.407751 -0.581470 0.055575 -0.054721 -0.005602 0.358100 -0.237015 -0.875978 -0.301380 -0.640140 -0.509194 -0.266032 -0.569519 -0.388105 -0.453446 0.091190 -0.328992 0.114071 0.778927 0.689788 -0.122010 0.114710 -0.394912 0.396422 -0.249429 -0.029077 0.216324 -0.357051 -0.021983 -0.252292 -0.293545 -0.598546 -0.028390 -0.097444 -0.384243 -0.318910 0.368499 0.909476 0.106103 0.803636 -0.190478 0.052871 0.380919 0.004229 -0.686533 -0.220595 0.313370 0.078016 -0.562242 -0.145414 -0.368531 0.308631 0.196683 -0.357998 0.041458 0.074310 -0.535732 0.268831 -0.200964 0.428851 0.076337 -0.324674 
37 -0.349130 0.328893 -0.284020 0.097769 0.465656 0.480659 0.104934 -0.058499 0.198716 0.526491 -0.666284 0.291643 -0.427532 0.510721 -0.533539 -0.235647 0.450118 0.029174 -0.324781 0.592924 0.336129 0.279801 0.272078 0.053857 0.360719 0.139918 -0.751047 -0.065934 -0.292585 0.015192 0.271868 -0.219441 -0.702940 -0.298905 -0.386374 -0.430585 0.063436 -0.337595 0.480499 -0.600701 0.079839 -0.066683 0.093270 0.408875 -0.235462 -0.906268 -0.267413 -0.607241 -0.517706 -0.328193 -0.637471 -0.513104 -0.494321 0.098056 -0.369655 0.088849 0.663446 0.612450 -0.093642 0.042097 -0.414810 0.432273 -0.273570 -0.122998 0.241912 -0.236160 0.000479 -0.149560 -0.298113 -0.556703 -0.052745 -0.084207 -0.336071 -0.273321 0.405571 0.874629 0.282087 0.784500 -0.139751 0.077649 0.391286 -0.002043 -0.664410 -0.193807 0.292575 0.043896 -0.612635 -0.070680 -0.242556 0.267989 0.146858 -0.357024 0.095425 0.199897 -0.529397 0.380268 -0.142958 0.450041 0.111804 -0.249943 
38 -0.385679 0.389950 -0.323549 0.096049 0.383633 0.362608 0.094279 -0.065619 0.234515 0.520935 -0.624545 0.200351 -0.364474 0.520532 -0.549212 -0.244047 0.429788 -0.049858 -0.363566 0.492589 0.398857 0.292963 0.289015 0.044261 0.396062 0.126045 -0.698885 -0.069227 -0.340925 0.041258 0.310594 -0.274262 -0.679308 -0.232160 -0.389490 -0.373913 0.010001 -0.384324 0.476015 -0.627613 0.055806 -0.083838 0.106174 0.413027 -0.329393 -0.910008 -0.268129 -0.518364 -0.548006 -0.341813 -0.604419 -0.605000 -0.553097 0.080593 -0.286886 0.114128 0.742064 0.561352 -0.055763 0.081262 -0.333643 0.458788 -0.215818 -0.124491 0.221331 -0.272893 0.059567 -0.188927 -0.263394 -0.584606 -0.126457 0.003089 -0.282212 -0.274597 0.430071 0.906143 0.330046 0.806610 -0.186058 0.106965 0.400526 0.061257 -0.712077 -0.239306 0.346716 0.126844 -0.679094 -0.155559 -0.231340 0.288423 0.182313 -0.375884 0.062876 0.275808 -0.598285 0.450790 -0.150666 0.379024 0.060971 -0.269568 
39 -0.317808 0.350053 -0.330155 0.099222 0.340502 0.393710 0.088693 -0.049161 0.211456 0.546254 -0.592495 0.183530 -0.452398 0.421610 -0.569749 -0.218596 0.363349 -0.112694 -0.362549 0.518813 0.517625 0.245164 0.296325 0.049626 0.385854 0.125529 -0.634342 -0.085824 -0.343793 -0.010286 0.251028 -0.331262 -0.638357 -0.218582 -0.343857 -0.451284 0.097841 -0.398453 0.459601 -0.793273 0.075378 -0.095582 0.147786 0.486312 -0.276607 -0.932069 -0.235699 -0.552778 -0.460306 -0.332658 -0.577000 -0.598159 -0.618856 0.039031 -0.253537 0.057353 0.713760 0.567235 -0.117388 -0.082101 -0.359154 0.507147 -0.170529 -0.111669 0.295313 -0.159553 -0.008769 -0.200917 -0.296574 -0.488532 -0.096701 0.067441 -0.296208 -0.248258 0.486277 0.784236 0.374694 0.775076 -0.071101 0.102349 0.409393 -0.018777 -0.761738 -0.234577 0.380692 0.178362 -0.662732 -0.164299 -0.168100 0.224943 0.207246 -0.287813 0.055588 0.208574 -0.617592 0.464836 -0.148011 0.397934 0.095187 -0.221616 
40 -0.291621 0.308115 -0.353918 0.170613 0.281149 0.432228 0.084840 -0.094674 0.194115 0.592566 -0.599797 0.177541 -0.418159 0.383161 -0.579990 -0.188639 0.312604 -0.077061 -0.348578 0.507407 0.520290 0.285373 0.418464 0.097148 0.477146 0.167813 -0.577601 -0.205050 -0.443724 -0.010821 0.319592 -0.289861 -0.613803 -0.222829 -0.384589 -0.410961 0.184522 -0.372984 0.454852 -0.824951 0.008309 -0.054827 0.159452 0.487376 -0.211185 -0.985371 -0.174299 -0.493577 -0.410633 -0.262925 -0.557741 -0.578516 -0.666029 0.053966 -0.199956 -0.065407 0.634210 0.511216 -0.140969 -0.118845 -0.356897 0.574436 -0.212576 -0.158486 0.340146 -0.151022 0.010116 -0.214026 -0.306946 -0.390899 -0.061413 0.199829 -0.370495 -0.221515 0.470207 0.691067 0.376948 0.773024 -0.020813 0.084436 0.450879 -0.113217 -0.824083 -0.236710 0.443031 0.238134 -0.668412 -0.201089 -0.089381 0.159192 0.169230 -0.279882 0.143393 0.142183 -0.619191 0.427441 -0.193461 0.413678 0.145843 -0.142127 
41 -0.356605 0.392399 -0.251108 0.212164 0.222488 0.312727 0.153632 -0.130798 0.143772 0.528728 -0.463235 0.172342 -0.378271 0.348724 -0.668624 -0.172256 0.336064 -0.089836 -0.338264 0.516748 0.515135 0.220834 0.356765 0.141689 0.414499 0.029900 -0.570002 -0.229360 -0.485198 0.005555 0.351487 -0.304618 -0.562470 -0.180001 -0.359555 -0.407533 0.213719 -0.441256 0.388413 -0.838705 0.146279 -0.031368 0.121550 0.523966 -0.247996 -0.990900 -0.200380 -0.473802 -0.396275 -0.307545 -0.528944 -0.541653 -0.748586 -0.024096 -0.262880 -0.084047 0.706982 0.582779 -0.008781 -0.165763 -0.287930 0.566299 -0.139163 -0.085672 0.311620 -0.114054 -0.035766 -0.122552 -0.260227 -0.468317 -0.025723 0.314501 -0.311640 -0.211258 0.528610 0.702637 0.357490 0.824303 -0.020893 0.111812 0.403019 -0.110941 -0.729174 -0.305274 0.396979 0.307803 -0.553230 -0.193429 -0.215538 0.114864 0.192614 -0.246887 0.180543 0.206954 -0.712032 0.422669 -0.172350 0.464664 0.158649 -0.139966 
42 -0.373569 0.504676 -0.281411 0.257904 0.082183 0.267958 0.089166 -0.094100 0.198710 0.590366 -0.577036 0.228790 -0.326614 0.263596 -0.765598 -0.076992 0.317313 -0.137856 -0.330222 0.411020 0.525124 0.207512 0.421789 0.107302 0.357429 -0.005725 -0.499277 -0.247085 -0.481967 -0.053575 0.384012 -0.280198 -0.571694 -0.134190 -0.411608 -0.447139 0.255922 -0.446634 0.401636 -0.833819 0.206794 -0.020993 0.188099 0.594374 -0.171360 -0.883955 -0.240614 -0.546498 -0.409804 -0.296480 -0.480405 -0.470349 -0.775285 0.014996 -0.252917 -0.181413 0.708207 0.501885 0.020677 -0.153409 -0.388696 0.496682 -0.047981 -0.086667 0.342573 -0.212900 -0.049819 -0.100175 -0.339973 -0.395570 0.043258 0.323450 -0.275753 -0.190358 0.514543 0.691956 0.374041 0.847175 -0.093934 0.037482 0.428550 -0.109059 -0.726998 -0.320669 0.420155 0.375604 -0.594349 -0.243294 -0.193682 0.103127 0.309443 -0.332419 0.078753 0.152203 -0.656818 0.396584 -0.113986 0.387828 0.155184 -0.146813 
43 -0.395626 0.536739 -0.147965 0.279665 0.058362 0.209645 0.111607 -0.028906 0.220781 0.632815 -0.500966 0.182136 -0.348107 0.275166 -0.815917 -0.083745 0.318365 -0.136659 -0.297697 0.459130 0.519565 0.305011 0.500684 0.085088 0.490710 0.014994 -0.472159 -0.272372 -0.487864 0.008019 0.408535 -0.303087 -0.487383 -0.136909 -0.431495 -0.320782 0.243685 -0.484618 0.308899 -0.838048 0.220128 -0.113303 0.127422 0.535800 -0.246109 -0.913165 -0.195419 -0.542449 -0.482031 -0.186381 -0.490740 -0.386841 -0.838782 0.041674 -0.243899 -0.192386 0.642906 0.572923 0.086797 -0.102004 -0.306838 0.515913 0.050925 0.010981 0.305000 -0.152501 -0.087917 -0.080031 -0.360581 -0.393641 0.064252 0.305911 -0.253872 -0.132149 0.573914 0.688793 0.371148 0.873448 -0.038337 -0.013715 0.448599 -0.191903 -0.768906 -0.332019 0.358953 0.432878 -0.474225 -0.285701 -0.188443 -0.028598 0.244448 -0.300014 0.140459 0.144324 -0.670296 0.417349 -0.182917 0.337753 0.178284 -0.177998 
44 -0.410155 0.467033 -0.107353 0.366364 0.094869 0.141448 0.001135 -0.041987 0.266416 0.639697 -0.487909 0.191481 -0.377281 0.197234 -0.855777 -0.087052 0.315159 -0.195351 -0.422881 0.439054 0.506495 0.286771 0.493054 0.086040 0.415147 0.109865 -0.420945 -0.331260 -0.612946 -0.033506 0.409093 -0.239077 -0.399616 -0.109105 -0.420671 -0.371530 0.232006 -0.459687 0.231736 -0.802583 0.132246 -0.200786 0.003996 0.649707 -0.307307 -0.929225 -0.142233 -0.577505 -0.386718 -0.103014 -0.442112 -0.378254 -0.816299 0.064838 -0.234059 -0.310719 0.684421 0.537258 0.124122 -0.069665 -0.225833 0.527829 0.094198 0.053036 0.282110 -0.132683 -0.095624 -0.106538 -0.329237 -0.380219 0.106443 0.278729 -0.296341 -0.165713 0.541072 0.713669 0.307237 0.924229 -0.038598 -0.121895 0.375993 -0.159119 -0.731361 -0.277003 0.279057 0.394698 -0.451265 -0.283904 -0.292824 -0.020224 0.262477 -0.312201 0.207874 0.148925 -0.671044 0.409722 -0.210566 0.366553 0.185574 -0.213715 
45 -0.421607 0.388650 -0.094552 0.383985 0.072414 0.105505 -0.040904 -0.117176 0.306340 0.649549 -0.535773 0.266731 -0.352292 0.196619 -0.817798 -0.096818 0.316438 -0.136030 -0.377599 0.402963 0.542077 0.286998 0.530846 0.071621 0.356678 0.025359 -0.376936 -0.329631 -0.602502 -0.105498 0.445248 -0.219538 -0.367821 -0.178608 -0.441817 -0.402526 0.179172 -0.381249 0.222044 -0.637651 0.174000 -0.187129 -0.020440 0.750904 -0.296626 -0.879633 -0.158813 -0.522450 -0.468900 -0.096664 -0.427288 -0.270458 -0.801779 0.121916 -0.316402 -0.289633 0.678878 0.553864 0.197892 0.014566 -0.310481 0.520160 0.123163 0.080019 0.297909 -0.146689 -0.010322 -0.073240 -0.231747 -0.337656 0.175076 0.321266 -0.255790 -0.157663 0.509485 0.746852 0.387207 0.878845 -0.040336 -0.214147 0.344016 -0.154172 -0.816639 -0.297313 0.234800 0.347375 -0.445578 -0.277225 -0.249207 -0.069844 0.270266 -0.297671 0.297658 0.195806 -0.583185 0.474995 -0.179117 0.384918 0.212059 -0.294406 
46 -0.444509 0.348199 0.007399 0.286726 0.166048 0.034360 -0.049137 -0.010212 0.347459 0.712165 -0.563248 0.218103 -0.319875 0.256352 -0.812810 -0.086122 0.284983 -0.096114 -0.415993 0.495238 0.578323 0.443837 0.539317 0.084516 0.354648 0.026148 -0.270195 -0.283972 -0.579072 -0.125341 0.420906 -0.212859 -0.265175 -0.199533 -0.486043 -0.348851 0.118427 -0.405503 0.242755 -0.672962 0.111029 -0.302262 0.076624 0.729734 -0.321933 -0.873281 -0.078970 -0.482494 -0.541983 -0.039369 -0.449927 -0.339260 -0.747264 0.172588 -0.373712 -0.401130 0.625520 0.534726 0.246774 -0.029321 -0.433491 0.418123 0.157754 0.102218 0.345436 -0.044772 -0.099340 -0.099643 -0.162370 -0.366715 0.236378 0.292614 -0.266122 -0.111408 0.540303 0.769925 0.489061 0.859576 -0.031138 -0.339642 0.334017 -0.171144 -0.905266 -0.345620 0.210346 0.236271 -0.398687 -0.291406 -0.223403 -0.114970 0.213141 -0.333404 0.332033 0.136931 -0.540610 0.527062 -0.189982 0.307997 0.215902 -0.360197 
47 -0.403058 0.319991 -0.012027 0.367040 0.165608 -0.045020 -0.090730 -0.081548 0.267317 0.647350 -0.563699 0.252720 -0.289283 0.188197 -0.831933 -0.163127 0.271580 -0.122033 -0.404260 0.479107 0.641488 0.379068 0.550999 0.236189 0.327431 -0.066443 -0.253073 -0.271491 -0.551627 -0.179338 0.451605 -0.170360 -0.269461 -0.227806 -0.472000 -0.388000 0.190668 -0.439981 0.214590 -0.642531 0.037321 -0.323418 0.010837 0.776054 -0.350749 -0.811534 -0.081572 -0.510408 -0.554948 0.048730 -0.369651 -0.268971 -0.749703 0.181624 -0.406933 -0.392251 0.648696 0.581522 0.172949 -0.001694 -0.383977 0.397337 0.198109 0.084181 0.325102 -0.094612 -0.091175 -0.089562 -0.116277 -0.293539 0.279157 0.359096 -0.253308 -0.127801 0.494655 0.802483 0.428948 0.844475 -0.026614 -0.365516 0.367453 -0.173554 -0.941800 -0.320877 0.240048 0.198496 -0.430836 -0.269552 -0.247852 -0.174727 0.234599 -0.274541 0.286488 0.068946 -0.510678 0.532124 -0.188368 0.382364 0.201019 -0.331271 
48 -0.444585 0.361373 0.019798 0.354276 0.211476 -0.091228 -0.017294 -0.147938 0.252944 0.514173 -0.562340 0.291049 -0.205210 0.182177 -0.785507 -0.190469 0.257588 -0.096633 -0.330175 0.512685 0.710691 0.361637 0.568008 0.314884 0.268573 -0.092577 -0.232573 -0.268576 -0.488977 -0.299560 0.368964 -0.121676 -0.388755 -0.273031 -0.565719 -0.327232 0.139287 -0.460537 0.145659 -0.563466 -0.031289 -0.313297 -0.018853 0.813846 -0.401288 -0.792556 -0.012868 -0.462721 -0.598370 0.113399 -0.348203 -0.350247 -0.761459 0.302400 -0.429472 -0.387558 0.600178 0.575879 0.181559 -0.098479 -0.284212 0.436767 0.196388 0.055394 0.329545 0.005684 -0.028552 -0.077773 -0.005540 -0.258114 0.262064 0.389941 -0.340235 -0.207318 0.428953 0.837502 0.509481 0.787176 0.015795 -0.259332 0.316909 -0.183467 -0.910198 -0.277195 0.195051 0.115104 -0.385554 -0.234427 -0.347240 -0.255112 0.088778 -0.262536 0.217369 0.094715 -0.505726 0.546428 -0.187665 0.399344 0.257476 -0.352786 
49 -0.357057 0.373686 -0.028598 0.365548 0.254089 -0.180729 0.014440 -0.149705 0.206707 0.482247 -0.572545 0.279466 -0.214834 0.140641 -0.825744 -0.219296 0.283380 -0.090895 -0.228858 0.560270 0.752467 0.238772 0.497857 0.420234 0.355053 -0.155995 -0.221556 -0.180811 -0.407015 -0.275563 0.355797 -0.151671 -0.390917 -0.329455 -0.504820 -0.341822 0.151251 -0.462374 0.137411 -0.521330 -0.033562 -0.368388 -0.043523 0.705788 -0.372067 -0.755936 -0.008201 -0.408004 -0.633114 0.106049 -0.342789 -0.338885 -0.776962 0.392533 -0.438872 -0.361371 0.611973 0.583416 0.206582 -0.133259 -0.409997 0.388133 0.221022 0.071521 0.345858 0.008524 -0.076209 -0.013707 0.015579 -0.328880 0.296369 0.388431 -0.334161 -0.287548 0.402671 0.930114 0.498939 0.727972 -0.030330 -0.206995 0.340727 -0.163925 -0.917876 -0.244393 0.218393 0.077457 -0.506988 -0.250919 -0.375725 -0.261925 0.034005 -0.309516 0.213561 0.143002 -0.481266 0.613547 -0.207454 0.405547 0.267300 -0.350635 
50 -0.357262 0.369836 -0.121544 0.386046 0.273218 -0.224134 -0.050348 -0.166814 0.179167 0.433045 -0.559017 0.273460 -0.212125 0.139582 -0.815778 -0.174705 0.360444 -0.093065 -0.182308 0.534081 0.784984 0.211355 0.490379 0.365498 0.388749 -0.165000 -0.201758 -0.163136 -0.328196 -0.270416 0.327329 -0.128316 -0.436210 -0.302347 -0.450567 -0.341267 0.257493 -0.504060 0.073042 -0.590330 -0.115844 -0.383731 -0.038832 0.734456 -0.396637 -0.730401 -0.040140 -0.271727 -0.733906 0.109346 -0.351533 -0.347908 -0.771398 0.463304 -0.391472 -0.306237 0.723962 0.571946 0.203578 -0.133502 -0.366474 0.392130 0.219052 0.030753 0.418675 -0.047898 -0.105275 -0.052211 -0.001766 -0.349365 0.257430 0.407883 -0.384494 -0.291119 0.303296 0.908230 0.490106 0.647731 -0.046398 -0.323920 0.227347 -0.126055 -0.851173 -0.248537 0.208359 0.042624 -0.504328 -0.259821 -0.438092 -0.236051 0.107511 -0.324000 0.169076 0.056491 -0.547194 0.636489 -0.177298 0.395577 0.238392 -0.331978 
51 -0.283090 0.309912 -0.213298 0.341058 0.284684 -0.232526 -0.079202 -0.235654 0.079642 0.318645 -0.580069 0.194162 -0.203218 0.123753 -0.772341 -0.179442 0.339234 -0.085432 -0.114409 0.595348 0.750423 0.199788 0.452687 0.431406 0.346951 -0.235509 -0.105300 -0.171914 -0.312062 -0.184036 0.292674 -0.167875 -0.420171 -0.331244 -0.457309 -0.296537 0.211723 -0.541950 0.037114 -0.584184 -0.111461 -0.374899 -0.006464 0.685148 -0.401648 -0.710995 -0.012942 -0.181702 -0.880024 0.060573 -0.450526 -0.333217 -0.787887 0.408475 -0.369181 -0.330443 0.761136 0.554069 0.131852 -0.141806 -0.387395 0.322038 0.278835 0.018734 0.365422 -0.033768 -0.128672 -0.071517 0.009784 -0.345184 0.249971 0.410395 -0.318515 -0.233957 0.303122 0.965809 0.535488 0.618556 -0.074474 -0.263378 0.255217 -0.235258 -0.836314 -0.217126 0.202081 -0.043768 -0.607777 -0.296136 -0.417650 -0.203583 0.168558 -0.303235 0.124086 0.051996 -0.517549 0.751145 -0.152712 0.366191 0.302862 -0.225643 
52 -0.321561 0.347569 -0.232791 0.316476 0.189055 -0.368601 -0.134551 -0.291481 0.008760 0.364593 -0.448537 0.069547 -0.210269 0.182323 -0.863093 -0.057992 0.294413 -0.135864 -0.086995 0.651771 0.801083 0.212151 0.379205 0.433111 0.402768 -0.201125 -0.118800 -0.132580 -0.248862 -0.129339 0.277018 -0.103424 -0.488269 -0.277487 -0.489562 -0.215375 0.335893 -0.525115 0.008610 -0.619852 -0.109965 -0.345271 -0.042746 0.634977 -0.492055 -0.764055 0.016819 -0.171430 -0.850414 0.090368 -0.406202 -0.374529 -0.764075 0.369295 -0.371150 -0.371449 0.800095 0.591484 0.203453 -0.011326 -0.265160 0.366201 0.210576 0.125712 0.446284 -0.077211 -0.145525 -0.056937 -0.053914 -0.359676 0.153573 0.416135 -0.265227 -0.316207 0.162379 0.985825 0.442389 0.674500 -0.107464 -0.280951 0.183331 -0.278617 -0.733785 -0.221362 0.196145 -0.092624 -0.538414 -0.265073 -0.566678 -0.248447 0.240291 -0.332605 0.021970 0.182800 -0.560921 0.720872 -0.202046 0.324288 0.218355 -0.189204 
53 -0.320272 0.279803 -0.311665 0.293657 0.170981 -0.331468 -0.090223 -0.260353 -0.108946 0.346161 -0.364824 0.056757 -0.233441 0.146088 -0.843274 -0.016754 0.327973 -0.088722 -0.089704 0.635505 0.800178 0.261127 0.394674 0.476772 0.457491 -0.243887 -0.031471 -0.165100 -0.297101 -0.056440 0.319412 -0.119822 -0.431886 -0.293984 -0.442120 -0.184050 0.379054 -0.518435 -0.055222 -0.692312 -0.084662 -0.397258 0.013192 0.644773 -0.528113 -0.782448 -0.026577 -0.097340 -0.924935 0.089731 -0.368132 -0.328961 -0.748396 0.364721 -0.495962 -0.318366 0.821740 0.514739 0.215438 -0.078258 -0.289131 0.366488 0.156895 0.148555 0.538481 -0.038903 -0.185443 -0.077913 -0.041098 -0.394499 0.085999 0.351186 -0.279503 -0.312712 0.050504 0.904925 0.438379 0.688658 0.053552 -0.363482 0.109333 -0.280724 -0.743027 -0.149143 0.213121 0.004634 -0.490957 -0.240674 -0.563042 -0.172806 0.312081 -0.354850 -0.011730 0.143547 -0.573738 0.690810 -0.237234 0.268670 0.188413 -0.209453 
54 -0.436770 0.290943 -0.364761 0.180769 0.156086 -0.451585 -0.118015 -0.122660 -0.064478 0.300846 -0.323923 0.093925 -0.242017 0.157205 -0.814400 -0.019775 0.303674 -0.152458 -0.076995 0.616296 0.811875 0.329994 0.385071 0.511526 0.450260 -0.278430 -0.097487 -0.093803 -0.188781 -0.002109 0.276042 -0.114435 -0.465747 -0.293862 -0.404260 -0.216798 0.367979 -0.481239 -0.030108 -0.679281 -0.076924 -0.447538 -0.027532 0.641868 -0.666752 -0.772505 -0.030232 -0.072251 -0.977909 -0.019180 -0.296156 -0.278363 -0.774892 0.264290 -0.612940 -0.289874 0.873783 0.554743 0.223350 -0.036185 -0.299863 0.386393 0.116705 0.079646 0.528492 -0.096354 -0.243961 -0.061382 -0.037676 -0.456334 -0.007694 0.327109 -0.215502 -0.372024 0.016676 0.759891 0.393976 0.713225 0.138851 -0.382538 0.036542 -0.226933 -0.736751 -0.147104 0.265297 -0.061771 -0.405268 -0.301996 -0.527018 -0.178994 0.344631 -0.390609 -0.023116 0.227220 -0.696992 0.586270 -0.233025 0.279227 0.193833 -0.265150 
55 -0.370332 0.324026 -0.364170 0.134026 0.183285 -0.389671 -0.099574 -0.118519 -0.024513 0.355852 -0.309701 0.130210 -0.269188 0.178952 -0.847654 0.007690 0.288911 -0.142768 -0.050743 0.602413 0.780570 0.461205 0.369009 0.552796 0.495235 -0.336218 -0.103847 -0.125012 -0.161709 0.078674 0.220410 -0.202404 -0.368765 -0.184403 -0.394735 -0.274087 0.407570 -0.555897 0.000757 -0.692548 -0.048290 -0.499947 0.095391 0.600568 -0.632453 -0.835936 -0.084641 0.100367 -0.958013 -0.101477 -0.308338 -0.225896 -0.847064 0.159991 -0.620777 -0.277252 0.952146 0.558621 0.232547 0.025094 -0.364437 0.301000 0.096391 0.065437 0.507950 -0.138693 -0.268984 -0.056666 -0.028933 -0.486235 -0.008923 0.307010 -0.040990 -0.306562 0.057864 0.724174 0.425019 0.729659 0.163803 -0.411272 -0.031388 -0.301520 -0.682754 -0.147728 0.315548 -0.054256 -0.451133 -0.323861 -0.346057 -0.153763 0.268937 -0.433561 -0.052701 0.282075 -0.703283 0.607127 -0.275016 0.223221 0.281361 -0.207334 
56 -0.402133 0.427549 -0.316899 0.112387 0.087038 -0.426462 -0.179862 -0.162477 -0.058880 0.270433 -0.287901 0.196207 -0.226851 0.150421 -0.834363 0.090398 0.183777 -0.076015 -0.000116 0.670249 0.782752 0.553443 0.414828 0.563038 0.503236 -0.436010 -0.138567 -0.162286 -0.089756 0.072198 0.226141 -0.278954 -0.415928 -0.149140 -0.455627 -0.263249 0.417302 -0.571907 -0.006782 -0.570963 -0.079677 -0.481614 0.111388 0.615310 -0.559508 -0.845573 -0.130586 0.189131 -0.912720 -0.127072 -0.277543 -0.120053 -0.878543 0.103874 -0.702442 -0.314169 1.004633 0.580786 0.334716 -0.074804 -0.316752 0.156437 0.059008 0.078542 0.437520 -0.137512 -0.235982 -0.049500 0.133793 -0.474914 -0.030694 0.172033 -0.140771 -0.303066 0.098015 0.614373 0.463587 0.717965 0.140633 -0.426627 -0.114547 -0.387819 -0.745669 -0.173266 0.277424 0.017781 -0.472638 -0.225748 -0.283352 -0.121947 0.192707 -0.546190 -0.045059 0.362076 -0.599311 0.569177 -0.243417 0.277429 0.271098 -0.341213 
57 -0.378844 0.471238 -0.314274 0.161458 0.053464 -0.438268 -0.269034 -0.157504 0.019538 0.323834 -0.229181 0.220974 -0.243781 0.075366 -0.908498 0.079437 0.113743 -0.258863 0.055801 0.698012 0.806874 0.620662 0.364308 0.570377 0.452851 -0.310622 -0.207401 -0.161838 -0.026487 0.021306 0.135097 -0.340112 -0.429553 -0.179276 -0.395719 -0.347313 0.327815 -0.560781 0.017861 -0.453934 -0.064205 -0.458279 0.087728 0.655408 -0.477098 -0.849620 -0.105224 0.123711 -0.682970 -0.036407 -0.301017 -0.133994 -0.934791 0.112540 -0.583587 -0.317025 1.051458 0.657608 0.376029 -0.115410 -0.255904 0.192722 0.118541 0.131263 0.361662 -0.131745 -0.268869 -0.006613 0.131383 -0.496897 -0.113358 -0.047955 -0.111814 -0.369130 0.091980 0.671465 0.601996 0.717430 0.166284 -0.321931 -0.207304 -0.472084 -0.668109 -0.085300 0.247303 -0.021455 -0.498890 -0.144783 -0.212486 -0.148087 0.089898 -0.581609 0.039829 0.361270 -0.529611 0.557088 -0.236343 0.415439 0.291552 -0.405079 
58 -0.331493 0.532034 -0.353933 0.122505 0.002555 -0.323310 -0.348169 -0.195343 -0.001360 0.398028 -0.196515 0.244745 -0.243665 -0.001816 -0.930982 0.141449 0.072156 -0.235989 0.127673 0.669515 0.844309 0.519428 0.385299 0.582558 0.366475 -0.160963 -0.080083 -0.261418 -0.012119 0.023892 0.140067 -0.350669 -0.572787 -0.205452 -0.282184 -0.365834 0.375145 -0.604576 0.034707 -0.478444 -0.023415 -0.426515 0.118029 0.568507 -0.535279 -0.857838 -0.114926 0.185902 -0.609042 0.008779 -0.363428 -0.233666 -1.055942 0.141398 -0.519464 -0.421910 1.019846 0.478021 0.334829 -0.130260 -0.141706 0.233083 0.141268 0.213675 0.466031 -0.193406 -0.354508 -0.053222 -0.009636 -0.392577 -0.087682 -0.075850 -0.081201 -0.378112 0.148505 0.762062 0.613757 0.673034 0.213938 -0.327411 -0.162353 -0.517702 -0.629406 -0.078738 0.283306 0.003672 -0.461827 -0.130957 -0.119490 -0.080122 0.098480 -0.504972 -0.012626 0.335534 -0.526030 0.558902 -0.111316 0.471615 0.295865 -0.239797 
59 -0.410789 0.451042 -0.393310 0.128453 0.115963 -0.250150 -0.283756 -0.149972 0.059020 0.490043 -0.171516 0.253386 -0.257679 0.020210 -0.846163 0.099651 0.116399 -0.176504 0.178708 0.712417 0.852174 0.483511 0.335275 0.592863 0.332373 -0.037285 0.005581 -0.270228 -0.018587 0.053325 0.054457 -0.294263 -0.541977 -0.281910 -0.294096 -0.413690 0.315903 -0.604370 0.017330 -0.489437 -0.016756 -0.380826 0.113830 0.522778 -0.598429 -0.827456 -0.170723 0.103808 -0.549057 0.082319 -0.411388 -0.340982 -1.059824 0.212459 -0.568769 -0.472628 0.940055 0.334347 0.360558 -0.059053 -0.148025 0.242433 0.077557 0.210938 0.559945 -0.181374 -0.364913 -0.029723 -0.104748 -0.384020 -0.177604 -0.114908 0.025941 -0.426569 0.107420 0.882442 0.760332 0.661429 0.307361 -0.296137 -0.240696 -0.581629 -0.596404 -0.019920 0.283629 -0.083007 -0.410864 -0.049722 -0.050061 -0.115913 0.053444 -0.469209 0.001563 0.287681 -0.438650 0.563443 -0.098876 0.466448 0.347742 -0.232745 
60 -0.414813 0.502296 -0.370382 0.153201 0.082760 -0.170873 -0.257997 -0.123237 0.060235 0.533441 -0.178475 0.190627 -0.272354 0.139678 -0.764881 -0.038894 0.131786 -0.201013 0.171757 0.683579 0.820215 0.603475 0.448301 0.631154 0.336982 0.009666 -0.061465 -0.265659 0.046543 0.007987 0.186121 -0.375157 -0.494918 -0.329564 -0.249856 -0.414906 0.335151 -0.683888 -0.003182 -0.357363 0.101783 -0.415160 0.038631 0.485912 -0.660206 -0.756654 -0.123317 0.042364 -0.629811 0.122952 -0.343710 -0.318673 -1.113015 0.120318 -0.482690 -0.398068 0.849069 0.372780 0.260184 -0.018869 -0.075936 0.149286 0.028248 0.174185 0.573215 -0.300147 -0.343353 0.012343 -0.096427 -0.536400 -0.138047 -0.101104 0.105865 -0.290187 0.125641 0.917268 0.803628 0.666484 0.217675 -0.368558 -0.143044 -0.703564 -0.667247 0.023171 0.258032 0.076222 -0.316337 -0.020221 0.004567 -0.271421 0.122765 -0.449519 -0.082509 0.260541 -0.393159 0.606877 -0.063520 0.500473 0.332093 -0.229427 
61 -0.460747 0.469186 -0.310627 0.055788 0.073266 -0.219202 -0.227613 -0.156994 0.086874 0.528876 -0.185032 0.208863 -0.320436 0.122210 -0.711401 -0.086391 0.193940 -0.130150 0.212575 0.714525 0.899809 0.533860 0.436868 0.587247 0.260432 -0.085720 -0.046253 -0.316537 0.054772 0.064353 0.139804 -0.374082 -0.500866 -0.345247 -0.235986 -0.473370 0.440568 -0.700751 -0.001906 -0.434740 0.181118 -0.405952 0.022211 0.419418 -0.682712 -0.690509 -0.116353 -0.031829 -0.641078 0.149682 -0.450891 -0.333229 -1.071770 0.076916 -0.509886 -0.368341 0.713189 0.333494 0.264643 0.036106 -0.066101 0.119735 0.026904 0.161065 0.539912 -0.335212 -0.379451 0.030777 -0.117824 -0.582060 -0.177825 -0.110066 0.089943 -0.211426 0.136552 0.969670 0.804183 0.604898 0.240167 -0.360554 -0.156416 -0.679284 -0.684264 -0.007156 0.144121 0.126650 -0.270850 0.087497 -0.032376 -0.281981 0.153510 -0.448108 -0.097108 0.118262 -0.344938 0.629732 0.021224 0.457849 0.393789 -0.205415 
62 -0.462382 0.355343 -0.337819 0.119914 0.066424 -0.209358 -0.208001 -0.111372 0.094730 0.393785 -0.122761 0.215552 -0.353247 0.061066 -0.657151 -0.171135 0.098418 -0.125779 0.172475 0.668681 0.918902 0.524567 0.396610 0.666085 0.221006 -0.145281 -0.106279 -0.273655 0.064285 0.069949 0.173821 -0.358567 -0.368290 -0.297077 -0.185894 -0.535179 0.522448 -0.700641 0.017291 -0.416718 0.216745 -0.447111 0.023108 0.539060 -0.622537 -0.680076 -0.107827 -0.103732 -0.622060 0.060626 -0.440652 -0.194553 -1.055766 -0.009069 -0.606846 -0.377092 0.726944 0.280073 0.193932 0.033124 -0.171583 0.170717 0.020012 0.133641 0.508165 -0.404981 -0.304213 0.090430 -0.167644 -0.705453 -0.273059 -0.066763 0.030682 -0.151101 0.113827 0.898790 0.849103 0.602344 0.236108 -0.382912 -0.127052 -0.640285 -0.680101 0.051439 0.103442 0.126587 -0.275985 0.123012 0.065287 -0.224272 0.262950 -0.496647 -0.039940 0.112308 -0.297922 0.575318 0.064136 0.478081 0.398572 -0.160092 
63 -0.368291 0.484178 -0.277954 0.185668 0.021870 -0.179905 -0.157625 -0.177912 0.045634 0.312216 -0.196732 0.213600 -0.317436 0.038344 -0.710808 -0.169966 0.116090 -0.101458 0.241836 0.667784 0.945566 0.519342 0.441627 0.660521 0.124977 -0.147585 -0.079037 -0.315089 0.075185 -0.049593 0.107616 -0.249581 -0.399354 -0.311341 -0.226983 -0.574160 0.654309 -0.773906 -0.049213 -0.432210 0.298058 -0.336011 0.060457 0.423196 -0.521356 -0.548833 -0.127474 -0.221245 -0.625153 0.104649 -0.456518 -0.244798 -1.105529 -0.024029 -0.586785 -0.352818 0.692549 0.229495 0.246336 0.013893 -0.072251 0.152309 -0.094807 0.059230 0.490584 -0.464628 -0.386174 0.108675 -0.179913 -0.737942 -0.301483 -0.100590 -0.134930 -0.064798 0.131717 0.880458 0.811241 0.572912 0.166548 -0.458382 -0.144488 -0.592359 -0.653449 0.062515 -0.016858 0.197124 -0.264142 0.163428 -0.009631 -0.225610 0.390076 -0.499552 -0.121501 0.061512 -0.263645 0.532571 0.089903 0.595968 0.432145 -0.258899 
64 -0.411243 0.340980 -0.316379 0.189340 0.068649 -0.191459 -0.207836 -0.152151 0.143067 0.238795 -0.126268 0.221884 -0.331372 0.063201 -0.682691 -0.219889 0.089770 -0.043959 0.163745 0.625506 1.002160 0.403206 0.458450 0.681812 0.211502 -0.114219 -0.141455 -0.340662 0.103381 0.017103 0.016605 -0.270321 -0.347132 -0.239062 -0.225922 -0.576343 0.800331 -0.710023 0.016561 -0.501225 0.246413 -0.521283 -0.020230 0.510548 -0.553678 -0.643489 -0.021186 -0.188866 -0.646191 0.203009 -0.423367 -0.169651 -0.991339 -0.048341 -0.706969 -0.357692 0.647735 0.203908 0.218522 -0.041302 -0.180947 0.231886 -0.123729 0.043661 0.534917 -0.448920 -0.339881 0.126219 -0.218618 -0.839824 -0.256249 -0.124068 -0.296565 -0.056179 0.090810 0.794911 0.794625 0.500486 0.207746 -0.543750 -0.117753 -0.502651 -0.713039 0.103182 -0.047546 0.126617 -0.291431 0.120933 0.023794 -0.164963 0.410516 -0.549453 -0.082678 0.006562 -0.285125 0.434173 0.208077 0.531571 0.372016 -0.251610 
65 -0.245439 0.197926 -0.197352 0.303316 0.002872 -0.227696 -0.117725 -0.064897 0.087935 0.247041 -0.168251 0.312912 -0.238038 0.131364 -0.722504 -0.254211 0.014918 0.035942 0.198694 0.708494 0.890973 0.411464 0.518963 0.677302 0.089300 -0.043649 -0.063200 -0.433145 0.075829 -0.048198 -0.015481 -0.278342 -0.381353 -0.176659 -0.278320 -0.482111 0.785469 -0.712067 0.054403 -0.453444 0.154920 -0.469851 0.132726 0.498476 -0.531802 -0.537416 0.002160 -0.287747 -0.632565 0.158938 -0.393827 -0.238201 -0.886328 -0.056707 -0.694104 -0.470357 0.601215 0.186796 0.319783 -0.065590 -0.101154 0.328484 -0.137987 0.089896 0.519154 -0.408969 -0.395534 0.203124 -0.176149 -0.852350 -0.289723 -0.028302 -0.337695 -0.082715 0.081898 0.708018 0.795347 0.513124 0.149036 -0.507797 -0.084124 -0.601812 -0.713345 0.080702 -0.060396 -0.002192 -0.371345 0.134835 0.082747 -0.195852 0.485647 -0.576837 -0.097911 -0.051673 -0.281986 0.317252 0.254347 0.594519 0.358765 -0.321283 
66 -0.226184 0.164669 -0.158251 0.345101 0.041513 -0.161937 -0.081801 -0.039086 0.194691 0.297365 -0.173539 0.318758 -0.140572 0.213245 -0.783938 -0.247098 -0.043223 -0.027836 0.171379 0.699732 0.956662 0.411958 0.520887 0.593747 0.141195 0.104770 -0.131378 -0.459736 0.136714 -0.124205 -0.071053 -0.225434 -0.362833 -0.264780 -0.297106 -0.406746 0.783844 -0.817884 0.016473 -0.424148 0.069590 -0.511718 0.115983 0.500365 -0.570395 -0.547717 0.095401 -0.244830 -0.607126 0.111662 -0.395745 -0.327554 -0.897143 -0.033067 -0.537712 -0.506524 0.573146 0.124094 0.427249 -0.068855 -0.085872 0.379268 -0.176480 -0.014145 0.611508 -0.387820 -0.444707 0.160183 -0.154085 -0.955971 -0.323028 0.034349 -0.290477 -0.118259 0.011177 0.664312 0.740073 0.410690 0.082835 -0.557284 -0.136828 -0.500397 -0.592133 0.156446 -0.028568 -0.002874 -0.408633 0.141195 0.058662 -0.189569 0.463413 -0.581272 -0.078615 0.032527 -0.452552 0.269167 0.343878 0.544386 0.335360 -0.415087 
67 -0.141208 0.098500 -0.219458 0.312783 0.001509 -0.141552 -0.121412 -0.066428 0.253137 0.264275 -0.197875 0.323811 -0.079136 0.294527 -0.749865 -0.254608 -0.019475 0.012614 0.166745 0.753598 0.950891 0.460436 0.519840 0.501924 0.086540 0.140063 -0.156497 -0.518780 0.073108 -0.171949 -0.115910 -0.237178 -0.320032 -0.325010 -0.262582 -0.414816 0.694084 -0.859428 0.063400 -0.402268 0.059095 -0.491852 0.182141 0.448727 -0.635573 -0.594669 0.156665 -0.180204 -0.674512 0.177664 -0.473023 -0.396527 -0.871895 -0.155992 -0.487265 -0.505056 0.515735 0.031439 0.358989 -0.121881 -0.001341 0.385317 -0.210789 -0.087758 0.601013 -0.326493 -0.444189 0.171909 -0.072189 -0.908698 -0.305162 0.039288 -0.200362 0.010026 0.012998 0.575775 0.664238 0.412607 0.127621 -0.642634 -0.110500 -0.534141 -0.645268 0.094747 -0.018759 -0.039917 -0.422861 0.070485 0.083446 -0.159842 0.475726 -0.572679 -0.082791 0.052487 -0.479868 0.289927 0.343214 0.553213 0.389227 -0.462955 
68 -0.164085 -0.015512 -0.250684 0.309131 0.107644 -0.076504 -0.166171 -0.034618 0.306883 0.250688 -0.225938 0.304394 -0.074132 0.204027 -0.750547 -0.225172 0.008728 -0.030459 0.090190 0.616325 0.781489 0.486157 0.417599 0.502114 -0.012171 0.139564 -0.181093 -0.665587 -0.067915 -0.102440 -0.110833 -0.209833 -0.260557 -0.364981 -0.204905 -0.367537 0.621132 -0.848709 0.044534 -0.296767 -0.082296 -0.367710 0.095275 0.428079 -0.590662 -0.612785 0.125535 -0.033979 -0.662536 0.072853 -0.354683 -0.380206 -0.904630 -0.166960 -0.540207 -0.605813 0.572496 0.022480 0.365243 0.067947 -0.049158 0.337209 -0.306603 -0.103860 0.582042 -0.373760 -0.450953 0.117315 0.047739 -1.017082 -0.139493 0.150499 -0.309144 0.056095 -0.008784 0.650296 0.691505 0.323342 0.062431 -0.652358 -0.115388 -0.636813 -0.598444 0.100484 0.020903 -0.031435 -0.385407 0.112513 0.032270 -0.125081 0.472617 -0.643342 -0.052902 -0.017903 -0.522248 0.328551 0.404964 0.599410 0.308698 -0.466237 
69 -0.055449 0.003532 -0.256027 0.291253 0.138132 -0.082032 -0.100301 -0.041679 0.348361 0.302528 -0.320663 0.191755 -0.035192 0.200308 -0.801961 -0.227347 -0.021646 -0.042695 0.066058 0.601314 0.900876 0.561889 0.277037 0.458415 0.058956 0.081531 -0.184331 -0.660446 -0.094750 -0.141839 -0.096374 -0.174426 -0.184100 -0.296248 -0.187157 -0.450333 0.655845 -0.937998 0.085701 -0.262187 -0.180553 -0.361126 0.163872 0.316101 -0.507163 -0.633997 0.094744 -0.034810 -0.607426 0.072933 -0.337460 -0.400229 -0.830703 -0.183013 -0.567175 -0.546142 0.530351 -0.100734 0.342073 0.150647 -0.118772 0.337340 -0.372388 -0.109464 0.657662 -0.324571 -0.459238 0.100167 0.151829 -1.019735 -0.150008 0.229317 -0.231511 0.044883 -0.071103 0.673616 0.617139 0.349488 0.112540 -0.675260 -0.055821 -0.665257 -0.572772 0.075929 -0.020193 -0.056873 -0.458561 0.100344 -0.005189 -0.150499 0.384493 -0.701911 0.018841 0.033931 -0.445089 0.442019 0.264984 0.622200 0.370429 -0.503546 
70 -0.061508 0.148306 -0.293231 0.232166 0.052697 -0.134986 -0.082774 -0.017336 0.379212 0.242126 -0.343303 0.140458 0.109841 0.116261 -0.869417 -0.270972 -0.088673 -0.121875 0.065193 0.555163 0.880756 0.599788 0.225927 0.401932 0.060592 0.071751 -0.220808 -0.678627 -0.136951 -0.094807 -0.118658 -0.170547 -0.228929 -0.272254 -0.184968 -0.410014 0.500547 -1.025320 0.111975 -0.293186 -0.244619 -0.361536 0.077516 0.223070 -0.537906 -0.669217 0.126829 -0.064954 -0.511977 0.119343 -0.270140 -0.424961 -0.832811 -0.205184 -0.507686 -0.588689 0.507972 -0.134452 0.216430 0.246627 -0.047037 0.372267 -0.328528 -0.114845 0.612952 -0.342467 -0.414200 0.097531 0.240040 -1.027971 -0.145726 0.231842 -0.257872 -0.007095 -0.131848 0.709672 0.465047 0.364776 0.142742 -0.600156 0.007437 -0.720885 -0.598534 0.098684 -0.001694 -0.003449 -0.409967 0.077213 -0.070218 -0.196192 0.433950 -0.704158 0.012544 0.031748 -0.485643 0.433037 0.237425 0.526003 0.346169 -0.564609 
71 -0.059350 0.254843 -0.312161 0.193699 0.095517 -0.182991 -0.016664 0.008661 0.399300 0.194442 -0.396221 0.110405 0.123942 0.008213 -0.914401 -0.307672 -0.125544 -0.145806 0.089051 0.494615 0.897891 0.585798 0.152541 0.434727 0.070185 0.031563 -0.207985 -0.651931 -0.093832 -0.087330 -0.093009 -0.161948 -0.238384 -0.316757 -0.192117 -0.423982 0.513747 -1.056372 0.150463 -0.298844 -0.310899 -0.401014 0.053547 0.097093 -0.514545 -0.600459 0.111654 -0.121992 -0.423298 0.133767 -0.268325 -0.386812 -0.892942 -0.228595 -0.522956 -0.545879 0.503173 -0.128839 0.205354 0.214725 -0.058769 0.347935 -0.305220 -0.109257 0.613131 -0.417001 -0.401786 0.082671 0.265208 -1.042413 -0.136008 0.381757 -0.219678 -0.018553 -0.133396 0.745230 0.388947 0.346790 0.137858 -0.479694 0.129366 -0.697672 -0.635188 0.168987 0.068400 0.029775 -0.437131 0.012267 -0.010262 -0.205382 0.429351 -0.706734 -0.062774 -0.065020 -0.468104 0.501368 0.264542 0.443295 0.412520 -0.501060 
72 0.006921 0.282391 -0.337891 0.181348 0.018689 -0.152607 -0.060836 0.025712 0.334178 0.288571 -0.336861 0.089185 0.157838 -0.029248 -0.941507 -0.253972 -0.109705 -0.211903 0.151531 0.414428 0.868043 0.664492 0.166066 0.419870 0.077352 0.066187 -0.346956 -0.613149 -0.072421 -0.140982 -0.049179 -0.088966 -0.374144 -0.360724 -0.204466 -0.388704 0.509789 -1.013057 0.162795 -0.301646 -0.375565 -0.458753 0.008304 0.106725 -0.434340 -0.637842 0.122890 -0.065787 -0.324237 0.226049 -0.231403 -0.319930 -0.900586 -0.195580 -0.573021 -0.451925 0.469439 -0.176810 0.206269 0.288437 -0.011730 0.437667 -0.285862 -0.029071 0.567123 -0.396004 -0.291315 0.004527 0.313984 -0.997966 -0.216958 0.294725 -0.226317 -0.047096 -0.154970 0.717603 0.330844 0.249345 0.152966 -0.475025 0.069246 -0.714520 -0.672287 0.243461 0.064401 0.046215 -0.492461 -0.087427 -0.016746 -0.218199 0.446131 -0.650527 -0.049588 -0.051529 -0.456907 0.528436 0.175422 0.392837 0.320382 -0.592737 
73 0.011377 0.396945 -0.445099 0.166590 -0.058105 -0.271242 -0.092000 0.044893 0.388055 0.304855 -0.284694 0.002286 0.151581 -0.110738 -0.959410 -0.292487 -0.109920 -0.272318 0.190752 0.369183 0.954392 0.521108 0.248619 0.459229 0.063528 0.039464 -0.388973 -0.627174 -0.104274 -0.069871 -0.093818 -0.150913 -0.434753 -0.349300 -0.221834 -0.376434 0.505577 -0.876893 0.208533 -0.207503 -0.323458 -0.573409 -0.043344 0.032450 -0.426266 -0.531724 0.214120 -0.053851 -0.336765 0.352409 -0.258725 -0.255528 -0.862196 -0.277206 -0.566792 -0.364167 0.376902 -0.138091 0.212259 0.149126 -0.028156 0.489698 -0.296568 0.051595 0.562141 -0.530939 -0.210464 0.028792 0.251007 -1.015327 -0.124159 0.319940 -0.265022 -0.066419 -0.134637 0.672702 0.268007 0.178456 0.140138 -0.489434 0.180724 -0.620800 -0.731051 0.348266 0.096007 0.095483 -0.559524 -0.180826 -0.030155 -0.275404 0.476993 -0.666001 -0.121038 -0.053083 -0.483955 0.538865 0.210543 0.335802 0.303211 -0.505139 
74 0.079822 0.308447 -0.453479 0.129808 -0.027625 -0.144969 -0.074170 0.061303 0.367084 0.383678 -0.226719 -0.062224 0.022036 -0.152320 -0.954792 -0.250340 -0.071575 -0.206702 0.211573 0.353725 0.945942 0.579903 0.292669 0.429373 0.044335 -0.046866 -0.408928 -0.732346 -0.115095 -0.091731 -0.094327 -0.237924 -0.422029 -0.321183 -0.122414 -0.340409 0.468561 -0.820283 0.253916 -0.089796 -0.354004 -0.635180 -0.047278 0.084886 -0.478534 -0.551573 0.167955 0.093567 -0.344959 0.370504 -0.307105 -0.164498 -0.966205 -0.315373 -0.604096 -0.261721 0.462969 -0.040675 0.233754 0.268507 0.066216 0.504166 -0.223455 0.173068 0.532112 -0.486101 -0.163734 -0.040009 0.214807 -1.015362 -0.164819 0.296766 -0.275822 -0.039843 -0.099616 0.673449 0.216384 0.142457 0.195175 -0.460080 0.125192 -0.638116 -0.679483 0.451540 0.212674 0.093273 -0.487412 -0.182274 -0.024024 -0.246330 0.539571 -0.622058 -0.153557 -0.089057 -0.541025 0.531549 0.196832 0.253285 0.199574 -0.525386 
75 0.053320 0.328670 -0.470849 0.143094 -0.054940 -0.168680 -0.009389 0.020589 0.423910 0.439449 -0.228251 0.006548 0.040890 -0.271462 -0.982246 -0.143985 0.001861 -0.101559 0.249405 0.327395 0.959783 0.471699 0.427190 0.405291 -0.013867 -0.160804 -0.354120 -0.700000 -0.204087 -0.057303 -0.073607 -0.262434 -0.352555 -0.259648 -0.167726 -0.367554 0.473264 -0.765953 0.307232 -0.074411 -0.372763 -0.690019 0.002302 0.089903 -0.453687 -0.501432 0.113331 0.113753 -0.275741 0.464904 -0.350329 -0.166119 -1.003621 -0.262147 -0.580945 -0.260630 0.426645 -0.099513 0.371866 0.220708 0.097813 0.505525 -0.273064 0.196472 0.604633 -0.548244 -0.047616 0.029769 0.173389 -0.976296 -0.057583 0.321668 -0.241997 -0.027440 -0.047651 0.711935 0.171171 0.141919 0.207685 -0.493457 0.110597 -0.529149 -0.616084 0.385472 0.278541 0.141939 -0.536846 -0.150022 -0.048858 -0.240907 0.532327 -0.630132 -0.259180 -0.105332 -0.535995 0.528572 0.142981 0.140187 0.166120 -0.498145 
76 0.056427 0.235953 -0.446931 0.066859 -0.022373 -0.122854 0.064057 0.097133 0.390869 0.449210 -0.295998 -0.104634 0.057902 -0.286089 -0.961054 -0.220372 0.120383 -0.055901 0.270789 0.380622 1.005288 0.394233 0.405997 0.287393 -0.078613 -0.240996 -0.375134 -0.657881 -0.167983 -0.066363 0.007123 -0.318208 -0.357504 -0.253600 -0.154893 -0.376324 0.421866 -0.738892 0.251103 -0.083806 -0.302007 -0.662214 -0.030093 0.127930 -0.439858 -0.548476 0.013360 0.136424 -0.210302 0.527862 -0.374648 -0.217258 -0.968274 -0.246356 -0.544124 -0.242786 0.605539 -0.018185 0.461240 0.219319 0.041000 0.461083 -0.341964 0.254128 0.666906 -0.440949 0.027751 0.015071 0.110814 -1.046630 -0.026469 0.319265 -0.243369 -0.056135 -0.179499 0.809798 0.211073 0.081690 0.222296 -0.432170 0.096911 -0.606987 -0.556250 0.370429 0.330746 0.157836 -0.429560 -0.007328 -0.077693 -0.361690 0.495434 -0.574553 -0.218670 -0.212244 -0.493973 0.460620 0.111740 0.107700 0.097803 -0.620537 
77 0.045398 0.146961 -0.437195 0.017308 -0.022579 -0.196157 0.112541 0.152976 0.387249 0.489503 -0.220859 -0.001125 0.049413 -0.407880 -1.024548 -0.208964 0.096843 -0.011938 0.372919 0.431985 0.905909 0.317840 0.471618 0.302585 -0.099804 -0.294240 -0.372730 -0.628377 -0.173898 -0.018819 -0.077839 -0.264203 -0.272419 -0.282015 -0.192916 -0.369351 0.435746 -0.672434 0.274975 -0.166411 -0.310123 -0.635198 0.171042 0.134551 -0.377290 -0.452203 0.014478 0.108526 -0.101707 0.554658 -0.422057 -0.230415 -1.068884 -0.215658 -0.576868 -0.255793 0.531353 -0.061120 0.621018 0.206348 -0.032439 0.447159 -0.315431 0.247724 0.574442 -0.383930 -0.047038 -0.003367 -0.017230 -0.928424 -0.037294 0.334854 -0.197391 -0.020207 -0.130899 0.768945 0.350824 0.040275 0.322933 -0.450014 0.026154 -0.611349 -0.502270 0.403826 0.407071 0.069674 -0.516841 -0.076530 -0.060204 -0.328597 0.523822 -0.586497 -0.138860 -0.225573 -0.593854 0.408715 0.048983 0.050398 0.172329 -0.632080 
78 0.039238 0.068645 -0.453989 -0.004050 -0.022996 -0.100694 0.130903 0.157734 0.367642 0.482771 -0.284749 0.061248 0.026453 -0.370340 -0.926809 -0.139164 0.088768 0.074777 0.372994 0.504754 0.866346 0.363698 0.509264 0.283676 -0.141954 -0.339026 -0.404675 -0.534966 -0.221129 -0.149075 -0.046456 -0.264961 -0.275466 -0.370097 -0.245480 -0.393137 0.358207 -0.686853 0.257108 -0.178181 -0.343002 -0.619731 0.182345 0.227103 -0.350210 -0.478158 -0.029585 0.053484 -0.095038 0.498493 -0.469428 -0.169619 -1.108463 -0.188907 -0.614191 -0.330939 0.499945 -0.068362 0.633477 0.095420 -0.098013 0.368106 -0.312086 0.288940 0.611761 -0.262857 -0.013910 0.036393 -0.066135 -0.956718 0.073442 0.269596 -0.195550 -0.004168 -0.234973 0.761644 0.329957 0.015044 0.285100 -0.442839 0.065063 -0.678385 -0.425218 0.402604 0.413189 0.109116 -0.453147 -0.089034 -0.094801 -0.355319 0.538571 -0.545091 -0.084823 -0.191035 -0.600518 0.395865 0.062505 -0.008735 0.216522 -0.695479 
79 -0.050639 0.121255 -0.468995 -0.056946 0.047133 -0.041117 0.136843 0.109389 0.348840 0.512433 -0.275822 0.131351 0.104967 -0.439031 -0.883865 -0.057426 -0.014542 0.092822 0.420008 0.495738 0.802540 0.320358 0.477410 0.317194 -0.182399 -0.446070 -0.440244 -0.468971 -0.198390 -0.107214 -0.047273 -0.220451 -0.305683 -0.356786 -0.255010 -0.431495 0.406419 -0.657756 0.298990 -0.213172 -0.325784 -0.521891 0.252797 0.239853 -0.279581 -0.461559 -0.107947 0.102584 0.021828 0.387548 -0.494954 -0.145361 -1.138015 -0.194736 -0.687636 -0.347149 0.488979 -0.131282 0.709799 0.096492 -0.156386 0.383333 -0.391069 0.353565 0.648305 -0.286203 0.094066 0.033942 -0.108383 -0.909705 0.049573 0.323343 -0.151147 -0.002586 -0.227781 0.710862 0.342525 -0.033123 0.274738 -0.374384 0.069990 -0.673431 -0.302588 0.374281 0.480389 0.056793 -0.452343 -0.059337 -0.095922 -0.366172 0.583400 -0.556954 -0.069116 -0.106562 -0.643813 0.431895 0.075967 -0.031417 0.208797 -0.636302 
80 -0.064510 0.096813 -0.446719 -0.053584 0.062218 -0.055474 0.029757 0.048349 0.274131 0.384898 -0.294907 0.095525 0.064918 -0.471975 -0.799287 -0.016733 -0.082257 0.152743 0.348948 0.552624 0.800473 0.351955 0.390998 0.348059 -0.245409 -0.482918 -0.463342 -0.397640 -0.185016 -0.205665 -0.064938 -0.112743 -0.224109 -0.425809 -0.319154 -0.482984 0.399994 -0.558036 0.267531 -0.112140 -0.317359 -0.483219 0.148518 0.322756 -0.272250 -0.543551 -0.060996 0.048482 0.022188 0.352240 -0.537290 -0.121944 -1.111955 -0.232565 -0.786243 -0.474378 0.492622 -0.039231 0.592239 0.095391 -0.192367 0.382394 -0.440485 0.391297 0.694778 -0.218620 0.148420 -0.014874 -0.132983 -0.891692 0.126409 0.328232 -0.182050 -0.017599 -0.227976 0.653421 0.309637 -0.014131 0.211183 -0.399044 0.072283 -0.703631 -0.280076 0.319050 0.439954 -0.015855 -0.296409 -0.135458 -0.128171 -0.420355 0.670874 -0.526545 -0.018743 -0.144641 -0.558650 0.425664 0.083530 -0.000443 0.293984 -0.647426 
81 -0.070806 0.105702 -0.402854 -0.094682 0.084835 -0.040129 0.001587 -0.043433 0.249455 0.383654 -0.233395 0.054488 0.104687 -0.373116 -0.780096 -0.008918 -0.186245 0.102781 0.405120 0.586134 0.819994 0.399371 0.322438 0.444219 -0.303700 -0.479689 -0.514900 -0.400590 -0.199849 -0.217941 -0.088015 -0.068367 -0.383798 -0.486860 -0.356547 -0.512506 0.463736 -0.526804 0.243639 -0.084997 -0.248891 -0.392145 0.110704 0.332301 -0.226350 -0.577928 -0.041894 -0.007606 0.056030 0.402176 -0.548128 -0.212815 -1.051837 -0.267345 -0.783855 -0.511234 0.406311 -0.020104 0.615961 0.016143 -0.189769 0.385678 -0.521801 0.444372 0.727893 -0.171937 0.155375 -0.053799 -0.187992 -0.852832 0.105224 0.320271 -0.167528 -0.045941 -0.254113 0.727920 0.321444 -0.038106 0.174410 -0.356061 0.163800 -0.729263 -0.159333 0.351099 0.411947 -0.050797 -0.319676 -0.157339 -0.166214 -0.486028 0.643650 -0.505112 0.005280 0.046267 -0.540010 0.471049 0.114112 0.053563 0.334096 -0.554776 
82 -0.146612 0.186589 -0.248503 -0.054992 0.137995 -0.106164 -0.035519 -0.134790 0.346337 0.373769 -0.266962 0.111152 0.130271 -0.349075 -0.689951 0.032941 -0.219679 0.200330 0.408845 0.651194 0.828164 0.384454 0.323748 0.403382 -0.329140 -0.535780 -0.513894 -0.385447 -0.186167 -0.279281 -0.099972 -0.055977 -0.301508 -0.421848 -0.326151 -0.520757 0.485445 -0.487831 0.211067 -0.019886 -0.155584 -0.380691 0.093945 0.334655 -0.249744 -0.521564 0.043535 -0.077516 0.074701 0.407678 -0.612954 -0.250489 -1.048799 -0.370393 -0.755333 -0.567758 0.356652 0.001863 0.588872 -0.030358 -0.065011 0.350531 -0.483281 0.487257 0.669103 -0.242661 0.222309 -0.095310 -0.139067 -0.860361 0.125833 0.438477 -0.108114 -0.015192 -0.120162 0.639855 0.205088 0.018801 0.107913 -0.421221 0.158805 -0.634067 -0.166065 0.230697 0.383429 -0.107273 -0.273377 -0.242923 -0.152214 -0.503216 0.655533 -0.587775 -0.001592 0.056947 -0.587150 0.527694 0.159623 0.051958 0.457619 -0.503941 
83 -0.138021 0.199881 -0.245079 -0.090272 0.128745 -0.216864 -0.009219 -0.089487 0.319035 0.386707 -0.199465 0.023653 0.108817 -0.388546 -0.718268 0.008822 -0.239853 0.162568 0.402120 0.745591 0.846098 0.378251 0.201175 0.360214 -0.397379 -0.520842 -0.604489 -0.295879 -0.048837 -0.259564 -0.129101 -0.069562 -0.401685 -0.291640 -0.256754 -0.493217 0.518916 -0.468810 0.202426 0.064728 -0.164080 -0.437972 0.042613 0.276255 -0.237276 -0.519095 0.052983 -0.180890 0.097145 0.361335 -0.548402 -0.341911 -0.932689 -0.440309 -0.855497 -0.535782 0.359916 0.062426 0.627126 -0.114977 -0.048906 0.302135 -0.447053 0.533574 0.719706 -0.271926 0.268757 -0.036606 -0.118121 -0.928260 0.082894 0.430222 -0.031633 -0.150321 -0.056117 0.645672 0.216459 -0.009641 0.081282 -0.405978 0.123828 -0.650497 -0.133116 0.196526 0.353975 -0.151083 -0.201584 -0.153669 -0.251439 -0.522640 0.599075 -0.663407 -0.051280 0.117397 -0.561685 0.564471 0.137886 0.081226 0.440141 -0.401647 
84 -0.229322 0.160320 -0.218566 -0.200663 0.175812 -0.160320 -0.004827 -0.079222 0.334638 0.375432 -0.228637 -0.046111 0.129354 -0.299786 -0.684427 -0.065926 -0.253380 0.151428 0.408597 0.801262 0.823713 0.345470 0.171475 0.328051 -0.454753 -0.414757 -0.575439 -0.315045 0.039740 -0.183036 -0.138822 -0.093895 -0.468567 -0.316872 -0.221848 -0.370619 0.568134 -0.445154 0.141416 0.084679 -0.097165 -0.490048 0.100837 0.272215 -0.227404 -0.462974 0.129201 -0.190772 0.074029 0.487447 -0.638167 -0.415579 -0.809564 -0.481317 -0.860249 -0.595727 0.414827 0.106223 0.595863 -0.157125 -0.003106 0.355738 -0.370562 0.543854 0.633959 -0.270905 0.306083 -0.058411 -0.083308 -0.907884 0.004368 0.487717 0.084432 -0.118063 -0.067354 0.657222 0.215074 0.011816 0.078991 -0.426501 0.114631 -0.685858 -0.146486 0.222495 0.305782 -0.367620 -0.298477 -0.140732 -0.188078 -0.552597 0.630915 -0.663836 -0.063797 0.045881 -0.541618 0.635538 0.179662 0.089124 0.483645 -0.312635 
85 -0.278756 0.094817 -0.179191 -0.188585 0.194460 -0.086954 0.007475 -0.133455 0.335585 0.442420 -0.214860 -0.049407 0.125356 -0.288001 -0.625917 -0.029828 -0.264608 0.109924 0.241788 0.793474 0.736989 0.311219 0.242459 0.313394 -0.429483 -0.320646 -0.502138 -0.358403 -0.020659 -0.191045 -0.099705 -0.108612 -0.521203 -0.243549 -0.251616 -0.212837 0.591006 -0.504101 0.144485 0.032769 -0.157662 -0.573285 0.150837 0.266594 -0.246723 -0.486196 0.211974 -0.165302 0.125189 0.418055 -0.656945 -0.488283 -0.839209 -0.464822 -0.832025 -0.670475 0.343090 0.103117 0.637523 -0.206880 0.057464 0.455435 -0.230823 0.596883 0.643275 -0.316289 0.368932 -0.004677 -0.097278 -0.811874 -0.083860 0.561569 0.030201 -0.091023 0.053619 0.661145 0.216199 0.013644 0.071417 -0.398358 0.109549 -0.633005 -0.171944 0.140138 0.277509 -0.299499 -0.159922 -0.117255 -0.213164 -0.567703 0.603178 -0.613368 -0.034453 0.073409 -0.676924 0.627875 0.176960 0.094192 0.521269 -0.146313 
86 -0.262071 0.055109 -0.187962 -0.288466 0.333604 -0.069826 0.008984 -0.053817 0.346168 0.287432 -0.221574 -0.114131 0.059849 -0.303048 -0.536242 -0.113482 -0.224991 0.160535 0.180138 0.800674 0.660816 0.378569 0.150653 0.259726 -0.411665 -0.310178 -0.548855 -0.341226 0.074240 -0.143239 -0.124625 -0.112085 -0.439910 -0.232099 -0.128082 -0.269733 0.613060 -0.532005 0.103099 -0.044482 -0.249473 -0.629145 0.148965 0.250119 -0.284209 -0.553712 0.300778 -0.111103 0.097065 0.427161 -0.704062 -0.479182 -0.748756 -0.406059 -0.833100 -0.532528 0.428595 0.119303 0.496914 -0.182029 0.054536 0.400832 -0.179320 0.619610 0.655178 -0.321040 0.354356 -0.098293 -0.067626 -0.871345 -0.180836 0.537718 -0.040078 -0.004902 0.076379 0.677384 0.259560 0.002314 0.103563 -0.455725 0.002609 -0.614673 -0.176971 0.123902 0.284622 -0.326197 -0.135735 -0.118367 -0.185163 -0.549367 0.620290 -0.667543 -0.030054 -0.043864 -0.735146 0.623114 0.194121 0.044046 0.534374 -0.133404 
87 -0.291108 0.050254 -0.073099 -0.289773 0.305484 0.012451 -0.047927 -0.055854 0.289221 0.339644 -0.143310 -0.054017 0.126104 -0.265556 -0.536726 -0.051777 -0.160405 0.118504 0.183669 0.820181 0.603338 0.466614 0.187868 0.215446 -0.440749 -0.346818 -0.568189 -0.361073 0.107488 -0.120146 -0.040026 -0.154406 -0.575243 -0.142093 -0.030447 -0.252245 0.653015 -0.619360 0.084834 -0.093899 -0.189477 -0.753646 0.237396 0.330531 -0.241399 -0.602569 0.241583 -0.066250 0.064828 0.503469 -0.671382 -0.448077 -0.737758 -0.383048 -0.793621 -0.502417 0.434843 0.178342 0.470264 -0.255749 0.133522 0.488719 -0.076561 0.702378 0.672734 -0.388287 0.347059 -0.172156 -0.013489 -0.805935 -0.257330 0.518623 0.004765 0.038642 0.130669 0.638089 0.193133 -0.031284 0.131505 -0.528031 0.027990 -0.620035 -0.087838 0.060388 0.293817 -0.314675 -0.079052 -0.089759 -0.133513 -0.620746 0.569295 -0.670661 -0.062084 -0.171077 -0.714819 0.596730 0.192960 -0.039507 0.430360 -0.118691 
88 -0.232104 -0.049071 -0.172910 -0.316439 0.309976 0.001877 -0.091324 0.048110 0.304276 0.169394 -0.173981 -0.055275 0.044068 -0.294636 -0.586045 -0.184364 -0.134016 0.165892 0.130660 0.781625 0.569552 0.371587 0.146681 0.120233 -0.298752 -0.240488 -0.564684 -0.363143 0.074781 -0.089986 -0.066569 -0.216142 -0.500536 -0.181932 -0.098177 -0.355114 0.542824 -0.664641 -0.051920 -0.126653 -0.232419 -0.782689 0.169084 0.289075 -0.190248 -0.583958 0.360776 -0.043417 0.080077 0.508577 -0.589815 -0.487245 -0.757400 -0.356892 -0.745908 -0.555772 0.550007 0.135362 0.431594 -0.358941 0.061532 0.438081 0.020223 0.669368 0.701630 -0.381356 0.386469 -0.177031 0.043609 -0.687428 -0.247836 0.552127 -0.100285 -0.005690 0.144594 0.616189 0.189332 -0.048714 0.231230 -0.611887 -0.033595 -0.667583 -0.138672 0.130592 0.291999 -0.203924 -0.008092 -0.122606 -0.192264 -0.633353 0.483657 -0.674950 -0.020729 -0.204049 -0.781708 0.578556 0.166869 -0.025147 0.567910 -0.142252 
89 -0.269027 -0.010923 -0.152482 -0.379831 0.347718 0.024248 -0.128353 0.177904 0.292566 0.113050 -0.063521 -0.127701 0.062608 -0.291661 -0.591134 -0.097735 -0.141144 0.145176 0.125037 0.744798 0.603001 0.561887 0.057664 0.129915 -0.341194 -0.221199 -0.572908 -0.389833 -0.000612 -0.141100 -0.054102 -0.171427 -0.588199 -0.169317 -0.127333 -0.387330 0.545943 -0.781683 -0.024323 -0.166248 -0.230304 -0.784352 0.169877 0.398958 -0.077981 -0.652883 0.375494 0.049935 0.121701 0.600731 -0.611423 -0.419366 -0.764455 -0.273252 -0.755324 -0.600729 0.514883 0.071609 0.318099 -0.340582 -0.017114 0.458923 -0.039938 0.613528 0.622370 -0.406564 0.344094 -0.226068 0.019281 -0.708212 -0.364912 0.387812 -0.258120 0.031250 0.100198 0.618690 0.114924 -0.087146 0.232799 -0.673429 -0.050499 -0.645206 -0.032329 0.124032 0.266669 -0.212690 0.025049 -0.200977 -0.173508 -0.631883 0.334493 -0.651158 0.013317 -0.233572 -0.749626 0.489353 0.140805 -0.033809 0.510905 -0.178091 
90 -0.259043 -0.067273 -0.211554 -0.376528 0.345551 0.115845 -0.111760 0.217156 0.305611 0.077531 -0.134738 -0.055334 0.021586 -0.283266 -0.550537 -0.074100 -0.108888 0.160085 0.152333 0.750501 0.727027 0.460691 0.092876 -0.001152 -0.237763 -0.170143 -0.551964 -0.335995 0.145138 -0.283789 -0.087030 -0.181023 -0.580200 -0.191373 -0.081392 -0.351921 0.591410 -0.804263 -0.081468 -0.216498 -0.154892 -0.802134 0.170167 0.430805 -0.030287 -0.661962 0.387361 0.016898 0.069968 0.595255 -0.671273 -0.415260 -0.749499 -0.129754 -0.713421 -0.547414 0.483851 -0.012141 0.307896 -0.376099 -0.082956 0.462384 0.017121 0.544884 0.602003 -0.336041 0.419863 -0.176047 -0.030242 -0.686801 -0.453011 0.389710 -0.212544 0.117989 0.086165 0.568136 0.019678 -0.075810 0.266021 -0.728044 -0.142499 -0.563935 0.012317 0.103409 0.212541 -0.215870 0.022280 -0.152545 -0.135734 -0.602075 0.275440 -0.707378 -0.028212 -0.161560 -0.686792 0.529514 0.120195 -0.084028 0.607977 -0.176617 
91 -0.276813 -0.072018 -0.193049 -0.311820 0.361916 0.050248 -0.068055 0.246437 0.401842 0.056263 -0.103853 -0.049466 0.030125 -0.324358 -0.583055 -0.000074 -0.107755 0.191598 0.188929 0.709627 0.747310 0.475630 0.132834 -0.058432 -0.163712 -0.205677 -0.594429 -0.334201 0.071668 -0.320273 -0.142682 -0.187632 -0.526100 -0.139702 -0.096295 -0.375552 0.571444 -0.829834 -0.044651 -0.176272 -0.227114 -0.753156 0.165878 0.411814 0.083373 -0.622376 0.371487 0.067548 0.072330 0.555644 -0.672511 -0.390440 -0.832292 -0.079050 -0.684999 -0.453096 0.389167 -0.066820 0.369464 -0.312796 -0.113320 0.478419 0.011606 0.484128 0.473972 -0.356048 0.408846 -0.123621 -0.044287 -0.723153 -0.419151 0.428604 -0.263727 0.178957 0.165236 0.546280 0.020584 -0.073982 0.242808 -0.742900 -0.096114 -0.527555 0.034179 0.095264 0.194513 -0.145624 -0.056568 -0.194037 -0.177949 -0.596054 0.099436 -0.765159 0.031759 -0.034805 -0.657939 0.607555 0.018317 -0.074948 0.629194 -0.150511 
92 -0.274121 -0.040569 -0.209693 -0.315546 0.303034 0.076414 -0.080382 0.260697 0.380513 0.028853 -0.009400 -0.114652 0.017113 -0.244523 -0.599423 0.034332 -0.161870 0.214198 0.238836 0.672337 0.870929 0.458424 0.131578 -0.096774 -0.070380 -0.134712 -0.675751 -0.313575 0.111562 -0.335130 -0.153634 -0.206436 -0.473144 -0.107489 -0.040609 -0.403904 0.550637 -0.833019 -0.037268 -0.159159 -0.097734 -0.747213 0.134192 0.396047 0.080452 -0.680582 0.331540 0.046798 0.051907 0.481141 -0.771211 -0.375153 -0.797545 -0.056639 -0.645976 -0.385399 0.356674 -0.133912 0.312741 -0.288174 -0.190004 0.495656 -0.000776 0.463324 0.562003 -0.300782 0.372469 -0.090347 -0.157348 -0.760683 -0.438296 0.426946 -0.257169 0.242710 0.196712 0.527283 -0.061997 -0.074705 0.236784 -0.864638 -0.068410 -0.500539 0.137072 0.086732 0.113411 -0.208984 -0.029712 -0.257935 -0.248781 -0.525886 0.055360 -0.794649 0.083918 0.045923 -0.667768 0.554936 0.036291 -0.122709 0.572843 -0.066913 
93 -0.359060 -0.024605 -0.256824 -0.289219 0.338321 0.024715 -0.115976 0.367086 0.420649 0.063489 0.025286 -0.135624 0.122026 -0.230785 -0.613735 -0.001947 -0.238541 0.195563 0.343341 0.630649 0.808524 0.437673 0.197640 -0.133331 0.056626 -0.057934 -0.639959 -0.295619 0.267314 -0.384199 -0.083955 -0.278018 -0.515990 -0.159165 -0.081509 -0.198657 0.391759 -0.854741 -0.004037 -0.081303 -0.126599 -0.618695 0.090767 0.377962 0.126923 -0.633094 0.266430 0.061565 0.063485 0.442370 -0.780824 -0.336235 -0.917436 -0.009444 -0.619532 -0.395491 0.429336 -0.155806 0.447005 -0.167759 -0.205468 0.451268 0.048992 0.458570 0.540888 -0.344521 0.339772 -0.087688 -0.257418 -0.772626 -0.437139 0.482408 -0.321163 0.220543 0.226693 0.580478 0.040970 0.022152 0.208122 -0.731520 -0.012029 -0.575487 0.138855 0.085428 0.156600 -0.235919 0.051876 -0.217043 -0.214856 -0.507419 -0.032327 -0.798305 0.145979 -0.000781 -0.613683 0.548115 0.034850 -0.083586 0.604536 -0.053093 
94 -0.423937 -0.038872 -0.234439 -0.216176 0.208990 0.007064 -0.180794 0.281582 0.402925 0.058769 0.107552 -0.035726 0.117926 -0.176620 -0.536456 -0.018137 -0.298221 0.136334 0.430888 0.609798 0.826782 0.531887 0.298090 -0.115131 0.051549 -0.094418 -0.644302 -0.252130 0.231062 -0.422279 -0.058074 -0.345684 -0.442279 -0.149436 -0.065830 -0.053787 0.364378 -0.855049 -0.012027 0.040668 -0.121368 -0.629484 0.042023 0.360317 0.073753 -0.651618 0.224932 0.161265 0.028609 0.485755 -0.794780 -0.251304 -0.869938 -0.032157 -0.557904 -0.488067 0.375812 -0.145539 0.466251 -0.203895 -0.135753 0.456505 0.031028 0.470865 0.450669 -0.390820 0.336812 -0.064633 -0.249033 -0.908046 -0.423396 0.611139 -0.351029 0.307900 0.214280 0.558264 -0.037941 0.051058 0.243179 -0.715815 0.074207 -0.687086 0.131859 0.077959 0.095678 -0.175398 0.101554 -0.187161 -0.232717 -0.414242 -0.007894 -0.840400 0.144453 0.043854 -0.551897 0.532961 0.068286 -0.203745 0.575324 0.043761 
95 -0.509740 -0.047792 -0.226273 -0.202540 0.175640 0.025276 -0.236410 0.317676 0.431933 0.002012 0.129626 -0.111295 0.225667 -0.152103 -0.573425 -0.043832 -0.323952 0.143463 0.475277 0.610536 0.867115 0.421974 0.343519 -0.120373 0.082230 -0.074831 -0.658789 -0.286042 0.278111 -0.271400 0.021459 -0.417629 -0.455847 -0.086068 -0.116353 0.014609 0.206797 -0.893130 0.046793 0.069118 -0.019035 -0.585617 0.009297 0.306797 0.038079 -0.645281 0.172345 0.086094 -0.025264 0.420578 -0.847392 -0.236895 -0.888597 -0.135022 -0.478765 -0.460110 0.450568 -0.137539 0.564656 -0.198790 -0.093305 0.491025 0.048389 0.494549 0.514225 -0.416712 0.247695 -0.031629 -0.333299 -0.847047 -0.326795 0.603530 -0.347873 0.215671 0.199501 0.584550 -0.028310 0.058336 0.189359 -0.706698 0.168060 -0.756105 0.167893 0.056308 0.075643 -0.273220 0.091051 -0.211645 -0.218742 -0.468157 -0.035848 -0.806087 0.119344 -0.006864 -0.550449 0.401762 0.063528 -0.199355 0.506548 -0.017338 
96 -0.560406 -0.134497 -0.184403 -0.205843 0.121491 0.043128 -0.183979 0.317135 0.355337 -0.143221 0.162206 -0.032615 0.206635 -0.196848 -0.442766 -0.114423 -0.263377 0.163982 0.518333 0.525072 0.792598 0.441957 0.351240 -0.049777 -0.012486 -0.204757 -0.707150 -0.244466 0.202538 -0.244952 0.180381 -0.352110 -0.375278 -0.188076 -0.109971 0.010945 0.215302 -0.895858 -0.174796 0.026702 -0.000432 -0.552008 -0.113074 0.387697 0.159556 -0.590020 0.109352 0.081708 -0.046804 0.404151 -0.853119 -0.124265 -0.937824 -0.158057 -0.467338 -0.534056 0.432305 -0.152219 0.459482 -0.111128 -0.094363 0.510683 0.088738 0.400257 0.437551 -0.498291 0.219680 -0.127287 -0.274815 -0.989094 -0.332711 0.684463 -0.257487 0.213992 0.107795 0.707618 -0.137578 0.009776 0.128449 -0.754365 0.185991 -0.754976 0.232580 0.022059 0.034001 -0.165963 0.056147 -0.254906 -0.272005 -0.519219 0.042298 -0.759419 0.125401 -0.071452 -0.455391 0.426708 0.026274 -0.254266 0.476184 -0.033176 
97 -0.568082 -0.232536 -0.240264 -0.191826 0.074729 0.114154 -0.281467 0.289803 0.349075 -0.152588 0.202943 0.091447 0.196712 -0.163251 -0.516461 -0.142640 -0.278509 0.183216 0.596622 0.520850 0.754492 0.341994 0.388505 -0.027320 0.017262 -0.094186 -0.795017 -0.295343 0.195424 -0.187076 0.223291 -0.415073 -0.343172 -0.232558 -0.130111 0.029312 0.225479 -0.874340 -0.192088 -0.020979 0.025914 -0.477789 -0.148712 0.386160 0.096840 -0.629432 0.158710 0.122909 -0.038397 0.351448 -0.859937 -0.194235 -0.972703 -0.237434 -0.372499 -0.554033 0.445614 -0.158461 0.518933 -0.103904 -0.029491 0.537088 0.056964 0.329731 0.370890 -0.487525 0.152899 -0.157652 -0.234967 -1.008859 -0.250327 0.626026 -0.173597 0.140633 0.137268 0.675068 -0.129302 -0.010443 0.068567 -0.742279 0.138420 -0.818310 0.298335 0.000270 0.046235 -0.164683 -0.098254 -0.347548 -0.274165 -0.427580 0.057851 -0.705233 0.109349 -0.039778 -0.571019 0.359268 0.044508 -0.186991 0.469888 -0.049372 
98 -0.608050 -0.354637 -0.257981 -0.250012 0.003307 0.031608 -0.266515 0.246119 0.278869 -0.186679 0.283931 0.096331 0.123696 -0.230274 -0.499543 -0.209135 -0.255207 0.232622 0.636728 0.552883 0.760273 0.272007 0.387486 0.088988 0.001023 -0.154654 -0.816944 -0.251265 0.135516 -0.103179 0.272153 -0.364375 -0.338983 -0.211188 -0.034601 0.077116 0.253505 -0.759925 -0.174812 -0.020059 0.045298 -0.461080 -0.172175 0.379508 0.052574 -0.593365 0.228011 0.074289 -0.074026 0.400742 -0.821132 -0.160544 -0.955100 -0.306127 -0.479369 -0.539677 0.371928 -0.162159 0.433126 -0.077464 0.012692 0.568013 0.085339 0.305980 0.195156 -0.492182 0.178233 -0.149638 -0.170900 -0.992546 -0.201381 0.616180 -0.107539 0.114170 0.187061 0.713526 -0.195470 0.015855 0.152198 -0.792366 0.165166 -0.762029 0.185544 -0.036834 0.028882 -0.291278 -0.203873 -0.384341 -0.396679 -0.381850 0.045459 -0.700052 0.154785 0.005021 -0.550666 0.376828 -0.026526 -0.102954 0.431095 0.023937 
99 -0.520745 -0.443418 -0.299551 -0.345417 0.024438 0.014588 -0.376531 0.267551 0.267360 -0.167438 0.329915 0.129012 0.221995 -0.147125 -0.417752 -0.301771 -0.252431 0.273372 0.641925 0.574974 0.771066 0.206518 0.365024 0.187019 0.062433 -0.138912 -0.832080 -0.307671 0.112062 -0.093164 0.253342 -0.355860 -0.454300 -0.293336 0.005626 0.042795 0.161134 -0.763567 -0.170818 -0.021099 0.042764 -0.419829 -0.080807 0.407273 0.074758 -0.662253 0.321605 0.126471 -0.013039 0.496606 -0.870716 -0.152042 -0.969006 -0.369887 -0.415401 -0.559935 0.271806 -0.207732 0.303013 0.011358 0.062798 0.611498 0.142576 0.293978 0.161297 -0.463556 0.101732 -0.268698 -0.143359 -0.873048 -0.217606 0.555299 -0.092057 0.119580 0.129484 0.855246 -0.212395 0.004024 0.260668 -0.709283 0.149552 -0.766864 0.260326 0.023426 0.156833 -0.478315 -0.239099 -0.307426 -0.365249 -0.425424 -0.010475 -0.658599 0.203970 0.024931 -0.497971 0.367893 -0.104312 0.012386 0.366090 0.001862 
100 -0.496566 -0.603833 -0.362586 -0.378196 0.083480 0.060397 -0.244367 0.235305 0.249735 -0.190676 0.255562 0.077484 0.188723 -0.294204 -0.429247 -0.310370 -0.283487 0.428910 0.686703 0.587320 0.810856 0.124641 0.339087 0.209666 0.084420 -0.171905 -0.778549 -0.260417 0.188284 -0.129046 0.251096 -0.404837 -0.364063 -0.232530 0.007019 0.076376 0.234295 -0.656332 -0.164782 0.005527 -0.089793 -0.507034 -0.083037 0.356795 0.115827 -0.639083 0.314382 0.085505 -0.090742 0.488502 -0.880932 -0.062439 -0.937529 -0.346728 -0.533171 -0.565516 0.230408 -0.161605 0.254772 0.068367 -0.028474 0.621821 0.079759 0.258739 0.154151 -0.537732 0.179445 -0.218913 -0.213824 -0.846234 -0.227724 0.536472 -0.085012 0.042576 0.134326 0.813109 -0.105719 0.030722 0.322998 -0.704868 0.145502 -0.804515 0.124158 0.091926 0.171293 -0.446855 -0.358848 -0.378707 -0.225335 -0.420714 -0.025507 -0.564477 0.138560 0.002204 -0.458463 0.349089 -0.141482 0.050327 0.436466 0.073520 
101 -0.334998 -0.640472 -0.362955 -0.315708 0.089154 0.018467 -0.240217 0.199345 0.212785 -0.174163 0.336566 0.147035 0.137534 -0.218745 -0.377770 -0.396865 -0.309274 0.508291 0.633469 0.639803 0.928896 0.127828 0.301460 0.336595 0.250924 -0.174478 -0.598422 -0.402639 0.132286 -0.174805 0.234443 -0.489396 -0.361763 -0.195315 -0.019576 0.067876 0.281956 -0.615234 -0.113839 -0.035030 -0.116132 -0.457015 -0.040216 0.306365 0.145001 -0.642199 0.395378 0.104602 -0.051137 0.552128 -0.908806 -0.136928 -0.832068 -0.365557 -0.590062 -0.601422 0.077120 -0.209226 0.235034 0.037331 0.037493 0.704112 0.068907 0.241786 0.250390 -0.507884 0.133807 -0.254811 -0.189557 -0.732518 -0.336210 0.621222 -0.087894 -0.014084 0.181620 0.773393 -0.177184 0.087087 0.463431 -0.617078 0.107441 -0.826650 0.114174 0.094055 0.193746 -0.481420 -0.365140 -0.395916 -0.224716 -0.325027 -0.074642 -0.540422 0.157503 -0.003310 -0.426209 0.323293 -0.169696 0.131904 0.555190 0.081309 
102 -0.297095 -0.679217 -0.307194 -0.318290 0.055787 0.013746 -0.098853 0.334449 0.147882 -0.094388 0.239686 0.061926 0.213494 -0.183459 -0.342546 -0.349974 -0.332992 0.675736 0.636184 0.702312 0.921878 0.138998 0.349878 0.329295 0.236463 -0.188066 -0.567015 -0.338842 0.153412 -0.192556 0.310388 -0.540145 -0.344689 -0.150198 -0.016494 0.061753 0.195953 -0.622722 -0.083603 0.057975 -0.251276 -0.461186 0.038753 0.239683 0.211494 -0.608890 0.324411 0.160969 -0.063292 0.472458 -0.886873 -0.101404 -0.719119 -0.315753 -0.625436 -0.637002 0.106913 -0.161778 0.241694 -0.005002 -0.045950 0.673175 0.061325 0.261322 0.388195 -0.539346 0.081696 -0.291217 -0.174883 -0.673479 -0.356010 0.693195 -0.067667 -0.031168 0.260809 0.765400 -0.071755 0.136323 0.371312 -0.670312 0.126062 -0.871761 0.052171 -0.003934 0.137284 -0.461815 -0.465609 -0.357991 -0.137898 -0.429840 -0.162789 -0.501875 0.169851 0.027990 -0.369633 0.299094 -0.291317 0.231558 0.485365 -0.003116 
103 -0.259816 -0.655710 -0.275954 -0.319368 0.063695 0.010705 -0.051983 0.400720 0.103294 -0.091223 0.298585 0.001050 0.191931 -0.149266 -0.314345 -0.410892 -0.260110 0.736627 0.574296 0.673010 0.885338 0.164562 0.421141 0.328951 0.252152 -0.227269 -0.595172 -0.284438 0.158987 -0.186098 0.339504 -0.548210 -0.323952 -0.095350 -0.083089 0.081872 0.236258 -0.653639 -0.006828 0.107478 -0.276713 -0.499145 0.068764 0.124465 0.219326 -0.567363 0.227797 0.141994 -0.038638 0.444019 -0.885539 -0.272015 -0.709412 -0.344600 -0.626547 -0.528672 0.054660 -0.198807 0.205976 0.037465 0.027636 0.640522 -0.029166 0.320010 0.407554 -0.542725 0.198345 -0.271715 -0.141289 -0.764454 -0.274582 0.629628 -0.038506 -0.045438 0.427053 0.770808 -0.128316 0.118820 0.244679 -0.675531 0.161850 -0.875669 0.010981 -0.146366 0.190845 -0.432752 -0.408009 -0.196559 -0.160568 -0.475144 -0.133210 -0.501798 0.133549 0.012565 -0.277597 0.242070 -0.268830 0.319578 0.362255 -0.103503 
