256 100
0 -1.831237 0.525133 0.918660 0.434180 0.477214 1.106524 0.208776 -1.083040 -0.097058 0.197181 -0.139947 0.233455 -0.455537 -0.560497 0.151694 -0.141838 0.698427 -0.379852 -0.150410 -0.564216 0.003412 0.210001 0.389420 -0.493645 0.271318 -0.188579 -0.194768 0.306851 -0.139865 0.081361 -0.203046 -0.845606 0.256626 -0.090683 0.521569 0.081972 -0.004287 -0.315490 -0.343067 0.312754 -0.349012 0.276615 -0.063492 0.414139 0.032838 0.103999 0.093072 -0.235734 -0.061195 0.014217 -0.035549 0.040443 -0.396016 0.255236 0.586271 -0.366706 0.637933 -0.222962 -0.102037 0.089798 0.058400 -0.088846 0.451517 -0.065376 0.051484 -0.256146 0.211262 0.225228 0.257317 -0.147747 0.419258 0.316223 -0.635967 -0.027419 -0.222637 -0.156330 -0.037763 -0.067954 -0.187059 0.183035 0.106615 -0.012197 0.042786 0.392431 0.277144 -0.301619 -0.301865 0.226313 -0.127620 0.248598 0.151858 0.508945 -0.209471 -0.038960 0.233909 -0.138143 0.031030 0.051493 -0.141584 -0.099780 
1 -1.265682 0.527750 0.663330 0.384684 0.167002 1.143388 0.124572 -0.723324 0.004368 0.196022 0.374765 0.390623 -0.648038 -1.094423 0.275009 -0.482808 0.856510 -0.271154 0.213970 -0.528830 -0.031021 0.262438 0.620800 -0.482066 0.304187 -0.252387 0.197469 0.741403 -0.460049 0.624639 -0.196001 -1.558984 0.272487 -0.066601 0.906244 -0.092209 0.449578 -0.908775 -0.231435 0.831186 -0.889623 0.482617 0.307380 0.726191 0.232015 -0.431744 -1.244964 -0.074723 -0.334767 -0.139493 -0.549749 -0.639855 -0.448091 0.221003 0.452205 -0.113821 0.975203 -0.284218 0.086593 -0.077457 -0.187707 -0.526652 0.049404 -0.013656 0.192712 -1.052196 -0.847327 0.347110 -0.436862 -0.255140 0.832140 0.191022 0.190119 -0.288975 -0.329480 -0.418272 -0.684855 0.368093 0.129968 0.079864 -0.140856 -0.174939 -0.114586 0.124547 -0.440659 -0.249082 -0.744348 0.061384 0.416133 -0.093430 -0.574637 0.829577 -0.381258 -0.216766 0.434540 -0.077329 0.665796 0.142170 -0.181462 -0.131229 
2 -0.796508 0.344637 0.558870 0.384740 0.292708 0.964913 0.126205 -0.536227 0.255350 0.224248 0.408688 0.288332 -0.395012 -0.837238 0.261148 -0.351492 0.758693 -0.241752 0.088975 -0.518606 -0.067905 0.251643 0.439727 -0.468481 0.230860 -0.313638 0.234643 0.690931 -0.480008 0.553464 -0.208657 -1.571650 0.241365 -0.118680 0.865461 -0.163634 0.505599 -0.902068 -0.250287 0.802143 -0.791666 0.428497 0.288681 0.781595 0.202341 -0.435513 -1.266540 -0.028881 -0.327289 -0.144259 -0.515270 -0.747803 -0.368864 0.292365 0.451334 -0.071578 0.944170 -0.211215 0.037011 -0.051146 -0.274762 -0.539259 0.033575 -0.086328 0.210800 -0.971968 -0.711780 0.238917 -0.457905 -0.245943 0.706585 0.138531 0.080081 -0.229970 -0.307465 -0.394079 -0.730637 0.300554 0.144468 0.157805 -0.280485 -0.096593 -0.047409 -0.002336 -0.505887 -0.275722 -0.898304 0.004316 0.367909 -0.200654 -0.548035 0.814009 -0.316271 -0.208853 0.475767 -0.064387 0.664113 0.040660 -0.150922 -0.178002 
3 -0.765562 0.320618 0.588128 0.380575 0.324803 0.891113 0.157880 -0.537269 0.241859 0.204010 0.445276 0.275515 -0.418485 -0.905757 0.246995 -0.372512 0.733472 -0.237642 0.112248 -0.504805 -0.076510 0.287955 0.418892 -0.429122 0.239735 -0.282748 0.287559 0.732394 -0.486257 0.561021 -0.172979 -1.525155 0.242885 -0.121402 0.879597 -0.191433 0.486801 -0.915962 -0.262364 0.801862 -0.790035 0.391736 0.255302 0.796552 0.206039 -0.440744 -1.294489 -0.019019 -0.329345 -0.137431 -0.497300 -0.689931 -0.332378 0.251160 0.438945 -0.069167 0.970470 -0.213219 0.079352 -0.088439 -0.212630 -0.501849 -0.006689 -0.033519 0.170070 -0.991256 -0.781031 0.222212 -0.494105 -0.231051 0.717155 0.094345 0.142449 -0.241149 -0.278919 -0.401453 -0.733203 0.295497 0.157637 0.141465 -0.315259 -0.141564 -0.074874 -0.004834 -0.503848 -0.269213 -0.876809 -0.020417 0.421249 -0.186058 -0.566223 0.788968 -0.308998 -0.221864 0.495920 -0.079140 0.699249 0.075057 -0.132387 -0.182646 
4 -1.229668 0.468764 0.713545 0.373456 0.289062 1.063263 0.192913 -0.730052 0.125548 0.147765 0.613083 0.356359 -0.624603 -1.168426 0.243745 -0.497096 0.755149 -0.224559 0.189580 -0.489155 -0.004279 0.264677 0.461928 -0.406079 0.251862 -0.249891 0.284819 0.779227 -0.482808 0.584278 -0.146450 -1.458120 0.254713 -0.055191 0.828638 -0.200765 0.482407 -0.962304 -0.255690 0.831428 -0.885591 0.379771 0.266972 0.697823 0.220748 -0.462691 -1.320316 -0.027194 -0.417564 -0.101594 -0.477023 -0.547424 -0.317838 0.098062 0.368371 -0.118669 0.890004 -0.275295 0.120401 -0.112019 -0.140698 -0.445405 -0.014818 0.042660 0.188862 -1.016243 -0.919956 0.338392 -0.446824 -0.084976 0.756821 0.108347 0.321708 -0.237479 -0.225423 -0.429396 -0.649775 0.309381 0.198601 0.102082 -0.210925 -0.212948 -0.145040 0.084126 -0.499055 -0.211627 -0.735707 0.046463 0.515186 -0.105551 -0.553197 0.761664 -0.362023 -0.286867 0.410396 -0.081650 0.717387 0.153639 -0.160539 -0.134821 
5 -1.245986 0.474906 0.727568 0.380374 0.321451 1.130900 0.175973 -0.739429 0.112311 0.201617 0.571248 0.374501 -0.551460 -1.103855 0.272464 -0.488236 0.790397 -0.202133 0.209621 -0.517742 -0.093283 0.249962 0.451326 -0.474966 0.268896 -0.238852 0.282946 0.845527 -0.511979 0.607303 -0.163448 -1.535323 0.283189 -0.075449 0.871548 -0.213224 0.534046 -0.956345 -0.247008 0.822215 -0.890797 0.406243 0.322125 0.662903 0.221011 -0.492452 -1.384509 -0.018649 -0.407622 -0.111952 -0.545869 -0.699338 -0.355658 0.148620 0.402194 -0.067398 0.892097 -0.273065 0.088406 -0.062311 -0.228872 -0.494401 0.005003 -0.028838 0.237719 -1.075482 -0.960595 0.344509 -0.486390 -0.104528 0.848112 0.123650 0.278319 -0.249623 -0.261814 -0.430264 -0.701578 0.338651 0.218062 0.092343 -0.185985 -0.184421 -0.153176 0.064975 -0.519300 -0.225349 -0.809483 -0.009627 0.526819 -0.093195 -0.559296 0.806236 -0.332675 -0.316874 0.367833 -0.023876 0.700915 0.095685 -0.197520 -0.133170 
6 -1.205463 0.471256 0.677028 0.386100 0.344189 1.108852 0.217177 -0.756504 0.077431 0.191597 0.581976 0.392355 -0.620465 -1.123497 0.305587 -0.525211 0.769548 -0.140831 0.197906 -0.487378 -0.089158 0.217461 0.408288 -0.459811 0.238737 -0.252252 0.296842 0.838984 -0.535374 0.586861 -0.146723 -1.487080 0.285283 -0.058563 0.822191 -0.260625 0.560536 -0.963962 -0.258269 0.847237 -0.917522 0.388385 0.332004 0.677656 0.254726 -0.532282 -1.442629 -0.024493 -0.437769 -0.130990 -0.562754 -0.695068 -0.270756 0.093945 0.381852 -0.098958 0.866498 -0.263222 0.092651 -0.049620 -0.253078 -0.504358 0.003937 -0.024634 0.248576 -1.060421 -0.959200 0.337537 -0.471435 -0.072138 0.841310 0.090267 0.327598 -0.226333 -0.208372 -0.400195 -0.713256 0.332390 0.218318 0.144672 -0.173481 -0.165576 -0.158573 0.074436 -0.539456 -0.252613 -0.831791 -0.012659 0.600164 -0.040829 -0.503029 0.790709 -0.289406 -0.376781 0.327008 -0.037588 0.719510 0.083534 -0.220556 -0.160183 
7 -1.323808 0.484024 0.635484 0.302602 0.308685 1.134401 0.233562 -0.772495 0.096715 0.180373 0.569537 0.344987 -0.582377 -1.178958 0.211563 -0.557270 0.784061 -0.211797 0.259787 -0.467647 -0.080310 0.212443 0.425786 -0.439542 0.262131 -0.222133 0.343647 0.919505 -0.545555 0.606710 -0.154443 -1.519517 0.369411 -0.127032 0.876430 -0.263989 0.521358 -0.807529 -0.215173 0.793735 -0.824686 0.348113 0.301062 0.682290 0.173275 -0.535908 -1.483012 0.016198 -0.413353 -0.099690 -0.549655 -0.636685 -0.287492 0.087173 0.405501 -0.013810 0.846817 -0.255896 0.095115 -0.041320 -0.188312 -0.490723 -0.049492 0.016747 0.245077 -0.972668 -0.979554 0.303419 -0.498730 -0.140313 0.729404 0.099515 0.371379 -0.263554 -0.244282 -0.422143 -0.696910 0.346588 0.220546 0.075920 -0.194914 -0.253942 -0.083479 0.054610 -0.483221 -0.263613 -0.742298 -0.056919 0.487137 -0.087534 -0.526772 0.761208 -0.356309 -0.350728 0.303119 -0.033256 0.625125 0.151500 -0.246113 -0.129725 
8 -1.284750 0.447086 0.610780 0.297591 0.334098 1.185664 0.265312 -0.872326 0.007791 0.166932 0.635379 0.335261 -0.577495 -1.145577 0.237303 -0.584288 0.710466 -0.082189 0.304704 -0.447323 -0.037733 0.102478 0.336994 -0.421511 0.226019 -0.270441 0.372997 0.956767 -0.548216 0.587468 -0.086325 -1.394595 0.295777 -0.070711 0.806031 -0.329747 0.622699 -0.916234 -0.232941 0.877574 -0.946891 0.345118 0.405534 0.619875 0.202998 -0.572291 -1.573343 0.082793 -0.452368 -0.115569 -0.591099 -0.674318 -0.180687 0.013912 0.304490 -0.037739 0.747948 -0.278540 0.133745 -0.068618 -0.288599 -0.463687 -0.085116 0.005229 0.319347 -0.982459 -1.076711 0.381502 -0.518420 -0.010962 0.806082 0.049808 0.486342 -0.202003 -0.118638 -0.410003 -0.656011 0.339881 0.283637 0.115339 -0.085795 -0.168839 -0.199603 0.074198 -0.592779 -0.177916 -0.740781 -0.021900 0.646349 -0.068586 -0.493619 0.764530 -0.300059 -0.447589 0.177028 0.037940 0.637646 0.125729 -0.263781 -0.144232 
9 -1.411319 0.435763 0.625669 0.251105 0.357618 1.076566 0.207995 -0.866653 0.024137 0.081370 0.657776 0.341873 -0.640497 -1.116424 0.174455 -0.576025 0.617911 -0.073475 0.343599 -0.394079 0.012868 0.116703 0.315098 -0.333283 0.236993 -0.225370 0.357694 0.880817 -0.501781 0.579965 -0.038101 -1.268265 0.230703 -0.098527 0.812053 -0.272057 0.491156 -0.776213 -0.187650 0.789924 -0.834134 0.322325 0.386834 0.715473 0.219318 -0.551707 -1.585092 0.107903 -0.385878 -0.112079 -0.575369 -0.612519 -0.215636 -0.048206 0.259617 0.032384 0.719380 -0.258580 0.188096 -0.169238 -0.160908 -0.411025 -0.199118 0.085084 0.292748 -0.979137 -1.141972 0.404727 -0.591779 -0.032840 0.759427 -0.040540 0.568289 -0.222758 -0.115649 -0.416808 -0.596566 0.307659 0.333705 0.002921 -0.064266 -0.259052 -0.230915 0.133670 -0.572320 -0.102561 -0.628254 -0.034827 0.564056 -0.035109 -0.485980 0.643550 -0.376993 -0.370442 0.174149 0.015821 0.561361 0.247000 -0.220316 -0.042401 
10 -1.451133 0.474143 0.641373 0.288513 0.345814 1.125399 0.227621 -0.893243 -0.012765 0.085627 0.637931 0.361558 -0.671281 -1.138656 0.207714 -0.585438 0.636762 -0.082329 0.352763 -0.377212 -0.013364 0.128222 0.386529 -0.338942 0.253577 -0.223241 0.344030 0.881633 -0.503640 0.600572 -0.049517 -1.320334 0.245900 -0.106486 0.825414 -0.236087 0.506905 -0.739375 -0.154535 0.848383 -0.828432 0.355823 0.385663 0.674459 0.208999 -0.573446 -1.607640 0.078151 -0.409235 -0.076545 -0.542155 -0.597497 -0.224212 -0.025127 0.251349 0.032690 0.739049 -0.222335 0.142874 -0.163114 -0.170186 -0.432565 -0.205637 0.065490 0.317428 -0.970687 -1.109031 0.401498 -0.561260 -0.049390 0.731500 -0.007198 0.539675 -0.234859 -0.146559 -0.385888 -0.582199 0.324826 0.325241 -0.018150 -0.011153 -0.235694 -0.183561 0.127121 -0.556718 -0.090002 -0.598337 -0.021926 0.498816 -0.047962 -0.523582 0.642681 -0.409093 -0.345495 0.180704 0.026536 0.521991 0.223419 -0.219068 -0.016367 
11 -1.496063 0.443292 0.676572 0.281603 0.424190 1.061543 0.224954 -0.927348 0.017585 0.040629 0.682610 0.352026 -0.720806 -1.159516 0.219159 -0.593710 0.576786 -0.041980 0.351293 -0.361846 -0.028649 0.145181 0.306086 -0.302414 0.234351 -0.233609 0.343671 0.839737 -0.495666 0.597584 -0.041109 -1.286868 0.190868 -0.070226 0.799992 -0.236802 0.509403 -0.758383 -0.122152 0.833534 -0.817296 0.333434 0.387542 0.686206 0.221910 -0.574472 -1.613866 0.092890 -0.408638 -0.079945 -0.538433 -0.618475 -0.201516 -0.059306 0.204513 0.051977 0.728447 -0.204916 0.161402 -0.208370 -0.150452 -0.408790 -0.244638 0.090390 0.318111 -0.973003 -1.124532 0.406166 -0.612332 -0.013683 0.720500 -0.085276 0.580116 -0.227936 -0.128693 -0.372496 -0.548704 0.307519 0.354293 -0.050692 -0.019820 -0.250844 -0.200395 0.136233 -0.564832 -0.051558 -0.583709 -0.032908 0.514614 -0.025915 -0.508943 0.579343 -0.400151 -0.340563 0.163028 0.039033 0.513757 0.246288 -0.190493 0.021963 
12 -1.540359 0.462693 0.701069 0.285888 0.419330 1.034058 0.210183 -0.908414 0.030661 0.038642 0.681885 0.357412 -0.729635 -1.194974 0.196754 -0.601396 0.577460 -0.076060 0.347804 -0.331887 -0.026373 0.175293 0.328242 -0.292336 0.244796 -0.211965 0.360228 0.822981 -0.482506 0.623551 -0.030801 -1.292635 0.214208 -0.087036 0.825627 -0.215748 0.464309 -0.705961 -0.105933 0.823023 -0.770466 0.323024 0.348747 0.677004 0.235764 -0.587980 -1.631431 0.072990 -0.396913 -0.074018 -0.507776 -0.555808 -0.214233 -0.049674 0.206399 0.055573 0.737658 -0.179200 0.149234 -0.222104 -0.099884 -0.405205 -0.259571 0.104672 0.293481 -0.964882 -1.119094 0.381263 -0.592437 -0.051469 0.669817 -0.072267 0.596862 -0.251650 -0.156889 -0.349707 -0.538256 0.316953 0.343246 -0.093604 -0.002018 -0.282696 -0.160012 0.130540 -0.514128 -0.047063 -0.532015 -0.056098 0.463233 -0.024694 -0.522961 0.554442 -0.427179 -0.305276 0.193048 0.030865 0.488675 0.245317 -0.195627 0.038867 
13 -1.599844 0.460875 0.732558 0.294067 0.455090 0.994883 0.216342 -0.921209 0.034419 0.011968 0.741400 0.348181 -0.727042 -1.213556 0.200617 -0.611268 0.529863 -0.042958 0.362093 -0.316242 -0.043096 0.181728 0.284731 -0.263038 0.224305 -0.221930 0.369328 0.811719 -0.484553 0.630457 -0.053776 -1.258641 0.184108 -0.056750 0.785266 -0.224944 0.487471 -0.701966 -0.063020 0.822947 -0.763204 0.294776 0.352402 0.633713 0.219402 -0.604254 -1.646121 0.080108 -0.434416 -0.048907 -0.485992 -0.561896 -0.185141 -0.080601 0.153971 0.073690 0.694854 -0.161052 0.140687 -0.241478 -0.098035 -0.392130 -0.287014 0.123969 0.307116 -0.983444 -1.159682 0.394559 -0.640736 0.003460 0.652302 -0.116990 0.643936 -0.245866 -0.141479 -0.371968 -0.528435 0.318994 0.393664 -0.113908 -0.018472 -0.310833 -0.177695 0.126742 -0.575728 -0.008085 -0.551590 -0.046774 0.491897 -0.031954 -0.548788 0.530357 -0.445513 -0.316996 0.185051 0.035659 0.492007 0.270964 -0.180253 0.057448 
14 -1.588813 0.462999 0.746894 0.313888 0.468403 1.011085 0.223503 -0.941765 0.045253 0.004147 0.732334 0.362464 -0.750849 -1.221010 0.210637 -0.601503 0.529537 -0.048591 0.359734 -0.307453 -0.049559 0.191879 0.302283 -0.259389 0.222560 -0.224789 0.359174 0.809978 -0.487200 0.623966 -0.055225 -1.271220 0.173261 -0.049329 0.787579 -0.215550 0.473376 -0.689285 -0.055905 0.830402 -0.764656 0.304139 0.355982 0.636428 0.219643 -0.598527 -1.637632 0.082162 -0.439955 -0.033969 -0.467840 -0.538152 -0.183543 -0.076791 0.144804 0.070248 0.712062 -0.147075 0.143731 -0.257139 -0.103027 -0.387971 -0.294354 0.119838 0.301965 -0.981412 -1.142930 0.381404 -0.620431 -0.002269 0.644544 -0.110760 0.611789 -0.246173 -0.149733 -0.345363 -0.515809 0.311717 0.390018 -0.117595 -0.010150 -0.287811 -0.179492 0.140315 -0.561592 -0.014889 -0.549889 -0.054321 0.473703 -0.028547 -0.547648 0.525486 -0.435443 -0.302535 0.203047 0.041858 0.486174 0.265694 -0.179208 0.059098 
15 -1.647963 0.464945 0.780465 0.307129 0.485816 0.966881 0.214849 -0.938537 0.039672 -0.021154 0.759801 0.368849 -0.794976 -1.251384 0.223260 -0.609618 0.495782 -0.037440 0.369971 -0.293910 -0.042545 0.194808 0.307140 -0.220321 0.234126 -0.209717 0.349363 0.761983 -0.472897 0.645991 -0.036268 -1.252258 0.158922 -0.052514 0.756872 -0.175835 0.457969 -0.674063 -0.043068 0.827705 -0.723749 0.300094 0.341574 0.641838 0.235301 -0.605634 -1.655615 0.078926 -0.407417 -0.029671 -0.465531 -0.542947 -0.200228 -0.082021 0.120480 0.089189 0.716249 -0.128871 0.133390 -0.291293 -0.055522 -0.369900 -0.327090 0.141096 0.307711 -0.989181 -1.148432 0.393493 -0.655909 -0.008810 0.627566 -0.153698 0.651021 -0.252647 -0.148042 -0.338797 -0.504998 0.308587 0.397447 -0.155204 -0.010118 -0.305328 -0.177158 0.132468 -0.547603 0.031209 -0.508483 -0.058896 0.437534 -0.021517 -0.568545 0.474668 -0.455911 -0.276296 0.202971 0.047706 0.448076 0.284549 -0.155099 0.110454 
16 -1.645948 0.469684 0.794237 0.326691 0.497445 0.937295 0.211758 -0.912271 0.073325 -0.027329 0.763150 0.377284 -0.811900 -1.263542 0.220632 -0.610555 0.488070 -0.039995 0.367437 -0.284616 -0.079106 0.227657 0.291278 -0.222541 0.213945 -0.216449 0.354057 0.741698 -0.477454 0.650114 -0.051653 -1.266294 0.136744 -0.023557 0.766351 -0.166669 0.440792 -0.657761 -0.015325 0.816890 -0.702547 0.286954 0.330974 0.643710 0.238229 -0.602601 -1.649451 0.078954 -0.426507 -0.024811 -0.456594 -0.532508 -0.195187 -0.096253 0.115296 0.101256 0.732797 -0.120131 0.150283 -0.303212 -0.052200 -0.376887 -0.337707 0.150485 0.291093 -0.993595 -1.142108 0.372354 -0.659284 -0.006044 0.629836 -0.166565 0.627590 -0.265471 -0.161302 -0.325023 -0.501172 0.305299 0.408325 -0.169283 -0.016003 -0.310057 -0.177016 0.154116 -0.550993 0.022579 -0.516988 -0.066563 0.442034 -0.011831 -0.582778 0.457746 -0.446138 -0.259865 0.231272 0.044264 0.457482 0.282974 -0.155849 0.119391 
17 -1.648643 0.463328 0.821921 0.323021 0.499629 0.880941 0.204955 -0.886519 0.084522 -0.042825 0.791358 0.367913 -0.811432 -1.297330 0.211648 -0.604529 0.474547 -0.058307 0.355335 -0.278070 -0.081289 0.235240 0.298835 -0.188663 0.229134 -0.188352 0.347762 0.736186 -0.455892 0.663829 -0.045739 -1.237499 0.164186 -0.044057 0.734783 -0.150860 0.434460 -0.661335 -0.041232 0.820291 -0.677926 0.283370 0.300492 0.647677 0.238494 -0.607285 -1.660829 0.066922 -0.420667 -0.014486 -0.416165 -0.498087 -0.186837 -0.087677 0.106499 0.100654 0.728601 -0.117890 0.134383 -0.315644 0.006124 -0.343129 -0.355812 0.172428 0.275250 -0.981910 -1.123307 0.355379 -0.674811 -0.005688 0.595074 -0.182105 0.662257 -0.266907 -0.161914 -0.351227 -0.499306 0.296984 0.419943 -0.178898 -0.053938 -0.344517 -0.162946 0.126950 -0.549389 0.031618 -0.517877 -0.076697 0.446348 -0.030863 -0.578728 0.449925 -0.434915 -0.253042 0.237975 0.033446 0.466789 0.278668 -0.138137 0.098880 
18 -1.640984 0.457613 0.829512 0.336643 0.550764 0.861146 0.205550 -0.900448 0.115637 -0.060225 0.834104 0.370971 -0.829236 -1.316378 0.225293 -0.616583 0.447731 -0.035710 0.365137 -0.256625 -0.096746 0.252660 0.277060 -0.178484 0.206107 -0.205915 0.367422 0.723563 -0.464022 0.664856 -0.057710 -1.252774 0.124909 -0.024710 0.748822 -0.169491 0.437692 -0.667973 -0.008542 0.832991 -0.674519 0.268340 0.294480 0.628633 0.247939 -0.609036 -1.651952 0.061383 -0.442421 -0.004272 -0.388022 -0.486055 -0.164704 -0.094078 0.091200 0.099002 0.738171 -0.090489 0.140863 -0.347333 -0.008462 -0.336323 -0.387587 0.157355 0.277737 -0.991946 -1.126563 0.327166 -0.669639 0.034468 0.577758 -0.201969 0.634669 -0.255380 -0.158146 -0.331779 -0.488197 0.279271 0.449222 -0.185455 -0.057747 -0.326392 -0.171799 0.130328 -0.574044 0.045843 -0.547613 -0.090003 0.440585 -0.031431 -0.577804 0.432278 -0.431717 -0.241267 0.251331 0.051306 0.464455 0.268153 -0.134382 0.113024 
19 -1.753081 0.476887 0.892212 0.362687 0.591495 0.868621 0.205999 -0.944762 0.125629 -0.061030 0.817845 0.371755 -0.834532 -1.331697 0.211549 -0.605252 0.453087 -0.064181 0.349774 -0.273051 -0.117047 0.276119 0.276780 -0.185053 0.199989 -0.214263 0.350058 0.719485 -0.474571 0.672880 -0.099869 -1.307105 0.126960 -0.021655 0.769323 -0.142271 0.417207 -0.630065 0.037156 0.797652 -0.641842 0.274545 0.293134 0.627011 0.235792 -0.603126 -1.648066 0.071222 -0.446029 0.023179 -0.390743 -0.497503 -0.201838 -0.094737 0.075152 0.129408 0.726566 -0.063490 0.122293 -0.327557 -0.007489 -0.368721 -0.367281 0.161742 0.274764 -0.990368 -1.101675 0.341631 -0.694290 -0.007281 0.549907 -0.205775 0.643992 -0.283365 -0.202218 -0.322907 -0.482657 0.328358 0.451102 -0.248228 -0.042381 -0.353343 -0.144463 0.137989 -0.563931 0.071480 -0.517287 -0.076303 0.384307 -0.043635 -0.631684 0.411457 -0.473242 -0.214332 0.279922 0.030250 0.441768 0.296489 -0.105161 0.167786 
20 -1.699383 0.476453 0.872927 0.357640 0.577775 0.855905 0.216748 -0.917761 0.137176 -0.064833 0.823111 0.372829 -0.852738 -1.315323 0.237607 -0.594311 0.445569 -0.047988 0.339916 -0.241216 -0.096606 0.306820 0.289466 -0.168932 0.218957 -0.210554 0.350972 0.681186 -0.467285 0.667776 -0.069216 -1.284455 0.107512 -0.014856 0.768807 -0.144552 0.399152 -0.633253 0.021941 0.799453 -0.630986 0.268581 0.275473 0.642977 0.245455 -0.600209 -1.626775 0.052194 -0.426638 -0.002515 -0.369278 -0.470645 -0.187093 -0.086138 0.086494 0.092642 0.763802 -0.074146 0.132654 -0.355723 0.019930 -0.348604 -0.363670 0.183826 0.245799 -1.018591 -1.111275 0.340580 -0.702780 -0.027324 0.562659 -0.217809 0.637664 -0.278457 -0.186413 -0.322671 -0.496315 0.294846 0.428137 -0.212775 -0.066083 -0.352249 -0.140173 0.133101 -0.550714 0.043972 -0.519767 -0.077846 0.401483 -0.044032 -0.632750 0.409523 -0.463644 -0.198645 0.311768 0.004641 0.476470 0.292336 -0.092600 0.150006 
21 -1.692207 0.463362 0.919368 0.384078 0.610263 0.802748 0.207027 -0.898363 0.167954 -0.064780 0.839297 0.375604 -0.843349 -1.357411 0.223540 -0.594694 0.442025 -0.074507 0.332668 -0.248720 -0.140799 0.317605 0.283215 -0.163410 0.213767 -0.192597 0.348355 0.693613 -0.463259 0.686487 -0.088811 -1.303926 0.117940 -0.028429 0.767340 -0.131891 0.394793 -0.640457 0.015149 0.800176 -0.604290 0.258067 0.246885 0.637031 0.243873 -0.593843 -1.625110 0.058675 -0.436751 0.026730 -0.345511 -0.440290 -0.195641 -0.081335 0.085062 0.127371 0.754140 -0.058491 0.121648 -0.352018 0.058156 -0.335580 -0.385912 0.195916 0.244293 -1.001018 -1.098277 0.306671 -0.702173 -0.005212 0.528803 -0.230015 0.645214 -0.296962 -0.211846 -0.334456 -0.499286 0.310306 0.456581 -0.248216 -0.088875 -0.381068 -0.131917 0.129944 -0.555492 0.057316 -0.525900 -0.101002 0.378545 -0.047369 -0.652930 0.400454 -0.480092 -0.191849 0.332870 0.012954 0.469248 0.305215 -0.090012 0.168351 
22 -1.697374 0.461479 0.989431 0.410449 0.614537 0.791925 0.224314 -0.887360 0.187642 -0.054125 0.837349 0.378059 -0.855781 -1.382819 0.233064 -0.561613 0.450673 -0.105991 0.284698 -0.272476 -0.137540 0.364381 0.308624 -0.159016 0.232786 -0.195589 0.324018 0.660012 -0.451329 0.689982 -0.088483 -1.297836 0.127617 -0.029082 0.739535 -0.102917 0.371483 -0.640858 -0.008883 0.789106 -0.587903 0.264112 0.228782 0.637320 0.244453 -0.581631 -1.583182 0.041176 -0.398116 0.027124 -0.332284 -0.429611 -0.223829 -0.036376 0.083493 0.111750 0.791873 -0.053485 0.105436 -0.369774 0.079628 -0.328148 -0.373794 0.206081 0.224123 -1.016338 -1.070359 0.297446 -0.698389 -0.028971 0.525492 -0.228222 0.624287 -0.299219 -0.218461 -0.335391 -0.497764 0.301205 0.432205 -0.243635 -0.140743 -0.376531 -0.122982 0.097124 -0.534739 0.047808 -0.531176 -0.105040 0.358638 -0.075863 -0.658089 0.393943 -0.450261 -0.159175 0.388354 -0.003266 0.497083 0.292776 -0.054465 0.141936 
23 -1.693787 0.465345 0.956518 0.418159 0.629982 0.763833 0.213478 -0.899304 0.167240 -0.073472 0.803315 0.376627 -0.874943 -1.375460 0.220922 -0.578961 0.438588 -0.098957 0.313545 -0.258847 -0.181606 0.342321 0.291496 -0.165009 0.222032 -0.161608 0.334597 0.680709 -0.443086 0.667150 -0.076741 -1.282886 0.123894 -0.032724 0.776394 -0.109919 0.369983 -0.639485 -0.024984 0.811560 -0.587900 0.265673 0.211570 0.688883 0.239421 -0.566134 -1.598879 0.060327 -0.401340 0.029563 -0.338423 -0.385040 -0.213209 -0.049463 0.092139 0.131203 0.802665 -0.053573 0.132110 -0.368434 0.096714 -0.331903 -0.408367 0.220611 0.210016 -0.981064 -1.069487 0.256566 -0.686998 -0.058622 0.508184 -0.223211 0.628678 -0.334761 -0.246375 -0.342671 -0.496327 0.320701 0.453410 -0.282580 -0.112699 -0.404093 -0.117620 0.129881 -0.530509 0.053648 -0.500480 -0.137104 0.318340 -0.048340 -0.660770 0.388070 -0.503396 -0.154214 0.374102 0.006030 0.443578 0.334017 -0.095670 0.184273 
24 -1.651159 0.440950 1.008625 0.431821 0.659368 0.701495 0.203769 -0.856310 0.234851 -0.081663 0.825830 0.366547 -0.880565 -1.417865 0.238549 -0.564071 0.434159 -0.123391 0.279925 -0.257176 -0.195498 0.405673 0.308499 -0.151955 0.217418 -0.165107 0.329376 0.639156 -0.432902 0.697639 -0.082573 -1.291323 0.137454 -0.036201 0.762483 -0.088253 0.360216 -0.660274 -0.035049 0.820090 -0.580263 0.247728 0.173657 0.675192 0.249774 -0.566206 -1.584443 0.038128 -0.396752 0.030842 -0.304370 -0.381943 -0.218474 -0.033731 0.083797 0.133135 0.841020 -0.037607 0.117796 -0.402796 0.132918 -0.302526 -0.429579 0.225070 0.205106 -0.980373 -1.052206 0.234168 -0.695094 -0.049245 0.491101 -0.248609 0.613327 -0.322042 -0.246361 -0.316116 -0.497017 0.293905 0.450499 -0.284215 -0.164651 -0.406513 -0.112527 0.113256 -0.520993 0.032042 -0.545083 -0.172403 0.336195 -0.058543 -0.666797 0.376719 -0.459463 -0.132329 0.423635 0.009604 0.490280 0.302164 -0.075431 0.155510 
25 -1.616611 0.420728 1.001295 0.418409 0.640781 0.710433 0.226779 -0.854912 0.207460 -0.064295 0.842674 0.365311 -0.859445 -1.418405 0.217334 -0.555752 0.421617 -0.119379 0.270896 -0.266727 -0.162272 0.370639 0.308790 -0.125425 0.258397 -0.156986 0.316225 0.670957 -0.419853 0.687434 -0.068090 -1.257693 0.164470 -0.079953 0.734034 -0.100918 0.354411 -0.662587 -0.089300 0.803941 -0.563631 0.244386 0.171999 0.691672 0.234125 -0.554718 -1.577403 0.050380 -0.365143 0.025556 -0.295562 -0.363631 -0.221150 -0.025036 0.096605 0.135101 0.807001 -0.052991 0.115558 -0.400340 0.158490 -0.281398 -0.433847 0.238233 0.198667 -0.976060 -1.060737 0.246206 -0.708129 -0.053625 0.480016 -0.248463 0.638001 -0.314416 -0.226578 -0.371591 -0.511840 0.285185 0.448028 -0.258339 -0.211503 -0.404891 -0.115661 0.072620 -0.531244 0.044169 -0.537948 -0.158039 0.332200 -0.096710 -0.650195 0.393765 -0.455565 -0.139494 0.410729 -0.008991 0.475232 0.321984 -0.055177 0.141585 
26 -1.643475 0.440246 1.037286 0.452469 0.653425 0.666305 0.204143 -0.836048 0.225743 -0.070980 0.811488 0.362097 -0.876053 -1.421012 0.219620 -0.541122 0.419201 -0.138154 0.250428 -0.265597 -0.187468 0.415797 0.292020 -0.141655 0.228488 -0.165310 0.318424 0.631058 -0.420281 0.688186 -0.098579 -1.269454 0.128895 -0.028946 0.752171 -0.088737 0.337985 -0.661557 -0.045948 0.791873 -0.554603 0.232411 0.150600 0.689624 0.231819 -0.537932 -1.529856 0.037000 -0.398234 0.037266 -0.275294 -0.348342 -0.223203 -0.034729 0.080395 0.129447 0.834263 -0.041490 0.121978 -0.409157 0.165013 -0.286512 -0.416711 0.249014 0.171564 -1.000106 -1.052253 0.231198 -0.717527 -0.066524 0.501019 -0.254498 0.626113 -0.342998 -0.252565 -0.358936 -0.516110 0.307841 0.446118 -0.285013 -0.205351 -0.422669 -0.123016 0.104202 -0.523904 0.040081 -0.537785 -0.155286 0.339400 -0.064504 -0.681652 0.377545 -0.461364 -0.115337 0.462754 -0.021370 0.505018 0.310816 -0.052349 0.153137 
27 -1.660974 0.438247 1.039589 0.453160 0.641296 0.655426 0.201895 -0.858697 0.181085 -0.080282 0.761445 0.361282 -0.886266 -1.420509 0.207586 -0.540783 0.448445 -0.168848 0.254219 -0.292932 -0.231272 0.400608 0.305635 -0.159065 0.252564 -0.109052 0.282453 0.666507 -0.397034 0.680008 -0.071828 -1.268928 0.155495 -0.051109 0.759133 -0.056930 0.327306 -0.655085 -0.080922 0.794958 -0.527574 0.260557 0.135172 0.722736 0.225600 -0.511887 -1.521365 0.058605 -0.346947 0.043890 -0.294330 -0.290736 -0.258020 -0.027717 0.100659 0.147869 0.834430 -0.059642 0.128116 -0.381284 0.209442 -0.296476 -0.405259 0.285756 0.148355 -0.959131 -1.037154 0.220228 -0.683992 -0.113829 0.489918 -0.222923 0.641337 -0.378952 -0.291300 -0.365500 -0.506340 0.341763 0.421928 -0.317161 -0.200983 -0.444004 -0.100454 0.105120 -0.488301 0.022400 -0.475909 -0.165143 0.293658 -0.056103 -0.687180 0.381687 -0.498461 -0.103568 0.461501 -0.034503 0.489107 0.364238 -0.055683 0.180086 
28 -1.600101 0.402545 1.123483 0.483614 0.681482 0.611324 0.226805 -0.803276 0.235342 -0.036416 0.798859 0.344356 -0.850397 -1.459690 0.220826 -0.517868 0.445312 -0.173482 0.205418 -0.320064 -0.240037 0.436061 0.293710 -0.152859 0.262457 -0.103867 0.289819 0.654374 -0.400136 0.695862 -0.065715 -1.255849 0.184508 -0.071377 0.713807 -0.079029 0.343133 -0.706822 -0.138219 0.780097 -0.519508 0.232163 0.105943 0.677541 0.235973 -0.508978 -1.483957 0.043056 -0.319241 0.036025 -0.285835 -0.301307 -0.252490 0.012146 0.107277 0.132296 0.845533 -0.075343 0.117700 -0.384367 0.223618 -0.252099 -0.406846 0.277140 0.134720 -0.979356 -1.037869 0.183025 -0.684197 -0.048273 0.490678 -0.237309 0.625131 -0.351905 -0.264565 -0.405549 -0.537116 0.298358 0.437016 -0.265690 -0.301847 -0.459512 -0.121428 0.058688 -0.498530 0.002874 -0.551352 -0.195374 0.353307 -0.084136 -0.671102 0.404804 -0.446164 -0.121070 0.495886 -0.033483 0.527766 0.332071 -0.053603 0.121128 
29 -1.502221 0.417880 1.053490 0.464483 0.628159 0.588489 0.200404 -0.779172 0.239386 -0.051629 0.798551 0.338735 -0.849854 -1.473759 0.204449 -0.529437 0.452870 -0.211733 0.207993 -0.302800 -0.222163 0.460251 0.325966 -0.179715 0.230392 -0.090318 0.314794 0.651802 -0.400085 0.679879 -0.061779 -1.235150 0.171877 -0.072362 0.747729 -0.093864 0.312297 -0.733482 -0.171701 0.777514 -0.558276 0.241173 0.089417 0.696812 0.236352 -0.472822 -1.440712 0.041552 -0.334818 0.029133 -0.279041 -0.244526 -0.258190 0.013907 0.126064 0.106798 0.880143 -0.086139 0.134358 -0.388687 0.235725 -0.250463 -0.417288 0.285218 0.124753 -0.968303 -1.036352 0.161695 -0.656316 -0.081562 0.490397 -0.201922 0.592543 -0.367345 -0.275050 -0.409531 -0.531805 0.288642 0.439257 -0.267429 -0.283103 -0.468496 -0.126842 0.092118 -0.482469 -0.014785 -0.541264 -0.204368 0.325121 -0.065582 -0.660861 0.389530 -0.468855 -0.110192 0.518773 -0.028842 0.530107 0.343865 -0.073503 0.113003 
30 -1.509258 0.406930 1.086857 0.492191 0.663200 0.583785 0.207170 -0.802400 0.241973 -0.035148 0.735188 0.327449 -0.834006 -1.449720 0.209248 -0.504753 0.475802 -0.218443 0.183151 -0.302129 -0.259745 0.479084 0.328617 -0.193289 0.234716 -0.082407 0.283620 0.632994 -0.410060 0.688045 -0.069398 -1.269666 0.201060 -0.076179 0.784651 -0.094343 0.307512 -0.718580 -0.166359 0.801227 -0.557078 0.264329 0.093602 0.692448 0.266186 -0.486719 -1.458740 0.029263 -0.316042 0.039699 -0.293719 -0.210351 -0.281531 0.018743 0.120286 0.106590 0.868613 -0.084577 0.115531 -0.371928 0.261602 -0.257289 -0.391501 0.301430 0.117158 -0.970007 -1.048738 0.177614 -0.637266 -0.089639 0.482288 -0.194671 0.621187 -0.370715 -0.282124 -0.386403 -0.544229 0.318229 0.428400 -0.279960 -0.279342 -0.496553 -0.121940 0.105911 -0.472616 -0.031197 -0.537246 -0.230143 0.316636 -0.067786 -0.682147 0.404913 -0.487799 -0.116013 0.532247 -0.041961 0.538202 0.366532 -0.082244 0.131292 
31 -1.506263 0.368749 1.084632 0.468332 0.678557 0.541995 0.184928 -0.783986 0.229440 -0.037040 0.726296 0.304909 -0.795373 -1.441431 0.162959 -0.505966 0.463429 -0.218167 0.198228 -0.332098 -0.238607 0.432984 0.301446 -0.177418 0.245627 -0.066939 0.290396 0.653890 -0.362348 0.690500 -0.062598 -1.197768 0.220447 -0.092877 0.747324 -0.073406 0.309713 -0.739991 -0.214826 0.782595 -0.553984 0.225616 0.054371 0.752997 0.239876 -0.468321 -1.449990 0.051559 -0.280735 0.005098 -0.303374 -0.247857 -0.275569 0.026415 0.124347 0.150226 0.844426 -0.090555 0.133278 -0.376041 0.279445 -0.233904 -0.437206 0.287017 0.120727 -0.903053 -1.025539 0.149199 -0.658004 -0.093439 0.462815 -0.204154 0.653325 -0.373013 -0.283906 -0.402790 -0.538963 0.326329 0.415976 -0.304057 -0.305776 -0.481469 -0.118241 0.048187 -0.445667 -0.019259 -0.500132 -0.260691 0.322455 -0.063096 -0.651341 0.391413 -0.455150 -0.115051 0.486643 -0.022996 0.514653 0.359000 -0.081613 0.120474 
32 -1.500489 0.381475 1.085422 0.447855 0.620100 0.539527 0.163425 -0.754493 0.178182 -0.015946 0.728172 0.314172 -0.806746 -1.494449 0.154603 -0.519291 0.494954 -0.260810 0.201668 -0.309472 -0.215707 0.437069 0.342322 -0.186269 0.248434 -0.006678 0.308337 0.690478 -0.360133 0.688029 -0.049417 -1.161662 0.274499 -0.110564 0.728932 -0.078431 0.295638 -0.739795 -0.244089 0.750905 -0.554276 0.224061 0.023743 0.713131 0.249012 -0.446224 -1.397174 0.039564 -0.274415 0.008008 -0.302392 -0.184498 -0.294438 0.047864 0.152065 0.142349 0.840199 -0.106553 0.126214 -0.338268 0.298578 -0.230364 -0.458043 0.272196 0.109188 -0.911264 -1.062122 0.105953 -0.614639 -0.095190 0.478158 -0.153035 0.649653 -0.396543 -0.315560 -0.446357 -0.516300 0.333646 0.414937 -0.321895 -0.299517 -0.539293 -0.122322 0.049591 -0.395001 -0.057167 -0.500430 -0.308033 0.348786 -0.026193 -0.618277 0.424868 -0.471174 -0.149831 0.503002 -0.005270 0.527471 0.359345 -0.132517 0.075809 
33 -1.462515 0.360907 1.114216 0.476213 0.615548 0.517422 0.168540 -0.768578 0.120393 -0.007620 0.687712 0.322687 -0.815587 -1.462609 0.167468 -0.502105 0.477092 -0.245983 0.201595 -0.305936 -0.223466 0.441968 0.345946 -0.198787 0.253583 -0.003913 0.280088 0.655144 -0.371633 0.687307 -0.005327 -1.146855 0.260152 -0.136442 0.751886 -0.082511 0.263528 -0.744587 -0.272963 0.737378 -0.547438 0.257468 0.066158 0.731247 0.273352 -0.426230 -1.392363 0.078946 -0.203715 -0.000714 -0.354161 -0.167304 -0.334718 0.062935 0.134421 0.131715 0.855298 -0.117974 0.140519 -0.372860 0.331796 -0.206556 -0.452637 0.310696 0.089886 -0.898355 -1.066102 0.111643 -0.604748 -0.111837 0.476479 -0.167079 0.660571 -0.398950 -0.297187 -0.452446 -0.513671 0.341899 0.414819 -0.341147 -0.294630 -0.563263 -0.161050 0.077295 -0.398771 -0.020476 -0.480512 -0.313968 0.325477 -0.048654 -0.624614 0.423388 -0.495712 -0.133203 0.524087 -0.010275 0.495811 0.402272 -0.121928 0.090755 
34 -1.409768 0.371720 1.062374 0.464237 0.586549 0.516280 0.170729 -0.750873 0.118211 0.004944 0.619731 0.317607 -0.799829 -1.431047 0.157662 -0.494464 0.506606 -0.253665 0.225738 -0.315742 -0.238578 0.418843 0.339992 -0.210444 0.241984 0.016740 0.281309 0.683766 -0.376958 0.657452 -0.016083 -1.162034 0.266047 -0.119782 0.769386 -0.097977 0.260722 -0.752186 -0.285278 0.728539 -0.572063 0.264417 0.066707 0.737782 0.275458 -0.426389 -1.396494 0.076231 -0.227583 -0.012037 -0.374306 -0.170859 -0.332800 0.046247 0.161621 0.127583 0.863046 -0.141564 0.156765 -0.339462 0.326349 -0.214328 -0.429520 0.314704 0.090039 -0.907828 -1.083288 0.119434 -0.594301 -0.139666 0.504063 -0.139191 0.674818 -0.416663 -0.309270 -0.429271 -0.548636 0.359787 0.399796 -0.331583 -0.268474 -0.548806 -0.156071 0.097327 -0.362283 -0.051239 -0.442007 -0.313366 0.323014 -0.021897 -0.622792 0.417133 -0.474619 -0.136276 0.519428 -0.016298 0.498512 0.378478 -0.150558 0.094184 
35 -1.355132 0.345491 1.129470 0.480921 0.585745 0.433147 0.160434 -0.687631 0.145790 0.018915 0.704047 0.293132 -0.729058 -1.528905 0.127429 -0.503418 0.530271 -0.318210 0.208683 -0.320203 -0.239296 0.434674 0.359787 -0.234455 0.199909 0.095796 0.308683 0.684883 -0.351911 0.687695 -0.013081 -1.058723 0.342303 -0.146201 0.704455 -0.107696 0.274687 -0.830193 -0.381337 0.697937 -0.582410 0.233826 0.003789 0.640439 0.249674 -0.395534 -1.303762 0.067722 -0.204445 -0.001427 -0.346509 -0.096365 -0.350765 0.100073 0.134579 0.128458 0.805072 -0.163675 0.140879 -0.296535 0.371729 -0.147976 -0.431153 0.310703 0.063575 -0.864309 -1.103864 0.052080 -0.543845 -0.050920 0.479622 -0.084351 0.676372 -0.408431 -0.305733 -0.510717 -0.534113 0.337997 0.417234 -0.316797 -0.354926 -0.618754 -0.165367 0.033966 -0.335426 -0.090003 -0.458499 -0.367407 0.383326 -0.043847 -0.595712 0.431565 -0.441406 -0.160554 0.561662 0.001448 0.534075 0.359286 -0.187001 0.007777 
36 -1.382697 0.325693 1.115280 0.475740 0.670353 0.458350 0.166340 -0.773820 0.114987 0.008161 0.656735 0.288162 -0.761125 -1.496850 0.134326 -0.501742 0.486553 -0.265470 0.223420 -0.310817 -0.250732 0.406513 0.337376 -0.201524 0.204052 0.073087 0.280769 0.685432 -0.362781 0.652352 -0.010362 -1.058745 0.279294 -0.144308 0.732996 -0.117766 0.259818 -0.799773 -0.325759 0.698026 -0.563542 0.245349 0.024092 0.689887 0.276133 -0.393957 -1.357722 0.105710 -0.215366 0.010681 -0.352536 -0.100520 -0.346870 0.061887 0.123820 0.148836 0.825790 -0.140165 0.149871 -0.333084 0.364682 -0.168055 -0.467414 0.320891 0.076182 -0.896647 -1.116152 0.073124 -0.581099 -0.076963 0.485875 -0.133542 0.678931 -0.406227 -0.305215 -0.488647 -0.515458 0.356019 0.434906 -0.354144 -0.303228 -0.597498 -0.183019 0.078599 -0.374258 -0.049581 -0.456146 -0.355207 0.352074 -0.029784 -0.613375 0.418906 -0.474449 -0.150572 0.546153 -0.000379 0.539537 0.393936 -0.154025 0.059882 
37 -1.424791 0.354573 1.116364 0.462646 0.615209 0.471493 0.176238 -0.742131 0.115902 0.005882 0.640230 0.294198 -0.774228 -1.486731 0.110092 -0.483024 0.479458 -0.282892 0.224272 -0.279836 -0.193465 0.434679 0.355179 -0.178119 0.220310 0.051174 0.305304 0.675646 -0.384409 0.674207 -0.021974 -1.113313 0.283703 -0.146607 0.795004 -0.119079 0.214559 -0.742347 -0.294181 0.658424 -0.536562 0.234928 0.027619 0.706360 0.251544 -0.384970 -1.318149 0.090118 -0.216176 0.006468 -0.350805 -0.096239 -0.366608 0.056813 0.151738 0.143236 0.858135 -0.140415 0.174046 -0.349795 0.382231 -0.167647 -0.464187 0.335245 0.059014 -0.882831 -1.103557 0.078791 -0.589469 -0.142986 0.474932 -0.140533 0.679237 -0.432705 -0.324557 -0.475899 -0.510902 0.363422 0.404338 -0.378492 -0.299337 -0.591565 -0.182276 0.083623 -0.352804 -0.049396 -0.428862 -0.362189 0.318235 -0.029340 -0.643581 0.396385 -0.493272 -0.110093 0.585639 -0.020216 0.535360 0.404527 -0.139581 0.068629 
38 -1.345638 0.327271 1.095689 0.446462 0.585761 0.461250 0.188885 -0.718718 0.022448 0.055461 0.609336 0.288832 -0.742845 -1.475453 0.110064 -0.484743 0.502095 -0.286024 0.244024 -0.304050 -0.178059 0.386361 0.372782 -0.196833 0.249418 0.104987 0.287383 0.714549 -0.363171 0.648105 0.027440 -1.035611 0.343896 -0.203106 0.751553 -0.120849 0.195907 -0.764934 -0.373927 0.633464 -0.556291 0.270565 0.025042 0.697058 0.297123 -0.379564 -1.333282 0.107436 -0.124945 -0.016240 -0.435915 -0.092554 -0.394260 0.095439 0.165998 0.137022 0.846705 -0.170697 0.168373 -0.319517 0.394371 -0.149586 -0.469119 0.319515 0.048497 -0.874652 -1.116540 0.046758 -0.547459 -0.156837 0.492531 -0.092582 0.692428 -0.432896 -0.313282 -0.514669 -0.510515 0.361941 0.392088 -0.358895 -0.312034 -0.631741 -0.210425 0.065445 -0.307218 -0.066225 -0.431355 -0.396861 0.361979 -0.009189 -0.577706 0.428187 -0.456711 -0.147549 0.539012 0.016369 0.518718 0.388394 -0.188173 0.022349 
39 -1.428786 0.357323 1.085803 0.451234 0.599665 0.426965 0.148006 -0.747144 0.066302 -0.004647 0.611315 0.301314 -0.808550 -1.499186 0.117175 -0.508607 0.485114 -0.277833 0.213979 -0.308102 -0.273138 0.410711 0.310267 -0.191534 0.218577 0.088853 0.267493 0.691485 -0.343612 0.661582 -0.027266 -1.084994 0.284526 -0.109544 0.737666 -0.081554 0.242878 -0.778638 -0.314618 0.662004 -0.533844 0.226201 0.005827 0.736835 0.242545 -0.378742 -1.331201 0.095697 -0.217224 0.004084 -0.361318 -0.115788 -0.352850 0.025103 0.163399 0.167543 0.846765 -0.159686 0.178790 -0.318001 0.385659 -0.179771 -0.437588 0.345856 0.046718 -0.870277 -1.083387 0.075712 -0.608571 -0.128894 0.504832 -0.143548 0.718430 -0.466384 -0.358526 -0.500668 -0.524957 0.385843 0.435784 -0.399675 -0.309263 -0.611465 -0.173271 0.092734 -0.348976 -0.053742 -0.420725 -0.357753 0.337885 0.000847 -0.623054 0.395615 -0.480557 -0.134383 0.552508 -0.022813 0.528017 0.428570 -0.138765 0.097971 
40 -1.368839 0.340513 1.098298 0.447317 0.547599 0.416623 0.139809 -0.693403 0.033492 0.041683 0.589467 0.290220 -0.751943 -1.499300 0.103636 -0.495764 0.515038 -0.306163 0.249459 -0.302279 -0.235238 0.396385 0.364062 -0.207227 0.222406 0.149202 0.290645 0.726144 -0.370715 0.657111 0.020140 -1.037690 0.352018 -0.168847 0.721115 -0.107585 0.202365 -0.770126 -0.383947 0.613941 -0.544726 0.244850 0.011792 0.733534 0.275157 -0.356612 -1.310023 0.135210 -0.153267 -0.002136 -0.412744 -0.054087 -0.382113 0.067716 0.161356 0.172887 0.817239 -0.179175 0.175592 -0.286343 0.410934 -0.150243 -0.460290 0.349619 0.042875 -0.860940 -1.133022 0.038931 -0.564131 -0.126483 0.495639 -0.100653 0.728440 -0.466689 -0.343067 -0.538681 -0.538470 0.406216 0.443409 -0.408071 -0.325417 -0.690880 -0.199665 0.087250 -0.309656 -0.064965 -0.406210 -0.428004 0.346974 0.006134 -0.602046 0.418636 -0.493286 -0.186299 0.557599 -0.009822 0.510413 0.452002 -0.203956 0.057785 
41 -1.313627 0.289506 1.024851 0.464155 0.758026 0.574496 0.346070 -0.782144 0.267572 0.008989 0.543657 0.265646 -0.735092 -1.229489 0.177075 -0.335296 0.361394 -0.192683 -0.009486 -0.341241 -0.298177 0.512182 0.202990 -0.121593 0.331422 -0.177823 0.166143 0.552709 -0.373665 0.503927 -0.105740 -1.170875 0.231067 -0.164850 0.721608 -0.065996 0.201438 -0.360793 -0.159010 0.583342 -0.288923 0.134880 0.004831 0.733797 0.084438 -0.389889 -1.206585 0.037872 -0.231725 0.096271 -0.172347 -0.203149 -0.207143 0.033090 0.221327 0.140163 0.811471 -0.016523 0.061532 -0.330720 0.245489 -0.139905 -0.316334 0.259561 0.112780 -0.672850 -0.651873 0.106339 -0.563243 -0.087199 0.292588 -0.294140 0.274555 -0.277344 -0.246130 -0.332705 -0.307129 0.135556 0.369176 -0.251527 -0.226115 -0.430075 0.002468 0.167172 -0.271046 -0.041423 -0.484956 -0.181924 0.094201 0.018564 -0.420956 0.302942 -0.460695 -0.079760 0.429626 -0.068987 0.295952 0.376393 -0.028864 0.149351 
42 -1.263526 0.250060 1.003604 0.438446 0.764118 0.562596 0.308502 -0.796219 0.183452 0.032937 0.519713 0.273814 -0.751259 -1.235939 0.155901 -0.350915 0.372317 -0.184398 0.030597 -0.358263 -0.285201 0.443965 0.175846 -0.134056 0.329369 -0.131212 0.162744 0.583796 -0.366460 0.473996 -0.074365 -1.140260 0.239738 -0.206286 0.710183 -0.083924 0.198561 -0.423701 -0.199903 0.539258 -0.302730 0.159042 0.017093 0.744859 0.138115 -0.348426 -1.147111 0.062829 -0.181195 0.063168 -0.239451 -0.229069 -0.236859 0.030536 0.230022 0.137004 0.770545 -0.055685 0.065886 -0.290367 0.269954 -0.137327 -0.296864 0.254719 0.108203 -0.679179 -0.673501 0.123111 -0.547582 -0.096710 0.348524 -0.271246 0.310847 -0.286802 -0.248407 -0.381370 -0.323120 0.180274 0.349883 -0.267034 -0.204760 -0.445724 -0.039151 0.174581 -0.234358 -0.023520 -0.458207 -0.186558 0.130701 0.056537 -0.357198 0.319474 -0.446286 -0.125034 0.362214 -0.058920 0.295099 0.386529 -0.040395 0.153196 
43 -1.247391 0.302928 1.108943 0.445488 0.546431 0.370114 0.158797 -0.677761 -0.029186 0.077680 0.566363 0.275908 -0.717937 -1.540457 0.081371 -0.478467 0.551687 -0.335560 0.228425 -0.331361 -0.245380 0.406543 0.352211 -0.214819 0.252526 0.198303 0.260324 0.770527 -0.342253 0.644763 0.035891 -0.993724 0.414237 -0.214372 0.726590 -0.121085 0.190259 -0.833745 -0.479895 0.564804 -0.544415 0.239068 -0.030277 0.722818 0.279429 -0.309577 -1.223958 0.142522 -0.072871 -0.016263 -0.444250 -0.010859 -0.427837 0.091380 0.178032 0.180218 0.807263 -0.228441 0.179646 -0.240096 0.481481 -0.105919 -0.444684 0.373862 0.004434 -0.822798 -1.143093 0.000692 -0.541234 -0.142337 0.496243 -0.071811 0.774349 -0.484111 -0.366309 -0.595069 -0.539337 0.422448 0.427268 -0.425501 -0.386209 -0.756160 -0.208909 0.050152 -0.265212 -0.118460 -0.404906 -0.493724 0.372695 0.002120 -0.590103 0.453899 -0.497797 -0.210878 0.569080 -0.017294 0.549484 0.487090 -0.205231 0.025484 
44 -1.313962 0.210527 0.982040 0.461873 0.950308 0.665387 0.427071 -0.874418 0.403063 0.024819 0.460559 0.250655 -0.770239 -1.035629 0.185657 -0.254266 0.258149 -0.108497 -0.171780 -0.366957 -0.357229 0.527657 0.037344 -0.075033 0.398540 -0.364354 0.074913 0.423670 -0.350325 0.353448 -0.153300 -1.193707 0.136591 -0.169171 0.723814 -0.045058 0.133293 -0.086363 -0.048836 0.471831 -0.078069 0.047279 -0.021818 0.785173 0.007884 -0.355590 -1.052152 -0.005357 -0.212412 0.114166 -0.066046 -0.321605 -0.095916 -0.002834 0.281064 0.135453 0.791315 0.076645 0.014174 -0.342218 0.158844 -0.147146 -0.209167 0.181400 0.146267 -0.518361 -0.303855 0.156888 -0.545788 -0.113758 0.191240 -0.411334 -0.016726 -0.170074 -0.189431 -0.214264 -0.134309 -0.026307 0.275309 -0.170679 -0.100691 -0.257111 0.116919 0.238155 -0.166036 -0.002703 -0.456594 -0.024492 -0.090453 0.066187 -0.220207 0.199775 -0.421616 -0.014674 0.263587 -0.098562 0.101072 0.304374 0.066066 0.235190 
45 -1.257303 0.266227 1.001751 0.455554 0.748645 0.603401 0.279319 -0.813658 0.224024 0.062876 0.466480 0.266970 -0.668061 -1.176302 0.135456 -0.332177 0.426888 -0.242789 0.023554 -0.336915 -0.306239 0.423604 0.244084 -0.182606 0.300469 -0.113778 0.133373 0.619432 -0.378165 0.458578 -0.105619 -1.170349 0.282565 -0.219763 0.772100 -0.091200 0.160554 -0.367132 -0.198109 0.520727 -0.287537 0.170715 0.011415 0.754670 0.108505 -0.307122 -1.089515 0.069382 -0.177195 0.092869 -0.213506 -0.139359 -0.264146 0.016854 0.267213 0.129115 0.730459 -0.046614 0.039355 -0.235206 0.286666 -0.159514 -0.235809 0.255432 0.102780 -0.621376 -0.623909 0.130215 -0.479015 -0.114024 0.318014 -0.202694 0.293087 -0.293398 -0.265559 -0.383994 -0.328947 0.195046 0.344722 -0.266040 -0.178874 -0.452487 -0.014871 0.198227 -0.214280 -0.054441 -0.430961 -0.167926 0.107016 0.047435 -0.347346 0.361614 -0.461822 -0.143956 0.370208 -0.100852 0.282167 0.392481 -0.058936 0.148766 
46 -1.268017 0.232382 0.908310 0.446018 0.897725 0.658762 0.399504 -0.863994 0.338906 -0.019427 0.432593 0.252860 -0.770838 -0.996433 0.198544 -0.250544 0.267618 -0.110347 -0.118311 -0.378378 -0.354971 0.474632 0.083484 -0.066886 0.393717 -0.325110 0.046001 0.452535 -0.335113 0.329039 -0.159165 -1.197711 0.134089 -0.182761 0.705820 -0.012299 0.138316 -0.082784 -0.038067 0.487014 -0.072324 0.071803 -0.030201 0.759950 -0.017790 -0.327954 -1.018704 -0.004801 -0.219993 0.148737 -0.041787 -0.283164 -0.119051 -0.028592 0.298548 0.116542 0.756709 0.061738 -0.010531 -0.311293 0.168819 -0.145269 -0.178675 0.202968 0.147751 -0.513984 -0.276396 0.195015 -0.535214 -0.085477 0.225873 -0.398729 -0.047674 -0.173816 -0.203927 -0.246237 -0.124496 -0.003835 0.297499 -0.191951 -0.080540 -0.263227 0.119180 0.290125 -0.177054 0.010440 -0.450891 0.016753 -0.108395 0.101908 -0.199107 0.219329 -0.454960 -0.033456 0.241334 -0.118683 0.064211 0.363191 0.065159 0.260525 
47 -1.228241 0.251191 1.032903 0.462163 0.728310 0.477862 0.252956 -0.787275 0.071985 0.056633 0.509186 0.253543 -0.697514 -1.338240 0.102193 -0.405216 0.426982 -0.239912 0.148160 -0.316907 -0.267217 0.370249 0.236655 -0.179254 0.257019 0.035623 0.209272 0.696661 -0.363268 0.503812 -0.034679 -1.016154 0.313883 -0.236077 0.765361 -0.142666 0.183310 -0.551053 -0.322780 0.533702 -0.403588 0.194283 -0.006746 0.743055 0.168850 -0.297247 -1.161377 0.144583 -0.136768 0.059809 -0.324065 -0.063311 -0.311095 0.053514 0.206785 0.172272 0.737142 -0.110380 0.110993 -0.255132 0.357272 -0.114939 -0.404315 0.303574 0.077312 -0.688562 -0.879245 0.038788 -0.509645 -0.096677 0.377196 -0.167469 0.488247 -0.377086 -0.306676 -0.508354 -0.367691 0.289303 0.412625 -0.361391 -0.240565 -0.578617 -0.121267 0.137647 -0.267936 -0.053994 -0.427134 -0.340869 0.198296 0.023240 -0.436409 0.403717 -0.511179 -0.166826 0.435926 -0.023023 0.357582 0.464377 -0.140318 0.099650 
48 -1.277399 0.262503 0.923681 0.400170 0.718047 0.577762 0.319290 -0.794945 0.181601 -0.009122 0.473691 0.277002 -0.750631 -1.145429 0.163836 -0.326603 0.372824 -0.185352 0.038431 -0.365005 -0.311432 0.400957 0.198755 -0.112606 0.364145 -0.111737 0.107260 0.599654 -0.344575 0.436630 -0.063766 -1.136226 0.246845 -0.219371 0.689722 -0.053946 0.173022 -0.340532 -0.217699 0.519727 -0.253312 0.159850 0.012132 0.818787 0.069207 -0.315647 -1.104944 0.076993 -0.163304 0.091596 -0.187871 -0.191245 -0.225304 0.025079 0.264003 0.152544 0.772556 -0.067446 0.070874 -0.287915 0.290587 -0.133476 -0.249303 0.297814 0.097155 -0.638442 -0.603240 0.146032 -0.537878 -0.120146 0.324790 -0.277320 0.261457 -0.279401 -0.250460 -0.375146 -0.315181 0.159499 0.332024 -0.243219 -0.205677 -0.425176 0.000597 0.213080 -0.220162 -0.036770 -0.423309 -0.140393 0.056657 0.069951 -0.328817 0.311312 -0.471042 -0.104596 0.338664 -0.098579 0.236748 0.439030 -0.019975 0.186805 
49 -1.354243 0.225848 0.905041 0.395108 0.879619 0.691976 0.427375 -0.867370 0.303911 0.001212 0.413557 0.255903 -0.792776 -0.998567 0.172882 -0.264517 0.261317 -0.088066 -0.099466 -0.365946 -0.294299 0.467328 0.050722 -0.046129 0.423884 -0.349197 0.062253 0.451325 -0.347367 0.325635 -0.137203 -1.192699 0.153824 -0.201589 0.735393 -0.031498 0.099555 -0.005972 -0.027052 0.412811 -0.039809 0.061837 -0.011946 0.770283 -0.017918 -0.336826 -1.011879 -0.002868 -0.172466 0.111791 -0.081121 -0.317648 -0.127978 -0.006821 0.319824 0.127986 0.765878 0.062992 0.004612 -0.325538 0.170640 -0.145962 -0.174688 0.195105 0.136612 -0.491167 -0.265346 0.201567 -0.539699 -0.141681 0.188245 -0.408356 -0.064456 -0.159936 -0.188013 -0.246201 -0.100303 -0.031336 0.256936 -0.173345 -0.064519 -0.268274 0.127402 0.283826 -0.135659 0.007342 -0.437125 0.016728 -0.115912 0.103260 -0.153044 0.208603 -0.448202 -0.025250 0.234112 -0.124969 0.049473 0.361247 0.081675 0.244938 
50 -1.281698 0.215736 0.875403 0.393903 0.869492 0.658820 0.394147 -0.880376 0.263619 -0.028509 0.454060 0.279588 -0.770436 -1.013197 0.182634 -0.271917 0.282305 -0.112252 -0.030447 -0.359226 -0.333712 0.392433 0.113330 -0.052165 0.380846 -0.243431 0.055440 0.505926 -0.343655 0.325249 -0.110719 -1.161538 0.159699 -0.223050 0.720964 -0.036626 0.136026 -0.114792 -0.103626 0.466636 -0.099335 0.093730 -0.002447 0.797819 0.001872 -0.306753 -1.037310 0.053660 -0.186292 0.135930 -0.091764 -0.246379 -0.147991 -0.012103 0.285984 0.150033 0.759561 0.034701 0.035853 -0.317210 0.195420 -0.142742 -0.225135 0.223652 0.151941 -0.500524 -0.356866 0.172682 -0.518411 -0.103754 0.229885 -0.365251 0.019587 -0.205586 -0.222776 -0.271294 -0.156773 0.034139 0.307157 -0.219734 -0.073233 -0.286180 0.080120 0.290154 -0.184479 0.008816 -0.429736 -0.037688 -0.093305 0.103104 -0.202824 0.246829 -0.463851 -0.054944 0.246283 -0.093071 0.093526 0.389201 0.034126 0.244949 
51 -1.272024 0.216870 0.930400 0.423197 0.868764 0.621401 0.413836 -0.870357 0.241396 0.020918 0.398059 0.237119 -0.748314 -1.037811 0.146499 -0.263571 0.288813 -0.139236 -0.081916 -0.347290 -0.323901 0.468095 0.082841 -0.080846 0.407620 -0.239680 0.077008 0.529523 -0.355622 0.343017 -0.100783 -1.156447 0.199093 -0.238319 0.779535 -0.069315 0.107612 -0.104305 -0.107102 0.450078 -0.102126 0.092030 -0.028075 0.830287 0.017035 -0.309413 -1.052187 0.053974 -0.150733 0.117189 -0.129513 -0.187133 -0.176586 -0.003640 0.303355 0.142415 0.758148 0.022285 0.024781 -0.301105 0.254194 -0.143458 -0.217470 0.265704 0.096697 -0.531673 -0.406661 0.151559 -0.528461 -0.173021 0.226520 -0.358623 0.079486 -0.240517 -0.235238 -0.311045 -0.166504 0.067918 0.284427 -0.239088 -0.113046 -0.374254 0.083682 0.273609 -0.140159 -0.023510 -0.411037 -0.078428 -0.091174 0.095868 -0.217222 0.247472 -0.510885 -0.063696 0.280722 -0.128216 0.107010 0.444106 0.036200 0.239523 
52 -1.251302 0.254778 0.897083 0.425643 0.834976 0.681003 0.396216 -0.869180 0.242745 0.028274 0.361712 0.278644 -0.758212 -1.048703 0.177863 -0.273551 0.358795 -0.182869 -0.043024 -0.357895 -0.361344 0.430004 0.163543 -0.114447 0.375632 -0.226845 0.055000 0.546714 -0.372725 0.318579 -0.132990 -1.245948 0.203687 -0.268752 0.790845 -0.053307 0.119179 -0.127643 -0.132004 0.450161 -0.112880 0.134626 -0.015144 0.878384 0.011842 -0.275612 -1.017209 0.067112 -0.153951 0.124648 -0.134510 -0.227287 -0.187573 0.043997 0.336538 0.153651 0.784804 0.030415 0.012064 -0.242920 0.211124 -0.159192 -0.187673 0.217293 0.117848 -0.475420 -0.313213 0.095334 -0.483101 -0.209270 0.198898 -0.304660 -0.002912 -0.252070 -0.282408 -0.300440 -0.212846 0.076019 0.290230 -0.227608 -0.133068 -0.319240 0.118978 0.263619 -0.128761 -0.066038 -0.453359 -0.097252 -0.147355 0.088880 -0.241380 0.289263 -0.480785 -0.061799 0.313334 -0.127163 0.094289 0.392346 0.006952 0.222069 
53 -1.318863 0.236044 0.879034 0.403533 0.863567 0.647831 0.397778 -0.868022 0.287994 0.000432 0.355329 0.250786 -0.757424 -0.953598 0.153882 -0.246790 0.282014 -0.138462 -0.082627 -0.329932 -0.327876 0.468678 0.064937 -0.075043 0.390415 -0.290104 0.057596 0.459619 -0.340235 0.296996 -0.134997 -1.171453 0.152500 -0.192481 0.795598 -0.047669 0.075172 -0.028096 -0.044743 0.414111 -0.059055 0.050737 -0.047938 0.796152 -0.030551 -0.277583 -0.938124 0.022988 -0.196775 0.123257 -0.069241 -0.232826 -0.142354 -0.014620 0.350933 0.123114 0.785944 0.042622 0.034391 -0.302304 0.199822 -0.148285 -0.167313 0.218824 0.113871 -0.467033 -0.279629 0.154888 -0.507888 -0.166055 0.208076 -0.380321 -0.056040 -0.222898 -0.251718 -0.264668 -0.128510 0.012842 0.262132 -0.213970 -0.063791 -0.304133 0.129447 0.316626 -0.124486 -0.021896 -0.429260 -0.027115 -0.136370 0.125887 -0.164363 0.227060 -0.490270 -0.034289 0.262791 -0.135515 0.077825 0.400230 0.046732 0.259183 
54 -1.352878 0.225933 0.875665 0.410302 0.917180 0.667297 0.455738 -0.904657 0.306829 -0.042849 0.344394 0.249895 -0.807627 -0.922757 0.183355 -0.229056 0.230806 -0.092757 -0.133282 -0.384805 -0.353254 0.476264 0.019813 -0.047210 0.436454 -0.359274 0.019760 0.430114 -0.321544 0.254239 -0.139341 -1.197161 0.129037 -0.218460 0.745413 -0.012954 0.083812 0.060782 -0.041570 0.425692 0.017976 0.034276 -0.060836 0.827133 -0.059899 -0.289913 -0.936755 0.001544 -0.159019 0.146906 -0.008370 -0.235966 -0.089917 -0.013284 0.338490 0.117920 0.785342 0.093434 0.005884 -0.335219 0.175325 -0.130214 -0.156972 0.208635 0.124518 -0.419661 -0.159272 0.156241 -0.501573 -0.190748 0.136526 -0.435073 -0.172161 -0.173376 -0.217084 -0.183696 -0.062908 -0.047199 0.225387 -0.183923 -0.076393 -0.211495 0.178843 0.319721 -0.120333 -0.016086 -0.440631 0.016961 -0.208051 0.135799 -0.140417 0.207704 -0.462640 0.014483 0.231378 -0.130425 0.020561 0.386452 0.098993 0.285953 
55 -1.350610 0.204822 0.857409 0.398007 1.004476 0.696021 0.466030 -0.983060 0.300103 -0.041381 0.364574 0.253454 -0.788344 -0.916369 0.167032 -0.226051 0.225854 -0.108693 -0.117337 -0.353396 -0.346089 0.475725 0.001913 -0.063682 0.386339 -0.353372 0.028584 0.420535 -0.339033 0.233357 -0.164964 -1.200817 0.127480 -0.246029 0.811915 -0.046616 0.066932 0.071312 -0.000751 0.387201 0.011781 0.043550 -0.054521 0.844173 -0.065528 -0.245756 -0.878506 0.033900 -0.169320 0.150990 -0.015652 -0.239165 -0.107106 0.014853 0.341632 0.139853 0.797858 0.125482 0.007100 -0.332909 0.153944 -0.154014 -0.192519 0.180161 0.106037 -0.392119 -0.124081 0.092498 -0.488382 -0.206551 0.113557 -0.424017 -0.200554 -0.193288 -0.261886 -0.189007 -0.037387 -0.041742 0.236272 -0.211603 -0.034816 -0.194493 0.175168 0.334698 -0.096575 -0.003488 -0.449767 -0.003436 -0.250114 0.119020 -0.123363 0.193944 -0.455998 0.031520 0.258356 -0.115557 -0.000888 0.363666 0.099697 0.282172 
56 -1.310945 0.254409 0.819702 0.385742 0.859902 0.735175 0.416954 -0.905686 0.272373 -0.001602 0.321956 0.279357 -0.774687 -0.926474 0.187566 -0.240521 0.316369 -0.142871 -0.049030 -0.339638 -0.333290 0.402705 0.140671 -0.081374 0.419975 -0.296177 0.006462 0.508151 -0.345725 0.266733 -0.163051 -1.277610 0.169199 -0.273321 0.813712 -0.020581 0.087677 0.005477 -0.054239 0.420340 -0.013301 0.115515 -0.028221 0.902597 -0.041979 -0.238061 -0.906649 0.037322 -0.149907 0.143257 -0.067465 -0.260053 -0.169972 0.032521 0.399689 0.120515 0.841576 0.057691 -0.002080 -0.275602 0.183412 -0.185931 -0.124003 0.195822 0.103054 -0.461566 -0.172249 0.132867 -0.459858 -0.259803 0.178446 -0.330028 -0.154787 -0.221118 -0.287240 -0.248872 -0.153335 0.028597 0.227953 -0.191166 -0.066903 -0.238465 0.171712 0.325938 -0.097189 -0.058721 -0.453703 0.002067 -0.217862 0.115541 -0.167115 0.287596 -0.496345 -0.000831 0.282582 -0.162205 0.016944 0.381816 0.062805 0.268041 
57 -1.303402 0.223967 0.878710 0.413449 0.913382 0.729296 0.451295 -0.929548 0.310219 -0.022991 0.293383 0.257667 -0.813831 -0.914879 0.204927 -0.202485 0.310792 -0.163777 -0.131707 -0.401480 -0.362656 0.467914 0.123213 -0.095519 0.446240 -0.335327 -0.026919 0.479754 -0.344892 0.230918 -0.154016 -1.285895 0.156595 -0.278897 0.777963 -0.002205 0.076729 0.014069 -0.055777 0.466309 -0.008582 0.128260 -0.029665 0.945809 -0.030362 -0.224940 -0.887575 0.027505 -0.143714 0.158085 -0.027152 -0.221647 -0.143418 0.045198 0.363469 0.085213 0.838495 0.087531 -0.022368 -0.299025 0.173986 -0.189798 -0.093561 0.210360 0.085616 -0.417180 -0.067378 0.148250 -0.427453 -0.254501 0.143834 -0.359631 -0.220067 -0.184014 -0.250300 -0.182874 -0.119504 -0.000003 0.202374 -0.172614 -0.086341 -0.194540 0.189691 0.338621 -0.102331 -0.029568 -0.450856 0.032722 -0.261192 0.095555 -0.180857 0.262589 -0.472901 0.015369 0.295499 -0.187883 0.009776 0.396497 0.100658 0.287496 
58 -1.296767 0.240059 0.854219 0.438280 0.965829 0.775193 0.482769 -0.974871 0.276627 0.015052 0.243969 0.271114 -0.811340 -0.870272 0.199471 -0.207253 0.299081 -0.138576 -0.117747 -0.368419 -0.334633 0.415020 0.114885 -0.086250 0.463890 -0.322623 -0.037629 0.463128 -0.321189 0.215441 -0.157680 -1.256628 0.152383 -0.295780 0.845325 0.002025 0.052395 0.078087 -0.053022 0.427986 0.023121 0.109678 -0.057885 0.939123 -0.055990 -0.202628 -0.833778 0.023592 -0.115037 0.140282 -0.043476 -0.242787 -0.173932 0.066530 0.423433 0.112652 0.857205 0.071295 -0.015766 -0.286810 0.183340 -0.173161 -0.103579 0.194857 0.094926 -0.383939 -0.044193 0.119380 -0.436245 -0.291361 0.133760 -0.357922 -0.280211 -0.202445 -0.292150 -0.249027 -0.108638 -0.036347 0.191842 -0.153348 -0.110141 -0.183838 0.199849 0.332289 -0.073597 -0.083404 -0.491837 0.022893 -0.316406 0.126261 -0.093104 0.276994 -0.493584 0.038828 0.271280 -0.181169 -0.023666 0.391738 0.094522 0.259523 
59 -1.230706 0.225276 0.809205 0.399813 0.850131 0.722714 0.452858 -0.907852 0.234868 -0.012398 0.243509 0.255171 -0.771220 -0.855136 0.209861 -0.185859 0.280485 -0.118355 -0.122483 -0.339922 -0.315877 0.452333 0.108511 -0.074975 0.455494 -0.333965 -0.028863 0.491643 -0.341780 0.233656 -0.143698 -1.246426 0.153619 -0.279883 0.829996 -0.035677 0.091643 0.039475 -0.063222 0.443071 -0.030976 0.103035 -0.031315 0.886997 -0.074272 -0.223888 -0.864088 0.029999 -0.143416 0.158447 -0.039821 -0.195428 -0.161410 0.022281 0.393367 0.083173 0.820775 0.059631 -0.012293 -0.293148 0.195868 -0.156091 -0.094921 0.237286 0.106062 -0.426379 -0.154917 0.174939 -0.446840 -0.239090 0.151675 -0.376785 -0.166202 -0.195518 -0.251396 -0.215716 -0.077726 -0.004523 0.199443 -0.180200 -0.041626 -0.210662 0.187752 0.345388 -0.084449 -0.054705 -0.420078 0.027827 -0.256521 0.138400 -0.136326 0.266053 -0.525556 -0.003420 0.261998 -0.187309 0.036907 0.438276 0.104793 0.287672 
60 -1.259071 0.217893 0.864691 0.430856 0.875695 0.699190 0.426064 -0.892888 0.269703 0.004352 0.243983 0.249403 -0.763239 -0.890169 0.197764 -0.190438 0.299496 -0.147924 -0.131629 -0.380191 -0.341889 0.435415 0.124175 -0.086975 0.460754 -0.304085 -0.022792 0.518574 -0.321659 0.243623 -0.119971 -1.247462 0.138915 -0.265667 0.816013 -0.008428 0.075064 0.001338 -0.088751 0.458529 -0.040473 0.123421 -0.050212 0.913009 -0.026413 -0.225005 -0.891526 0.027234 -0.127311 0.140341 -0.044040 -0.155603 -0.177367 0.046916 0.369467 0.091736 0.816672 0.059727 -0.004061 -0.293989 0.208379 -0.171886 -0.102109 0.230922 0.089167 -0.426026 -0.151847 0.148653 -0.416384 -0.266611 0.164528 -0.325047 -0.169307 -0.213018 -0.270563 -0.223147 -0.103572 0.009262 0.197317 -0.185079 -0.056452 -0.216964 0.173003 0.350059 -0.082227 -0.055533 -0.403174 0.031840 -0.264518 0.124274 -0.169559 0.283188 -0.529826 0.020984 0.301023 -0.178269 0.049877 0.416942 0.090025 0.275355 
61 -1.228252 0.211673 0.855756 0.429930 0.903891 0.745365 0.461313 -0.939671 0.246616 0.007997 0.226683 0.257052 -0.775730 -0.893564 0.194108 -0.182671 0.319372 -0.158408 -0.119786 -0.399549 -0.332873 0.456317 0.118421 -0.099975 0.454330 -0.319433 -0.035841 0.492522 -0.335493 0.211729 -0.139959 -1.245837 0.165142 -0.300067 0.835134 -0.022706 0.076371 0.023883 -0.100341 0.428443 -0.029772 0.113543 -0.043803 0.924738 -0.057397 -0.215296 -0.875280 0.050152 -0.107138 0.151390 -0.071358 -0.209418 -0.185194 0.060927 0.394065 0.121619 0.848391 0.069112 -0.010631 -0.279360 0.204663 -0.158159 -0.105273 0.232983 0.099731 -0.414830 -0.145779 0.144567 -0.449069 -0.273971 0.160785 -0.365179 -0.180812 -0.217378 -0.280648 -0.213926 -0.105630 0.026078 0.188956 -0.204365 -0.051787 -0.217621 0.184845 0.343554 -0.044883 -0.072585 -0.405144 -0.000739 -0.291870 0.142672 -0.155392 0.258903 -0.514759 0.013824 0.298462 -0.183691 0.032460 0.422108 0.101841 0.283676 
62 -1.105034 0.224542 0.796228 0.420511 0.828597 0.761573 0.461231 -0.921038 0.134873 0.085105 0.119212 0.251290 -0.719397 -0.870637 0.179143 -0.180321 0.368112 -0.178307 -0.116198 -0.372470 -0.288598 0.418908 0.168447 -0.157383 0.435887 -0.265205 -0.024931 0.552119 -0.382689 0.234241 -0.131641 -1.298989 0.192469 -0.303227 0.893394 -0.071931 0.068333 -0.087859 -0.136141 0.411917 -0.114027 0.183554 -0.000987 0.936359 0.010184 -0.171799 -0.826946 0.069241 -0.083025 0.110215 -0.167967 -0.166631 -0.249044 0.072350 0.428416 0.047682 0.886667 -0.005310 0.027127 -0.239086 0.211005 -0.185267 -0.055831 0.234214 0.051554 -0.468729 -0.207122 0.121421 -0.378654 -0.342051 0.229086 -0.259450 -0.174668 -0.270704 -0.322914 -0.274898 -0.151491 0.082602 0.174147 -0.201892 -0.043156 -0.273769 0.130631 0.381491 -0.046091 -0.101248 -0.425323 -0.029612 -0.248562 0.156028 -0.191158 0.344721 -0.546132 -0.017544 0.344933 -0.190616 0.066780 0.446498 0.030309 0.258565 
63 -1.105870 0.200716 0.789527 0.416786 0.849387 0.727348 0.468393 -0.943434 0.098862 0.072635 0.056649 0.262392 -0.778656 -0.869324 0.214949 -0.204824 0.410791 -0.181743 -0.101264 -0.396953 -0.328462 0.426217 0.193867 -0.194834 0.424928 -0.213489 -0.051257 0.490164 -0.358304 0.241062 -0.109489 -1.256279 0.218583 -0.286637 0.892647 -0.043840 0.067428 -0.109599 -0.162924 0.441638 -0.122219 0.194744 -0.010992 0.959667 0.026101 -0.186378 -0.855012 0.060323 -0.058888 0.103748 -0.181267 -0.160483 -0.272948 0.119143 0.429971 0.061789 0.925327 -0.006157 0.029273 -0.230977 0.218390 -0.188347 -0.051455 0.239294 0.030094 -0.471617 -0.239612 0.078864 -0.352654 -0.362083 0.243787 -0.228336 -0.160867 -0.280929 -0.336086 -0.233463 -0.176739 0.092705 0.145018 -0.203910 -0.038797 -0.267599 0.133163 0.381877 0.028399 -0.136719 -0.405977 -0.068051 -0.217222 0.214031 -0.146662 0.360654 -0.515904 -0.029609 0.358051 -0.174690 0.087416 0.433030 0.006691 0.242245 
64 -1.046401 0.164201 0.823283 0.450464 0.915300 0.722618 0.456448 -0.979090 0.092403 0.079610 0.016925 0.249615 -0.805016 -0.846121 0.229491 -0.168510 0.358746 -0.146125 -0.182237 -0.398334 -0.313464 0.458465 0.123024 -0.175960 0.468056 -0.252929 -0.081959 0.472666 -0.342717 0.210871 -0.059780 -1.224471 0.126187 -0.272353 0.931222 -0.045236 0.041939 -0.106032 -0.172173 0.454902 -0.126505 0.185144 -0.027307 0.952158 0.068761 -0.168839 -0.829985 0.062727 -0.029125 0.092321 -0.180202 -0.098966 -0.284033 0.090249 0.410343 0.023509 0.968836 0.003556 0.054626 -0.314680 0.251276 -0.185844 -0.073573 0.270230 0.029915 -0.509843 -0.268054 0.139294 -0.319474 -0.349564 0.254029 -0.258739 -0.150422 -0.284462 -0.330521 -0.202211 -0.108179 0.066458 0.115717 -0.213773 0.004620 -0.219036 0.091016 0.396166 0.007060 -0.116003 -0.362547 -0.049816 -0.239952 0.200746 -0.179465 0.342719 -0.530617 0.057924 0.393245 -0.172466 0.157421 0.422849 0.059738 0.257559 
65 -0.824653 0.050476 0.869162 0.497111 1.084861 0.707631 0.554580 -1.064411 -0.002873 0.180363 -0.117824 0.241734 -0.821429 -0.843170 0.249207 -0.095581 0.366458 -0.125706 -0.300131 -0.433438 -0.264541 0.517680 0.074591 -0.187171 0.485654 -0.290154 -0.113962 0.362205 -0.368781 0.211116 -0.079273 -1.301142 0.063856 -0.183668 1.015071 -0.074119 0.000056 -0.238600 -0.134219 0.389167 -0.187636 0.180053 -0.050613 0.878592 0.158254 -0.181539 -0.835746 0.033836 -0.018086 0.022350 -0.276608 -0.168591 -0.333682 0.109326 0.430086 -0.036351 1.046802 -0.008152 0.088561 -0.298228 0.224239 -0.184141 -0.055222 0.214345 -0.028142 -0.602663 -0.303669 0.081827 -0.301538 -0.395667 0.349597 -0.244719 -0.216255 -0.290187 -0.347885 -0.155140 -0.026054 0.069729 0.032565 -0.243021 0.128866 -0.193576 0.058285 0.433220 0.153828 -0.103223 -0.297918 -0.056612 -0.196376 0.281893 -0.151217 0.313524 -0.477714 0.082039 0.431925 -0.155555 0.230755 0.318239 0.047271 0.221844 
66 -0.804745 0.022119 0.838495 0.433904 1.061766 0.551040 0.523403 -1.021546 -0.131926 0.150982 -0.192184 0.243056 -0.879315 -0.858460 0.219448 -0.137738 0.376569 -0.124490 -0.199535 -0.416889 -0.202079 0.487764 0.079198 -0.212173 0.386772 -0.142161 -0.118088 0.256310 -0.325545 0.242496 0.022067 -1.117967 0.016698 -0.073139 0.979097 -0.051489 -0.069647 -0.390724 -0.179571 0.337828 -0.263905 0.193340 -0.039693 0.758365 0.285754 -0.147748 -0.799381 0.069150 0.023708 -0.062651 -0.407880 -0.152918 -0.399490 0.050696 0.397250 -0.066180 1.120413 -0.108558 0.215488 -0.355395 0.307499 -0.132641 -0.108544 0.252280 -0.048209 -0.659434 -0.479483 0.083540 -0.252586 -0.292442 0.481872 -0.219874 -0.139675 -0.319752 -0.338560 -0.155841 0.013179 0.073903 0.062858 -0.324001 0.171504 -0.294971 -0.072836 0.532482 0.219218 -0.074550 -0.198235 -0.097014 -0.069444 0.411229 -0.146482 0.284062 -0.424512 0.082338 0.450952 -0.097302 0.273786 0.336793 -0.052740 0.218650 
67 -0.828925 0.109589 0.675258 0.337821 0.897725 0.577116 0.400493 -0.948208 -0.206990 0.225480 -0.220101 0.264738 -0.794850 -0.865889 0.151354 -0.163422 0.424466 -0.160216 -0.183702 -0.358802 -0.221477 0.424559 0.157708 -0.243939 0.324303 -0.056580 -0.092584 0.225237 -0.313587 0.330946 -0.052387 -1.054811 0.026323 0.055087 1.019459 -0.033535 -0.054820 -0.521906 -0.171102 0.371149 -0.365451 0.179184 -0.076231 0.569976 0.292791 -0.175477 -0.792314 -0.021262 -0.117943 -0.049934 -0.433022 -0.135755 -0.447336 -0.016686 0.433711 -0.049231 1.090405 -0.192084 0.274065 -0.295662 0.320493 -0.126607 -0.116574 0.208283 -0.038620 -0.694801 -0.606253 0.084622 -0.233982 -0.238574 0.648213 -0.093763 -0.037978 -0.410953 -0.405250 -0.238582 -0.082371 0.141953 0.088560 -0.342797 0.245087 -0.336865 -0.187604 0.581647 0.207769 -0.096804 -0.134819 -0.094211 0.112305 0.502353 -0.199630 0.324615 -0.409725 0.074834 0.482041 -0.058927 0.377225 0.264490 -0.185513 0.180951 
68 -0.986723 0.166774 0.611833 0.266840 0.742687 0.471726 0.288967 -0.795385 -0.076223 0.153853 -0.261705 0.208579 -0.820667 -0.720361 0.147107 -0.170532 0.435160 -0.166654 -0.222996 -0.360914 -0.265751 0.451101 0.047540 -0.255724 0.289955 -0.108355 -0.113153 0.096904 -0.263060 0.338326 -0.095064 -1.047765 0.065447 0.192367 0.893709 0.039863 -0.116836 -0.380618 -0.078646 0.334923 -0.321526 0.100026 -0.136513 0.618536 0.234480 -0.210250 -0.718560 -0.160068 -0.241385 -0.067376 -0.266370 -0.134674 -0.357540 -0.104191 0.460805 -0.128464 1.036081 -0.224719 0.250792 -0.266299 0.296458 -0.127842 0.058250 0.208313 -0.026514 -0.664776 -0.481391 0.276057 -0.286749 -0.198967 0.702727 -0.155816 -0.067335 -0.307447 -0.307729 -0.150081 0.006755 0.018725 0.015559 -0.214533 0.267565 -0.313807 -0.105560 0.613942 0.206127 -0.135322 -0.125694 0.049249 0.182896 0.541288 -0.143486 0.273453 -0.380078 0.032040 0.360870 -0.149825 0.350846 0.252520 -0.132621 0.211962 
69 -1.071515 0.229914 0.610636 0.270423 0.603473 0.434998 0.206596 -0.718952 -0.024065 0.110351 -0.183404 0.178537 -0.730472 -0.701138 0.098941 -0.192039 0.364839 -0.171392 -0.243559 -0.296512 -0.214550 0.491150 0.045834 -0.265680 0.237433 -0.135605 -0.027625 0.123605 -0.266638 0.338430 -0.104808 -0.967589 0.046296 0.228146 0.857954 0.004509 -0.110372 -0.336733 -0.055567 0.277846 -0.309947 0.035041 -0.152178 0.501472 0.174906 -0.187004 -0.597014 -0.196368 -0.310481 -0.046888 -0.188512 -0.018719 -0.268476 -0.217533 0.423195 -0.205256 0.899422 -0.235760 0.261796 -0.240911 0.268050 -0.070448 0.103332 0.195807 -0.043406 -0.642553 -0.497705 0.284982 -0.224983 -0.115565 0.682316 -0.100234 -0.070024 -0.282089 -0.257308 -0.132373 0.022612 -0.002017 0.034506 -0.188901 0.290862 -0.337203 -0.159183 0.657172 0.216842 -0.132913 -0.077186 0.093849 0.256016 0.568916 -0.122187 0.225483 -0.347751 0.021001 0.351149 -0.117932 0.344737 0.216653 -0.183007 0.180249 
70 -1.239255 0.269749 0.606363 0.262367 0.591242 0.464779 0.183700 -0.804205 -0.012868 0.059532 -0.152060 0.159017 -0.643431 -0.630533 0.075696 -0.182669 0.349008 -0.161499 -0.211153 -0.296225 -0.165394 0.440438 0.018943 -0.269098 0.199717 -0.171702 -0.031355 0.096050 -0.218323 0.310969 -0.155234 -0.870127 0.044256 0.273520 0.804661 -0.002547 -0.082127 -0.278484 -0.042067 0.309000 -0.300738 -0.017644 -0.194219 0.358511 0.081444 -0.165996 -0.444781 -0.253093 -0.372276 0.011576 -0.029275 0.104459 -0.203183 -0.224391 0.407744 -0.241644 0.808113 -0.201220 0.213487 -0.238311 0.263244 -0.022684 0.142850 0.196407 -0.034509 -0.594019 -0.420894 0.326746 -0.197185 -0.028162 0.627984 -0.096232 -0.112570 -0.202476 -0.184226 -0.086997 0.072752 -0.045470 -0.012096 -0.112058 0.326195 -0.246706 -0.127309 0.626912 0.204681 -0.137336 -0.039876 0.173699 0.265633 0.548572 -0.099622 0.228341 -0.328695 0.042811 0.323535 -0.141509 0.340063 0.189925 -0.140365 0.155510 
71 -1.259650 0.305902 0.612867 0.269125 0.490498 0.484196 0.153593 -0.810974 -0.053474 0.007107 -0.036869 0.127507 -0.570899 -0.628309 0.044338 -0.197865 0.326533 -0.160551 -0.206558 -0.304572 -0.106737 0.440660 -0.003116 -0.286276 0.177173 -0.210658 -0.035861 0.113747 -0.182719 0.254024 -0.165773 -0.762945 0.032293 0.304612 0.694785 -0.008404 -0.067505 -0.240278 -0.058640 0.275273 -0.286284 -0.079000 -0.211948 0.260610 -0.013940 -0.124803 -0.313342 -0.259095 -0.380194 0.030749 0.046577 0.153596 -0.149143 -0.275117 0.405215 -0.304614 0.688942 -0.219696 0.180505 -0.191618 0.250635 0.065413 0.220847 0.198004 -0.027914 -0.518994 -0.367464 0.375332 -0.126274 0.097511 0.631435 -0.082382 -0.170646 -0.147765 -0.123960 -0.083637 0.176892 -0.112408 -0.028882 -0.063586 0.330122 -0.241346 -0.118253 0.633983 0.195521 -0.145624 -0.045260 0.237559 0.275500 0.538356 -0.013082 0.202450 -0.295066 0.011556 0.276774 -0.143455 0.369110 0.198967 -0.097377 0.093021 
72 -1.388131 0.308539 0.693124 0.297842 0.552149 0.495713 0.162973 -0.887915 -0.051039 -0.046605 0.049490 0.126153 -0.554082 -0.615589 0.038575 -0.202922 0.301379 -0.171575 -0.176032 -0.313315 -0.077292 0.396689 -0.031595 -0.267811 0.152380 -0.204638 -0.023732 0.125804 -0.115427 0.185855 -0.147281 -0.589948 0.002257 0.285086 0.594947 -0.006191 -0.071371 -0.278659 -0.102134 0.288103 -0.276501 -0.087649 -0.228628 0.185832 -0.016148 -0.070011 -0.172377 -0.255958 -0.369784 0.037195 0.126657 0.236653 -0.112023 -0.228432 0.352682 -0.337897 0.591207 -0.205096 0.156220 -0.204956 0.255554 0.113715 0.201125 0.178541 -0.030855 -0.466725 -0.308686 0.339404 -0.038763 0.217213 0.584620 -0.039745 -0.237678 -0.079434 -0.066257 -0.095367 0.221508 -0.172689 -0.011106 -0.004114 0.300788 -0.204274 -0.135045 0.581026 0.174013 -0.116444 -0.045535 0.270750 0.282831 0.508964 0.096684 0.176475 -0.214052 -0.004082 0.235962 -0.114926 0.311881 0.143630 -0.095228 0.026661 
73 -1.486120 0.326370 0.692018 0.270521 0.582509 0.543509 0.201329 -0.905839 -0.044375 -0.023954 0.107986 0.123192 -0.496604 -0.581810 0.041270 -0.190669 0.278833 -0.126322 -0.140543 -0.316414 -0.083657 0.311657 -0.056250 -0.255734 0.115270 -0.142821 -0.072616 0.078655 -0.097900 0.151262 -0.169755 -0.485559 0.022119 0.275108 0.484317 -0.020782 -0.060303 -0.303162 -0.140220 0.246423 -0.271556 -0.092752 -0.229383 0.100366 -0.022994 -0.037746 -0.098403 -0.240419 -0.361115 0.029083 0.134752 0.244314 -0.100976 -0.210154 0.369638 -0.331828 0.532040 -0.207120 0.125435 -0.173374 0.239239 0.132418 0.205274 0.159315 -0.006384 -0.437316 -0.268001 0.344739 -0.011455 0.297644 0.564579 -0.028912 -0.244993 -0.053665 -0.051020 -0.151175 0.245974 -0.206230 0.030026 0.031586 0.308609 -0.239985 -0.164371 0.576132 0.180979 -0.104763 -0.044933 0.294759 0.292644 0.484163 0.144255 0.183234 -0.202915 -0.034080 0.169184 -0.109766 0.261840 0.131241 -0.120662 0.006437 
74 -1.563060 0.336636 0.734809 0.283127 0.585947 0.526254 0.173889 -0.920230 -0.053598 -0.063487 0.170216 0.144609 -0.537744 -0.627063 0.040753 -0.223167 0.302721 -0.145009 -0.100912 -0.338949 -0.073221 0.268347 -0.057472 -0.265059 0.103140 -0.112640 -0.090487 0.098901 -0.067836 0.105853 -0.155999 -0.387406 0.048314 0.252241 0.431502 -0.027635 -0.083013 -0.286640 -0.203172 0.216098 -0.260995 -0.090921 -0.247239 0.033168 -0.019586 0.018498 0.053727 -0.259205 -0.331735 0.041771 0.183865 0.302979 -0.077660 -0.197765 0.365095 -0.341801 0.432319 -0.228065 0.113644 -0.138813 0.240670 0.176297 0.195323 0.141936 -0.007917 -0.366665 -0.211683 0.304822 0.045806 0.332641 0.553226 -0.002294 -0.313731 0.006977 0.003797 -0.169397 0.219860 -0.227012 0.017063 0.085971 0.242673 -0.204093 -0.168225 0.535671 0.147800 -0.119606 -0.084799 0.275791 0.322590 0.461470 0.219510 0.195069 -0.132510 -0.052355 0.146625 -0.097136 0.258217 0.111614 -0.132220 -0.047618 
75 -1.705304 0.369431 0.759321 0.264351 0.582566 0.551318 0.181784 -0.968509 -0.104917 -0.056952 0.164641 0.129117 -0.484581 -0.597824 0.009831 -0.239590 0.289687 -0.147755 -0.087313 -0.329908 -0.080457 0.224249 -0.072847 -0.273024 0.074557 -0.069981 -0.082254 0.097278 -0.058117 0.078757 -0.144575 -0.315836 0.101073 0.218680 0.345659 -0.031662 -0.070818 -0.259784 -0.253960 0.169219 -0.213473 -0.126993 -0.263075 -0.028733 -0.071897 0.043203 0.138231 -0.251669 -0.314192 0.065163 0.204103 0.330536 -0.042484 -0.208942 0.377935 -0.317516 0.360253 -0.241290 0.100874 -0.091287 0.237563 0.229639 0.198087 0.123773 0.009324 -0.299853 -0.173436 0.269856 0.045843 0.348877 0.519412 -0.002109 -0.304512 0.004463 0.003895 -0.201504 0.230441 -0.239096 0.053461 0.085496 0.219244 -0.220700 -0.173557 0.510017 0.143545 -0.132177 -0.125753 0.220207 0.320322 0.437863 0.224678 0.219166 -0.104830 -0.098406 0.099229 -0.063082 0.243380 0.105725 -0.163896 -0.080866 
76 -1.782699 0.377221 0.815133 0.259176 0.586786 0.578348 0.191495 -0.983845 -0.105915 -0.047014 0.232979 0.118298 -0.502199 -0.704666 -0.001156 -0.287802 0.282052 -0.150515 -0.067704 -0.324592 -0.071298 0.197041 -0.077023 -0.262139 0.058489 -0.064917 -0.055279 0.149453 -0.061994 0.057517 -0.138414 -0.237256 0.133649 0.165821 0.249967 -0.060059 -0.064004 -0.256762 -0.291394 0.097776 -0.186417 -0.144800 -0.260127 -0.106515 -0.092980 0.073454 0.224603 -0.223842 -0.267288 0.078936 0.200161 0.309906 -0.040801 -0.170555 0.362015 -0.296951 0.323776 -0.235977 0.080916 -0.054140 0.220080 0.237538 0.185807 0.106161 0.007862 -0.269359 -0.150648 0.225343 0.075345 0.417017 0.469060 -0.002034 -0.342048 0.036512 0.022171 -0.223841 0.256116 -0.266256 0.083301 0.098509 0.191752 -0.222165 -0.163724 0.497007 0.117551 -0.139055 -0.191175 0.194247 0.301932 0.414636 0.289597 0.204297 -0.066415 -0.149340 0.062751 -0.056021 0.218811 0.101562 -0.150398 -0.108445 
77 -1.739354 0.394572 0.729861 0.214723 0.502631 0.605656 0.175180 -0.939876 -0.105341 -0.055997 0.239366 0.147719 -0.440024 -0.610814 0.009963 -0.267650 0.259447 -0.102111 -0.022617 -0.278386 -0.076668 0.159051 -0.067964 -0.218378 0.088704 -0.067088 -0.028564 0.219267 -0.107439 0.091820 -0.125553 -0.342579 0.143095 0.121959 0.266629 -0.081097 -0.010070 -0.200491 -0.255796 0.088040 -0.175263 -0.149565 -0.175203 -0.022921 -0.132449 0.012323 0.105308 -0.187389 -0.302289 0.094385 0.181571 0.241025 0.000973 -0.232461 0.352086 -0.247917 0.213442 -0.257509 0.062203 -0.011678 0.207800 0.270374 0.216783 0.097513 0.075782 -0.258107 -0.183779 0.301455 0.043019 0.499226 0.481045 -0.014234 -0.276326 0.065963 0.061165 -0.247287 0.225220 -0.257762 0.148977 0.093238 0.162604 -0.258438 -0.166726 0.468658 0.066878 -0.114877 -0.193935 0.180363 0.358203 0.414296 0.284996 0.206193 -0.087106 -0.225921 -0.019435 -0.038338 0.131194 0.146685 -0.201930 -0.083102 
78 -1.720068 0.379981 0.761639 0.201880 0.524875 0.600681 0.197717 -0.948451 -0.128083 -0.035989 0.299829 0.145420 -0.410336 -0.696481 0.005898 -0.278652 0.286443 -0.113504 -0.039303 -0.325653 -0.093234 0.177746 -0.065581 -0.218590 0.118074 -0.079030 -0.011566 0.275103 -0.110455 0.089568 -0.123304 -0.310768 0.180785 0.095528 0.202346 -0.090236 0.004172 -0.200096 -0.296030 0.019580 -0.133606 -0.156968 -0.171776 -0.057468 -0.141551 0.009024 0.093358 -0.150400 -0.245093 0.097029 0.157118 0.180912 0.005476 -0.201717 0.369950 -0.202495 0.196435 -0.258103 0.049288 0.032086 0.183836 0.273590 0.183646 0.087022 0.085398 -0.219760 -0.137898 0.228166 -0.009424 0.518286 0.422182 -0.074725 -0.307817 0.088219 0.066452 -0.300510 0.160075 -0.241343 0.181307 0.094178 0.067317 -0.259915 -0.130416 0.406945 0.092744 -0.127841 -0.242973 0.142799 0.353530 0.409384 0.351991 0.201095 -0.034789 -0.270121 -0.043352 -0.022975 0.122913 0.143014 -0.189534 -0.112149 
79 -1.679065 0.367991 0.775320 0.206013 0.565872 0.607871 0.236717 -0.964370 -0.142817 -0.038024 0.380892 0.154846 -0.400286 -0.743314 -0.007738 -0.315799 0.286611 -0.092740 0.026943 -0.348006 -0.116101 0.115441 -0.102063 -0.206835 0.104232 -0.032182 0.009628 0.367084 -0.133488 0.074469 -0.122170 -0.367748 0.202857 0.047347 0.181745 -0.107570 0.034340 -0.189233 -0.319877 0.009844 -0.098771 -0.166479 -0.169067 -0.017695 -0.172032 0.025383 0.083153 -0.097335 -0.224328 0.090478 0.133768 0.128805 0.018263 -0.184597 0.380072 -0.143821 0.187701 -0.251699 0.052589 0.046140 0.179159 0.284160 0.171091 0.093091 0.089436 -0.185063 -0.133270 0.196819 -0.045591 0.515726 0.387930 -0.097908 -0.276398 0.068938 0.049563 -0.345780 0.149559 -0.227500 0.227054 0.074787 0.044639 -0.300778 -0.131175 0.377683 0.088025 -0.114237 -0.259776 0.108641 0.313891 0.389041 0.392629 0.190033 -0.037011 -0.313177 -0.102878 -0.009675 0.092502 0.162771 -0.188322 -0.113728 
80 -1.647822 0.336384 0.750819 0.177758 0.618341 0.601328 0.273729 -0.967434 -0.137645 -0.004961 0.381032 0.150126 -0.361769 -0.740692 -0.029177 -0.285462 0.261987 -0.084425 0.010610 -0.363218 -0.175264 0.111234 -0.158137 -0.160299 0.144697 -0.020073 -0.000252 0.398099 -0.150078 0.039549 -0.152015 -0.392953 0.256258 -0.026218 0.178368 -0.117821 0.057881 -0.178450 -0.321263 -0.061443 -0.039526 -0.184739 -0.175588 0.059168 -0.194338 0.013064 0.026603 -0.061242 -0.216674 0.109029 0.100597 0.054232 0.010588 -0.172837 0.393534 -0.044655 0.179867 -0.234134 0.050734 0.093232 0.161833 0.271119 0.124704 0.067449 0.122392 -0.159809 -0.133457 0.141780 -0.122737 0.532605 0.362110 -0.116766 -0.215721 0.009990 -0.024966 -0.444694 0.107296 -0.184401 0.312589 0.013906 -0.013938 -0.370126 -0.115758 0.323447 0.049752 -0.103174 -0.317282 0.042389 0.322848 0.366568 0.364655 0.213739 -0.072169 -0.372018 -0.139863 0.001887 0.068402 0.185262 -0.204379 -0.115381 
81 -1.604077 0.325337 0.732819 0.180723 0.666296 0.590311 0.287381 -0.904430 -0.100747 0.034415 0.414787 0.168388 -0.361354 -0.715937 -0.017448 -0.295697 0.245901 -0.045203 0.016934 -0.323315 -0.251765 0.038751 -0.179381 -0.140305 0.153342 0.001376 0.016689 0.512773 -0.229969 0.039963 -0.153739 -0.449753 0.288449 -0.104684 0.210078 -0.184860 0.065716 -0.109033 -0.308982 -0.061663 0.015017 -0.169599 -0.127734 0.168604 -0.203343 0.000781 -0.071479 0.015430 -0.192839 0.142858 0.059252 0.006300 0.020289 -0.207152 0.380118 0.028543 0.129394 -0.227135 0.038622 0.107544 0.155356 0.216300 0.071528 0.096984 0.131647 -0.166295 -0.169361 0.153613 -0.194488 0.478600 0.343470 -0.187681 -0.217210 0.021001 0.002686 -0.514080 0.038892 -0.148072 0.360199 -0.000665 -0.068487 -0.392710 -0.089931 0.328646 -0.018707 -0.089894 -0.373702 0.022385 0.257371 0.350680 0.367923 0.209920 -0.143151 -0.402716 -0.161510 -0.039857 0.008384 0.292209 -0.199415 -0.037138 
82 -1.700540 0.310977 0.818416 0.220412 0.771005 0.602144 0.296670 -0.988095 -0.052574 -0.001565 0.436424 0.178731 -0.426493 -0.804329 -0.031261 -0.316250 0.235994 -0.068942 0.062299 -0.369032 -0.317092 0.063232 -0.218312 -0.128685 0.161509 -0.012232 0.004370 0.541090 -0.206275 -0.002070 -0.171351 -0.467010 0.286352 -0.189202 0.247984 -0.180184 0.079508 -0.097848 -0.351006 -0.090384 0.082859 -0.175111 -0.136859 0.368165 -0.244396 0.049937 -0.092070 0.102953 -0.137049 0.148102 0.056407 -0.057924 0.047878 -0.157906 0.393808 0.136147 0.159498 -0.180707 0.052363 0.102497 0.139199 0.205321 0.012292 0.081770 0.128358 -0.058023 -0.020666 0.035959 -0.243047 0.422600 0.251481 -0.247358 -0.272214 -0.008201 -0.054546 -0.545810 0.031367 -0.141991 0.412206 -0.048523 -0.167530 -0.345465 -0.050137 0.261534 -0.069774 -0.072014 -0.448861 -0.049406 0.186062 0.294277 0.399535 0.201773 -0.105944 -0.394812 -0.176237 -0.032491 -0.058899 0.306187 -0.146761 -0.016408 
83 -1.744389 0.296483 0.822087 0.198190 0.832706 0.644227 0.355772 -1.040655 -0.007883 -0.041068 0.504296 0.176521 -0.488643 -0.863806 -0.044091 -0.330701 0.186200 -0.049043 0.083190 -0.362567 -0.323026 0.078368 -0.249923 -0.072711 0.187043 -0.080062 0.062561 0.634564 -0.279107 -0.019034 -0.168207 -0.595237 0.274695 -0.275542 0.309557 -0.221516 0.102612 0.007260 -0.292851 -0.103234 0.152260 -0.193582 -0.098056 0.499316 -0.309934 0.057657 -0.138021 0.186045 -0.132916 0.181021 0.065065 -0.123194 0.099452 -0.166183 0.387641 0.208152 0.160164 -0.108853 0.046681 0.080121 0.079578 0.163866 -0.048132 0.087434 0.128768 -0.038939 0.011521 0.009956 -0.329228 0.357270 0.187870 -0.348570 -0.312024 -0.004735 -0.050371 -0.537301 0.031232 -0.124663 0.433571 -0.075472 -0.205828 -0.322349 -0.010419 0.229409 -0.120494 -0.056725 -0.525215 -0.072546 0.112671 0.246415 0.383317 0.175081 -0.132275 -0.400418 -0.176248 -0.050645 -0.072554 0.354935 -0.084710 0.009189 
84 -1.817557 0.300577 0.905745 0.266888 0.916756 0.692879 0.384023 -1.105114 0.110537 -0.083392 0.602789 0.184369 -0.551109 -0.946034 -0.040244 -0.364077 0.135021 -0.041895 0.071595 -0.352667 -0.378932 0.105925 -0.268184 -0.041532 0.236099 -0.176933 0.067703 0.730566 -0.308069 -0.066114 -0.202198 -0.690720 0.255752 -0.361435 0.352679 -0.249326 0.132472 0.124292 -0.255376 -0.073885 0.211954 -0.208646 -0.090487 0.679192 -0.365275 0.068094 -0.197979 0.232610 -0.137805 0.221005 0.117619 -0.142698 0.174306 -0.153896 0.367986 0.266627 0.149432 -0.020756 0.016169 0.060841 0.013387 0.097574 -0.096572 0.077313 0.118555 0.015175 0.120056 -0.070024 -0.355197 0.277411 0.050774 -0.406171 -0.382589 -0.013388 -0.069667 -0.506923 0.019403 -0.123683 0.440732 -0.083424 -0.259330 -0.244169 0.065842 0.228911 -0.208923 -0.038767 -0.609510 -0.070191 -0.021290 0.171832 0.360483 0.168135 -0.171851 -0.344929 -0.122168 -0.072918 -0.112928 0.392941 -0.006141 0.057761 
85 -1.626477 0.332541 0.747941 0.259632 0.855713 0.792456 0.449757 -1.071208 0.199025 -0.103933 0.648362 0.182794 -0.534332 -0.930230 0.020041 -0.368382 0.137507 0.021864 0.065406 -0.377193 -0.436461 0.194488 -0.319025 -0.029126 0.322523 -0.322651 0.126964 0.917374 -0.405874 -0.015605 -0.241879 -0.978271 0.188548 -0.354465 0.457651 -0.305323 0.270297 0.239732 -0.076176 -0.008699 0.241481 -0.195143 0.005425 0.811790 -0.465441 -0.081704 -0.509087 0.280050 -0.244442 0.299076 0.119749 -0.249051 0.225807 -0.270294 0.331686 0.314486 0.107733 0.036393 -0.035901 0.080833 -0.045719 -0.022291 0.016725 0.205227 0.163251 -0.102686 0.032882 0.125339 -0.567529 0.283220 0.048764 -0.538404 -0.237487 -0.042761 -0.078747 -0.527753 -0.063245 -0.029616 0.494913 -0.067874 -0.270815 -0.271077 0.185838 0.207802 -0.326760 -0.042836 -0.591215 0.080027 -0.089098 0.138250 0.232483 0.107494 -0.310666 -0.402001 -0.182561 -0.185288 -0.064067 0.531729 0.140659 0.187239 
86 -1.592014 0.267104 0.799147 0.289031 0.958335 0.769229 0.521546 -1.141062 0.161073 -0.154793 0.632716 0.195002 -0.670747 -0.897578 0.059277 -0.355359 0.096303 0.058437 0.037519 -0.366041 -0.434328 0.249925 -0.379824 0.007233 0.393342 -0.388565 0.085271 0.888175 -0.387178 -0.049172 -0.209301 -1.032187 0.124291 -0.385288 0.510573 -0.279164 0.257041 0.226824 -0.064697 0.071865 0.287396 -0.192334 -0.001732 0.951771 -0.429608 -0.076853 -0.549101 0.313951 -0.214280 0.272069 0.139557 -0.283812 0.257291 -0.230227 0.304323 0.317986 0.209227 0.085295 -0.041083 -0.007131 -0.028677 -0.047307 -0.019497 0.229130 0.140822 -0.105590 0.108509 0.091687 -0.610630 0.175256 -0.018618 -0.624025 -0.255734 -0.060335 -0.088878 -0.489369 -0.054082 -0.050461 0.489707 -0.077759 -0.319618 -0.218500 0.225321 0.181302 -0.363269 -0.019177 -0.683721 0.063105 -0.148918 0.095525 0.227978 0.129891 -0.322463 -0.372579 -0.153389 -0.209893 -0.077939 0.549491 0.209446 0.218113 
87 -1.517123 0.223622 0.758468 0.290191 1.070854 0.799236 0.616487 -1.169062 0.165516 -0.156866 0.606311 0.211278 -0.741509 -0.852508 0.128611 -0.302076 0.092652 0.086332 -0.017299 -0.434949 -0.468667 0.233476 -0.410361 0.025369 0.473411 -0.384647 0.044926 0.875624 -0.371316 -0.092458 -0.180015 -1.105393 0.128453 -0.439545 0.564336 -0.261175 0.261306 0.218031 -0.102324 0.148659 0.298718 -0.139838 -0.018319 1.098759 -0.386933 -0.078763 -0.631747 0.304591 -0.136077 0.251204 0.116843 -0.285322 0.234437 -0.150123 0.323575 0.300507 0.321855 0.108843 -0.048089 -0.057002 -0.033676 -0.066887 -0.046165 0.227725 0.127373 -0.132247 0.150795 0.059892 -0.628931 0.047415 0.004965 -0.642717 -0.313418 -0.081546 -0.131276 -0.489995 -0.064805 -0.069592 0.423893 -0.043340 -0.352951 -0.169186 0.242182 0.148276 -0.337407 -0.028922 -0.690340 0.063297 -0.212212 0.095064 0.223888 0.160639 -0.354852 -0.298562 -0.143947 -0.228002 -0.086952 0.547073 0.243094 0.233619 
88 -1.300068 0.187518 0.692919 0.343794 1.130811 0.737393 0.588163 -1.157546 0.263751 -0.166556 0.532026 0.240183 -0.744343 -0.825702 0.191896 -0.308793 0.099635 0.121621 -0.046753 -0.441272 -0.691987 0.232043 -0.439139 -0.017493 0.405731 -0.360078 -0.020919 0.885472 -0.400978 -0.078854 -0.189720 -1.192161 0.028035 -0.333127 0.553068 -0.247656 0.370502 0.095203 -0.031020 0.251320 0.289150 -0.068473 0.077921 1.090241 -0.368030 -0.105088 -0.718869 0.386802 -0.167032 0.268552 0.058473 -0.386401 0.252318 -0.209992 0.225656 0.413792 0.285941 0.144004 -0.033938 -0.004506 -0.087933 -0.191341 -0.029138 0.279179 0.126428 -0.183736 0.058760 0.055724 -0.663596 0.048960 0.056255 -0.640786 -0.136837 -0.174798 -0.180655 -0.422706 -0.237663 0.090474 0.497245 -0.115495 -0.359735 -0.139497 0.274877 0.125257 -0.414332 -0.006946 -0.585020 0.065927 -0.236486 0.060985 0.042056 0.117944 -0.356304 -0.308371 -0.131387 -0.261524 -0.025852 0.542354 0.252184 0.361816 
89 -1.370288 0.152950 0.688063 0.269684 1.137439 0.812687 0.721418 -1.188753 0.108465 -0.151876 0.476287 0.287941 -0.906735 -0.813286 0.221433 -0.282914 0.031556 0.176768 -0.072261 -0.419938 -0.504195 0.220877 -0.438114 0.084682 0.583690 -0.408050 -0.062255 0.783621 -0.322586 -0.105943 -0.089624 -1.147149 0.059771 -0.452972 0.577959 -0.190105 0.240755 0.212113 -0.169878 0.195258 0.344143 -0.111931 -0.017663 1.292623 -0.389069 -0.099922 -0.704232 0.289391 -0.036644 0.184116 0.106334 -0.382381 0.231261 -0.060407 0.391566 0.305862 0.586457 0.117829 0.029607 -0.238520 0.010981 -0.095064 -0.092242 0.277102 0.080136 -0.185093 0.205898 0.029073 -0.709336 -0.155663 0.011366 -0.732535 -0.359389 -0.147175 -0.182062 -0.456986 -0.100746 -0.123282 0.351979 -0.028719 -0.386108 -0.047771 0.294618 0.153513 -0.326117 -0.034178 -0.733162 0.085418 -0.293758 0.072754 0.212238 0.208438 -0.337963 -0.174521 -0.065792 -0.244631 -0.078454 0.521813 0.310846 0.266517 
90 -1.311956 0.148095 0.657765 0.241829 1.093729 0.730971 0.743906 -1.205825 0.036711 -0.217899 0.413864 0.306838 -0.986971 -0.783968 0.222259 -0.270662 0.050670 0.176299 -0.064521 -0.465654 -0.544518 0.245864 -0.420714 0.128510 0.627355 -0.377152 -0.104617 0.832646 -0.335085 -0.072211 -0.029867 -1.243465 0.032426 -0.459060 0.615561 -0.151681 0.231262 0.115934 -0.206253 0.245690 0.315344 -0.105707 0.009599 1.292460 -0.317059 -0.089375 -0.732960 0.356938 0.006560 0.143185 0.042065 -0.352591 0.185847 -0.115879 0.367758 0.336984 0.615418 0.073508 0.080423 -0.244391 0.091829 -0.096214 -0.103113 0.356161 0.100985 -0.249974 0.098441 0.098018 -0.701700 -0.095801 0.073624 -0.761143 -0.232646 -0.189660 -0.183453 -0.374555 -0.166117 -0.043826 0.378449 -0.104943 -0.413297 -0.089689 0.256358 0.212280 -0.356598 -0.023665 -0.663654 0.054769 -0.264638 0.103374 0.093975 0.201984 -0.349576 -0.177281 -0.043995 -0.257936 -0.019745 0.617343 0.321236 0.336029 
91 -1.168133 0.138784 0.606834 0.256068 0.969895 0.722809 0.648121 -1.103042 -0.023864 -0.194847 0.486016 0.297075 -0.957940 -0.838812 0.199165 -0.286484 0.061138 0.146267 0.017113 -0.460717 -0.447251 0.167069 -0.315614 0.097378 0.598364 -0.321403 -0.067082 0.888198 -0.334769 -0.081918 -0.053510 -1.119562 0.102931 -0.450399 0.589275 -0.182856 0.198867 0.069411 -0.249946 0.284152 0.196266 -0.044095 0.012524 1.368690 -0.327762 -0.101039 -0.867008 0.387599 -0.040020 0.155817 -0.014045 -0.318441 0.152573 -0.143046 0.373969 0.299882 0.600393 0.033980 0.099754 -0.247173 0.063641 -0.125053 -0.141590 0.355492 0.069376 -0.322230 -0.030234 0.118742 -0.741033 -0.137831 0.174988 -0.705130 -0.134666 -0.203090 -0.161879 -0.508318 -0.165977 0.043027 0.371922 -0.126955 -0.370674 -0.135018 0.188954 0.177067 -0.411754 0.058265 -0.614475 0.083577 -0.186340 0.067985 0.046158 0.273949 -0.428712 -0.211064 -0.013611 -0.273750 0.048072 0.647231 0.276695 0.302556 
92 -1.269796 0.127194 0.591703 0.186101 0.992128 0.721648 0.696153 -1.170087 -0.030805 -0.238339 0.425914 0.327837 -0.965809 -0.793756 0.228059 -0.239606 0.028801 0.164449 -0.049834 -0.460699 -0.475660 0.230328 -0.303667 0.160763 0.648547 -0.362077 -0.158915 0.747105 -0.273512 -0.039495 -0.019273 -1.190632 0.081967 -0.514276 0.600647 -0.091106 0.243553 0.082212 -0.202529 0.289162 0.293801 -0.039998 0.041349 1.292744 -0.324796 -0.094400 -0.772692 0.346341 0.044713 0.156330 0.047793 -0.384469 0.146648 -0.087946 0.419414 0.321373 0.726598 0.075932 0.099471 -0.324832 0.129789 -0.096115 -0.135487 0.327045 0.055547 -0.292696 0.117342 0.058327 -0.709163 -0.197975 0.073431 -0.755376 -0.186789 -0.209055 -0.207565 -0.378840 -0.154280 -0.017250 0.310908 -0.130230 -0.412095 -0.020582 0.251218 0.165328 -0.371794 0.045762 -0.655524 0.087795 -0.227849 0.057931 0.022486 0.294001 -0.346611 -0.120659 -0.011421 -0.256003 0.050349 0.594398 0.385855 0.327719 
93 -1.100063 0.189538 0.635755 0.286294 0.792565 0.709157 0.556509 -1.027624 -0.217369 -0.140624 0.501437 0.302198 -0.869833 -0.981077 0.177054 -0.377836 0.200785 0.076571 0.268572 -0.354049 -0.336878 0.067568 -0.180346 0.031216 0.505460 -0.086865 0.003636 1.087011 -0.333296 -0.025458 0.040538 -0.975663 0.145656 -0.543846 0.624330 -0.272949 0.284039 -0.176466 -0.353447 0.318696 -0.010327 0.072253 0.054444 1.273906 -0.200655 -0.046787 -0.864061 0.482019 -0.024046 0.152630 -0.140197 -0.118563 0.009256 -0.045672 0.304083 0.287818 0.625275 -0.049653 0.104697 -0.218950 0.230880 -0.137356 -0.232999 0.496116 0.051071 -0.478486 -0.412963 0.101061 -0.662829 -0.073978 0.231364 -0.506255 0.160882 -0.331129 -0.260902 -0.670662 -0.262101 0.205719 0.473677 -0.216806 -0.383298 -0.388290 0.108009 0.143192 -0.468238 -0.053632 -0.650731 -0.073951 -0.081202 0.042347 -0.109751 0.398423 -0.550173 -0.327193 0.146957 -0.288351 0.258017 0.736904 0.181208 0.208601 
94 -1.199056 0.156927 0.570768 0.175611 0.742907 0.735979 0.637225 -1.095283 -0.169006 -0.214012 0.438667 0.288780 -0.972991 -0.909954 0.185667 -0.282629 0.131044 0.122850 0.079085 -0.419057 -0.298905 0.173978 -0.216442 0.100757 0.650278 -0.258112 -0.032090 0.966931 -0.303212 0.035581 0.049553 -1.080580 0.146314 -0.504846 0.658173 -0.208414 0.258432 -0.056783 -0.348845 0.324777 0.136674 0.010354 0.080975 1.354406 -0.308819 -0.062718 -0.847371 0.430338 0.100019 0.104525 -0.104826 -0.215091 0.034172 -0.032891 0.362627 0.309591 0.622557 -0.015461 0.091980 -0.269723 0.215912 -0.103693 -0.157363 0.490538 0.017215 -0.443802 -0.288318 0.171947 -0.743694 -0.197449 0.209244 -0.599752 0.119000 -0.247231 -0.158686 -0.619040 -0.268693 0.116296 0.335772 -0.096797 -0.390540 -0.285581 0.141328 0.137193 -0.401607 -0.015150 -0.534092 0.099642 -0.109781 0.001454 -0.010355 0.336127 -0.499545 -0.196315 0.105171 -0.355520 0.134033 0.749080 0.283241 0.235147 
95 -1.128260 0.120507 0.600317 0.299390 1.018850 0.513244 0.443497 -1.067438 0.068850 -0.297167 0.431041 0.336417 -0.968533 -0.824867 0.266417 -0.384697 0.144383 0.085810 0.041284 -0.504356 -0.803185 0.100627 -0.324285 -0.028746 0.402975 -0.087290 -0.120257 0.795051 -0.210028 -0.004632 0.076700 -1.032687 -0.042118 -0.321809 0.438435 -0.037949 0.387825 -0.237211 -0.164360 0.502222 0.153312 0.092460 0.039966 1.201400 -0.119288 -0.105045 -0.851539 0.398961 0.019917 0.137378 -0.090801 -0.362657 0.146206 -0.107046 0.127806 0.424770 0.511833 0.064616 0.053335 -0.130458 0.050095 -0.292240 -0.157790 0.351655 0.076607 -0.192755 0.045600 -0.012761 -0.561254 -0.191240 0.103254 -0.536972 0.133091 -0.320037 -0.291532 -0.227184 -0.465880 0.316667 0.332172 -0.192094 -0.468907 0.018028 0.240272 -0.031234 -0.457419 0.001213 -0.498635 -0.076474 -0.155407 0.009210 -0.208883 0.229128 -0.261564 -0.198405 -0.082977 -0.172832 0.158186 0.490275 0.246460 0.396975 
96 -1.232170 0.187421 0.547790 0.186462 0.730711 0.713225 0.625811 -1.093830 -0.214150 -0.194182 0.446849 0.336674 -0.985901 -0.883567 0.183807 -0.328791 0.112937 0.136911 0.085809 -0.347597 -0.285022 0.156650 -0.173486 0.180109 0.698056 -0.204981 -0.041970 0.868733 -0.248188 0.057184 0.106242 -1.004300 0.193964 -0.510242 0.707062 -0.191131 0.194529 -0.037658 -0.380133 0.323012 0.118905 -0.001534 0.043990 1.336719 -0.286746 -0.137438 -0.914570 0.356172 0.090822 0.053005 -0.110743 -0.257141 0.024355 -0.080806 0.399764 0.317940 0.681250 -0.073487 0.151355 -0.290551 0.280580 -0.072414 -0.125794 0.495209 -0.003316 -0.438285 -0.313129 0.180533 -0.776262 -0.295981 0.190967 -0.610990 0.190880 -0.280973 -0.159506 -0.560826 -0.286610 0.060268 0.309350 -0.105565 -0.424272 -0.237455 0.185825 0.101341 -0.362430 -0.056143 -0.501580 0.059155 -0.096323 -0.020699 -0.104977 0.371705 -0.508574 -0.147963 0.139346 -0.379307 0.212723 0.700143 0.296869 0.251252 
97 -1.177402 0.218943 0.591776 0.209448 0.579354 0.752844 0.464760 -1.013985 -0.318517 -0.124957 0.445503 0.251415 -0.859345 -1.004383 0.126361 -0.401225 0.204727 0.061536 0.244637 -0.260127 -0.127557 0.062412 -0.002319 0.060521 0.606909 -0.058331 0.038182 1.053630 -0.324613 0.077154 0.161213 -0.915638 0.215011 -0.606629 0.690763 -0.245169 0.231703 -0.215857 -0.465427 0.351732 -0.061880 0.179155 0.135715 1.336846 -0.138836 -0.059848 -0.904534 0.434791 0.088673 0.052508 -0.246742 -0.104741 -0.103984 -0.015611 0.318790 0.226174 0.593845 -0.167419 0.124263 -0.245835 0.330986 -0.103467 -0.183450 0.530795 -0.026274 -0.512176 -0.516675 0.191248 -0.704711 -0.287687 0.270614 -0.442656 0.313305 -0.292990 -0.167100 -0.751933 -0.348905 0.208705 0.363047 -0.134180 -0.437067 -0.393155 0.004176 0.089106 -0.479705 -0.086423 -0.585748 -0.041475 0.010232 -0.079634 -0.214032 0.510377 -0.658803 -0.264202 0.199416 -0.363795 0.300829 0.835761 0.211716 0.148199 
98 -1.226374 0.229959 0.567190 0.167467 0.638313 0.705661 0.531995 -1.062350 -0.341150 -0.107380 0.440272 0.314454 -0.937572 -1.011516 0.119040 -0.389366 0.186773 0.082888 0.211044 -0.327734 -0.207943 0.048710 -0.055728 0.056776 0.655249 -0.059622 -0.005582 0.992139 -0.301001 0.106789 0.163460 -0.962074 0.257888 -0.566050 0.722596 -0.224385 0.092222 -0.183658 -0.549010 0.328715 0.018844 0.130169 0.067004 1.274311 -0.114549 -0.070896 -0.918262 0.401970 0.229487 0.016767 -0.263229 -0.048782 -0.114902 -0.019829 0.357325 0.247247 0.638183 -0.151813 0.191931 -0.304883 0.361457 -0.092270 -0.230807 0.536831 -0.056822 -0.541756 -0.523284 0.197227 -0.734738 -0.374554 0.302371 -0.480958 0.338657 -0.332045 -0.164388 -0.742806 -0.379496 0.184748 0.325659 -0.126533 -0.495979 -0.343287 -0.008363 0.054488 -0.488759 -0.033502 -0.508140 -0.008760 0.008946 -0.075839 -0.185696 0.464109 -0.580444 -0.176795 0.185534 -0.370766 0.274714 0.796147 0.229016 0.204645 
99 -1.170251 0.285657 0.686697 0.241314 0.368248 0.561461 0.337181 -0.991443 -0.657024 -0.051942 0.585256 0.335379 -0.811513 -1.298431 0.033838 -0.526521 0.335398 -0.073372 0.598826 -0.209923 -0.070763 -0.184543 0.161691 -0.067732 0.422174 0.376022 0.125357 1.315410 -0.295027 0.194244 0.240589 -0.623328 0.360699 -0.587248 0.708322 -0.355325 0.195308 -0.724259 -0.808005 0.362999 -0.394060 0.271090 0.115945 1.144988 0.011014 0.099237 -0.834912 0.624855 0.182041 0.018919 -0.478694 0.274926 -0.333227 0.066292 0.187018 0.267669 0.499629 -0.315632 0.305016 -0.209800 0.487913 -0.080381 -0.510035 0.607380 -0.054144 -0.699566 -1.185422 0.041284 -0.593810 -0.209626 0.504175 -0.108888 0.805659 -0.542198 -0.309399 -1.080236 -0.500804 0.535909 0.534605 -0.390443 -0.488259 -0.775465 -0.308876 0.000751 -0.630323 -0.017405 -0.466346 -0.331630 0.260788 -0.182704 -0.363057 0.638405 -0.649782 -0.328688 0.378068 -0.164249 0.500757 0.914904 -0.038506 -0.021206 
100 -1.316854 0.163662 0.543291 0.088724 0.767065 0.649047 0.578806 -1.077823 -0.092998 -0.143651 0.333484 0.341606 -1.116311 -0.814303 0.186181 -0.297177 0.080885 0.187448 0.046894 -0.308425 -0.213492 0.128440 -0.211759 0.209094 0.768221 -0.203724 -0.094845 0.751382 -0.232342 0.082834 0.206380 -1.010508 0.113620 -0.498142 0.624491 -0.118572 0.032113 0.045391 -0.364245 0.254810 0.264093 0.038672 0.038881 1.510106 -0.101092 -0.178541 -0.968287 0.274288 0.204345 0.007025 -0.107321 -0.238941 0.049326 -0.086484 0.352650 0.238550 0.745096 -0.087893 0.190157 -0.371355 0.353820 -0.091020 -0.071027 0.521446 -0.072500 -0.543250 -0.230798 0.258564 -0.748832 -0.426431 0.177049 -0.645551 0.231789 -0.253700 -0.075146 -0.469738 -0.396614 0.043890 0.196728 -0.033179 -0.522591 -0.187560 0.126974 0.056752 -0.319908 -0.009635 -0.451532 0.087022 -0.073918 0.008433 -0.054343 0.261916 -0.347246 -0.087198 0.094812 -0.437033 0.202574 0.577217 0.376764 0.285518 
101 -1.243698 0.295281 0.691445 0.268978 0.512041 0.617087 0.459178 -0.952960 -0.563335 -0.091673 0.433362 0.282688 -0.928845 -1.199817 0.091837 -0.461198 0.235795 0.061931 0.405180 -0.279538 -0.045861 -0.046540 0.040043 0.053450 0.615306 0.158290 0.084237 1.127939 -0.260441 0.139475 0.295018 -0.718371 0.258239 -0.543327 0.678118 -0.264260 0.127237 -0.440327 -0.697904 0.341745 -0.212518 0.206139 0.038824 1.256316 -0.034490 -0.040946 -0.980036 0.453532 0.245561 -0.030396 -0.423315 0.117121 -0.222501 -0.002336 0.271806 0.199085 0.617473 -0.278383 0.273469 -0.266609 0.454584 -0.014007 -0.372168 0.579267 -0.090327 -0.561529 -0.834880 0.080779 -0.682947 -0.397636 0.460135 -0.305499 0.627356 -0.465771 -0.224570 -0.950838 -0.435361 0.340277 0.380691 -0.235673 -0.526182 -0.539766 -0.193293 -0.008998 -0.490129 -0.073611 -0.427364 -0.227032 0.131149 -0.093694 -0.306293 0.549194 -0.646403 -0.219080 0.300813 -0.258971 0.390730 0.820161 0.037531 0.040978 
102 -1.367956 0.274888 0.489635 0.029218 0.531075 0.702033 0.691267 -1.002897 -0.326041 -0.191901 0.417696 0.323434 -1.089668 -0.883720 0.185796 -0.351195 0.051134 0.198446 0.064702 -0.236053 -0.102056 0.248052 -0.165537 0.208765 0.849827 -0.230046 0.000107 0.817693 -0.286043 0.109375 0.268117 -1.089770 0.174884 -0.544508 0.720605 -0.181617 0.070063 -0.002353 -0.440711 0.243820 0.171257 -0.013462 -0.003201 1.336382 -0.167412 -0.186219 -0.945915 0.271861 0.294503 -0.065019 -0.189559 -0.182912 0.013025 -0.028138 0.409134 0.162290 0.826444 -0.123881 0.217759 -0.407822 0.408690 -0.026577 -0.184917 0.569556 -0.086213 -0.548989 -0.386426 0.216226 -0.840964 -0.463531 0.273482 -0.632296 0.255178 -0.296290 -0.110963 -0.590762 -0.324918 0.024524 0.125536 -0.016625 -0.523206 -0.256202 0.168590 -0.010789 -0.276410 -0.095588 -0.443298 0.050038 -0.063938 -0.035284 -0.119528 0.342257 -0.465316 -0.079807 0.148836 -0.421555 0.214584 0.708601 0.318167 0.190854 
103 -1.197804 0.233509 0.535653 0.153752 0.627415 0.554415 0.419467 -1.015876 -0.143277 -0.201101 0.415190 0.359131 -1.084602 -0.963463 0.228716 -0.517478 0.266477 0.128343 0.215277 -0.281435 -0.461262 0.063776 -0.187375 0.015517 0.520290 -0.002128 -0.011732 0.858171 -0.213765 0.188184 0.179588 -0.981830 0.137058 -0.333137 0.532946 -0.111444 0.267210 -0.327466 -0.377611 0.456556 -0.017350 0.138944 0.091865 1.272116 0.030757 -0.153169 -0.897405 0.297602 0.149285 -0.070745 -0.306999 -0.255714 -0.036542 -0.020606 0.192748 0.269331 0.616498 -0.144742 0.170175 -0.187980 0.261970 -0.242462 -0.114076 0.480329 -0.106253 -0.409925 -0.408759 0.074628 -0.563488 -0.452607 0.172332 -0.386340 0.504740 -0.357178 -0.211631 -0.326498 -0.574205 0.302508 0.222984 -0.125766 -0.526988 -0.186850 0.111509 -0.089943 -0.328293 -0.155048 -0.405902 -0.250551 -0.058438 -0.049556 -0.224656 0.254223 -0.323463 -0.158721 0.089788 -0.271448 0.201259 0.574419 0.192299 0.304591 
